{"learner":{"attributes":{"scikit_learn":"{\"_estimator_type\": \"regressor\"}"},"feature_names":["dayofyear","hour","dayofweek","quarter","month","year"],"feature_types":["int","int","int","int","int","int"],"gradient_booster":{"model":{"gbtree_model_param":{"num_parallel_tree":"1","num_trees":"1000"},"iteration_indptr":[0,1,2,3,4,5,6,7,8,9,10,11,12,13,14,15,16,17,18,19,20,21,22,23,24,25,26,27,28,29,30,31,32,33,34,35,36,37,38,39,40,41,42,43,44,45,46,47,48,49,50,51,52,53,54,55,56,57,58,59,60,61,62,63,64,65,66,67,68,69,70,71,72,73,74,75,76,77,78,79,80,81,82,83,84,85,86,87,88,89,90,91,92,93,94,95,96,97,98,99,100,101,102,103,104,105,106,107,108,109,110,111,112,113,114,115,116,117,118,119,120,121,122,123,124,125,126,127,128,129,130,131,132,133,134,135,136,137,138,139,140,141,142,143,144,145,146,147,148,149,150,151,152,153,154,155,156,157,158,159,160,161,162,163,164,165,166,167,168,169,170,171,172,173,174,175,176,177,178,179,180,181,182,183,184,185,186,187,188,189,190,191,192,193,194,195,196,197,198,199,200,201,202,203,204,205,206,207,208,209,210,211,212,213,214,215,216,217,218,219,220,221,222,223,224,225,226,227,228,229,230,231,232,233,234,235,236,237,238,239,240,241,242,243,244,245,246,247,248,249,250,251,252,253,254,255,256,257,258,259,260,261,262,263,264,265,266,267,268,269,270,271,272,273,274,275,276,277,278,279,280,281,282,283,284,285,286,287,288,289,290,291,292,293,294,295,296,297,298,299,300,301,302,303,304,305,306,307,308,309,310,311,312,313,314,315,316,317,318,319,320,321,322,323,324,325,326,327,328,329,330,331,332,333,334,335,336,337,338,339,340,341,342,343,344,345,346,347,348,349,350,351,352,353,354,355,356,357,358,359,360,361,362,363,364,365,366,367,368,369,370,371,372,373,374,375,376,377,378,379,380,381,382,383,384,385,386,387,388,389,390,391,392,393,394,395,396,397,398,399,400,401,402,403,404,405,406,407,408,409,410,411,412,413,414,415,416,417,418,419,420,421,422,423,424,425,426,427,428,429,430,431,432,433,434,435,436,437,438,439,440,441,442,443,444,445,446,447,448,449,450,451,452,453,454,455,456,457,458,459,460,461,462,463,464,465,466,467,468,469,470,471,472,473,474,475,476,477,478,479,480,481,482,483,484,485,486,487,488,489,490,491,492,493,494,495,496,497,498,499,500,501,502,503,504,505,506,507,508,509,510,511,512,513,514,515,516,517,518,519,520,521,522,523,524,525,526,527,528,529,530,531,532,533,534,535,536,537,538,539,540,541,542,543,544,545,546,547,548,549,550,551,552,553,554,555,556,557,558,559,560,561,562,563,564,565,566,567,568,569,570,571,572,573,574,575,576,577,578,579,580,581,582,583,584,585,586,587,588,589,590,591,592,593,594,595,596,597,598,599,600,601,602,603,604,605,606,607,608,609,610,611,612,613,614,615,616,617,618,619,620,621,622,623,624,625,626,627,628,629,630,631,632,633,634,635,636,637,638,639,640,641,642,643,644,645,646,647,648,649,650,651,652,653,654,655,656,657,658,659,660,661,662,663,664,665,666,667,668,669,670,671,672,673,674,675,676,677,678,679,680,681,682,683,684,685,686,687,688,689,690,691,692,693,694,695,696,697,698,699,700,701,702,703,704,705,706,707,708,709,710,711,712,713,714,715,716,717,718,719,720,721,722,723,724,725,726,727,728,729,730,731,732,733,734,735,736,737,738,739,740,741,742,743,744,745,746,747,748,749,750,751,752,753,754,755,756,757,758,759,760,761,762,763,764,765,766,767,768,769,770,771,772,773,774,775,776,777,778,779,780,781,782,783,784,785,786,787,788,789,790,791,792,793,794,795,796,797,798,799,800,801,802,803,804,805,806,807,808,809,810,811,812,813,814,815,816,817,818,819,820,821,822,823,824,825,826,827,828,829,830,831,832,833,834,835,836,837,838,839,840,841,842,843,844,845,846,847,848,849,850,851,852,853,854,855,856,857,858,859,860,861,862,863,864,865,866,867,868,869,870,871,872,873,874,875,876,877,878,879,880,881,882,883,884,885,886,887,888,889,890,891,892,893,894,895,896,897,898,899,900,901,902,903,904,905,906,907,908,909,910,911,912,913,914,915,916,917,918,919,920,921,922,923,924,925,926,927,928,929,930,931,932,933,934,935,936,937,938,939,940,941,942,943,944,945,946,947,948,949,950,951,952,953,954,955,956,957,958,959,960,961,962,963,964,965,966,967,968,969,970,971,972,973,974,975,976,977,978,979,980,981,982,983,984,985,986,987,988,989,990,991,992,993,994,995,996,997,998,999,1000],"tree_info":[0,0,0,0,0,0,0,0,0,0,0,0,0,0,0,0,0,0,0,0,0,0,0,0,0,0,0,0,0,0,0,0,0,0,0,0,0,0,0,0,0,0,0,0,0,0,0,0,0,0,0,0,0,0,0,0,0,0,0,0,0,0,0,0,0,0,0,0,0,0,0,0,0,0,0,0,0,0,0,0,0,0,0,0,0,0,0,0,0,0,0,0,0,0,0,0,0,0,0,0,0,0,0,0,0,0,0,0,0,0,0,0,0,0,0,0,0,0,0,0,0,0,0,0,0,0,0,0,0,0,0,0,0,0,0,0,0,0,0,0,0,0,0,0,0,0,0,0,0,0,0,0,0,0,0,0,0,0,0,0,0,0,0,0,0,0,0,0,0,0,0,0,0,0,0,0,0,0,0,0,0,0,0,0,0,0,0,0,0,0,0,0,0,0,0,0,0,0,0,0,0,0,0,0,0,0,0,0,0,0,0,0,0,0,0,0,0,0,0,0,0,0,0,0,0,0,0,0,0,0,0,0,0,0,0,0,0,0,0,0,0,0,0,0,0,0,0,0,0,0,0,0,0,0,0,0,0,0,0,0,0,0,0,0,0,0,0,0,0,0,0,0,0,0,0,0,0,0,0,0,0,0,0,0,0,0,0,0,0,0,0,0,0,0,0,0,0,0,0,0,0,0,0,0,0,0,0,0,0,0,0,0,0,0,0,0,0,0,0,0,0,0,0,0,0,0,0,0,0,0,0,0,0,0,0,0,0,0,0,0,0,0,0,0,0,0,0,0,0,0,0,0,0,0,0,0,0,0,0,0,0,0,0,0,0,0,0,0,0,0,0,0,0,0,0,0,0,0,0,0,0,0,0,0,0,0,0,0,0,0,0,0,0,0,0,0,0,0,0,0,0,0,0,0,0,0,0,0,0,0,0,0,0,0,0,0,0,0,0,0,0,0,0,0,0,0,0,0,0,0,0,0,0,0,0,0,0,0,0,0,0,0,0,0,0,0,0,0,0,0,0,0,0,0,0,0,0,0,0,0,0,0,0,0,0,0,0,0,0,0,0,0,0,0,0,0,0,0,0,0,0,0,0,0,0,0,0,0,0,0,0,0,0,0,0,0,0,0,0,0,0,0,0,0,0,0,0,0,0,0,0,0,0,0,0,0,0,0,0,0,0,0,0,0,0,0,0,0,0,0,0,0,0,0,0,0,0,0,0,0,0,0,0,0,0,0,0,0,0,0,0,0,0,0,0,0,0,0,0,0,0,0,0,0,0,0,0,0,0,0,0,0,0,0,0,0,0,0,0,0,0,0,0,0,0,0,0,0,0,0,0,0,0,0,0,0,0,0,0,0,0,0,0,0,0,0,0,0,0,0,0,0,0,0,0,0,0,0,0,0,0,0,0,0,0,0,0,0,0,0,0,0,0,0,0,0,0,0,0,0,0,0,0,0,0,0,0,0,0,0,0,0,0,0,0,0,0,0,0,0,0,0,0,0,0,0,0,0,0,0,0,0,0,0,0,0,0,0,0,0,0,0,0,0,0,0,0,0,0,0,0,0,0,0,0,0,0,0,0,0,0,0,0,0,0,0,0,0,0,0,0,0,0,0,0,0,0,0,0,0,0,0,0,0,0,0,0,0,0,0,0,0,0,0,0,0,0,0,0,0,0,0,0,0,0,0,0,0,0,0,0,0,0,0,0,0,0,0,0,0,0,0,0,0,0,0,0,0,0,0,0,0,0,0,0,0,0,0,0,0,0,0,0,0,0,0,0,0,0,0,0,0,0,0,0,0,0,0,0,0,0,0,0,0,0,0,0,0,0,0,0,0,0,0,0,0,0,0,0,0,0,0,0,0,0,0,0,0,0,0,0,0,0,0,0,0,0,0,0,0,0,0,0,0,0,0,0,0,0,0,0,0,0,0,0,0,0,0,0,0,0,0,0,0,0,0,0,0,0,0,0,0,0,0,0,0,0,0,0,0,0,0,0,0,0,0,0,0,0,0,0,0,0,0,0,0,0,0,0,0,0,0,0,0,0,0,0,0,0,0,0,0,0,0,0,0,0,0,0,0,0,0,0,0,0,0,0,0,0,0,0,0,0,0,0,0,0,0,0,0,0,0,0,0,0,0,0,0,0,0,0,0,0,0,0,0,0,0,0,0,0,0,0,0,0,0,0,0,0,0,0,0,0,0,0,0,0,0,0,0,0,0,0,0,0,0,0,0,0,0,0,0,0,0,0,0,0,0,0,0],"trees":[{"base_weights":[5.246753E0,8.315789E0,4.1694913E0,2.4625E0,4.9583335E0,2.9642856E0,6.75E0,2.2500001E-1,6.111111E0,3.5925925E0,1.71875E0,7.9333334E0,1.25E-1,4E-1,1.4E0,3.0208333E0,6.125E0,3.5999998E-1,5E-2,1.1083333E1,5.25E0,2E-1,6.3181823E-1,1.65E0,5.3333336E-1,2.44E0,5.5E-1,2.8E0,6.4166665E0,7.3333335E-1,2E-1,3.5E-1,1.4E0],"categories":[],"categories_nodes":[],"categories_segments":[],"categories_sizes":[],"default_left":[0,0,0,0,0,0,0,0,0,0,0,0,0,0,0,0,0,0,0,0,0,0,0,0,0,0,0,0,0,0,0,0,0],"id":0,"left_children":[1,3,5,-1,7,9,11,-1,13,15,17,19,-1,-1,-1,21,23,-1,-1,25,27,-1,-1,-1,-1,-1,-1,29,31,-1,-1,-1,-1],"loss_changes":[2.1990161E2,1.9390735E2,1.6348364E2,0E0,4.615277E1,2.6693542E1,1.2550415E2,0E0,1.8888885E1,2.0591461E1,1.4593735E0,6.860004E1,0E0,0E0,0E0,3.546402E0,7.3958282E0,0E0,0E0,2.2283325E1,1.0616669E1,0E0,0E0,0E0,0E0,0E0,0E0,4.1333313E0,4.0833282E0,0E0,0E0,0E0,0E0],"parents":[2147483647,0,0,1,1,2,2,4,4,5,5,6,6,8,8,9,9,10,10,11,11,15,15,16,16,19,19,20,20,27,27,28,28],"right_children":[2,4,6,-1,8,10,12,-1,14,16,18,20,-1,-1,-1,22,24,-1,-1,26,28,-1,-1,-1,-1,-1,-1,30,32,-1,-1,-1,-1],"split_conditions":[3.22E2,4E0,4E0,2.4625E0,3.2E2,6E0,3.32E2,2.2500001E-1,5E0,5E0,3.33E2,2E0,1.25E-1,4E-1,1.4E0,3.25E2,3.27E2,3.5999998E-1,5E-2,3.3E2,1.1E1,2E-1,6.3181823E-1,1.65E0,5.3333336E-1,2.44E0,5.5E-1,5E0,3.24E2,7.3333335E-1,2E-1,3.5E-1,1.4E0],"split_indices":[0,1,2,0,0,1,0,0,1,1,0,1,0,0,0,0,0,0,0,0,1,0,0,0,0,0,0,1,0,0,0,0,0],"split_type":[0,0,0,0,0,0,0,0,0,0,0,0,0,0,0,0,0,0,0,0,0,0,0,0,0,0,0,0,0,0,0,0,0],"sum_hessian":[7.6E1,1.8E1,5.8E1,7E0,1.1E1,4.1E1,1.7E1,3E0,8E0,2.6E1,1.5E1,1.4E1,3E0,2E0,6E0,2.3E1,3E0,1.4E1,1E0,5E0,9E0,2E0,2.1E1,1E0,2E0,4E0,1E0,4E0,5E0,2E0,2E0,1E0,4E0],"tree_param":{"num_deleted":"0","num_feature":"6","num_nodes":"33","size_leaf_vector":"1"}},{"base_weights":[4.3754673E0,3.2995481E0,6.7580795E0,5.6035714E0,2.4529798E0,7.6655416E0,1.0625E-1,2.5562498E-1,6.6670456E0,2.8866177E0,1.1283333E0,1.2603929E1,9.297619E-1,2.2056253E0,3.653125E0,3.990341E0,4.7968683E-1,3.1199998E-1,2.995E-1,3.0887E0,7.3399997E-1,1.35E0,5.61875E0,2.1345453E-1,1.3293183E0,1.14E-1,2.0999998E-2,3.2375E-1,2.7499998E-2,2.275E-1,1.3466667E0],"categories":[],"categories_nodes":[],"categories_segments":[],"categories_sizes":[],"default_left":[0,0,0,0,0,0,0,0,0,0,0,0,0,0,0,0,0,0,0,0,0,0,0,0,0,0,0,0,0,0,0],"id":1,"left_children":[1,3,5,7,9,11,-1,-1,13,15,17,19,-1,-1,21,23,-1,25,-1,-1,-1,27,29,-1,-1,-1,-1,-1,-1,-1,-1],"loss_changes":[1.750907E2,9.3532776E1,1.25891846E2,5.5878693E1,2.0868423E1,2.3936255E2,0E0,0E0,1.04296326E2,7.1328125E0,3.1491346E0,1.209021E2,0E0,0E0,2.8631325E1,5.5021477E1,0E0,2.0718005E-1,0E0,0E0,0E0,1.4067183E0,1.231974E1,0E0,0E0,0E0,0E0,0E0,0E0,0E0,0E0],"parents":[2147483647,0,0,1,1,2,2,3,3,4,4,5,5,8,8,9,9,10,10,11,11,14,14,15,15,17,17,21,21,22,22],"right_children":[2,4,6,8,10,12,-1,-1,14,16,18,20,-1,-1,22,24,-1,26,-1,-1,-1,28,30,-1,-1,-1,-1,-1,-1,-1,-1],"split_conditions":[4E0,3.21E2,3.32E2,2E0,7E0,2E0,1.0625E-1,2.5562498E-1,4E0,3.27E2,1E1,5E0,9.297619E-1,2.2056253E0,1E1,2E0,4.7968683E-1,3.26E2,2.995E-1,3.0887E0,7.3399997E-1,7E0,3.2E2,2.1345453E-1,1.3293183E0,1.14E-1,2.0999998E-2,3.2375E-1,2.7499998E-2,2.275E-1,1.3466667E0],"split_indices":[2,0,0,1,1,1,0,0,1,0,1,2,0,0,1,1,0,0,0,0,0,1,0,0,0,0,0,0,0,0,0],"split_type":[0,0,0,0,0,0,0,0,0,0,0,0,0,0,0,0,0,0,0,0,0,0,0,0,0,0,0,0,0,0,0],"sum_hessian":[7.6E1,5.4E1,2.2E1,1.3E1,4.1E1,1.9E1,3E0,3E0,1E1,3E1,1.1E1,6E0,1.3E1,3E0,7E0,7E0,2.3E1,4E0,7E0,4E0,2E0,4E0,3E0,4E0,3E0,1E0,3E0,3E0,1E0,1E0,2E0],"tree_param":{"num_deleted":"0","num_feature":"6","num_nodes":"31","size_leaf_vector":"1"}},{"base_weights":[3.6523523E0,5.9356008E0,2.8551645E0,2.89488E0,4.6570897E0,2.0208828E0,4.6432014E0,2.1728125E-1,5.2987995E0,2.3745348E0,9.3887496E-1,5.451425E0,9.03125E-2,1.8747813E0,3.4988642E0,3.3851192E0,3.877469E-1,2.7659997E-1,2.4708751E-1,7.5759835E0,3.6315477E0,1.623125E-1,4.3044577E0,2.673803E-1,1.2706363E0,1.026E-1,1.7849995E-2,1.7956952E0,6.361334E-1,1.682857E0,4.6501985E0,3.035E-1,9.767891E-1,5.115873E-1,4.9365077E-2,2.2202383E-1,1.0272381E0],"categories":[],"categories_nodes":[],"categories_segments":[],"categories_sizes":[],"default_left":[0,0,0,0,0,0,0,0,0,0,0,0,0,0,0,0,0,0,0,0,0,0,0,0,0,0,0,0,0,0,0,0,0,0,0,0,0],"id":2,"left_children":[1,3,5,-1,7,9,11,-1,13,15,17,19,-1,-1,21,23,-1,25,-1,27,29,-1,31,-1,-1,-1,-1,-1,-1,33,35,-1,-1,-1,-1,-1,-1],"loss_changes":[1.2320654E2,1.4001343E2,7.862845E1,0E0,3.5487488E1,1.3842072E1,5.8518433E1,0E0,7.722592E1,7.089966E0,2.015149E0,3.0484009E1,0E0,0E0,2.2485138E1,4.014032E1,0E0,1.7566249E-1,0E0,8.4288025E0,1.20247345E1,0E0,7.1236877E0,0E0,0E0,0E0,0E0,0E0,0E0,5.651844E0,4.6209106E0,0E0,0E0,0E0,0E0,0E0,0E0],"parents":[2147483647,0,0,1,1,2,2,4,4,5,5,6,6,8,8,9,9,10,10,11,11,14,14,15,15,17,17,19,19,20,20,22,22,29,29,30,30],"right_children":[2,4,6,-1,8,10,12,-1,14,16,18,20,-1,-1,22,24,-1,26,-1,28,30,-1,32,-1,-1,-1,-1,-1,-1,34,36,-1,-1,-1,-1,-1,-1],"split_conditions":[3.22E2,1E0,4E0,2.89488E0,2E0,7E0,3.32E2,2.1728125E-1,4E0,3.27E2,1E1,2E0,9.03125E-2,1.8747813E0,3.2E2,3.26E2,3.877469E-1,3.26E2,2.4708751E-1,5E0,1.1E1,1.623125E-1,5E0,2.673803E-1,1.2706363E0,1.026E-1,1.7849995E-2,1.7956952E0,6.361334E-1,5E0,3.24E2,3.035E-1,9.767891E-1,5.115873E-1,4.9365077E-2,2.2202383E-1,1.0272381E0],"split_indices":[0,1,2,0,1,1,0,0,1,0,1,1,0,0,0,0,0,0,0,2,1,0,1,0,0,0,0,0,0,1,0,0,0,0,0,0,0],"split_type":[0,0,0,0,0,0,0,0,0,0,0,0,0,0,0,0,0,0,0,0,0,0,0,0,0,0,0,0,0,0,0,0,0,0,0,0,0],"sum_hessian":[7.6E1,1.8E1,5.8E1,1E0,1.7E1,4.1E1,1.7E1,3E0,1.4E1,3E1,1.1E1,1.4E1,3E0,3E0,1.1E1,7E0,2.3E1,4E0,7E0,5E0,9E0,3E0,8E0,5E0,2E0,1E0,3E0,3E0,2E0,4E0,5E0,2E0,6E0,2E0,2E0,1E0,4E0],"tree_param":{"num_deleted":"0","num_feature":"6","num_nodes":"37","size_leaf_vector":"1"}},{"base_weights":[3.09143E0,5.086878E0,2.3964307E0,2.6053922E0,3.9220421E0,1.6713086E0,3.9552474E0,1.8468903E-1,4.4601984E0,2.0523689E0,9.238126E-1,4.643943E0,7.676563E-2,1.5935642E0,2.9193082E0,1.5818937E0,4.362128E0,1.0132291E0,-4.1743375E-2,6.4660916E0,3.0862594E0,6.898281E-1,3.5858204E0,1.0922203E-1,3.3024654E-1,1.2250046E0,3.4656438E-1,2.9088494E-1,7.8172815E-1,1.5263408E0,5.5131555E-1,1.4584762E0,3.9283688E0,2.9137498E-1,1.8851875E-1,2.6303333E-1,4.0466976E0,3.0337706E-1,2.1601358E-1,4.4337565E-1,4.278307E-2,1.9982143E-1,8.6287993E-1,7.889374E-2,8.51875E-3,8.7111455E-1,2.193449E-1,1.0112083E-1,1.5172496E-2],"categories":[],"categories_nodes":[],"categories_segments":[],"categories_sizes":[],"default_left":[0,0,0,0,0,0,0,0,0,0,0,0,0,0,0,0,0,0,0,0,0,0,0,0,0,0,0,0,0,0,0,0,0,0,0,0,0,0,0,0,0,0,0,0,0,0,0,0,0],"id":3,"left_children":[1,3,5,-1,7,9,11,-1,13,15,17,19,-1,-1,21,23,25,27,-1,29,31,33,35,-1,-1,-1,-1,-1,37,-1,-1,39,41,43,-1,-1,45,47,-1,-1,-1,-1,-1,-1,-1,-1,-1,-1,-1],"loss_changes":[9.459595E1,1.2463663E2,6.0079163E1,0E0,2.4928131E1,1.0067314E1,4.2490692E1,0E0,5.7812378E1,2.2440056E1,1.8317461E0,2.2618927E1,0E0,0E0,1.5358124E1,8.2192993E-1,7.927185E0,3.9509487E-1,0E0,4.905731E0,7.9782867E0,1.2821281E-1,4.0963516E0,0E0,0E0,0E0,0E0,0E0,1.3848662E0,0E0,0E0,4.245164E0,2.4741669E0,6.0141474E-2,0E0,0E0,1.6013412E0,2.3770124E-1,0E0,0E0,0E0,0E0,0E0,0E0,0E0,0E0,0E0,0E0,0E0],"parents":[2147483647,0,0,1,1,2,2,4,4,5,5,6,6,8,8,9,9,10,10,11,11,14,14,15,15,16,16,17,17,19,19,20,20,21,21,22,22,28,28,31,31,32,32,33,33,36,36,37,37],"right_children":[2,4,6,-1,8,10,12,-1,14,16,18,20,-1,-1,22,24,26,28,-1,30,32,34,36,-1,-1,-1,-1,-1,38,-1,-1,40,42,44,-1,-1,46,48,-1,-1,-1,-1,-1,-1,-1,-1,-1,-1,-1],"split_conditions":[3.22E2,1E0,4E0,2.6053922E0,2E0,6E0,3.32E2,1.8468903E-1,4E0,5E0,3.33E2,2E0,7.676563E-2,1.5935642E0,3.2E2,3.25E2,3.27E2,7E0,-4.1743375E-2,5E0,1.1E1,1E1,5E0,1.0922203E-1,3.3024654E-1,1.2250046E0,3.4656438E-1,2.9088494E-1,1.2E1,1.5263408E0,5.5131555E-1,5E0,3.24E2,7E0,1.8851875E-1,2.6303333E-1,1.1E1,3.26E2,2.1601358E-1,4.4337565E-1,4.278307E-2,1.9982143E-1,8.6287993E-1,7.889374E-2,8.51875E-3,8.7111455E-1,2.193449E-1,1.0112083E-1,1.5172496E-2],"split_indices":[0,1,2,0,1,1,0,0,1,1,0,1,0,0,0,0,0,1,0,2,1,1,1,0,0,0,0,0,1,0,0,1,0,1,0,0,1,0,0,0,0,0,0,0,0,0,0,0,0],"split_type":[0,0,0,0,0,0,0,0,0,0,0,0,0,0,0,0,0,0,0,0,0,0,0,0,0,0,0,0,0,0,0,0,0,0,0,0,0,0,0,0,0,0,0,0,0,0,0,0,0],"sum_hessian":[7.6E1,1.8E1,5.8E1,1E0,1.7E1,4.1E1,1.7E1,3E0,1.4E1,2.6E1,1.5E1,1.4E1,3E0,3E0,1.1E1,2.3E1,3E0,1.4E1,1E0,5E0,9E0,3E0,8E0,2E0,2.1E1,1E0,2E0,3E0,1.1E1,3E0,2E0,4E0,5E0,2E0,1E0,2E0,6E0,5E0,6E0,2E0,2E0,1E0,4E0,1E0,1E0,5E0,1E0,2E0,3E0],"tree_param":{"num_deleted":"0","num_feature":"6","num_nodes":"49","size_leaf_vector":"1"}},{"base_weights":[2.632999E0,4.3859797E0,2.0238526E0,2.344853E0,3.326949E0,1.3987728E0,3.369936E0,1.5698569E-1,3.7830245E0,1.7163781E0,7.753907E-1,3.956922E0,6.525079E-2,1.3545294E0,2.4712317E0,1.2838262E0,3.8825946E0,8.521294E-1,-3.7569035E-2,5.5191493E0,2.6238935E0,6.208453E-1,3.0190444E0,9.465909E-2,2.671995E-1,1.1025041E0,3.0035582E-1,2.4725221E-1,6.5307474E-1,1.2034539E0,3.028551E-1,3.1086582E-1,3.8396583E0,2.6223746E-1,1.6966687E-1,2.2796224E-1,3.393138E0,2.620839E-1,1.7898268E-1,1.7983928E-1,9.04016E-1,7.100437E-2,7.666874E-3,9.207239E-1,1.9882214E0,8.763805E-2,1.2896624E-2,5.763113E-1,4.3214607E-1,-6.776657E-2,1.9741039E-1],"categories":[],"categories_nodes":[],"categories_segments":[],"categories_sizes":[],"default_left":[0,0,0,0,0,0,0,0,0,0,0,0,0,0,0,0,0,0,0,0,0,0,0,0,0,0,0,0,0,0,0,0,0,0,0,0,0,0,0,0,0,0,0,0,0,0,0,0,0,0,0],"id":4,"left_children":[1,3,5,-1,7,9,11,-1,13,15,17,19,-1,-1,21,23,25,27,-1,29,31,33,35,-1,-1,-1,-1,-1,37,-1,-1,-1,39,41,-1,-1,43,45,-1,-1,-1,-1,-1,-1,47,-1,-1,-1,49,-1,-1],"loss_changes":[7.33457E1,1.08651855E2,4.4929413E1,0E0,1.7898972E1,6.984703E0,3.0867813E1,0E0,4.208969E1,2.0314438E1,1.3427486E0,1.6755737E1,0E0,0E0,1.0289619E1,3.825531E-1,7.243618E0,3.3957767E-1,0E0,2.8576355E0,7.0352936E0,1.0385239E-1,2.4595413E0,0E0,0E0,0E0,0E0,0E0,9.001384E-1,0E0,0E0,0E0,3.9385757E0,4.8714593E-2,0E0,0E0,2.7513657E0,1.8053666E-1,0E0,0E0,0E0,0E0,0E0,0E0,5.705227E0,0E0,0E0,0E0,1.6179078E0,0E0,0E0],"parents":[2147483647,0,0,1,1,2,2,4,4,5,5,6,6,8,8,9,9,10,10,11,11,14,14,15,15,16,16,17,17,19,19,20,20,21,21,22,22,28,28,32,32,33,33,36,36,37,37,44,44,48,48],"right_children":[2,4,6,-1,8,10,12,-1,14,16,18,20,-1,-1,22,24,26,28,-1,30,32,34,36,-1,-1,-1,-1,-1,38,-1,-1,-1,40,42,-1,-1,44,46,-1,-1,-1,-1,-1,-1,48,-1,-1,-1,50,-1,-1],"split_conditions":[3.22E2,1E0,4E0,2.344853E0,2E0,6E0,3.32E2,1.5698569E-1,4E0,5E0,3.33E2,2E0,6.525079E-2,1.3545294E0,3.2E2,3.25E2,3.27E2,7E0,-3.7569035E-2,3.3E2,2.1E1,1E1,5E0,9.465909E-2,2.671995E-1,1.1025041E0,3.0035582E-1,2.4725221E-1,1.2E1,1.2034539E0,3.028551E-1,3.1086582E-1,3.24E2,7E0,1.6966687E-1,2.2796224E-1,3.21E2,3.26E2,1.7898268E-1,1.7983928E-1,9.04016E-1,7.100437E-2,7.666874E-3,9.207239E-1,6E0,8.763805E-2,1.2896624E-2,5.763113E-1,9E0,-6.776657E-2,1.9741039E-1],"split_indices":[0,1,2,0,1,1,0,0,1,1,0,1,0,0,0,0,0,1,0,0,1,1,1,0,0,0,0,0,1,0,0,0,0,1,0,0,0,0,0,0,0,0,0,0,1,0,0,0,1,0,0],"split_type":[0,0,0,0,0,0,0,0,0,0,0,0,0,0,0,0,0,0,0,0,0,0,0,0,0,0,0,0,0,0,0,0,0,0,0,0,0,0,0,0,0,0,0,0,0,0,0,0,0,0,0],"sum_hessian":[7.6E1,1.8E1,5.8E1,1E0,1.7E1,4.1E1,1.7E1,3E0,1.4E1,2.6E1,1.5E1,1.4E1,3E0,3E0,1.1E1,2.3E1,3E0,1.4E1,1E0,5E0,9E0,3E0,8E0,2E0,2.1E1,1E0,2E0,3E0,1.1E1,4E0,1E0,6E0,3E0,2E0,1E0,2E0,6E0,5E0,6E0,1E0,2E0,1E0,1E0,2E0,4E0,2E0,3E0,2E0,2E0,1E0,1E0],"tree_param":{"num_deleted":"0","num_feature":"6","num_nodes":"51","size_leaf_vector":"1"}},{"base_weights":[2.2515879E0,3.8224332E0,1.7075601E0,2.1103675E0,2.8623643E0,1.172683E0,2.860742E0,1.3343781E-1,3.25692E0,1.4384624E0,6.5088755E-1,3.3589396E0,5.5463165E-2,1.15135E0,2.1522336E0,1.0421385E0,3.4567904E0,7.168215E-1,-3.381213E-2,4.6663704E0,2.238587E0,5.5876076E-1,2.6213067E0,6.5588474E-1,1.1626027E0,9.922537E-1,2.6030836E-1,2.1016435E-1,5.457529E-1,1.1168716E0,3.7738618E-1,1.2878726E0,3.3426902E0,2.3601371E-1,1.5270019E-1,1.9756724E-1,2.946893E0,2.40079E-1,2.5377363E-1,5.1007384E-1,1.3919835E0,2.264229E-1,7.414996E-1,3.4281012E-1,7.7459127E-1,1.6185534E-1,7.834805E-1,6.390393E-2,6.9001853E-3,7.979607E-1,1.7317681E0,8.203788E-2,1.0495293E-2,7.728119E-2,2.6740372E-1,3.7386927E-1,2.0503147E-1,7.5952984E-2,1.0962135E-2,7.976244E-2,1.7976244E-1,-4.370117E-3,2.6256722E-1,4.9946976E-1,3.8893142E-1,3.865347E-2,-1.2893073E-2,-6.0989905E-2,1.7766933E-1],"categories":[],"categories_nodes":[],"categories_segments":[],"categories_sizes":[],"default_left":[0,0,0,0,0,0,0,0,0,0,0,0,0,0,0,0,0,0,0,0,0,0,0,0,0,0,0,0,0,0,0,0,0,0,0,0,0,0,0,0,0,0,0,0,0,0,0,0,0,0,0,0,0,0,0,0,0,0,0,0,0,0,0,0,0,0,0,0,0],"id":5,"left_children":[1,3,5,-1,7,9,11,-1,13,15,17,19,-1,-1,21,23,25,27,-1,29,31,33,35,37,39,-1,-1,-1,41,-1,-1,43,45,47,-1,-1,49,51,-1,53,55,57,59,-1,61,-1,-1,-1,-1,-1,63,-1,-1,65,-1,-1,-1,-1,-1,-1,-1,-1,-1,-1,67,-1,-1,-1,-1],"loss_changes":[5.927594E1,9.254993E1,3.303708E1,0E0,1.3417175E1,4.888382E0,2.2235535E1,0E0,2.9033035E1,1.799517E1,9.861851E-1,1.1525681E1,0E0,0E0,7.504776E0,3.5417938E-1,6.5127983E0,2.8356552E-1,0E0,4.771637E0,6.19191E0,8.412051E-2,1.8754768E0,1.7344275E0,1.8345032E0,0E0,0E0,0E0,5.82201E-1,0E0,0E0,2.0355606E-1,2.6536713E0,3.945881E-2,0E0,0E0,1.9614525E0,1.6995358E-1,0E0,2.0440474E0,1.8493843E-1,1.37077E-1,1.8906355E-2,0E0,2.1720896E0,0E0,0E0,0E0,0E0,0E0,4.16895E0,0E0,0E0,9.4662234E-2,0E0,0E0,0E0,0E0,0E0,0E0,0E0,0E0,0E0,0E0,1.3105052E0,0E0,0E0,0E0,0E0],"parents":[2147483647,0,0,1,1,2,2,4,4,5,5,6,6,8,8,9,9,10,10,11,11,14,14,15,15,16,16,17,17,19,19,20,20,21,21,22,22,23,23,24,24,28,28,31,31,32,32,33,33,36,36,37,37,39,39,40,40,41,41,42,42,44,44,50,50,53,53,64,64],"right_children":[2,4,6,-1,8,10,12,-1,14,16,18,20,-1,-1,22,24,26,28,-1,30,32,34,36,38,40,-1,-1,-1,42,-1,-1,44,46,48,-1,-1,50,52,-1,54,56,58,60,-1,62,-1,-1,-1,-1,-1,64,-1,-1,66,-1,-1,-1,-1,-1,-1,-1,-1,-1,-1,68,-1,-1,-1,-1],"split_conditions":[3.22E2,1E0,4E0,2.1103675E0,2E0,6E0,3.32E2,1.3343781E-1,4E0,5E0,3.33E2,2E0,5.5463165E-2,1.15135E0,3.2E2,1E0,3.27E2,7E0,-3.381213E-2,5E0,2.1E1,1E1,5E0,3.28E2,2E0,9.922537E-1,2.6030836E-1,2.1016435E-1,1.2E1,1.1168716E0,3.7738618E-1,5E0,3.24E2,7E0,1.5270019E-1,1.9756724E-1,3.21E2,3.25E2,2.5377363E-1,3E0,3.34E2,3.26E2,3.26E2,3.4281012E-1,1.1E1,1.6185534E-1,7.834805E-1,6.390393E-2,6.9001853E-3,7.979607E-1,6E0,8.203788E-2,1.0495293E-2,3.26E2,2.6740372E-1,3.7386927E-1,2.0503147E-1,7.5952984E-2,1.0962135E-2,7.976244E-2,1.7976244E-1,-4.370117E-3,2.6256722E-1,4.9946976E-1,9E0,3.865347E-2,-1.2893073E-2,-6.0989905E-2,1.7766933E-1],"split_indices":[0,1,2,0,1,1,0,0,1,1,0,1,0,0,0,1,0,1,0,2,1,1,1,0,2,0,0,0,1,0,0,1,0,1,0,0,0,0,0,1,0,0,0,0,1,0,0,0,0,0,1,0,0,0,0,0,0,0,0,0,0,0,0,0,1,0,0,0,0],"split_type":[0,0,0,0,0,0,0,0,0,0,0,0,0,0,0,0,0,0,0,0,0,0,0,0,0,0,0,0,0,0,0,0,0,0,0,0,0,0,0,0,0,0,0,0,0,0,0,0,0,0,0,0,0,0,0,0,0,0,0,0,0,0,0,0,0,0,0,0,0],"sum_hessian":[7.6E1,1.8E1,5.8E1,1E0,1.7E1,4.1E1,1.7E1,3E0,1.4E1,2.6E1,1.5E1,1.4E1,3E0,3E0,1.1E1,2.3E1,3E0,1.4E1,1E0,5E0,9E0,3E0,8E0,7E0,1.6E1,1E0,2E0,3E0,1.1E1,3E0,2E0,6E0,3E0,2E0,1E0,2E0,6E0,5E0,2E0,5E0,1.1E1,5E0,6E0,2E0,4E0,1E0,2E0,1E0,1E0,2E0,4E0,2E0,3E0,4E0,1E0,3E0,8E0,2E0,3E0,3E0,3E0,2E0,2E0,2E0,2E0,2E0,2E0,1E0,1E0],"tree_param":{"num_deleted":"0","num_feature":"6","num_nodes":"69","size_leaf_vector":"1"}},{"base_weights":[1.948285E0,3.3332276E0,1.4692647E0,1.8993307E0,2.463223E0,1.0094256E0,2.460597E0,1.1342213E-1,2.8046381E0,1.242286E0,5.5338454E-1,2.8898582E0,4.7143698E-2,9.786474E-1,1.8747187E0,8.8447624E-1,3.0785728E0,6.105641E-1,-3.0430913E-2,3.982139E0,1.9455038E0,5.028847E-1,2.2761207E0,1.0356034E0,6.470488E-1,8.9302826E-1,2.256006E-1,1.7863972E-1,4.654723E-1,9.4934076E-1,3.2706806E-1,1.1161563E0,2.9104862E0,2.1241234E-1,1.3743018E-1,1.7122494E-1,2.55953E0,7.107068E-1,3.1778887E-1,8.921015E-3,1.6858146E-1,1.9562417E-1,6.3027465E-1,2.971021E-1,6.713125E-1,1.456698E-1,6.790165E-1,5.7513535E-2,6.2101665E-3,6.9156593E-1,1.5086443E0,5.2227044E-1,2.4066333E-1,6.582592E-2,9.317815E-3,6.779807E-2,1.5279806E-1,-3.7874223E-3,2.2755826E-1,4.328738E-1,3.500382E-1,8.731098E-1,6.6977024E-2,-5.489092E-2,1.5990238E-1,7.109949E-2,2.1993712E-1,3.3499684E-2,-1.1174011E-2],"categories":[],"categories_nodes":[],"categories_segments":[],"categories_sizes":[],"default_left":[0,0,0,0,0,0,0,0,0,0,0,0,0,0,0,0,0,0,0,0,0,0,0,0,0,0,0,0,0,0,0,0,0,0,0,0,0,0,0,0,0,0,0,0,0,0,0,0,0,0,0,0,0,0,0,0,0,0,0,0,0,0,0,0,0,0,0,0,0],"id":6,"left_children":[1,3,5,-1,7,9,11,-1,13,15,17,19,-1,-1,21,23,25,27,-1,29,31,33,35,37,39,-1,-1,-1,41,-1,-1,43,45,47,-1,-1,49,51,-1,-1,-1,53,55,-1,57,-1,-1,-1,-1,-1,59,61,-1,-1,-1,-1,-1,-1,-1,-1,63,65,67,-1,-1,-1,-1,-1,-1],"loss_changes":[4.6185608E1,7.848958E1,2.441156E1,0E0,1.0061974E1,3.7726822E0,1.650978E1,0E0,1.9959984E1,1.5017189E1,7.383785E-1,7.725235E0,0E0,0E0,5.463257E0,1.9107628E-1,5.781704E0,1.993599E-1,0E0,3.0031967E0,4.7544975E0,6.813753E-2,1.430687E0,1.2078485E0,1.3783269E0,0E0,0E0,0E0,4.1036248E-1,0E0,0E0,1.5289307E-1,1.7570152E0,3.196165E-2,0E0,0E0,1.3914413E0,2.9979897E-1,0E0,0E0,0E0,1.0404809E-1,1.3659477E-2,0E0,1.6314805E0,0E0,0E0,0E0,0E0,0E0,3.0410213E0,1.3791358E0,0E0,0E0,0E0,0E0,0E0,0E0,0E0,0E0,1.0615089E0,1.954565E-1,7.1101956E-2,0E0,0E0,0E0,0E0,0E0,0E0],"parents":[2147483647,0,0,1,1,2,2,4,4,5,5,6,6,8,8,9,9,10,10,11,11,14,14,15,15,16,16,17,17,19,19,20,20,21,21,22,22,23,23,24,24,28,28,31,31,32,32,33,33,36,36,37,37,41,41,42,42,44,44,50,50,51,51,60,60,61,61,62,62],"right_children":[2,4,6,-1,8,10,12,-1,14,16,18,20,-1,-1,22,24,26,28,-1,30,32,34,36,38,40,-1,-1,-1,42,-1,-1,44,46,48,-1,-1,50,52,-1,-1,-1,54,56,-1,58,-1,-1,-1,-1,-1,60,62,-1,-1,-1,-1,-1,-1,-1,-1,64,66,68,-1,-1,-1,-1,-1,-1],"split_conditions":[3.22E2,1E0,4E0,1.8993307E0,2E0,6E0,3.32E2,1.1342213E-1,4E0,5E0,3.33E2,2E0,4.7143698E-2,9.786474E-1,3.2E2,3E0,3.27E2,7E0,-3.0430913E-2,5E0,2.1E1,1E1,5E0,2E0,3.28E2,8.9302826E-1,2.256006E-1,1.7863972E-1,1.2E1,9.4934076E-1,3.2706806E-1,5E0,3.24E2,7E0,1.3743018E-1,1.7122494E-1,3.21E2,3E0,3.1778887E-1,8.921015E-3,1.6858146E-1,3.26E2,3.26E2,2.971021E-1,1.1E1,1.456698E-1,6.790165E-1,5.7513535E-2,6.2101665E-3,6.9156593E-1,6E0,1E0,2.4066333E-1,6.582592E-2,9.317815E-3,6.779807E-2,1.5279806E-1,-3.7874223E-3,2.2755826E-1,4.328738E-1,9E0,3.25E2,3.26E2,-5.489092E-2,1.5990238E-1,7.109949E-2,2.1993712E-1,3.3499684E-2,-1.1174011E-2],"split_indices":[0,1,2,0,1,1,0,0,1,1,0,1,0,0,0,2,0,1,0,2,1,1,1,2,0,0,0,0,1,0,0,1,0,1,0,0,0,1,0,0,0,0,0,0,1,0,0,0,0,0,1,1,0,0,0,0,0,0,0,0,1,0,0,0,0,0,0,0,0],"split_type":[0,0,0,0,0,0,0,0,0,0,0,0,0,0,0,0,0,0,0,0,0,0,0,0,0,0,0,0,0,0,0,0,0,0,0,0,0,0,0,0,0,0,0,0,0,0,0,0,0,0,0,0,0,0,0,0,0,0,0,0,0,0,0,0,0,0,0,0,0],"sum_hessian":[7.6E1,1.8E1,5.8E1,1E0,1.7E1,4.1E1,1.7E1,3E0,1.4E1,2.6E1,1.5E1,1.4E1,3E0,3E0,1.1E1,2.3E1,3E0,1.4E1,1E0,5E0,9E0,3E0,8E0,1.2E1,1.1E1,1E0,2E0,3E0,1.1E1,3E0,2E0,6E0,3E0,2E0,1E0,2E0,6E0,9E0,3E0,3E0,8E0,5E0,6E0,2E0,4E0,1E0,2E0,1E0,1E0,2E0,4E0,8E0,1E0,2E0,3E0,3E0,3E0,2E0,2E0,2E0,2E0,4E0,4E0,1E0,1E0,2E0,2E0,2E0,2E0],"tree_param":{"num_deleted":"0","num_feature":"6","num_nodes":"69","size_leaf_vector":"1"}},{"base_weights":[1.6868649E0,2.9083312E0,1.2649204E0,1.7093977E0,2.1202397E0,8.697284E-1,2.1167617E0,9.6408844E-2,2.4157424E0,1.074123E0,4.7045445E-1,2.4866846E0,4.0072143E-2,8.3185047E-1,1.6332607E0,7.513025E-1,2.7425156E0,5.2007663E-1,-2.7387822E-2,3.398446E0,1.6909591E0,4.525962E-1,1.9765271E0,8.9554536E-1,5.3243077E-1,8.037254E-1,1.9552054E-1,1.4518951E-1,3.7921926E-1,8.069396E-1,2.8345898E-1,9.673356E-1,2.5345604E0,1.911711E-1,1.2368715E-1,1.4839497E-1,2.22326E0,6.2396795E-1,2.7012053E-1,7.582879E-3,1.3861138E-1,8.425552E-2,5.3573346E-1,2.5748852E-1,5.818043E-1,1.3110283E-1,5.884809E-1,5.1762175E-2,5.5891513E-3,5.993571E-1,1.3144925E0,4.5263436E-1,2.16597E-1,2.6287472E-2,7.920143E-3,5.7628363E-2,1.2987836E-1,-3.28242E-3,1.9721718E-1,3.751573E-1,3.150344E-1,7.5669515E-1,5.804672E-2,-4.940181E-2,1.4391212E-1,6.161955E-2,1.9061217E-1,2.9033056E-2,-9.684149E-3],"categories":[],"categories_nodes":[],"categories_segments":[],"categories_sizes":[],"default_left":[0,0,0,0,0,0,0,0,0,0,0,0,0,0,0,0,0,0,0,0,0,0,0,0,0,0,0,0,0,0,0,0,0,0,0,0,0,0,0,0,0,0,0,0,0,0,0,0,0,0,0,0,0,0,0,0,0,0,0,0,0,0,0,0,0,0,0,0,0],"id":7,"left_children":[1,3,5,-1,7,9,11,-1,13,15,17,19,-1,-1,21,23,25,27,-1,29,31,33,35,37,39,-1,-1,-1,41,-1,-1,43,45,47,-1,-1,49,51,-1,-1,-1,53,55,-1,57,-1,-1,-1,-1,-1,59,61,-1,-1,-1,-1,-1,-1,-1,-1,63,65,67,-1,-1,-1,-1,-1,-1],"loss_changes":[3.60063E1,6.631009E1,1.8020805E1,0E0,7.549156E0,2.9222717E0,1.2262329E1,0E0,1.36708145E1,1.2481508E1,5.53462E-1,5.1360474E0,0E0,0E0,3.9688225E0,2.8088093E-1,5.080282E0,1.5968323E-1,0E0,1.8447113E0,3.6527252E0,5.5191457E-2,1.0918388E0,7.6384926E-1,9.269099E-1,0E0,0E0,0E0,4.6268785E-1,0E0,0E0,1.1483908E-1,1.1366425E0,2.5888912E-2,0E0,0E0,9.8143005E-1,2.9625416E-1,0E0,0E0,0E0,5.3294674E-3,9.86886E-3,0E0,1.2254231E0,0E0,0E0,0E0,0E0,0E0,2.2140112E0,1.0358839E0,0E0,0E0,0E0,0E0,0E0,0E0,0E0,0E0,8.598219E-1,1.4680982E-1,5.340548E-2,0E0,0E0,0E0,0E0,0E0,0E0],"parents":[2147483647,0,0,1,1,2,2,4,4,5,5,6,6,8,8,9,9,10,10,11,11,14,14,15,15,16,16,17,17,19,19,20,20,21,21,22,22,23,23,24,24,28,28,31,31,32,32,33,33,36,36,37,37,41,41,42,42,44,44,50,50,51,51,60,60,61,61,62,62],"right_children":[2,4,6,-1,8,10,12,-1,14,16,18,20,-1,-1,22,24,26,28,-1,30,32,34,36,38,40,-1,-1,-1,42,-1,-1,44,46,48,-1,-1,50,52,-1,-1,-1,54,56,-1,58,-1,-1,-1,-1,-1,60,62,-1,-1,-1,-1,-1,-1,-1,-1,64,66,68,-1,-1,-1,-1,-1,-1],"split_conditions":[3.22E2,1E0,4E0,1.7093977E0,2E0,6E0,3.32E2,9.6408844E-2,4E0,5E0,3.33E2,2E0,4.0072143E-2,8.3185047E-1,3.2E2,3E0,3.27E2,8E0,-2.7387822E-2,5E0,2.1E1,1E1,5E0,2E0,3.28E2,8.037254E-1,1.9552054E-1,1.4518951E-1,1.2E1,8.069396E-1,2.8345898E-1,5E0,3.24E2,7E0,1.2368715E-1,1.4839497E-1,3.21E2,3E0,2.7012053E-1,7.582879E-3,1.3861138E-1,3.25E2,3.26E2,2.5748852E-1,1.1E1,1.3110283E-1,5.884809E-1,5.1762175E-2,5.5891513E-3,5.993571E-1,6E0,1E0,2.16597E-1,2.6287472E-2,7.920143E-3,5.7628363E-2,1.2987836E-1,-3.28242E-3,1.9721718E-1,3.751573E-1,9E0,3.25E2,3.26E2,-4.940181E-2,1.4391212E-1,6.161955E-2,1.9061217E-1,2.9033056E-2,-9.684149E-3],"split_indices":[0,1,2,0,1,1,0,0,1,1,0,1,0,0,0,2,0,1,0,2,1,1,1,2,0,0,0,0,1,0,0,1,0,1,0,0,0,1,0,0,0,0,0,0,1,0,0,0,0,0,1,1,0,0,0,0,0,0,0,0,1,0,0,0,0,0,0,0,0],"split_type":[0,0,0,0,0,0,0,0,0,0,0,0,0,0,0,0,0,0,0,0,0,0,0,0,0,0,0,0,0,0,0,0,0,0,0,0,0,0,0,0,0,0,0,0,0,0,0,0,0,0,0,0,0,0,0,0,0,0,0,0,0,0,0,0,0,0,0,0,0],"sum_hessian":[7.6E1,1.8E1,5.8E1,1E0,1.7E1,4.1E1,1.7E1,3E0,1.4E1,2.6E1,1.5E1,1.4E1,3E0,3E0,1.1E1,2.3E1,3E0,1.4E1,1E0,5E0,9E0,3E0,8E0,1.2E1,1.1E1,1E0,2E0,4E0,1E1,3E0,2E0,6E0,3E0,2E0,1E0,2E0,6E0,9E0,3E0,3E0,8E0,4E0,6E0,2E0,4E0,1E0,2E0,1E0,1E0,2E0,4E0,8E0,1E0,1E0,3E0,3E0,3E0,2E0,2E0,2E0,2E0,4E0,4E0,1E0,1E0,2E0,2E0,2E0,2E0],"tree_param":{"num_deleted":"0","num_feature":"6","num_nodes":"69","size_leaf_vector":"1"}},{"base_weights":[1.4609315E0,2.539092E0,1.0889658E0,1.5384579E0,1.8254539E0,7.491936E-1,1.8212693E0,8.194752E-2,2.0812812E0,1.1050221E0,5.515801E-1,2.140108E0,3.4061313E-2,3.5353644E0,1.4231467E0,4.3561816E-1,2.6696272E0,5.99551E-1,2.677662E-1,2.9004903E0,1.469868E0,8.06287E-1,2.0471525E-1,4.0733656E-1,1.7164905E0,4.713937E-2,5.1618797E-1,6.628354E-1,7.3597744E-2,4.5462722E-1,1.5139633E-1,6.732121E-3,9.813032E-2,6.858988E-1,2.4566443E-1,8.3835745E-1,2.2075443E0,1.7205398E-1,1.1131843E-1,1.0602604E0,2.271713E0,1.9493733E-1,5.5464745E-2,6.4454437E-3,5.575416E-1,2.2315668E-1,5.042304E-1,1.1799254E-1,5.100168E-1,4.6585955E-2,5.0302385E-3,2.7224717E-1,-4.4461634E-2,5.194429E-1,1.295209E-1,1.7444019E-1,2.9118684E-1,-2.8447786E-3,1.7092158E-1,-8.392938E-3,8.184629E-2],"categories":[],"categories_nodes":[],"categories_segments":[],"categories_sizes":[],"default_left":[0,0,0,0,0,0,0,0,0,0,0,0,0,0,0,0,0,0,0,0,0,0,0,0,0,0,0,0,0,0,0,0,0,0,0,0,0,0,0,0,0,0,0,0,0,0,0,0,0,0,0,0,0,0,0,0,0,0,0,0,0],"id":8,"left_children":[1,3,5,-1,7,9,11,-1,13,15,17,19,-1,21,23,25,27,29,31,33,35,-1,-1,37,39,-1,41,-1,-1,43,-1,-1,-1,-1,-1,45,47,49,-1,51,53,-1,-1,-1,55,-1,57,-1,-1,-1,-1,-1,-1,-1,-1,-1,59,-1,-1,-1,-1],"loss_changes":[2.811499E1,5.5830925E1,1.3315681E1,0E0,5.666443E0,2.3437862E0,9.110561E0,0E0,9.323387E0,1.3499998E1,2.3428917E-1,3.3812485E0,0E0,8.576164E-1,2.8765888E0,5.551982E-2,4.714506E0,2.0342636E-1,2.965567E-1,1.0949745E0,2.8077927E0,0E0,0E0,4.4705093E-2,8.7057495E-1,0E0,4.9632895E-1,0E0,0E0,6.340978E-1,0E0,0E0,0E0,0E0,0E0,8.6256504E-2,7.1188927E-1,2.097001E-2,0E0,2.618743E0,4.3263054E-1,0E0,0E0,0E0,7.517588E-1,0E0,9.204297E-1,0E0,0E0,0E0,0E0,0E0,0E0,0E0,0E0,0E0,3.317873E-1,0E0,0E0,0E0,0E0],"parents":[2147483647,0,0,1,1,2,2,4,4,5,5,6,6,8,8,9,9,10,10,11,11,13,13,14,14,15,15,16,16,17,17,18,18,19,19,20,20,23,23,24,24,26,26,29,29,35,35,36,36,37,37,39,39,40,40,44,44,46,46,56,56],"right_children":[2,4,6,-1,8,10,12,-1,14,16,18,20,-1,22,24,26,28,30,32,34,36,-1,-1,38,40,-1,42,-1,-1,44,-1,-1,-1,-1,-1,46,48,50,-1,52,54,-1,-1,-1,56,-1,58,-1,-1,-1,-1,-1,-1,-1,-1,-1,60,-1,-1,-1,-1],"split_conditions":[3.22E2,1E0,4E0,1.5384579E0,2E0,3.27E2,3.32E2,8.194752E-2,4E0,3.26E2,7E0,2E0,3.4061313E-2,3.2E2,3.2E2,2E0,6E0,3E0,1E1,5E0,2.1E1,8.06287E-1,2.0471525E-1,1E1,9E0,4.713937E-2,5E0,6.628354E-1,7.3597744E-2,3.28E2,1.5139633E-1,6.732121E-3,9.813032E-2,6.858988E-1,2.4566443E-1,5E0,3.24E2,7E0,1.1131843E-1,6E0,3.21E2,1.9493733E-1,5.5464745E-2,6.4454437E-3,2E0,2.2315668E-1,1.1E1,1.1799254E-1,5.100168E-1,4.6585955E-2,5.0302385E-3,2.7224717E-1,-4.4461634E-2,5.194429E-1,1.295209E-1,1.7444019E-1,3.33E2,-2.8447786E-3,1.7092158E-1,-8.392938E-3,8.184629E-2],"split_indices":[0,1,2,0,1,0,0,0,1,0,1,1,0,0,0,1,1,1,1,2,1,0,0,1,1,0,1,0,0,0,0,0,0,0,0,1,0,1,0,1,0,0,0,0,1,0,1,0,0,0,0,0,0,0,0,0,0,0,0,0,0],"split_type":[0,0,0,0,0,0,0,0,0,0,0,0,0,0,0,0,0,0,0,0,0,0,0,0,0,0,0,0,0,0,0,0,0,0,0,0,0,0,0,0,0,0,0,0,0,0,0,0,0,0,0,0,0,0,0,0,0,0,0,0,0],"sum_hessian":[7.6E1,1.8E1,5.8E1,1E0,1.7E1,4.1E1,1.7E1,3E0,1.4E1,1.3E1,2.8E1,1.4E1,3E0,3E0,1.1E1,1E1,3E0,2.3E1,5E0,5E0,9E0,2E0,1E0,3E0,8E0,4E0,6E0,2E0,1E0,1.4E1,9E0,3E0,2E0,3E0,2E0,6E0,3E0,2E0,1E0,5E0,3E0,1E0,5E0,3E0,1.1E1,2E0,4E0,1E0,2E0,1E0,1E0,4E0,1E0,2E0,1E0,4E0,7E0,2E0,2E0,2E0,5E0],"tree_param":{"num_deleted":"0","num_feature":"6","num_nodes":"61","size_leaf_vector":"1"}},{"base_weights":[1.2622586E0,2.224489E0,9.309936E-1,1.3846121E0,1.5788429E0,6.3613045E-1,1.5672859E0,6.965542E-2,1.8017375E0,9.578729E-1,4.5887092E-1,1.8421402E0,2.8952116E-2,3.0810423E0,1.2251577E0,3.7554374E-1,2.31981E0,4.965465E-1,2.3169008E-1,2.4756527E0,1.2778187E0,6.9878215E-1,1.8424378E-1,7.226977E-1,1.7840624E0,3.9597064E-2,4.487221E-1,5.7445735E-1,6.623798E-2,3.8065776E-1,6.20725E-1,5.7223053E-3,8.504629E-2,5.8301395E-1,2.1290915E-1,1.7695728E-1,4.8151094E-1,1.1434381E0,1.6097799E-2,4.5018387E-1,1.445036E-1,1.754436E-1,4.6220623E-2,5.4786326E-3,4.6669117E-1,1.4860062E-1,3.4984627E-1,9.230935E-2,2.888367E-1,1.5484859E-1,-4.001546E-2,1.4652978E-1,2.421312E-1,1.0735591E-1,-3.9788675E-2,4.1927364E-2,4.5272172E-3,-7.273865E-3,6.820526E-2],"categories":[],"categories_nodes":[],"categories_segments":[],"categories_sizes":[],"default_left":[0,0,0,0,0,0,0,0,0,0,0,0,0,0,0,0,0,0,0,0,0,0,0,0,0,0,0,0,0,0,0,0,0,0,0,0,0,0,0,0,0,0,0,0,0,0,0,0,0,0,0,0,0,0,0,0,0,0,0],"id":9,"left_children":[1,3,5,-1,7,9,11,-1,13,15,17,19,-1,21,23,25,27,29,31,33,35,-1,-1,37,39,-1,41,-1,-1,43,45,-1,-1,-1,-1,-1,-1,47,49,-1,-1,-1,-1,-1,51,-1,53,-1,-1,55,-1,-1,57,-1,-1,-1,-1,-1,-1],"loss_changes":[2.2473015E1,4.6708252E1,1.0072533E1,0E0,4.309654E0,1.9557991E0,6.7711067E0,0E0,7.2895584E0,1.023215E1,1.3317108E-1,2.1991348E0,0E0,3.4823227E-1,2.0805893E0,5.40874E-2,3.4433937E0,1.09097004E-1,2.2365811E-1,6.171608E-1,2.3100548E0,0E0,0E0,2.3599539E0,8.5161686E-1,0E0,4.500141E-1,0E0,0E0,4.4310403E-1,7.1288824E-2,0E0,0E0,0E0,0E0,0E0,0E0,3.5881996E-1,1.5095955E-1,0E0,0E0,0E0,0E0,0E0,5.392842E-1,0E0,6.1972386E-1,0E0,0E0,1.6985707E-2,0E0,0E0,2.327415E-1,0E0,0E0,0E0,0E0,0E0,0E0],"parents":[2147483647,0,0,1,1,2,2,4,4,5,5,6,6,8,8,9,9,10,10,11,11,13,13,14,14,15,15,16,16,17,17,18,18,19,19,20,20,23,23,24,24,26,26,29,29,30,30,37,37,38,38,44,44,46,46,49,49,52,52],"right_children":[2,4,6,-1,8,10,12,-1,14,16,18,20,-1,22,24,26,28,30,32,34,36,-1,-1,38,40,-1,42,-1,-1,44,46,-1,-1,-1,-1,-1,-1,48,50,-1,-1,-1,-1,-1,52,-1,54,-1,-1,56,-1,-1,58,-1,-1,-1,-1,-1,-1],"split_conditions":[3.22E2,1E0,4E0,1.3846121E0,2E0,3.27E2,3.32E2,6.965542E-2,4E0,3.26E2,7E0,2E0,2.8952116E-2,3.2E2,1E1,2E0,6E0,3E0,1E1,5E0,3.3E2,6.9878215E-1,1.8424378E-1,6E0,1.1E1,3.9597064E-2,5E0,5.7445735E-1,6.623798E-2,3.28E2,6E0,5.7223053E-3,8.504629E-2,5.8301395E-1,2.1290915E-1,1.7695728E-1,4.8151094E-1,3.21E2,3.2E2,4.5018387E-1,1.445036E-1,1.754436E-1,4.6220623E-2,5.4786326E-3,2E0,1.4860062E-1,3.28E2,9.230935E-2,2.888367E-1,7E0,-4.001546E-2,1.4652978E-1,3.33E2,1.0735591E-1,-3.9788675E-2,4.1927364E-2,4.5272172E-3,-7.273865E-3,6.820526E-2],"split_indices":[0,1,2,0,1,0,0,0,1,0,1,1,0,0,1,1,1,1,1,2,0,0,0,1,1,0,1,0,0,0,1,0,0,0,0,0,0,0,0,0,0,0,0,0,1,0,0,0,0,1,0,0,0,0,0,0,0,0,0],"split_type":[0,0,0,0,0,0,0,0,0,0,0,0,0,0,0,0,0,0,0,0,0,0,0,0,0,0,0,0,0,0,0,0,0,0,0,0,0,0,0,0,0,0,0,0,0,0,0,0,0,0,0,0,0,0,0,0,0,0,0],"sum_hessian":[7.6E1,1.8E1,5.8E1,1E0,1.7E1,4.1E1,1.7E1,3E0,1.4E1,1.3E1,2.8E1,1.4E1,3E0,3E0,1.1E1,1E1,3E0,2.3E1,5E0,5E0,9E0,2E0,1E0,7E0,4E0,4E0,6E0,2E0,1E0,1.4E1,9E0,3E0,2E0,3E0,2E0,8E0,1E0,4E0,3E0,2E0,2E0,1E0,5E0,3E0,1.1E1,5E0,4E0,2E0,2E0,2E0,1E0,4E0,7E0,3E0,1E0,1E0,1E0,2E0,5E0],"tree_param":{"num_deleted":"0","num_feature":"6","num_nodes":"59","size_leaf_vector":"1"}},{"base_weights":[1.0906478E0,1.9543053E0,7.940352E-1,1.246151E0,1.3705717E0,5.427575E-1,1.3362367E0,5.9207108E-2,1.5657433E0,8.307239E-1,3.8502353E-1,1.5706717E0,2.4609298E-2,2.6855903E0,1.0619824E0,3.2418606E-1,2.016022E0,4.1511673E-1,2.0048018E-1,2.1131763E0,1.0881017E0,6.056112E-1,1.6581936E-1,6.266064E-1,1.5461874E0,3.9378828E-1,3.238114E-2,2.4893153E0,5.961418E-2,3.187222E-1,5.181968E-1,4.8639625E-3,7.370679E-2,4.9556193E-1,1.8452126E-1,7.274911E-1,4.3335983E-1,9.909798E-1,1.4488086E-2,3.9015934E-1,1.2523645E-1,1.6630769E-1,6.4165986E-1,1.4717093E-1,5.996237E-1,4.6568397E-3,3.9064136E-1,1.2556079E-1,2.8302893E-1,4.3124524E-1,1.7564774E-1,8.000145E-2,2.5032514E-1,1.3936375E-1,-3.601389E-2,4.1838758E-2,1.3597138E-2,1.5789925E-1,3.459872E-2,1.2308502E-1,2.0132133E-1,-3.5809804E-2,8.866214E-2,1.698082E-1,-2.6059786E-2,3.7734628E-2,4.074496E-3,-6.3040103E-3,5.6837697E-2],"categories":[],"categories_nodes":[],"categories_segments":[],"categories_sizes":[],"default_left":[0,0,0,0,0,0,0,0,0,0,0,0,0,0,0,0,0,0,0,0,0,0,0,0,0,0,0,0,0,0,0,0,0,0,0,0,0,0,0,0,0,0,0,0,0,0,0,0,0,0,0,0,0,0,0,0,0,0,0,0,0,0,0,0,0,0,0,0,0],"id":10,"left_children":[1,3,5,-1,7,9,11,-1,13,15,17,19,-1,21,23,25,27,29,31,33,35,-1,-1,37,39,41,-1,43,-1,45,47,-1,-1,-1,-1,49,-1,51,53,-1,-1,55,57,-1,-1,-1,59,-1,61,63,-1,-1,-1,65,-1,-1,-1,-1,-1,-1,67,-1,-1,-1,-1,-1,-1,-1,-1],"loss_changes":[1.8173431E1,3.8890144E1,7.3130913E0,0E0,3.3114204E0,1.5878801E0,4.9261894E0,0E0,5.6099815E0,7.7520103E0,7.7828884E-2,1.627594E0,0E0,3.2590866E-2,1.5608835E0,6.0489297E-2,2.5103874E0,7.331133E-2,1.6866381E-1,3.1868744E-1,2.313571E0,0E0,0E0,1.7699594E0,6.396589E-1,2.879889E-1,0E0,4.7031975E-1,0E0,3.0961895E-1,8.007407E-2,0E0,0E0,0E0,0E0,2.3188591E-2,0E0,2.695136E-1,1.2227715E-1,0E0,0E0,6.861061E-3,7.127988E-2,0E0,0E0,0E0,3.8677466E-1,0E0,4.4968757E-1,1.2836828E0,0E0,0E0,0E0,1.3758421E-2,0E0,0E0,0E0,0E0,0E0,0E0,1.6331682E-1,0E0,0E0,0E0,0E0,0E0,0E0,0E0,0E0],"parents":[2147483647,0,0,1,1,2,2,4,4,5,5,6,6,8,8,9,9,10,10,11,11,13,13,14,14,15,15,16,16,17,17,18,18,19,19,20,20,23,23,24,24,25,25,27,27,29,29,30,30,35,35,37,37,38,38,41,41,42,42,46,46,48,48,49,49,53,53,60,60],"right_children":[2,4,6,-1,8,10,12,-1,14,16,18,20,-1,22,24,26,28,30,32,34,36,-1,-1,38,40,42,-1,44,-1,46,48,-1,-1,-1,-1,50,-1,52,54,-1,-1,56,58,-1,-1,-1,60,-1,62,64,-1,-1,-1,66,-1,-1,-1,-1,-1,-1,68,-1,-1,-1,-1,-1,-1,-1,-1],"split_conditions":[3.22E2,1E0,4E0,1.246151E0,2E0,3.27E2,3.32E2,5.9207108E-2,4E0,3.26E2,7E0,2E0,2.4609298E-2,3.2E2,1E1,8E0,6E0,3E0,1E1,5E0,3.3E2,6.056112E-1,1.6581936E-1,6E0,1.1E1,2E0,3.238114E-2,3E0,5.961418E-2,3.28E2,3.33E2,4.8639625E-3,7.370679E-2,4.9556193E-1,1.8452126E-1,1.1E1,4.3335983E-1,3.21E2,3.2E2,3.9015934E-1,1.2523645E-1,3.25E2,5E0,1.4717093E-1,5.996237E-1,4.6568397E-3,2E0,1.2556079E-1,3.34E2,5E0,1.7564774E-1,8.000145E-2,2.5032514E-1,7E0,-3.601389E-2,4.1838758E-2,1.3597138E-2,1.5789925E-1,3.459872E-2,1.2308502E-1,3.33E2,-3.5809804E-2,8.866214E-2,1.698082E-1,-2.6059786E-2,3.7734628E-2,4.074496E-3,-6.3040103E-3,5.6837697E-2],"split_indices":[0,1,2,0,1,0,0,0,1,0,1,1,0,0,1,1,1,1,1,2,0,0,0,1,1,1,0,1,0,0,0,0,0,0,0,1,0,0,0,0,0,0,1,0,0,0,1,0,0,1,0,0,0,1,0,0,0,0,0,0,0,0,0,0,0,0,0,0,0],"split_type":[0,0,0,0,0,0,0,0,0,0,0,0,0,0,0,0,0,0,0,0,0,0,0,0,0,0,0,0,0,0,0,0,0,0,0,0,0,0,0,0,0,0,0,0,0,0,0,0,0,0,0,0,0,0,0,0,0,0,0,0,0,0,0,0,0,0,0,0,0],"sum_hessian":[7.6E1,1.8E1,5.8E1,1E0,1.7E1,4.1E1,1.7E1,3E0,1.4E1,1.3E1,2.8E1,1.4E1,3E0,3E0,1.1E1,1E1,3E0,2.3E1,5E0,5E0,9E0,2E0,1E0,7E0,4E0,6E0,4E0,2E0,1E0,1.4E1,9E0,3E0,2E0,3E0,2E0,8E0,1E0,4E0,3E0,2E0,2E0,4E0,2E0,1E0,1E0,3E0,1.1E1,5E0,4E0,4E0,4E0,2E0,2E0,2E0,1E0,2E0,2E0,1E0,1E0,4E0,7E0,1E0,3E0,2E0,2E0,1E0,1E0,2E0,5E0],"tree_param":{"num_deleted":"0","num_feature":"6","num_nodes":"69","size_leaf_vector":"1"}},{"base_weights":[9.492421E-1,1.7175657E0,6.85727E-1,1.1215359E0,1.1899105E0,4.704437E-1,1.1499587E0,5.032606E-2,1.3607912E0,7.422022E-1,3.2302776E-1,1.35206E0,2.0917898E-2,4.68266E-1,9.2054564E-1,2.84832E-1,1.8144197E0,2.0617536E-1,3.6530256E-1,1.8038884E0,9.45757E-1,5.433004E-1,1.340029E0,3.504497E-1,2.7200166E-2,2.2403839E0,5.3652763E-2,3.9583207E-3,2.8322676E-1,4.189225E-1,4.609205E-2,4.212277E-1,1.5991844E-1,1.2349626E-1,3.900238E-1,8.5884917E-1,1.3039321E-2,3.3813807E-1,1.0853825E-1,1.4413328E-1,5.7749385E-1,1.3245383E-1,5.3966135E-1,7.2418414E-2,1.3355473E-1,3.2698128E-1,1.06596924E-1,-9.824195E-2,4.7909405E-2,6.9334604E-2,2.1694843E-1,1.2542737E-1,-3.241248E-2,3.626026E-2,1.1784173E-2,1.421093E-1,3.113885E-2,3.674992E-3,4.7909405E-2,1.03391424E-1,1.6737372E-1,2.756244E-3,-3.2228827E-2,3.3961166E-2,3.6670447E-3,-5.463473E-3,4.7364727E-2],"categories":[],"categories_nodes":[],"categories_segments":[],"categories_sizes":[],"default_left":[0,0,0,0,0,0,0,0,0,0,0,0,0,0,0,0,0,0,0,0,0,0,0,0,0,0,0,0,0,0,0,0,0,0,0,0,0,0,0,0,0,0,0,0,0,0,0,0,0,0,0,0,0,0,0,0,0,0,0,0,0,0,0,0,0,0,0],"id":11,"left_children":[1,3,5,-1,7,9,11,-1,13,15,17,19,-1,-1,21,23,25,27,29,31,33,35,37,39,-1,41,-1,-1,43,45,47,-1,-1,-1,-1,49,51,-1,-1,53,55,-1,-1,-1,57,59,-1,61,-1,-1,-1,63,-1,-1,-1,-1,-1,-1,-1,-1,65,-1,-1,-1,-1,-1,-1],"loss_changes":[1.441201E1,3.2327496E1,5.355547E0,0E0,2.5435925E0,1.442833E0,3.661457E0,0E0,4.319868E0,6.3488E0,6.794095E-2,1.0476494E0,0E0,0E0,1.1709394E0,5.9764147E-2,2.033413E0,1.380057E-1,3.2301235E-1,1.3723946E-1,2.0929136E0,1.3273871E0,4.8045444E-1,2.4466443E-1,0E0,3.8096046E-1,0E0,0E0,3.426844E-2,4.0032864E-3,1.3522208E-1,0E0,0E0,0E0,0E0,2.0243454E-1,9.904442E-2,0E0,0E0,5.1534474E-3,5.7736635E-2,0E0,0E0,0E0,4.4431E-2,2.7733397E-1,0E0,2.3360271E-2,0E0,0E0,0E0,1.1144325E-2,0E0,0E0,0E0,0E0,0E0,0E0,0E0,0E0,1.14639625E-1,0E0,0E0,0E0,0E0,0E0,0E0],"parents":[2147483647,0,0,1,1,2,2,4,4,5,5,6,6,8,8,9,9,10,10,11,11,14,14,15,15,16,16,17,17,18,18,19,19,20,20,21,21,22,22,23,23,25,25,28,28,29,29,30,30,35,35,36,36,39,39,40,40,44,44,45,45,47,47,51,51,60,60],"right_children":[2,4,6,-1,8,10,12,-1,14,16,18,20,-1,-1,22,24,26,28,30,32,34,36,38,40,-1,42,-1,-1,44,46,48,-1,-1,-1,-1,50,52,-1,-1,54,56,-1,-1,-1,58,60,-1,62,-1,-1,-1,64,-1,-1,-1,-1,-1,-1,-1,-1,66,-1,-1,-1,-1,-1,-1],"split_conditions":[3.22E2,1E0,4E0,1.1215359E0,2E0,3.27E2,3.32E2,5.032606E-2,4E0,3.26E2,3.28E2,2E0,2.0917898E-2,4.68266E-1,1E1,8E0,6E0,1E0,6E0,5E0,3.3E2,6E0,1.1E1,2E0,2.7200166E-2,3E0,5.3652763E-2,3.9583207E-3,7E0,3E0,9E0,4.212277E-1,1.5991844E-1,1.2349626E-1,3.900238E-1,3.21E2,3.2E2,3.3813807E-1,1.0853825E-1,3.25E2,5E0,1.3245383E-1,5.3966135E-1,7.2418414E-2,1E1,2E0,1.06596924E-1,3.33E2,4.7909405E-2,6.9334604E-2,2.1694843E-1,7E0,-3.241248E-2,3.626026E-2,1.1784173E-2,1.421093E-1,3.113885E-2,3.674992E-3,4.7909405E-2,1.03391424E-1,3.33E2,2.756244E-3,-3.2228827E-2,3.3961166E-2,3.6670447E-3,-5.463473E-3,4.7364727E-2],"split_indices":[0,1,2,0,1,0,0,0,1,0,0,1,0,0,1,1,1,1,1,2,0,1,1,1,0,1,0,0,1,1,1,0,0,0,0,0,0,0,0,0,1,0,0,0,1,1,0,0,0,0,0,1,0,0,0,0,0,0,0,0,0,0,0,0,0,0,0],"split_type":[0,0,0,0,0,0,0,0,0,0,0,0,0,0,0,0,0,0,0,0,0,0,0,0,0,0,0,0,0,0,0,0,0,0,0,0,0,0,0,0,0,0,0,0,0,0,0,0,0,0,0,0,0,0,0,0,0,0,0,0,0,0,0,0,0,0,0],"sum_hessian":[7.6E1,1.8E1,5.8E1,1E0,1.7E1,4.1E1,1.7E1,3E0,1.4E1,1.3E1,2.8E1,1.4E1,3E0,3E0,1.1E1,1E1,3E0,9E0,1.9E1,5E0,9E0,7E0,4E0,6E0,4E0,2E0,1E0,3E0,6E0,1.6E1,3E0,3E0,2E0,8E0,1E0,4E0,3E0,2E0,2E0,4E0,2E0,1E0,1E0,3E0,3E0,1.1E1,5E0,2E0,1E0,2E0,2E0,2E0,1E0,2E0,2E0,1E0,1E0,2E0,1E0,4E0,7E0,1E0,1E0,1E0,1E0,2E0,5E0],"tree_param":{"num_deleted":"0","num_feature":"6","num_nodes":"67","size_leaf_vector":"1"}},{"base_weights":[8.2259417E-1,1.4992265E0,5.907534E-1,1.0093822E0,1.0217489E0,4.0903467E-1,9.81944E-1,4.277718E-2,1.1690624E0,6.633518E-1,2.7215624E-1,1.1546259E0,1.7780215E-2,1.9901304E0,7.979512E-1,2.5045583E-1,1.6329777E0,3.6060983E-1,2.2128771E-1,1.5399686E0,8.0795765E-1,4.6242753E-1,1.0241089E-1,4.7107765E-1,1.1613586E0,3.11973E-1,2.284813E-2,2.0163453E0,4.828749E-2,7.969994E-2,1.5199691E-1,3.364587E-3,2.5443056E-1,3.5804358E-1,1.38596E-1,5.0770694E-1,3.5102138E-1,7.4433595E-1,1.1735395E-2,2.9305306E-1,9.406649E-2,1.24915555E-1,5.197444E-1,1.1920843E-1,4.8569518E-1,2.4806203E-3,4.3118455E-2,2.7338606E-1,1.1973986E-1,2.749489E-1,1.2778471E-1,6.009E-2,1.8802199E-1,1.1288462E-1,-2.9171228E-2,3.1425558E-2,1.0212962E-2,1.2789837E-1,2.802496E-2,1.2452355E-1,6.0044944E-2,3.184994E-3,4.3118455E-2,1.3070093E-1,-3.905131E-2,3.0565048E-2,3.300339E-3,5.2543577E-2,-2.9005945E-2],"categories":[],"categories_nodes":[],"categories_segments":[],"categories_sizes":[],"default_left":[0,0,0,0,0,0,0,0,0,0,0,0,0,0,0,0,0,0,0,0,0,0,0,0,0,0,0,0,0,0,0,0,0,0,0,0,0,0,0,0,0,0,0,0,0,0,0,0,0,0,0,0,0,0,0,0,0,0,0,0,0,0,0,0,0,0,0,0,0],"id":12,"left_children":[1,3,5,-1,7,9,11,-1,13,15,17,19,-1,21,23,25,27,29,31,33,35,-1,-1,37,39,41,-1,43,-1,-1,45,-1,47,-1,-1,49,-1,51,53,-1,-1,55,57,-1,-1,-1,-1,59,61,63,-1,-1,-1,65,-1,-1,-1,-1,-1,67,-1,-1,-1,-1,-1,-1,-1,-1,-1],"loss_changes":[1.11933975E1,2.702818E1,3.7924633E0,0E0,1.8921204E0,1.2815075E0,2.673174E0,0E0,2.982586E0,5.1959753E0,5.0687313E-2,7.5956154E-1,0E0,7.1986294E-1,8.783698E-1,5.6535304E-2,1.6470642E0,1.0568023E-2,1.3802719E-1,3.116417E-2,1.9527426E0,0E0,0E0,9.954177E-1,3.6087513E-1,2.0713216E-1,0E0,3.0857658E-1,0E0,0E0,2.3958541E-2,0E0,1.3221145E-2,0E0,0E0,9.920454E-2,0E0,1.520505E-1,8.022596E-2,0E0,0E0,3.8707778E-3,4.6766758E-2,0E0,0E0,0E0,0E0,2.2544026E-2,3.6370333E-2,1.017596E0,0E0,0E0,0E0,9.026904E-3,0E0,0E0,0E0,0E0,0E0,1.8710485E-1,0E0,0E0,0E0,0E0,0E0,0E0,0E0,0E0,0E0],"parents":[2147483647,0,0,1,1,2,2,4,4,5,5,6,6,8,8,9,9,10,10,11,11,13,13,14,14,15,15,16,16,17,17,18,18,19,19,20,20,23,23,24,24,25,25,27,27,30,30,32,32,35,35,37,37,38,38,41,41,42,42,47,47,48,48,49,49,53,53,59,59],"right_children":[2,4,6,-1,8,10,12,-1,14,16,18,20,-1,22,24,26,28,30,32,34,36,-1,-1,38,40,42,-1,44,-1,-1,46,-1,48,-1,-1,50,-1,52,54,-1,-1,56,58,-1,-1,-1,-1,60,62,64,-1,-1,-1,66,-1,-1,-1,-1,-1,68,-1,-1,-1,-1,-1,-1,-1,-1,-1],"split_conditions":[3.22E2,1E0,4E0,1.0093822E0,2E0,3.27E2,3.32E2,4.277718E-2,4E0,3.26E2,2E0,2E0,1.7780215E-2,3.2E2,1E1,8E0,6E0,6E0,1E0,5E0,3.3E2,4.6242753E-1,1.0241089E-1,6E0,1.1E1,2E0,2.284813E-2,3E0,4.828749E-2,7.969994E-2,9E0,3.364587E-3,7E0,3.5804358E-1,1.38596E-1,1.1E1,3.5102138E-1,3.21E2,3.2E2,2.9305306E-1,9.406649E-2,3.25E2,5E0,1.1920843E-1,4.8569518E-1,2.4806203E-3,4.3118455E-2,3E0,1E1,5E0,1.2778471E-1,6.009E-2,1.8802199E-1,7E0,-2.9171228E-2,3.1425558E-2,1.0212962E-2,1.2789837E-1,2.802496E-2,2E0,6.0044944E-2,3.184994E-3,4.3118455E-2,1.3070093E-1,-3.905131E-2,3.0565048E-2,3.300339E-3,5.2543577E-2,-2.9005945E-2],"split_indices":[0,1,2,0,1,0,0,0,1,0,2,1,0,0,1,1,1,1,1,2,0,0,0,1,1,1,0,1,0,0,1,0,1,0,0,1,0,0,0,0,0,0,1,0,0,0,0,2,1,1,0,0,0,1,0,0,0,0,0,1,0,0,0,0,0,0,0,0,0],"split_type":[0,0,0,0,0,0,0,0,0,0,0,0,0,0,0,0,0,0,0,0,0,0,0,0,0,0,0,0,0,0,0,0,0,0,0,0,0,0,0,0,0,0,0,0,0,0,0,0,0,0,0,0,0,0,0,0,0,0,0,0,0,0,0,0,0,0,0,0,0],"sum_hessian":[7.6E1,1.8E1,5.8E1,1E0,1.7E1,4.1E1,1.7E1,3E0,1.4E1,1.3E1,2.8E1,1.4E1,3E0,3E0,1.1E1,1E1,3E0,8E0,2E1,5E0,9E0,2E0,1E0,7E0,4E0,6E0,4E0,2E0,1E0,6E0,2E0,3E0,1.7E1,3E0,2E0,8E0,1E0,4E0,3E0,2E0,2E0,4E0,2E0,1E0,1E0,1E0,1E0,1.4E1,3E0,4E0,4E0,2E0,2E0,2E0,1E0,2E0,2E0,1E0,1E0,3E0,1.1E1,2E0,1E0,2E0,2E0,1E0,1E0,2E0,1E0],"tree_param":{"num_deleted":"0","num_feature":"6","num_nodes":"69","size_leaf_vector":"1"}},{"base_weights":[7.1617854E-1,1.3181666E0,5.101794E-1,9.0844405E-1,8.86707E-1,3.5418367E-1,8.45826E-1,3.636062E-2,1.0155675E0,5.9308153E-1,2.2664045E-1,9.9484026E-1,1.5113187E-2,1.733314E0,6.916882E-1,2.2040196E-1,1.4696801E0,6.048199E-2,1.833754E-1,1.314748E0,7.034116E-1,4.0077057E-1,9.216976E-2,4.0846288E-1,1.006511E0,2.7780154E-1,9.5962144E-2,1.814711E0,4.345875E-2,2.8599023E-3,2.107603E-1,2.836926E-1,7.961736E-2,4.3054712E-1,3.1591922E-1,6.4509106E-1,1.0561913E-2,2.5397938E-1,8.15243E-2,1.08260155E-1,4.6777E-1,5.2472353E-3,2.1366918E-2,1.072876E-1,4.3712568E-1,1.055032E-1,2.2477818E-1,2.3828897E-1,1.07339166E-1,5.207799E-2,1.6295236E-1,1.01596154E-1,-2.6254082E-2,2.7235476E-2,8.851242E-3,1.1510854E-1,2.522247E-2,4.553776E-2,-2.6105357E-2,2.4518347E-1,1.07367754E-1,1.13274135E-1,-3.384447E-2,2.7508546E-2,2.9703022E-3,2.946311E-2,5.880881E-2,2.760331E-3,3.8806606E-2],"categories":[],"categories_nodes":[],"categories_segments":[],"categories_sizes":[],"default_left":[0,0,0,0,0,0,0,0,0,0,0,0,0,0,0,0,0,0,0,0,0,0,0,0,0,0,0,0,0,0,0,0,0,0,0,0,0,0,0,0,0,0,0,0,0,0,0,0,0,0,0,0,0,0,0,0,0,0,0,0,0,0,0,0,0,0,0,0,0],"id":13,"left_children":[1,3,5,-1,7,9,11,-1,13,15,17,19,-1,21,23,25,27,-1,29,31,33,-1,-1,35,37,39,41,43,-1,-1,45,-1,-1,47,-1,49,51,-1,-1,53,55,-1,-1,-1,-1,57,59,61,-1,-1,-1,63,-1,-1,-1,-1,-1,-1,-1,65,67,-1,-1,-1,-1,-1,-1,-1,-1],"loss_changes":[8.876194E0,2.2402313E1,2.789627E0,0E0,1.4503851E0,1.1453156E0,1.990859E0,0E0,2.2880383E0,4.249746E0,3.9612412E-2,4.7364616E-1,0E0,4.5353222E-1,6.5886736E-1,5.1912308E-2,1.3341217E0,0E0,9.421885E-2,5.756378E-3,1.7107058E0,0E0,0E0,7.4642336E-1,2.7105808E-1,1.7481178E-1,9.875298E-4,2.499466E-1,0E0,0E0,2.8438568E-3,0E0,0E0,5.5782795E-2,0E0,1.1420679E-1,6.4982966E-2,0E0,0E0,2.9073693E-3,3.7881076E-2,0E0,0E0,0E0,0E0,1.4507735E-1,9.612143E-3,7.643276E-1,0E0,0E0,0E0,7.311797E-3,0E0,0E0,0E0,0E0,0E0,0E0,0E0,1.4065325E-2,2.9757753E-2,0E0,0E0,0E0,0E0,0E0,0E0,0E0,0E0],"parents":[2147483647,0,0,1,1,2,2,4,4,5,5,6,6,8,8,9,9,10,10,11,11,13,13,14,14,15,15,16,16,18,18,19,19,20,20,23,23,24,24,25,25,26,26,27,27,30,30,33,33,35,35,36,36,39,39,40,40,45,45,46,46,47,47,51,51,59,59,60,60],"right_children":[2,4,6,-1,8,10,12,-1,14,16,18,20,-1,22,24,26,28,-1,30,32,34,-1,-1,36,38,40,42,44,-1,-1,46,-1,-1,48,-1,50,52,-1,-1,54,56,-1,-1,-1,-1,58,60,62,-1,-1,-1,64,-1,-1,-1,-1,-1,-1,-1,66,68,-1,-1,-1,-1,-1,-1,-1,-1],"split_conditions":[3.22E2,1E0,4E0,9.0844405E-1,2E0,3.27E2,3.32E2,3.636062E-2,4E0,3.26E2,2E0,2E0,1.5113187E-2,3.2E2,1E1,8E0,6E0,6.048199E-2,1E0,3.3E2,3.3E2,4.0077057E-1,9.216976E-2,6E0,1.1E1,2E0,3.25E2,3E0,4.345875E-2,2.8599023E-3,3E0,2.836926E-1,7.961736E-2,1.1E1,3.1591922E-1,3.21E2,3.2E2,2.5397938E-1,8.15243E-2,3.25E2,5E0,5.2472353E-3,2.1366918E-2,1.072876E-1,4.3712568E-1,2E0,7E0,5E0,1.07339166E-1,5.207799E-2,1.6295236E-1,7E0,-2.6254082E-2,2.7235476E-2,8.851242E-3,1.1510854E-1,2.522247E-2,4.553776E-2,-2.6105357E-2,3E0,1E1,1.13274135E-1,-3.384447E-2,2.7508546E-2,2.9703022E-3,2.946311E-2,5.880881E-2,2.760331E-3,3.8806606E-2],"split_indices":[0,1,2,0,1,0,0,0,1,0,2,1,0,0,1,1,1,0,1,0,0,0,0,1,1,1,0,1,0,0,2,0,0,1,0,0,0,0,0,0,1,0,0,0,0,1,1,1,0,0,0,1,0,0,0,0,0,0,0,1,1,0,0,0,0,0,0,0,0],"split_type":[0,0,0,0,0,0,0,0,0,0,0,0,0,0,0,0,0,0,0,0,0,0,0,0,0,0,0,0,0,0,0,0,0,0,0,0,0,0,0,0,0,0,0,0,0,0,0,0,0,0,0,0,0,0,0,0,0,0,0,0,0,0,0,0,0,0,0,0,0],"sum_hessian":[7.6E1,1.8E1,5.8E1,1E0,1.7E1,4.1E1,1.7E1,3E0,1.4E1,1.3E1,2.8E1,1.4E1,3E0,3E0,1.1E1,1E1,3E0,8E0,2E1,5E0,9E0,2E0,1E0,7E0,4E0,6E0,4E0,2E0,1E0,3E0,1.7E1,4E0,1E0,8E0,1E0,4E0,3E0,2E0,2E0,4E0,2E0,1E0,3E0,1E0,1E0,3E0,1.4E1,4E0,4E0,2E0,2E0,2E0,1E0,2E0,2E0,1E0,1E0,2E0,1E0,1.1E1,3E0,2E0,2E0,1E0,1E0,5E0,6E0,2E0,1E0],"tree_param":{"num_deleted":"0","num_feature":"6","num_nodes":"69","size_leaf_vector":"1"}},{"base_weights":[6.232952E-1,1.159402E0,4.4008633E-1,8.175997E-1,7.6959115E-1,3.0724022E-1,7.256113E-1,3.0906511E-2,8.823007E-1,5.309585E-1,1.8864384E-1,8.5360533E-1,1.2846202E-2,1.5098865E0,5.9958035E-1,1.9477902E-1,1.3227122E0,2.4864815E-1,1.5394467E-1,1.1123497E0,6.129981E-1,3.4733456E-1,8.295279E-2,3.5417718E-1,8.723093E-1,2.4744377E-1,8.20926E-2,1.6332401E0,3.9112877E-2,7.351344E-2,1.6216168E-1,2.4309277E-3,1.7690109E-1,2.6178303E-1,9.5895864E-2,3.6518976E-1,2.8432733E-1,5.590789E-1,9.505764E-3,2.2011541E-1,7.065438E-2,9.382544E-2,4.2099306E-1,4.722512E-3,1.8161893E-2,9.655886E-2,3.9341316E-1,-2.342596E-2,2.973042E-1,8.926058E-2,1.8847848E-1,2.0651713E-1,9.016489E-2,4.5134258E-2,1.4122538E-1,9.1436565E-2,-2.3628665E-2,2.3604076E-2,7.6710703E-3,1.0359769E-1,2.2700226E-2,7.980623E-2,9.647588E-2,3.9466035E-2,-2.3494815E-2,2.0350279E-1,9.628591E-2,9.817092E-2,-2.9331876E-2,2.4757696E-2,2.6732744E-3,-3.815639E-3,3.2758404E-2,2.45526E-2,4.87273E-2,2.392284E-3,3.4925938E-2],"categories":[],"categories_nodes":[],"categories_segments":[],"categories_sizes":[],"default_left":[0,0,0,0,0,0,0,0,0,0,0,0,0,0,0,0,0,0,0,0,0,0,0,0,0,0,0,0,0,0,0,0,0,0,0,0,0,0,0,0,0,0,0,0,0,0,0,0,0,0,0,0,0,0,0,0,0,0,0,0,0,0,0,0,0,0,0,0,0,0,0,0,0,0,0,0,0],"id":14,"left_children":[1,3,5,-1,7,9,11,-1,13,15,17,19,-1,21,23,25,27,29,31,33,35,-1,-1,37,39,41,43,45,-1,-1,47,-1,49,-1,-1,51,-1,53,55,-1,-1,57,59,-1,-1,-1,-1,-1,61,63,65,67,-1,-1,-1,69,-1,-1,-1,-1,-1,-1,71,-1,-1,73,75,-1,-1,-1,-1,-1,-1,-1,-1,-1,-1],"loss_changes":[7.052664E0,1.8544287E1,2.014985E0,0E0,1.1114693E0,1.014189E0,1.4689207E0,0E0,1.7561703E0,3.4687617E0,2.2102833E-2,2.5196838E-1,0E0,2.7312565E-1,4.941907E-1,4.4967294E-2,1.0806394E0,3.2958686E-2,6.620461E-2,1.1880493E-1,1.4847062E0,0E0,0E0,5.596756E-1,2.0359445E-1,1.4712259E-1,4.0456653E-4,2.0245647E-1,0E0,0E0,2.9903233E-1,0E0,1.4400482E-3,0E0,0E0,2.9187918E-2,0E0,8.578193E-2,5.2636184E-2,0E0,0E0,2.1837652E-3,3.0683637E-2,0E0,0E0,0E0,0E0,0E0,6.365135E-2,1.1254808E-1,1.1824965E-3,5.740949E-1,0E0,0E0,0E0,5.9225596E-3,0E0,0E0,0E0,0E0,0E0,0E0,2.6460815E-2,0E0,0E0,8.975089E-3,2.4336379E-2,0E0,0E0,0E0,0E0,0E0,0E0,0E0,0E0,0E0,0E0],"parents":[2147483647,0,0,1,1,2,2,4,4,5,5,6,6,8,8,9,9,10,10,11,11,13,13,14,14,15,15,16,16,17,17,18,18,19,19,20,20,23,23,24,24,25,25,26,26,27,27,30,30,32,32,35,35,37,37,38,38,41,41,42,42,48,48,49,49,50,50,51,51,55,55,62,62,65,65,66,66],"right_children":[2,4,6,-1,8,10,12,-1,14,16,18,20,-1,22,24,26,28,30,32,34,36,-1,-1,38,40,42,44,46,-1,-1,48,-1,50,-1,-1,52,-1,54,56,-1,-1,58,60,-1,-1,-1,-1,-1,62,64,66,68,-1,-1,-1,70,-1,-1,-1,-1,-1,-1,72,-1,-1,74,76,-1,-1,-1,-1,-1,-1,-1,-1,-1,-1],"split_conditions":[3.22E2,1E0,4E0,8.175997E-1,2E0,3.27E2,3.32E2,3.0906511E-2,4E0,3.26E2,2E0,2E0,1.2846202E-2,3.2E2,1E1,8E0,6E0,1E0,1E0,5E0,3.3E2,3.4733456E-1,8.295279E-2,6E0,1.1E1,2E0,3.25E2,3E0,3.9112877E-2,7.351344E-2,3E0,2.4309277E-3,3E0,2.6178303E-1,9.5895864E-2,1.1E1,2.8432733E-1,3.21E2,3.2E2,2.2011541E-1,7.065438E-2,3.25E2,5E0,4.722512E-3,1.8161893E-2,9.655886E-2,3.9341316E-1,-2.342596E-2,6E0,2E0,7E0,5E0,9.016489E-2,4.5134258E-2,1.4122538E-1,7E0,-2.3628665E-2,2.3604076E-2,7.6710703E-3,1.0359769E-1,2.2700226E-2,7.980623E-2,9E0,3.9466035E-2,-2.3494815E-2,3E0,1E1,9.817092E-2,-2.9331876E-2,2.4757696E-2,2.6732744E-3,-3.815639E-3,3.2758404E-2,2.45526E-2,4.87273E-2,2.392284E-3,3.4925938E-2],"split_indices":[0,1,2,0,1,0,0,0,1,0,2,1,0,0,1,1,1,1,1,2,0,0,0,1,1,1,0,1,0,0,1,0,2,0,0,1,0,0,0,0,0,0,1,0,0,0,0,0,1,1,1,1,0,0,0,1,0,0,0,0,0,0,1,0,0,1,1,0,0,0,0,0,0,0,0,0,0],"split_type":[0,0,0,0,0,0,0,0,0,0,0,0,0,0,0,0,0,0,0,0,0,0,0,0,0,0,0,0,0,0,0,0,0,0,0,0,0,0,0,0,0,0,0,0,0,0,0,0,0,0,0,0,0,0,0,0,0,0,0,0,0,0,0,0,0,0,0,0,0,0,0,0,0,0,0,0,0],"sum_hessian":[7.6E1,1.8E1,5.8E1,1E0,1.7E1,4.1E1,1.7E1,3E0,1.4E1,1.3E1,2.8E1,1.4E1,3E0,3E0,1.1E1,1E1,3E0,8E0,2E1,5E0,9E0,2E0,1E0,7E0,4E0,6E0,4E0,2E0,1E0,2E0,6E0,3E0,1.7E1,3E0,2E0,8E0,1E0,4E0,3E0,2E0,2E0,4E0,2E0,1E0,3E0,1E0,1E0,2E0,4E0,3E0,1.4E1,4E0,4E0,2E0,2E0,2E0,1E0,2E0,2E0,1E0,1E0,2E0,2E0,2E0,1E0,1.1E1,3E0,2E0,2E0,1E0,1E0,1E0,1E0,5E0,6E0,2E0,1E0],"tree_param":{"num_deleted":"0","num_feature":"6","num_nodes":"77","size_leaf_vector":"1"}},{"base_weights":[5.450123E-1,1.0201387E0,3.8276795E-1,7.3583966E-1,6.680132E-1,5.0853187E-1,1.6381006E-1,2.6270509E-2,7.6658857E-1,3.4631738E-1,7.813649E-1,1.8593E-1,1.2257874E-2,1.3154814E0,5.197419E-1,5.3466797E-1,1.6013704E-1,5.9864354E-1,2.3817769E-1,1.3309313E-1,5.7406764E-2,-8.193135E-2,2.9482557E-2,3.0102336E-1,7.465754E-2,3.0711198E-1,7.5600135E-1,1.19320974E-1,1.3355317E0,4.2502643E-3,3.383717E-2,1.8134835E-1,4.7577284E-2,2.1088989E-1,3.865972E-2,-3.4340739E-3,-2.1145333E-2,4.4091573E-1,-6.286615E-2,1.9076666E-1,6.123379E-2,6.259861E-2,5.5987835E-2,1.2009392E-1,3.5407183E-1,-2.5420953E-2,4.1280046E-2,5.8749355E-2,1.0919267E-2,-2.0302488E-2,2.0460503E-2,4.0478226E-2,1.2239533E-1,2.4059475E-3,-2.1265794E-2,2.0456871E-2,2.3508271E-2,6.6482546E-3,2.0662905E-3],"categories":[],"categories_nodes":[],"categories_segments":[],"categories_sizes":[],"default_left":[0,0,0,0,0,0,0,0,0,0,0,0,0,0,0,0,0,0,0,0,0,0,0,0,0,0,0,0,0,0,0,0,0,0,0,0,0,0,0,0,0,0,0,0,0,0,0,0,0,0,0,0,0,0,0,0,0,0,0],"id":15,"left_children":[1,3,5,-1,7,9,11,-1,13,15,17,19,21,23,25,27,29,31,-1,33,-1,35,-1,-1,-1,37,39,41,43,-1,-1,-1,45,47,49,-1,-1,51,53,-1,-1,-1,55,-1,-1,-1,-1,-1,-1,-1,-1,-1,-1,-1,-1,-1,57,-1,-1],"loss_changes":[5.545187E0,1.53323765E1,1.5413799E0,0E0,8.5153294E-1,1.3669262E0,7.482433E-2,0E0,1.3486748E0,7.9105926E-1,2.5985527E-1,6.863791E-2,6.299827E-2,1.5285158E-1,3.706529E-1,3.8322792E0,1.3999075E-2,1.8244677E0,0E0,1.0204628E-1,0E0,2.8076563E-3,0E0,0E0,0E0,4.237544E-1,1.5292192E-1,9.2868954E-2,2.1545362E-1,0E0,0E0,0E0,1.6495204E-1,8.756244E-2,8.175255E-2,0E0,0E0,1.2095475E-1,1.1044668E-2,0E0,0E0,0E0,9.624999E-3,0E0,0E0,0E0,0E0,0E0,0E0,0E0,0E0,0E0,0E0,0E0,0E0,0E0,4.2606937E-4,0E0,0E0],"parents":[2147483647,0,0,1,1,2,2,4,4,5,5,6,6,8,8,9,9,10,10,11,11,12,12,13,13,14,14,15,15,16,16,17,17,19,19,21,21,25,25,26,26,27,27,28,28,32,32,33,33,34,34,37,37,38,38,42,42,56,56],"right_children":[2,4,6,-1,8,10,12,-1,14,16,18,20,22,24,26,28,30,32,-1,34,-1,36,-1,-1,-1,38,40,42,44,-1,-1,-1,46,48,50,-1,-1,52,54,-1,-1,-1,56,-1,-1,-1,-1,-1,-1,-1,-1,-1,-1,-1,-1,-1,58,-1,-1],"split_conditions":[3.22E2,1E0,3.32E2,7.3583966E-1,2E0,3.28E2,6E0,2.6270509E-2,4E0,6E0,2.1E1,3E0,9E0,3.2E2,1E1,2E0,1E0,5E0,2.3817769E-1,2E0,5.7406764E-2,3.33E2,2.9482557E-2,3.0102336E-1,7.465754E-2,7E0,1.1E1,3.24E2,5E0,4.2502643E-3,3.383717E-2,1.8134835E-1,1.1E1,3.34E2,3.33E2,-3.4340739E-3,-2.1145333E-2,3.21E2,3.2E2,1.9076666E-1,6.123379E-2,6.259861E-2,3.25E2,1.2009392E-1,3.5407183E-1,-2.5420953E-2,4.1280046E-2,5.8749355E-2,1.0919267E-2,-2.0302488E-2,2.0460503E-2,4.0478226E-2,1.2239533E-1,2.4059475E-3,-2.1265794E-2,2.0456871E-2,3.26E2,6.6482546E-3,2.0662905E-3],"split_indices":[0,1,0,0,1,0,1,0,1,1,1,1,1,0,1,1,2,1,0,1,0,0,0,0,0,1,1,0,1,0,0,0,1,0,0,0,0,0,0,0,0,0,0,0,0,0,0,0,0,0,0,0,0,0,0,0,0,0,0],"split_type":[0,0,0,0,0,0,0,0,0,0,0,0,0,0,0,0,0,0,0,0,0,0,0,0,0,0,0,0,0,0,0,0,0,0,0,0,0,0,0,0,0,0,0,0,0,0,0,0,0,0,0,0,0,0,0,0,0,0,0],"sum_hessian":[7.6E1,1.8E1,5.8E1,1E0,1.7E1,3.6E1,2.2E1,3E0,1.4E1,2.4E1,1.2E1,1.9E1,3E0,3E0,1.1E1,1.1E1,1.3E1,1E1,2E0,1.4E1,5E0,2E0,1E0,2E0,1E0,7E0,4E0,8E0,3E0,1E0,1.2E1,6E0,4E0,7E0,7E0,1E0,1E0,5E0,2E0,2E0,2E0,1E0,7E0,2E0,1E0,2E0,2E0,4E0,3E0,2E0,5E0,3E0,2E0,1E0,1E0,2E0,5E0,2E0,3E0],"tree_param":{"num_deleted":"0","num_feature":"6","num_nodes":"59","size_leaf_vector":"1"}},{"base_weights":[4.7114426E-1,8.9683753E-1,3.2607108E-1,6.622557E-1,5.78742E-1,4.349176E-1,1.3679315E-1,2.232995E-2,6.647172E-1,1.4369185E-1,5.3745705E-1,1.5510571E-1,1.1032075E-2,1.1463053E0,4.487947E-1,1.9073096E-1,9.819746E-3,1.0634403E0,4.2739916E-1,1.2108037E-1,6.1511166E-2,-7.373822E-2,2.6534295E-2,2.6088688E-1,6.7191795E-2,2.6369128E-1,6.5520126E-1,7.047329E-2,3.2758343E-1,1.3118607E0,3.181789E-2,9.059069E-2,6.2344486E-1,1.7742059E-1,6.909836E-2,-3.0906678E-3,-1.9030798E-2,4.1938552E-1,3.150642E-3,1.6533114E-1,5.3069275E-2,1.7729282E-2,5.7618143E-3,8.122855E-2,1.7046487E-2,7.489357E-2,3.1866464E-1,1.7563343E-3,1.2439717E-1,8.1816053E-1,4.4427094E-1,4.9349483E-2,9.281385E-3,-1.7595483E-2,2.2755872E-2,3.3719253E-2,1.0607592E-1,6.799817E-2,-1.9139195E-2,3.1342924E-2,6.098044E-2,1.9531317E-1,6.684666E-2,2.3577124E-1,2.3207684E-1,1.8234098E-2,2.1653534E-3,-2.4383068E-3,2.8049637E-2,1.16610624E-1,6.1555516E-2,6.090171E-2,-2.20315E-2],"categories":[],"categories_nodes":[],"categories_segments":[],"categories_sizes":[],"default_left":[0,0,0,0,0,0,0,0,0,0,0,0,0,0,0,0,0,0,0,0,0,0,0,0,0,0,0,0,0,0,0,0,0,0,0,0,0,0,0,0,0,0,0,0,0,0,0,0,0,0,0,0,0,0,0,0,0,0,0,0,0,0,0,0,0,0,0,0,0,0,0,0,0],"id":16,"left_children":[1,3,5,-1,7,9,11,-1,13,15,17,19,21,23,25,27,-1,29,31,33,-1,35,-1,-1,-1,37,39,41,43,45,-1,47,49,51,53,-1,-1,55,57,-1,-1,-1,-1,-1,-1,-1,-1,-1,59,61,63,-1,-1,-1,-1,-1,-1,65,-1,-1,67,-1,-1,69,-1,-1,-1,-1,-1,71,-1,-1,-1],"loss_changes":[4.4628296E0,1.2676058E1,1.1560392E0,0E0,6.4863396E-1,1.0276704E0,5.1258028E-2,0E0,1.04533E0,3.9580718E-2,1.108479E0,6.650436E-2,5.1028587E-2,7.432079E-2,2.857077E-1,9.211701E-2,0E0,6.8993425E-1,1.5282378E0,4.0456712E-2,0E0,2.2742003E-3,0E0,0E0,0E0,3.231961E-1,1.1486173E-1,1.2320224E-3,2.2500247E-2,1.9487429E-1,0E0,2.6564345E-2,1.5983438E-1,6.1211288E-2,8.721134E-2,0E0,0E0,4.976058E-2,3.2146983E-2,0E0,0E0,0E0,0E0,0E0,0E0,0E0,0E0,0E0,4.78974E-3,1.335392E-1,1.2195088E0,0E0,0E0,0E0,0E0,0E0,0E0,2.987302E-3,0E0,0E0,2.491055E-2,0E0,0E0,4.133278E-2,0E0,0E0,0E0,0E0,0E0,2.4659017E-1,0E0,0E0,0E0],"parents":[2147483647,0,0,1,1,2,2,4,4,5,5,6,6,8,8,9,9,10,10,11,11,12,12,13,13,14,14,15,15,17,17,18,18,19,19,21,21,25,25,26,26,27,27,28,28,29,29,31,31,32,32,33,33,34,34,37,37,38,38,48,48,49,49,50,50,57,57,60,60,63,63,69,69],"right_children":[2,4,6,-1,8,10,12,-1,14,16,18,20,22,24,26,28,-1,30,32,34,-1,36,-1,-1,-1,38,40,42,44,46,-1,48,50,52,54,-1,-1,56,58,-1,-1,-1,-1,-1,-1,-1,-1,-1,60,62,64,-1,-1,-1,-1,-1,-1,66,-1,-1,68,-1,-1,70,-1,-1,-1,-1,-1,72,-1,-1,-1],"split_conditions":[3.22E2,1E0,3.32E2,6.622557E-1,2E0,2E0,6E0,2.232995E-2,4E0,8E0,3E0,5E0,9E0,3.2E2,1E1,2E0,9.819746E-3,6E0,4E0,2E0,6.1511166E-2,3.33E2,2.6534295E-2,2.6088688E-1,6.7191795E-2,6E0,1.1E1,3.25E2,5E0,3E0,3.181789E-2,1E0,2E0,3.34E2,3.33E2,-3.0906678E-3,-1.9030798E-2,3.21E2,3.2E2,1.6533114E-1,5.3069275E-2,1.7729282E-2,5.7618143E-3,8.122855E-2,1.7046487E-2,7.489357E-2,3.1866464E-1,1.7563343E-3,7E0,5E0,3.3E2,4.9349483E-2,9.281385E-3,-1.7595483E-2,2.2755872E-2,3.3719253E-2,1.0607592E-1,7E0,-1.9139195E-2,3.1342924E-2,1E1,1.9531317E-1,6.684666E-2,1.1E1,2.3207684E-1,1.8234098E-2,2.1653534E-3,-2.4383068E-3,2.8049637E-2,5E0,6.1555516E-2,6.090171E-2,-2.20315E-2],"split_indices":[0,1,0,0,1,2,1,0,1,1,2,1,1,0,1,1,0,1,2,1,0,0,0,0,0,1,1,0,1,1,0,1,1,0,0,0,0,0,0,0,0,0,0,0,0,0,0,0,1,2,0,0,0,0,0,0,0,1,0,0,1,0,0,1,0,0,0,0,0,1,0,0,0],"split_type":[0,0,0,0,0,0,0,0,0,0,0,0,0,0,0,0,0,0,0,0,0,0,0,0,0,0,0,0,0,0,0,0,0,0,0,0,0,0,0,0,0,0,0,0,0,0,0,0,0,0,0,0,0,0,0,0,0,0,0,0,0,0,0,0,0,0,0,0,0,0,0,0,0],"sum_hessian":[7.6E1,1.8E1,5.8E1,1E0,1.7E1,3.6E1,2.2E1,3E0,1.4E1,1E1,2.6E1,1.9E1,3E0,3E0,1.1E1,6E0,4E0,3E0,2.3E1,1.7E1,2E0,2E0,1E0,2E0,1E0,7E0,4E0,4E0,2E0,2E0,1E0,9E0,1.4E1,7E0,1E1,1E0,1E0,4E0,3E0,2E0,2E0,2E0,2E0,1E0,1E0,1E0,1E0,3E0,6E0,5E0,9E0,4E0,3E0,2E0,8E0,2E0,2E0,2E0,1E0,3E0,3E0,3E0,2E0,8E0,1E0,1E0,1E0,2E0,1E0,4E0,4E0,2E0,2E0],"tree_param":{"num_deleted":"0","num_feature":"6","num_nodes":"73","size_leaf_vector":"1"}},{"base_weights":[4.121384E-1,7.8968686E-1,2.835696E-1,5.9603006E-1,5.024305E-1,3.8064587E-1,1.1507436E-1,1.8980479E-2,5.776093E-1,1.2691581E-1,4.6991938E-1,1.6904166E-1,7.5022355E-2,9.9906373E-1,3.889904E-1,1.699799E-1,8.248587E-3,9.570963E-1,3.6914325E-1,4.929854E-2,1.11699544E-1,9.261518E-2,-1.7127717E-2,2.2610195E-1,6.0472585E-2,2.2858486E-1,5.678412E-1,6.107683E-2,2.9482505E-1,1.1806747E0,2.8636098E-2,7.8343555E-2,5.384002E-1,-1.5249412E-2,2.021276E-1,2.0705981E-2,7.889176E-3,3.3024058E-1,-5.09215E-2,1.4328703E-1,4.5993377E-2,1.5365379E-2,4.993566E-3,7.310567E-2,1.5341843E-2,6.7404225E-2,2.867982E-1,1.4928699E-3,1.0765403E-1,4.319112E-1,8.2038563E-1,5.3309698E-2,7.033086E-2,3.0122852E-2,9.193242E-2,1.9488157E-3,-1.7225266E-2,2.6641477E-2,5.5187166E-2,1.5267467E-1,1.997754E-1,3.7246514E-2,2.0886917E-1,-2.7816058E-3,2.3880864E-2,-2.1131993E-3,2.5244666E-2,1.0106258E-1,5.170663E-2,5.278149E-2,-1.9093959E-2],"categories":[],"categories_nodes":[],"categories_segments":[],"categories_sizes":[],"default_left":[0,0,0,0,0,0,0,0,0,0,0,0,0,0,0,0,0,0,0,0,0,0,0,0,0,0,0,0,0,0,0,0,0,0,0,0,0,0,0,0,0,0,0,0,0,0,0,0,0,0,0,0,0,0,0,0,0,0,0,0,0,0,0,0,0,0,0,0,0,0,0],"id":17,"left_children":[1,3,5,-1,7,9,11,-1,13,15,17,19,21,23,25,27,-1,29,31,-1,33,35,-1,-1,-1,37,39,41,43,45,-1,47,49,-1,51,-1,-1,53,55,-1,-1,-1,-1,-1,-1,-1,-1,-1,57,59,61,-1,63,-1,-1,-1,-1,-1,65,-1,67,-1,-1,-1,-1,-1,-1,69,-1,-1,-1],"loss_changes":[3.5137215E0,1.0457946E1,9.212537E-1,0E0,4.9665833E-1,7.7846E-1,3.7032545E-2,0E0,8.037882E-1,3.3573195E-2,9.7228146E-1,1.2437731E-2,5.032862E-2,2.4489641E-2,2.1446395E-1,7.716516E-2,0E0,5.588465E-1,1.1390965E0,0E0,1.3438115E-1,4.0407777E-3,0E0,0E0,0E0,2.4412364E-1,8.627403E-2,9.253938E-4,1.8225133E-2,1.5784836E-1,0E0,1.9971468E-2,9.609079E-2,0E0,2.370572E-2,0E0,0E0,7.025343E-2,7.246386E-3,0E0,0E0,0E0,0E0,0E0,0E0,0E0,0E0,0E0,2.0335838E-3,8.477719E-1,2.3158407E-1,0E0,1.4062359E-2,0E0,0E0,0E0,0E0,0E0,2.0017084E-2,0E0,2.6073217E-2,0E0,0E0,0E0,0E0,0E0,0E0,1.8521662E-1,0E0,0E0,0E0],"parents":[2147483647,0,0,1,1,2,2,4,4,5,5,6,6,8,8,9,9,10,10,11,11,12,12,13,13,14,14,15,15,17,17,18,18,20,20,21,21,25,25,26,26,27,27,28,28,29,29,31,31,32,32,34,34,37,37,38,38,48,48,49,49,50,50,52,52,58,58,60,60,67,67],"right_children":[2,4,6,-1,8,10,12,-1,14,16,18,20,22,24,26,28,-1,30,32,-1,34,36,-1,-1,-1,38,40,42,44,46,-1,48,50,-1,52,-1,-1,54,56,-1,-1,-1,-1,-1,-1,-1,-1,-1,58,60,62,-1,64,-1,-1,-1,-1,-1,66,-1,68,-1,-1,-1,-1,-1,-1,70,-1,-1,-1],"split_conditions":[3.22E2,1E0,3.32E2,5.9603006E-1,2E0,2E0,3.33E2,1.8980479E-2,4E0,8E0,3E0,1E0,5E0,3.2E2,1E1,2E0,8.248587E-3,6E0,4E0,4.929854E-2,3E0,3.35E2,-1.7127717E-2,2.2610195E-1,6.0472585E-2,7E0,1.1E1,3.25E2,5E0,3E0,2.8636098E-2,1E0,3.3E2,-1.5249412E-2,6E0,2.0705981E-2,7.889176E-3,3.21E2,3.2E2,1.4328703E-1,4.5993377E-2,1.5365379E-2,4.993566E-3,7.310567E-2,1.5341843E-2,6.7404225E-2,2.867982E-1,1.4928699E-3,7E0,2E0,1E0,5.3309698E-2,9E0,3.0122852E-2,9.193242E-2,1.9488157E-3,-1.7225266E-2,2.6641477E-2,1E1,1.5267467E-1,1.1E1,3.7246514E-2,2.0886917E-1,-2.7816058E-3,2.3880864E-2,-2.1131993E-3,2.5244666E-2,5E0,5.170663E-2,5.278149E-2,-1.9093959E-2],"split_indices":[0,1,0,0,1,2,0,0,1,1,2,1,1,0,1,1,0,1,2,0,1,0,0,0,0,1,1,0,1,1,0,1,0,0,1,0,0,0,0,0,0,0,0,0,0,0,0,0,1,1,1,0,1,0,0,0,0,0,1,0,1,0,0,0,0,0,0,1,0,0,0],"split_type":[0,0,0,0,0,0,0,0,0,0,0,0,0,0,0,0,0,0,0,0,0,0,0,0,0,0,0,0,0,0,0,0,0,0,0,0,0,0,0,0,0,0,0,0,0,0,0,0,0,0,0,0,0,0,0,0,0,0,0,0,0,0,0,0,0,0,0,0,0,0,0],"sum_hessian":[7.6E1,1.8E1,5.8E1,1E0,1.7E1,3.6E1,2.2E1,3E0,1.4E1,1E1,2.6E1,8E0,1.4E1,3E0,1.1E1,6E0,4E0,3E0,2.3E1,2E0,6E0,1.3E1,1E0,2E0,1E0,7E0,4E0,4E0,2E0,2E0,1E0,9E0,1.4E1,2E0,4E0,1E1,3E0,5E0,2E0,2E0,2E0,2E0,2E0,1E0,1E0,1E0,1E0,3E0,6E0,1.2E1,2E0,2E0,2E0,3E0,2E0,1E0,1E0,3E0,3E0,4E0,8E0,1E0,1E0,1E0,1E0,2E0,1E0,4E0,4E0,2E0,2E0],"tree_param":{"num_deleted":"0","num_feature":"6","num_nodes":"71","size_leaf_vector":"1"}},{"base_weights":[3.6026806E-1,6.947834E-1,2.4643655E-1,5.3642714E-1,4.353674E-1,3.3249903E-1,9.727361E-2,1.6133403E-2,5.0092965E-1,1.3009413E-1,4.244496E-1,1.4728414E-1,6.0782384E-2,1.7417884E-1,3.35864E-1,1.7556998E-1,4.7777295E-2,8.6138654E-1,3.2571337E-1,4.2725373E-2,9.781095E-2,7.613466E-2,-1.5414941E-2,1.8428465E-2,4.0686655E-1,1.0142207E-1,2.6534247E-1,2.018404E-3,1.065919E-2,1.0626072E0,2.5772477E-2,6.780143E-2,4.9905226E-1,-1.3216145E-2,1.7658377E-1,1.6941257E-2,6.705803E-3,2.3636651E-1,1.12179995E-1,2.7180815E-2,4.3277424E-3,6.579509E-2,1.3807654E-2,6.0663797E-2,2.5811836E-1,1.2689233E-3,9.323369E-2,3.586888E-1,1.6947351E-1,4.6201706E-2,6.329775E-2,3.146453E-1,-1.5502739E-2,2.264527E-2,4.99326E-2,5.548118E-1,1.2378884E-2,-2.5034428E-3,2.1492768E-2,2.5206981E-2,7.967479E-2,-1.8314362E-3,2.2720193E-2,6.395046E-1,4.5743942E-2,-1.6548093E-2,2.0674389E-2,1.4311524E-1,3.3521842E-2],"categories":[],"categories_nodes":[],"categories_segments":[],"categories_sizes":[],"default_left":[0,0,0,0,0,0,0,0,0,0,0,0,0,0,0,0,0,0,0,0,0,0,0,0,0,0,0,0,0,0,0,0,0,0,0,0,0,0,0,0,0,0,0,0,0,0,0,0,0,0,0,0,0,0,0,0,0,0,0,0,0,0,0,0,0,0,0,0,0],"id":18,"left_children":[1,3,5,-1,7,9,11,-1,13,15,17,19,21,-1,23,25,27,29,31,-1,33,35,-1,-1,37,39,41,-1,-1,43,-1,45,47,-1,49,-1,-1,51,-1,-1,-1,-1,-1,-1,-1,-1,53,55,-1,-1,57,59,-1,-1,61,63,65,-1,-1,-1,-1,-1,-1,67,-1,-1,-1,-1,-1],"loss_changes":[2.7608156E0,8.627753E0,7.2505903E-1,0E0,3.7818074E-1,6.333976E-1,3.302148E-2,0E0,6.2352467E-1,4.0276304E-2,7.9797316E-1,8.644626E-3,3.7614357E-2,0E0,1.7016864E-1,2.6339978E-2,7.099677E-4,4.5266557E-1,9.496994E-1,0E0,1.02040246E-1,2.272673E-3,0E0,0E0,1.0378635E-1,1.3565753E-2,1.4762357E-2,0E0,0E0,1.2785721E-1,0E0,1.5038326E-2,3.3163857E-1,0E0,1.620549E-2,0E0,0E0,1.718103E-1,0E0,0E0,0E0,0E0,0E0,0E0,0E0,0E0,4.062429E-4,7.402446E-1,0E0,0E0,1.1390501E-2,2.8751433E-2,0E0,0E0,1.6088866E-2,4.7056437E-2,5.1829044E-2,0E0,0E0,0E0,0E0,0E0,0E0,5.9551954E-2,0E0,0E0,0E0,0E0,0E0],"parents":[2147483647,0,0,1,1,2,2,4,4,5,5,6,6,8,8,9,9,10,10,11,11,12,12,14,14,15,15,16,16,17,17,18,18,20,20,21,21,24,24,25,25,26,26,29,29,31,31,32,32,34,34,37,37,46,46,47,47,50,50,51,51,54,54,55,55,56,56,63,63],"right_children":[2,4,6,-1,8,10,12,-1,14,16,18,20,22,-1,24,26,28,30,32,-1,34,36,-1,-1,38,40,42,-1,-1,44,-1,46,48,-1,50,-1,-1,52,-1,-1,-1,-1,-1,-1,-1,-1,54,56,-1,-1,58,60,-1,-1,62,64,66,-1,-1,-1,-1,-1,-1,68,-1,-1,-1,-1,-1],"split_conditions":[3.22E2,1E0,3.32E2,5.3642714E-1,2E0,3.26E2,3.33E2,1.6133403E-2,4E0,8E0,3.27E2,1E0,5E0,1.7417884E-1,3.2E2,2E0,1.2E1,6E0,3.28E2,4.2725373E-2,3E0,3.35E2,-1.5414941E-2,1.8428465E-2,9E0,3.25E2,5E0,2.018404E-3,1.065919E-2,3E0,2.5772477E-2,1E0,2.1E1,-1.3216145E-2,6E0,1.6941257E-2,6.705803E-3,6E0,1.12179995E-1,2.7180815E-2,4.3277424E-3,6.579509E-2,1.3807654E-2,6.0663797E-2,2.5811836E-1,1.2689233E-3,7E0,5E0,1.6947351E-1,4.6201706E-2,9E0,3.21E2,-1.5502739E-2,2.264527E-2,1E1,2E0,1.1E1,-2.5034428E-3,2.1492768E-2,2.5206981E-2,7.967479E-2,-1.8314362E-3,2.2720193E-2,3.3E2,4.5743942E-2,-1.6548093E-2,2.0674389E-2,1.4311524E-1,3.3521842E-2],"split_indices":[0,1,0,0,1,0,0,0,1,1,0,1,1,0,0,1,1,1,0,0,1,0,0,0,1,0,1,0,0,1,0,1,1,0,1,0,0,1,0,0,0,0,0,0,0,0,1,1,0,0,1,0,0,0,1,1,1,0,0,0,0,0,0,0,0,0,0,0,0],"split_type":[0,0,0,0,0,0,0,0,0,0,0,0,0,0,0,0,0,0,0,0,0,0,0,0,0,0,0,0,0,0,0,0,0,0,0,0,0,0,0,0,0,0,0,0,0,0,0,0,0,0,0,0,0,0,0,0,0,0,0,0,0,0,0,0,0,0,0,0,0],"sum_hessian":[7.6E1,1.8E1,5.8E1,1E0,1.7E1,3.6E1,2.2E1,3E0,1.4E1,1.2E1,2.4E1,8E0,1.4E1,3E0,1.1E1,7E0,5E0,3E0,2.1E1,2E0,6E0,1.3E1,1E0,3E0,8E0,5E0,2E0,1E0,4E0,2E0,1E0,9E0,1.2E1,2E0,4E0,1E1,3E0,5E0,3E0,3E0,2E0,1E0,1E0,1E0,1E0,3E0,6E0,1E1,2E0,2E0,2E0,4E0,1E0,3E0,3E0,6E0,4E0,1E0,1E0,2E0,2E0,2E0,1E0,4E0,2E0,2E0,2E0,3E0,1E0],"tree_param":{"num_deleted":"0","num_feature":"6","num_nodes":"69","size_leaf_vector":"1"}},{"base_weights":[3.1365323E-1,6.056545E-1,2.1430276E-1,4.8278448E-1,3.7108836E-1,1.8652311E-1,6.7068195E-1,1.3713407E-2,4.270215E-1,2.4968715E-1,8.22942E-2,3.0169679E-2,1.7103492E-1,7.402599E-1,2.8702357E-1,4.1345468E-1,9.00169E-2,1.2834954E-1,4.9174722E-2,1.7273103E-1,3.700743E-2,1.566419E-2,3.478888E-1,2.9410404E-1,2.3230648E-1,2.8847039E-2,1.4218506E-1,3.7028633E-2,8.567377E-2,6.2596805E-2,-1.3873446E-2,2.0398974E-1,4.7676516E-1,2.7826706E-2,4.126095E-1,6.2949434E-2,-1.4341672E-2,8.953715E-3,1.9966798E-1,-1.1453978E-2,1.5430522E-1,1.3861028E-2,5.6999386E-3,2.726926E-1,-1.3952446E-2,1.0922483E-1,2.686882E-2,9.692558E-3,1.0785938E-3,1.9302043E-1,5.105146E-1,2.0369545E-2,-1.4107823E-3,1.7917825E-2,4.6462025E-2,4.004148E-2,5.6967974E-2,2.184604E-2,6.905149E-2,9.3236566E-2,5.9215594E-2,1.1915725E-1,3.964475E-2,1.8165589E-3,-1.5872478E-3,-2.2531033E-3,1.9343495E-2,3.166857E-2,3.7507059E-3],"categories":[],"categories_nodes":[],"categories_segments":[],"categories_sizes":[],"default_left":[0,0,0,0,0,0,0,0,0,0,0,0,0,0,0,0,0,0,0,0,0,0,0,0,0,0,0,0,0,0,0,0,0,0,0,0,0,0,0,0,0,0,0,0,0,0,0,0,0,0,0,0,0,0,0,0,0,0,0,0,0,0,0,0,0,0,0,0,0],"id":19,"left_children":[1,3,5,-1,7,9,11,-1,13,15,17,-1,-1,19,21,23,25,27,29,-1,-1,-1,31,33,-1,35,37,-1,39,41,-1,43,45,47,49,51,-1,-1,53,-1,55,-1,-1,57,-1,-1,-1,-1,-1,59,61,-1,63,-1,-1,-1,65,-1,-1,67,-1,-1,-1,-1,-1,-1,-1,-1,-1],"loss_changes":[2.104012E0,7.1632314E0,6.229074E-1,0E0,2.7529764E-1,3.547126E-1,1.5871465E-1,0E0,4.4531894E-1,8.779905E-1,2.8771013E-2,0E0,0E0,1.1423874E-1,1.2518579E-1,1.176209E0,5.6529656E-2,5.951494E-3,2.8208371E-2,0E0,0E0,0E0,6.9651484E-2,4.9340355E-1,0E0,3.88058E-2,4.7058985E-2,0E0,7.751005E-2,1.2271143E-3,0E0,1.3186885E-1,2.163136E-2,2.5163083E-3,1.3794804E-1,2.0171702E-2,0E0,0E0,7.468015E-4,0E0,1.0934547E-2,0E0,0E0,2.1595597E-2,0E0,0E0,0E0,0E0,0E0,2.38121E-2,6.830764E-2,0E0,3.4598474E-4,0E0,0E0,0E0,9.226315E-3,0E0,0E0,1.6427763E-2,0E0,0E0,0E0,0E0,0E0,0E0,0E0,0E0,0E0],"parents":[2147483647,0,0,1,1,2,2,4,4,5,5,6,6,8,8,9,9,10,10,13,13,14,14,15,15,16,16,17,17,18,18,22,22,23,23,25,25,26,26,28,28,29,29,31,31,32,32,33,33,34,34,35,35,38,38,40,40,43,43,49,49,50,50,52,52,56,56,59,59],"right_children":[2,4,6,-1,8,10,12,-1,14,16,18,-1,-1,20,22,24,26,28,30,-1,-1,-1,32,34,-1,36,38,-1,40,42,-1,44,46,48,50,52,-1,-1,54,-1,56,-1,-1,58,-1,-1,-1,-1,-1,60,62,-1,64,-1,-1,-1,66,-1,-1,68,-1,-1,-1,-1,-1,-1,-1,-1,-1],"split_conditions":[3.22E2,1E0,6E0,4.8278448E-1,2E0,3.3E2,1E0,1.3713407E-2,4E0,6E0,3.33E2,3.0169679E-2,1.7103492E-1,3.2E2,3.2E2,5E0,1.2E1,1E0,5E0,1.7273103E-1,3.700743E-2,1.566419E-2,9E0,1E0,2.3230648E-1,3.28E2,3.26E2,3.7028633E-2,3E0,3.35E2,-1.3873446E-2,6E0,3.21E2,3.25E2,3.26E2,8E0,-1.4341672E-2,8.953715E-3,2.1E1,-1.1453978E-2,6E0,1.3861028E-2,5.6999386E-3,3.21E2,-1.3952446E-2,1.0922483E-1,2.686882E-2,9.692558E-3,1.0785938E-3,2E0,3E0,2.0369545E-2,3.25E2,1.7917825E-2,4.6462025E-2,4.004148E-2,9E0,2.184604E-2,6.905149E-2,3.24E2,5.9215594E-2,1.1915725E-1,3.964475E-2,1.8165589E-3,-1.5872478E-3,-2.2531033E-3,1.9343495E-2,3.166857E-2,3.7507059E-3],"split_indices":[0,1,2,0,1,0,1,0,1,1,0,0,0,0,0,1,1,1,1,0,0,0,1,1,0,0,0,0,1,0,0,1,0,0,0,1,0,0,1,0,1,0,0,0,0,0,0,0,0,1,1,0,0,0,0,0,1,0,0,0,0,0,0,0,0,0,0,0,0],"split_type":[0,0,0,0,0,0,0,0,0,0,0,0,0,0,0,0,0,0,0,0,0,0,0,0,0,0,0,0,0,0,0,0,0,0,0,0,0,0,0,0,0,0,0,0,0,0,0,0,0,0,0,0,0,0,0,0,0,0,0,0,0,0,0,0,0,0,0,0,0],"sum_hessian":[7.6E1,1.8E1,5.8E1,1E0,1.7E1,5.6E1,2E0,3E0,1.4E1,3.4E1,2.2E1,1E0,1E0,3E0,1.1E1,1.6E1,1.8E1,8E0,1.4E1,2E0,1E0,3E0,8E0,1.5E1,1E0,9E0,9E0,2E0,6E0,1.3E1,1E0,5E0,3E0,5E0,1E1,7E0,2E0,4E0,5E0,2E0,4E0,1E1,3E0,4E0,1E0,2E0,1E0,2E0,3E0,4E0,6E0,4E0,3E0,2E0,3E0,2E0,2E0,2E0,2E0,3E0,1E0,4E0,2E0,1E0,2E0,1E0,1E0,1E0,2E0],"tree_param":{"num_deleted":"0","num_feature":"6","num_nodes":"69","size_leaf_vector":"1"}},{"base_weights":[2.743075E-1,5.337308E-1,1.8611512E-1,4.3450603E-1,3.2199028E-1,1.6087633E-1,6.0361385E-1,1.1656404E-2,3.7084648E-1,2.1620981E-1,6.967857E-2,2.715273E-2,1.5393142E-1,6.4464235E-1,2.486773E-1,3.5997036E-1,7.62025E-2,1.1186918E-1,3.9718963E-2,1.4970016E-1,3.3306696E-2,1.4242913E-1,3.6893892E-1,2.5179613E-1,2.0907584E-1,2.3703348E-2,1.210814E-1,3.209146E-2,7.506438E-2,5.147467E-2,-1.24861E-2,2.1359311E-1,-4.7375202E-2,9.466146E-2,2.8318182E-2,2.4056554E-2,3.5312712E-1,5.2934423E-2,-1.242946E-2,7.521105E-3,3.409288E-2,-9.926796E-3,1.3487053E-1,3.9175943E-2,1.4485503E-2,1.919449E-2,5.984459E-2,-1.6553402E-3,-1.2557221E-2,8.400218E-3,9.168029E-4,1.7334327E-1,4.3109745E-1,1.711042E-2,-1.0712743E-3,3.470262E-2,5.1271122E-2,1.2922986E-2,5.2686795E-3,8.3444E-2,5.329404E-2,1.0009201E-1,3.435879E-2,1.6349078E-3,-1.3756116E-3,-2.0277977E-3,1.7409135E-2,2.8501702E-2,3.250599E-3],"categories":[],"categories_nodes":[],"categories_segments":[],"categories_sizes":[],"default_left":[0,0,0,0,0,0,0,0,0,0,0,0,0,0,0,0,0,0,0,0,0,0,0,0,0,0,0,0,0,0,0,0,0,0,0,0,0,0,0,0,0,0,0,0,0,0,0,0,0,0,0,0,0,0,0,0,0,0,0,0,0,0,0,0,0,0,0,0,0],"id":20,"left_children":[1,3,5,-1,7,9,11,-1,13,15,17,-1,-1,19,21,23,25,27,29,-1,-1,31,33,35,-1,37,39,-1,41,43,-1,45,47,-1,-1,49,51,53,-1,-1,-1,-1,55,57,-1,-1,-1,-1,-1,-1,-1,59,61,-1,63,-1,65,-1,-1,67,-1,-1,-1,-1,-1,-1,-1,-1,-1],"loss_changes":[1.6623592E0,5.8934712E0,5.245857E-1,0E0,2.1029449E-1,2.7257335E-1,1.2855875E-1,0E0,3.414333E-1,6.770326E-1,2.4628997E-2,0E0,0E0,7.3972106E-2,1.0078329E-1,9.972186E-1,4.1895933E-2,4.0498525E-3,2.1226186E-2,0E0,0E0,1.1817688E-1,5.1623642E-2,3.6073828E-1,0E0,2.8384801E-2,3.4812495E-2,0E0,5.889826E-2,7.7028945E-4,0E0,3.1713873E-2,1.2879679E-3,0E0,0E0,1.9040201E-3,7.946801E-2,1.418397E-2,0E0,0E0,0E0,0E0,7.2562695E-3,1.888739E-3,0E0,0E0,0E0,0E0,0E0,0E0,0E0,1.9624874E-2,3.9925814E-2,0E0,2.709787E-4,0E0,7.4733114E-3,0E0,0E0,1.3558228E-2,0E0,0E0,0E0,0E0,0E0,0E0,0E0,0E0,0E0],"parents":[2147483647,0,0,1,1,2,2,4,4,5,5,6,6,8,8,9,9,10,10,13,13,14,14,15,15,16,16,17,17,18,18,21,21,22,22,23,23,25,25,26,26,28,28,29,29,31,31,32,32,35,35,36,36,37,37,42,42,43,43,51,51,52,52,54,54,56,56,59,59],"right_children":[2,4,6,-1,8,10,12,-1,14,16,18,-1,-1,20,22,24,26,28,30,-1,-1,32,34,36,-1,38,40,-1,42,44,-1,46,48,-1,-1,50,52,54,-1,-1,-1,-1,56,58,-1,-1,-1,-1,-1,-1,-1,60,62,-1,64,-1,66,-1,-1,68,-1,-1,-1,-1,-1,-1,-1,-1,-1],"split_conditions":[3.22E2,1E0,6E0,4.3450603E-1,2E0,3.3E2,1E0,1.1656404E-2,4E0,6E0,3.33E2,2.715273E-2,1.5393142E-1,3.2E2,1E1,5E0,1.2E1,1E0,5E0,1.4970016E-1,3.3306696E-2,7E0,1.1E1,1E0,2.0907584E-1,3.28E2,3.26E2,3.209146E-2,3E0,3E0,-1.24861E-2,3.21E2,3.2E2,9.466146E-2,2.8318182E-2,3.25E2,3.26E2,8E0,-1.242946E-2,7.521105E-3,3.409288E-2,-9.926796E-3,6E0,3.34E2,1.4485503E-2,1.919449E-2,5.984459E-2,-1.6553402E-3,-1.2557221E-2,8.400218E-3,9.168029E-4,2E0,3E0,1.711042E-2,3.25E2,3.470262E-2,9E0,1.2922986E-2,5.2686795E-3,3.24E2,5.329404E-2,1.0009201E-1,3.435879E-2,1.6349078E-3,-1.3756116E-3,-2.0277977E-3,1.7409135E-2,2.8501702E-2,3.250599E-3],"split_indices":[0,1,2,0,1,0,1,0,1,1,0,0,0,0,1,1,1,1,1,0,0,1,1,1,0,0,0,0,1,1,0,0,0,0,0,0,0,1,0,0,0,0,1,0,0,0,0,0,0,0,0,1,1,0,0,0,1,0,0,0,0,0,0,0,0,0,0,0,0],"split_type":[0,0,0,0,0,0,0,0,0,0,0,0,0,0,0,0,0,0,0,0,0,0,0,0,0,0,0,0,0,0,0,0,0,0,0,0,0,0,0,0,0,0,0,0,0,0,0,0,0,0,0,0,0,0,0,0,0,0,0,0,0,0,0,0,0,0,0,0,0],"sum_hessian":[7.6E1,1.8E1,5.8E1,1E0,1.7E1,5.6E1,2E0,3E0,1.4E1,3.4E1,2.2E1,1E0,1E0,3E0,1.1E1,1.6E1,1.8E1,8E0,1.4E1,2E0,1E0,7E0,4E0,1.5E1,1E0,9E0,9E0,2E0,6E0,1.3E1,1E0,5E0,2E0,2E0,2E0,5E0,1E1,7E0,2E0,4E0,5E0,2E0,4E0,1E1,3E0,3E0,2E0,1E0,1E0,2E0,3E0,4E0,6E0,4E0,3E0,2E0,2E0,2E0,8E0,3E0,1E0,4E0,2E0,1E0,2E0,1E0,1E0,1E0,2E0],"tree_param":{"num_deleted":"0","num_feature":"6","num_nodes":"69","size_leaf_vector":"1"}},{"base_weights":[2.398998E-1,4.6998328E-1,1.61739E-1,3.910555E-1,2.7884042E-1,1.3882183E-1,5.4325247E-1,9.907961E-3,3.213979E-1,1.8560986E-1,5.5949505E-2,2.4437476E-2,1.3853827E-1,5.614655E-1,2.145922E-1,1.317921E-1,5.8320403E-1,5.3284965E-3,1.06086105E-1,1.2974015E-1,2.9975986E-2,1.2204647E-1,3.197469E-1,2.1573779E-1,4.9851913E-2,1.8816824E-1,3.0075584E-2,4.4518754E-2,-5.8441617E-2,3.1588603E-2,1.4414345E-1,2.0471764E-1,-1.1804104E-2,8.20399E-2,2.4542412E-2,2.0798126E-2,3.02456E-1,8.328508E-2,2.1004893E-2,1.4372759E-2,-7.9223514E-4,-1.8250227E-3,-1.3697892E-2,8.630919E-3,3.5816908E-3,1.0983086E-2,3.3770315E-2,1.6373953E-2,5.186526E-2,8.069682E-3,-4.2637747E-2,7.280191E-3,7.79295E-4,1.30476E-1,3.50639E-1,2.3407517E-2,4.0546358E-3,-8.603224E-3,4.0011354E-2,1.4714123E-3,-1.1922042E-3,-1.4898062E-3,-1.13015175E-2,2.8171858E-3,4.796462E-2,7.8614935E-2,2.977759E-2,3.7949642E-3,1.2312663E-2],"categories":[],"categories_nodes":[],"categories_segments":[],"categories_sizes":[],"default_left":[0,0,0,0,0,0,0,0,0,0,0,0,0,0,0,0,0,0,0,0,0,0,0,0,0,0,0,0,0,0,0,0,0,0,0,0,0,0,0,0,0,0,0,0,0,0,0,0,0,0,0,0,0,0,0,0,0,0,0,0,0,0,0,0,0,0,0,0,0],"id":21,"left_children":[1,3,5,-1,7,9,11,-1,13,15,17,-1,-1,19,21,23,25,27,29,-1,-1,31,33,35,37,-1,-1,39,41,43,45,47,49,-1,-1,51,53,55,57,-1,59,-1,-1,-1,-1,-1,-1,-1,-1,-1,61,-1,-1,63,65,-1,-1,-1,67,-1,-1,-1,-1,-1,-1,-1,-1,-1,-1],"loss_changes":[1.3087153E0,4.8489537E0,4.4043422E-1,0E0,1.597302E-1,2.1062887E-1,1.04132295E-1,0E0,2.641226E-1,6.934531E-1,5.5269957E-2,0E0,0E0,4.6391726E-2,7.775551E-2,2.1623641E-1,4.7769713E-1,3.2591753E-2,2.6633643E-2,0E0,0E0,9.094115E-2,3.8775146E-2,2.6418662E-1,1.5610658E-2,0E0,0E0,9.96918E-3,1.8526483E-3,1.829071E-5,6.1600357E-3,1.2311831E-2,8.152573E-3,0E0,0E0,1.4404459E-3,4.5401692E-2,1.4641751E-2,1.5106073E-2,0E0,2.1234345E-4,0E0,0E0,0E0,0E0,0E0,0E0,0E0,0E0,0E0,1.0432592E-3,0E0,0E0,4.752954E-2,9.967506E-3,0E0,0E0,0E0,2.9122531E-3,0E0,0E0,0E0,0E0,0E0,0E0,0E0,0E0,0E0,0E0],"parents":[2147483647,0,0,1,1,2,2,4,4,5,5,6,6,8,8,9,9,10,10,13,13,14,14,15,15,16,16,17,17,18,18,21,21,22,22,23,23,24,24,27,27,28,28,29,29,30,30,31,31,32,32,35,35,36,36,37,37,38,38,40,40,50,50,53,53,54,54,58,58],"right_children":[2,4,6,-1,8,10,12,-1,14,16,18,-1,-1,20,22,24,26,28,30,-1,-1,32,34,36,38,-1,-1,40,42,44,46,48,50,-1,-1,52,54,56,58,-1,60,-1,-1,-1,-1,-1,-1,-1,-1,-1,62,-1,-1,64,66,-1,-1,-1,68,-1,-1,-1,-1,-1,-1,-1,-1,-1,-1],"split_conditions":[3.22E2,1E0,6E0,3.910555E-1,2E0,6E0,1E0,9.907961E-3,4E0,5E0,1.2E1,2.4437476E-2,1.3853827E-1,3.2E2,1E1,3.3E2,3.27E2,3.28E2,3.26E2,1.2974015E-1,2.9975986E-2,6E0,1.1E1,1E0,2E0,1.8816824E-1,3.0075584E-2,8E0,2E0,3.24E2,2.1E1,3.21E2,7E0,8.20399E-2,2.4542412E-2,3.25E2,2E0,3.34E2,3.33E2,1.4372759E-2,3.25E2,-1.8250227E-3,-1.3697892E-2,8.630919E-3,3.5816908E-3,1.0983086E-2,3.3770315E-2,1.6373953E-2,5.186526E-2,8.069682E-3,3.2E2,7.280191E-3,7.79295E-4,2E0,3E0,2.3407517E-2,4.0546358E-3,-8.603224E-3,3E0,1.4714123E-3,-1.1922042E-3,-1.4898062E-3,-1.13015175E-2,2.8171858E-3,4.796462E-2,7.8614935E-2,2.977759E-2,3.7949642E-3,1.2312663E-2],"split_indices":[0,1,2,0,1,1,1,0,1,1,1,0,0,0,1,0,0,0,0,0,0,1,1,1,1,0,0,1,2,0,1,0,1,0,0,0,2,0,0,0,0,0,0,0,0,0,0,0,0,0,0,0,0,1,1,0,0,0,1,0,0,0,0,0,0,0,0,0,0],"split_type":[0,0,0,0,0,0,0,0,0,0,0,0,0,0,0,0,0,0,0,0,0,0,0,0,0,0,0,0,0,0,0,0,0,0,0,0,0,0,0,0,0,0,0,0,0,0,0,0,0,0,0,0,0,0,0,0,0,0,0,0,0,0,0,0,0,0,0,0,0],"sum_hessian":[7.6E1,1.8E1,5.8E1,1E0,1.7E1,5.6E1,2E0,3E0,1.4E1,3.5E1,2.1E1,1E0,1E0,3E0,1.1E1,3.2E1,3E0,1.1E1,1E1,2E0,1E0,7E0,4E0,1.5E1,1.7E1,1E0,2E0,7E0,4E0,4E0,6E0,4E0,3E0,2E0,2E0,5E0,1E1,7E0,1E1,4E0,3E0,1E0,3E0,1E0,3E0,2E0,4E0,2E0,2E0,1E0,2E0,2E0,3E0,3E0,7E0,4E0,3E0,2E0,8E0,1E0,2E0,1E0,1E0,2E0,1E0,5E0,2E0,5E0,3E0],"tree_param":{"num_deleted":"0","num_feature":"6","num_nodes":"69","size_leaf_vector":"1"}},{"base_weights":[2.0971586E-1,4.1444874E-1,1.4023043E-1,3.519499E-1,2.4194597E-1,1.1941778E-1,4.8892722E-1,8.421803E-3,2.7910608E-1,1.6016689E-1,4.730935E-2,2.1993732E-2,1.2468443E-1,4.8910165E-1,1.8584873E-1,1.1156095E-1,5.211241E-1,4.1901967E-3,9.0047576E-2,1.124415E-1,2.6978398E-2,1.0557681E-1,2.7711406E-1,1.8304229E-1,4.1824155E-2,1.6935138E-1,2.6065508E-2,3.7446484E-2,-4.9857903E-2,2.7713347E-2,1.2170809E-1,1.5995608E-1,-3.8373988E-2,7.1101256E-2,2.1270102E-2,1.7981688E-2,2.5643513E-1,7.006085E-2,1.7486183E-2,1.2073112E-2,-5.6397915E-4,-1.6425252E-3,-1.1643213E-2,7.7678203E-3,3.0444264E-3,1.5782524E-2,3.7848093E-2,1.4274436E-2,4.4949852E-2,-1.3408303E-3,-1.0171366E-2,6.309494E-3,6.623864E-4,1.2924108E-1,3.1065443E-1,2.4691582E-2,3.1685513E-2,-7.456112E-3,3.3798855E-2,1.3242721E-3,-1.0332426E-3,5.3630948E-2,4.3168165E-2,7.6968096E-2,3.1760957E-2,8.078957E-3,3.446436E-3,3.1624795E-3,1.0465765E-2,1.7790033E-2,2.4415653E-3],"categories":[],"categories_nodes":[],"categories_segments":[],"categories_sizes":[],"default_left":[0,0,0,0,0,0,0,0,0,0,0,0,0,0,0,0,0,0,0,0,0,0,0,0,0,0,0,0,0,0,0,0,0,0,0,0,0,0,0,0,0,0,0,0,0,0,0,0,0,0,0,0,0,0,0,0,0,0,0,0,0,0,0,0,0,0,0,0,0,0,0],"id":22,"left_children":[1,3,5,-1,7,9,11,-1,13,15,17,-1,-1,19,21,23,25,27,29,-1,-1,31,33,35,37,-1,-1,39,41,43,45,47,49,-1,-1,51,53,55,57,-1,59,-1,-1,-1,-1,-1,-1,-1,-1,-1,-1,-1,-1,61,63,-1,65,-1,67,-1,-1,69,-1,-1,-1,-1,-1,-1,-1,-1,-1],"loss_changes":[1.0372796E0,3.98353E0,3.6979425E-1,0E0,1.21914506E-1,1.5990871E-1,8.434713E-2,0E0,2.0285559E-1,5.734708E-1,4.0165085E-2,0E0,0E0,2.7741909E-2,5.865571E-2,1.5684545E-1,3.98669E-1,2.3436273E-2,1.8335931E-2,0E0,0E0,6.876166E-2,2.912435E-2,1.8921715E-1,1.1144932E-2,0E0,0E0,7.0033623E-3,1.262283E-3,1.0365737E-4,5.2970946E-3,1.8396944E-2,8.4503694E-4,0E0,0E0,1.089557E-3,3.571081E-2,1.2481213E-2,1.1087351E-2,0E0,1.6648181E-4,0E0,0E0,0E0,0E0,0E0,0E0,0E0,0E0,0E0,0E0,0E0,0E0,2.1163344E-2,1.7741382E-2,0E0,5.9177633E-5,0E0,2.1721525E-3,0E0,0E0,4.766239E-3,0E0,0E0,0E0,0E0,0E0,0E0,0E0,0E0,0E0],"parents":[2147483647,0,0,1,1,2,2,4,4,5,5,6,6,8,8,9,9,10,10,13,13,14,14,15,15,16,16,17,17,18,18,21,21,22,22,23,23,24,24,27,27,28,28,29,29,30,30,31,31,32,32,35,35,36,36,37,37,38,38,40,40,53,53,54,54,56,56,58,58,61,61],"right_children":[2,4,6,-1,8,10,12,-1,14,16,18,-1,-1,20,22,24,26,28,30,-1,-1,32,34,36,38,-1,-1,40,42,44,46,48,50,-1,-1,52,54,56,58,-1,60,-1,-1,-1,-1,-1,-1,-1,-1,-1,-1,-1,-1,62,64,-1,66,-1,68,-1,-1,70,-1,-1,-1,-1,-1,-1,-1,-1,-1],"split_conditions":[3.22E2,1E0,6E0,3.519499E-1,2E0,6E0,1E0,8.421803E-3,4E0,5E0,1.2E1,2.1993732E-2,1.2468443E-1,3.2E2,1E1,3.3E2,3.27E2,3.28E2,3.26E2,1.124415E-1,2.6978398E-2,7E0,1.1E1,1E0,2E0,1.6935138E-1,2.6065508E-2,8E0,2E0,3.24E2,2.3E1,3.21E2,3.2E2,7.1101256E-2,2.1270102E-2,3.25E2,3.26E2,3.33E2,3.33E2,1.2073112E-2,3.25E2,-1.6425252E-3,-1.1643213E-2,7.7678203E-3,3.0444264E-3,1.5782524E-2,3.7848093E-2,1.4274436E-2,4.4949852E-2,-1.3408303E-3,-1.0171366E-2,6.309494E-3,6.623864E-4,2E0,2E0,2.4691582E-2,3.34E2,-7.456112E-3,3E0,1.3242721E-3,-1.0332426E-3,3.24E2,4.3168165E-2,7.6968096E-2,3.1760957E-2,8.078957E-3,3.446436E-3,3.1624795E-3,1.0465765E-2,1.7790033E-2,2.4415653E-3],"split_indices":[0,1,2,0,1,1,1,0,1,1,1,0,0,0,1,0,0,0,0,0,0,1,1,1,1,0,0,1,2,0,1,0,0,0,0,0,0,0,0,0,0,0,0,0,0,0,0,0,0,0,0,0,0,1,1,0,0,0,1,0,0,0,0,0,0,0,0,0,0,0,0],"split_type":[0,0,0,0,0,0,0,0,0,0,0,0,0,0,0,0,0,0,0,0,0,0,0,0,0,0,0,0,0,0,0,0,0,0,0,0,0,0,0,0,0,0,0,0,0,0,0,0,0,0,0,0,0,0,0,0,0,0,0,0,0,0,0,0,0,0,0,0,0,0,0],"sum_hessian":[7.6E1,1.8E1,5.8E1,1E0,1.7E1,5.6E1,2E0,3E0,1.4E1,3.5E1,2.1E1,1E0,1E0,3E0,1.1E1,3.2E1,3E0,1.1E1,1E1,2E0,1E0,7E0,4E0,1.5E1,1.7E1,1E0,2E0,7E0,4E0,4E0,6E0,5E0,2E0,2E0,2E0,5E0,1E1,7E0,1E1,4E0,3E0,1E0,3E0,1E0,3E0,5E0,1E0,3E0,2E0,1E0,1E0,2E0,3E0,4E0,6E0,2E0,5E0,2E0,8E0,1E0,2E0,3E0,1E0,3E0,3E0,2E0,3E0,5E0,3E0,1E0,2E0],"tree_param":{"num_deleted":"0","num_feature":"6","num_nodes":"71","size_leaf_vector":"1"}},{"base_weights":[1.8422702E-1,3.652366E-1,1.2281329E-1,3.167549E-1,2.0955259E-1,1.03962824E-1,4.4003454E-1,7.158518E-3,2.4191841E-1,1.3971432E-1,4.07348E-2,1.979437E-2,1.12215996E-1,4.2613602E-1,1.6035268E-1,9.596063E-2,4.6575356E-1,3.2753546E-3,7.789648E-2,9.7449236E-2,2.4280548E-2,9.0425566E-2,2.4016552E-1,1.5762776E-1,3.5814267E-2,1.5241623E-1,2.2590129E-2,3.150271E-2,-4.2543482E-2,2.4333144E-2,1.0502795E-1,1.537323E-1,-1.1314243E-2,6.1621096E-2,1.843408E-2,1.5547355E-2,2.2079636E-1,6.057577E-2,1.4550057E-2,1.014142E-2,-3.784597E-4,-1.4782668E-3,-9.8967375E-3,6.991029E-3,2.5877715E-3,1.3152107E-2,3.4063246E-2,1.2287522E-2,3.895658E-2,5.835271E-3,-3.453656E-2,5.4682256E-3,5.630374E-4,1.1607285E-1,2.6405653E-1,2.1399371E-2,2.7269265E-2,-6.46197E-3,2.8553354E-2,1.1918426E-3,-8.954843E-4,-1.2067438E-3,-9.154225E-3,4.7962666E-2,3.8851358E-2,6.542301E-2,2.699678E-2,7.0017497E-3,2.929467E-3,2.6354154E-3,8.895886E-3,1.6011048E-2,2.1160126E-3],"categories":[],"categories_nodes":[],"categories_segments":[],"categories_sizes":[],"default_left":[0,0,0,0,0,0,0,0,0,0,0,0,0,0,0,0,0,0,0,0,0,0,0,0,0,0,0,0,0,0,0,0,0,0,0,0,0,0,0,0,0,0,0,0,0,0,0,0,0,0,0,0,0,0,0,0,0,0,0,0,0,0,0,0,0,0,0,0,0,0,0,0,0],"id":23,"left_children":[1,3,5,-1,7,9,11,-1,13,15,17,-1,-1,19,21,23,25,27,29,-1,-1,31,33,35,37,-1,-1,39,41,43,45,47,49,-1,-1,51,53,55,57,-1,59,-1,-1,-1,-1,-1,-1,-1,-1,-1,61,-1,-1,63,65,-1,67,-1,69,-1,-1,-1,-1,71,-1,-1,-1,-1,-1,-1,-1,-1,-1],"loss_changes":[8.1111264E-1,3.2725465E0,3.0705923E-1,0E0,9.257102E-2,1.23157024E-1,6.832117E-2,0E0,1.5705556E-1,4.6886092E-1,3.0370098E-2,0E0,0E0,1.53362155E-2,4.525584E-2,1.1675346E-1,3.3210343E-1,1.686037E-2,1.3430111E-2,0E0,0E0,5.3265885E-2,2.187571E-2,1.401675E-1,8.596225E-3,0E0,0E0,4.9172584E-3,8.540647E-4,1.5287101E-4,6.7458227E-3,6.9767684E-3,4.7687925E-3,0E0,0E0,8.2399126E-4,1.9184172E-2,9.451268E-3,8.1406785E-3,0E0,1.3059341E-4,0E0,0E0,0E0,0E0,0E0,0E0,0E0,0E0,0E0,6.844811E-4,0E0,0E0,1.7308533E-2,1.2818664E-2,0E0,7.333839E-5,0E0,1.6178451E-3,0E0,0E0,0E0,0E0,3.951826E-3,0E0,0E0,0E0,0E0,0E0,0E0,0E0,0E0,0E0],"parents":[2147483647,0,0,1,1,2,2,4,4,5,5,6,6,8,8,9,9,10,10,13,13,14,14,15,15,16,16,17,17,18,18,21,21,22,22,23,23,24,24,27,27,28,28,29,29,30,30,31,31,32,32,35,35,36,36,37,37,38,38,40,40,50,50,53,53,54,54,56,56,58,58,63,63],"right_children":[2,4,6,-1,8,10,12,-1,14,16,18,-1,-1,20,22,24,26,28,30,-1,-1,32,34,36,38,-1,-1,40,42,44,46,48,50,-1,-1,52,54,56,58,-1,60,-1,-1,-1,-1,-1,-1,-1,-1,-1,62,-1,-1,64,66,-1,68,-1,70,-1,-1,-1,-1,72,-1,-1,-1,-1,-1,-1,-1,-1,-1],"split_conditions":[3.22E2,1E0,6E0,3.167549E-1,2E0,6E0,1E0,7.158518E-3,4E0,5E0,1.2E1,1.979437E-2,1.12215996E-1,3.2E2,1E1,3.3E2,3.27E2,3.28E2,3.26E2,9.7449236E-2,2.4280548E-2,6E0,1.1E1,1E0,2E0,1.5241623E-1,2.2590129E-2,8E0,2E0,3.24E2,2.3E1,3.21E2,7E0,6.1621096E-2,1.843408E-2,3.25E2,3.26E2,3.33E2,3.33E2,1.014142E-2,3.25E2,-1.4782668E-3,-9.8967375E-3,6.991029E-3,2.5877715E-3,1.3152107E-2,3.4063246E-2,1.2287522E-2,3.895658E-2,5.835271E-3,3.2E2,5.4682256E-3,5.630374E-4,2E0,2E0,2.1399371E-2,3.34E2,-6.46197E-3,3E0,1.1918426E-3,-8.954843E-4,-1.2067438E-3,-9.154225E-3,3.24E2,3.8851358E-2,6.542301E-2,2.699678E-2,7.0017497E-3,2.929467E-3,2.6354154E-3,8.895886E-3,1.6011048E-2,2.1160126E-3],"split_indices":[0,1,2,0,1,1,1,0,1,1,1,0,0,0,1,0,0,0,0,0,0,1,1,1,1,0,0,1,2,0,1,0,1,0,0,0,0,0,0,0,0,0,0,0,0,0,0,0,0,0,0,0,0,1,1,0,0,0,1,0,0,0,0,0,0,0,0,0,0,0,0,0,0],"split_type":[0,0,0,0,0,0,0,0,0,0,0,0,0,0,0,0,0,0,0,0,0,0,0,0,0,0,0,0,0,0,0,0,0,0,0,0,0,0,0,0,0,0,0,0,0,0,0,0,0,0,0,0,0,0,0,0,0,0,0,0,0,0,0,0,0,0,0,0,0,0,0,0,0],"sum_hessian":[7.6E1,1.8E1,5.8E1,1E0,1.7E1,5.6E1,2E0,3E0,1.4E1,3.5E1,2.1E1,1E0,1E0,3E0,1.1E1,3.2E1,3E0,1.1E1,1E1,2E0,1E0,7E0,4E0,1.5E1,1.7E1,1E0,2E0,7E0,4E0,4E0,6E0,4E0,3E0,2E0,2E0,5E0,1E1,7E0,1E1,4E0,3E0,1E0,3E0,1E0,3E0,5E0,1E0,2E0,2E0,1E0,2E0,2E0,3E0,4E0,6E0,2E0,5E0,2E0,8E0,1E0,2E0,1E0,1E0,3E0,1E0,3E0,3E0,2E0,3E0,5E0,3E0,1E0,2E0],"tree_param":{"num_deleted":"0","num_feature":"6","num_nodes":"73","size_leaf_vector":"1"}},{"base_weights":[1.6201961E-1,3.2231674E-1,1.0765241E-1,2.8507957E-1,1.8184568E-1,9.0585954E-2,3.9603105E-1,6.084776E-3,2.1010178E-1,1.2325907E-1,3.6927465E-2,1.7814923E-2,1.009944E-1,3.713417E-1,1.3884665E-1,2.0851846E-1,4.0487032E-2,6.317002E-2,1.8720102E-2,8.445613E-2,2.1852493E-2,3.3011377E-2,1.7045715E-1,1.3581674E-1,1.371746E-1,1.2094796E-2,6.4830564E-2,1.8546104E-2,4.1476946E-2,2.5567045E-2,-7.7137114E-3,1.3885577E-2,9.038878E-3,9.729751E-2,4.7516465E-2,1.3443033E-2,1.9021906E-1,2.6506916E-2,-6.0738246E-3,2.199602E-3,8.633052E-2,-5.6003886E-3,7.4868895E-2,1.8791687E-2,7.561505E-3,5.2517415E-3,-1.0860682E-3,1.3323459E-1,-8.238792E-3,4.7391257E-3,4.785657E-4,1.0425396E-1,2.2444855E-1,8.518801E-3,-2.2867322E-4,9.393015E-3,1.2316275E-1,1.9578107E-2,2.6890954E-2,6.068166E-3,2.5708012E-3,1.0649173E-2,3.376236E-2,4.2901874E-2,3.496623E-2,5.2061863E-2,1.7972883E-2,1.0726572E-3,-7.760843E-4,6.2919143E-3,3.065691E-2,-1.3304353E-3,9.397722E-3,1.4409924E-2,1.8338839E-3],"categories":[],"categories_nodes":[],"categories_segments":[],"categories_sizes":[],"default_left":[0,0,0,0,0,0,0,0,0,0,0,0,0,0,0,0,0,0,0,0,0,0,0,0,0,0,0,0,0,0,0,0,0,0,0,0,0,0,0,0,0,0,0,0,0,0,0,0,0,0,0,0,0,0,0,0,0,0,0,0,0,0,0,0,0,0,0,0,0,0,0,0,0,0,0],"id":24,"left_children":[1,3,5,-1,7,9,11,-1,13,15,17,-1,-1,19,21,23,25,27,29,-1,-1,31,33,35,-1,37,39,-1,41,43,-1,45,-1,47,-1,49,51,53,-1,-1,55,-1,57,59,-1,-1,-1,61,-1,-1,-1,63,65,-1,67,-1,69,-1,71,-1,-1,-1,-1,73,-1,-1,-1,-1,-1,-1,-1,-1,-1,-1,-1],"loss_changes":[6.363499E-1,2.6848655E0,2.544998E-1,0E0,7.062256E-2,9.538016E-2,5.534011E-2,0E0,1.20777965E-1,2.3855597E-1,9.807032E-3,0E0,0E0,7.26068E-3,3.451903E-2,4.9682355E-1,1.2348067E-2,1.9251406E-3,6.8698684E-3,0E0,0E0,3.0448893E-4,2.1081537E-2,1.039615E-1,0E0,6.9249426E-3,1.0624509E-2,0E0,1.8336723E-2,4.5060366E-4,0E0,8.5958873E-4,0E0,3.535035E-2,0E0,6.2306004E-4,8.9683235E-3,3.4505227E-3,0E0,0E0,4.3650754E-3,0E0,2.890285E-3,3.6432547E-4,0E0,0E0,0E0,5.240351E-3,0E0,0E0,0E0,1.4149711E-2,1.0391474E-2,0E0,1.02493505E-4,0E0,3.4645274E-3,0E0,2.334991E-3,0E0,0E0,0E0,0E0,3.2722466E-3,0E0,0E0,0E0,0E0,0E0,0E0,0E0,0E0,0E0,0E0,0E0],"parents":[2147483647,0,0,1,1,2,2,4,4,5,5,6,6,8,8,9,9,10,10,13,13,14,14,15,15,16,16,17,17,18,18,21,21,22,22,23,23,25,25,26,26,28,28,29,29,31,31,33,33,35,35,36,36,37,37,40,40,42,42,43,43,47,47,51,51,52,52,54,54,56,56,58,58,63,63],"right_children":[2,4,6,-1,8,10,12,-1,14,16,18,-1,-1,20,22,24,26,28,30,-1,-1,32,34,36,-1,38,40,-1,42,44,-1,46,-1,48,-1,50,52,54,-1,-1,56,-1,58,60,-1,-1,-1,62,-1,-1,-1,64,66,-1,68,-1,70,-1,72,-1,-1,-1,-1,74,-1,-1,-1,-1,-1,-1,-1,-1,-1,-1,-1],"split_conditions":[3.22E2,1E0,6E0,2.8507957E-1,2E0,3.3E2,1E0,6.084776E-3,4E0,6E0,3.33E2,1.7814923E-2,1.009944E-1,3.2E2,3.2E2,5E0,1.2E1,1E0,5E0,8.445613E-2,2.1852493E-2,1E1,9E0,1E0,1.371746E-1,3.28E2,2E0,1.8546104E-2,3E0,3E0,-7.7137114E-3,7E0,9.038878E-3,6E0,4.7516465E-2,3.25E2,3.26E2,8E0,-6.0738246E-3,2.199602E-3,2.3E1,-5.6003886E-3,6E0,3.34E2,7.561505E-3,5.2517415E-3,-1.0860682E-3,3.21E2,-8.238792E-3,4.7391257E-3,4.785657E-4,2E0,3E0,8.518801E-3,3.25E2,9.393015E-3,3.24E2,1.9578107E-2,9E0,6.068166E-3,2.5708012E-3,1.0649173E-2,3.376236E-2,3.24E2,3.496623E-2,5.2061863E-2,1.7972883E-2,1.0726572E-3,-7.760843E-4,6.2919143E-3,3.065691E-2,-1.3304353E-3,9.397722E-3,1.4409924E-2,1.8338839E-3],"split_indices":[0,1,2,0,1,0,1,0,1,1,0,0,0,0,0,1,1,1,1,0,0,1,1,1,0,0,2,0,1,1,0,1,0,1,0,0,0,1,0,0,1,0,1,0,0,0,0,0,0,0,0,1,1,0,0,0,0,0,1,0,0,0,0,0,0,0,0,0,0,0,0,0,0,0,0],"split_type":[0,0,0,0,0,0,0,0,0,0,0,0,0,0,0,0,0,0,0,0,0,0,0,0,0,0,0,0,0,0,0,0,0,0,0,0,0,0,0,0,0,0,0,0,0,0,0,0,0,0,0,0,0,0,0,0,0,0,0,0,0,0,0,0,0,0,0,0,0,0,0,0,0,0,0],"sum_hessian":[7.6E1,1.8E1,5.8E1,1E0,1.7E1,5.6E1,2E0,3E0,1.4E1,3.4E1,2.2E1,1E0,1E0,3E0,1.1E1,1.6E1,1.8E1,8E0,1.4E1,2E0,1E0,3E0,8E0,1.5E1,1E0,9E0,9E0,2E0,6E0,1.3E1,1E0,2E0,1E0,5E0,3E0,5E0,1E1,7E0,2E0,3E0,6E0,2E0,4E0,1E1,3E0,1E0,1E0,4E0,1E0,2E0,3E0,4E0,6E0,4E0,3E0,4E0,2E0,2E0,2E0,2E0,8E0,2E0,2E0,3E0,1E0,4E0,2E0,1E0,2E0,1E0,1E0,1E0,1E0,1E0,2E0],"tree_param":{"num_deleted":"0","num_feature":"6","num_nodes":"75","size_leaf_vector":"1"}},{"base_weights":[1.423063E-1,2.8387272E-1,9.430514E-2,2.565716E-1,1.5710366E-1,7.8854725E-2,3.56428E-1,5.172038E-3,1.8162833E-1,1.07605025E-1,3.1675804E-2,1.6033411E-2,9.089499E-2,3.2365084E-1,1.1915181E-1,1.8232296E-1,3.5088714E-2,5.5046186E-2,1.5541855E-2,7.319539E-2,1.9667244E-2,6.758657E-2,1.7782584E-1,1.16557434E-1,1.2345715E-1,1.3802071E-2,6.263259E-2,1.6073292E-2,3.6330905E-2,2.1610806E-2,-6.942344E-3,1.0410271E-1,-2.7974566E-2,4.7069423E-2,1.2205855E-2,1.1624058E-2,1.631977E-1,6.860614E-3,3.1569535E-3,3.2164063E-2,2.7591228E-2,-4.8536616E-3,6.542425E-2,1.5818683E-2,6.427288E-3,9.285241E-3,2.9260764E-2,-9.774566E-4,-7.4149133E-3,4.107237E-3,4.067898E-4,1.009194E-1,1.9827636E-1,-7.894377E-3,1.894471E-2,1.8696546E-3,9.387768E-3,1.696771E-2,2.420187E-2,5.2590687E-3,2.1137663E-3,3.838241E-2,3.0132452E-2,4.780054E-2,1.5576489E-2,4.168284E-3,-1.780982E-2,9.653926E-4,4.408328E-3,-1.1973858E-3,8.457947E-3,1.2968922E-2,1.5893618E-3,-6.7261065E-4,-5.2639963E-3],"categories":[],"categories_nodes":[],"categories_segments":[],"categories_sizes":[],"default_left":[0,0,0,0,0,0,0,0,0,0,0,0,0,0,0,0,0,0,0,0,0,0,0,0,0,0,0,0,0,0,0,0,0,0,0,0,0,0,0,0,0,0,0,0,0,0,0,0,0,0,0,0,0,0,0,0,0,0,0,0,0,0,0,0,0,0,0,0,0,0,0,0,0,0,0],"id":25,"left_children":[1,3,5,-1,7,9,11,-1,13,15,17,-1,-1,19,21,23,25,27,29,-1,-1,31,33,35,-1,37,39,-1,41,43,-1,45,47,-1,-1,49,51,-1,53,55,-1,-1,57,59,-1,-1,-1,-1,-1,-1,-1,61,63,65,67,-1,-1,-1,69,-1,-1,71,-1,-1,-1,-1,73,-1,-1,-1,-1,-1,-1,-1,-1],"loss_changes":[4.964713E-1,2.204626E0,2.108385E-1,0E0,5.3239733E-2,7.390678E-2,4.4825673E-2,0E0,9.453249E-2,1.83242E-1,7.81678E-3,0E0,0E0,2.158016E-3,2.4287835E-2,4.143452E-1,1.0275558E-2,1.3450999E-3,5.3249435E-3,0E0,0E0,3.0828424E-2,1.9228384E-2,7.640891E-2,0E0,2.5105334E-3,1.3922751E-2,0E0,1.3928973E-2,3.451649E-4,0E0,7.81174E-3,4.4908887E-4,0E0,0E0,4.7104002E-4,4.0210783E-3,0E0,1.7198382E-3,1.9208901E-3,0E0,0E0,1.9482672E-3,3.2709935E-4,0E0,0E0,0E0,0E0,0E0,0E0,0E0,1.2881827E-2,1.0805115E-2,2.080751E-3,6.849249E-5,0E0,0E0,0E0,1.8913383E-3,0E0,0E0,2.7062637E-3,0E0,0E0,0E0,0E0,5.262061E-4,0E0,0E0,0E0,0E0,0E0,0E0,0E0,0E0],"parents":[2147483647,0,0,1,1,2,2,4,4,5,5,6,6,8,8,9,9,10,10,13,13,14,14,15,15,16,16,17,17,18,18,21,21,22,22,23,23,25,25,26,26,28,28,29,29,31,31,32,32,35,35,36,36,38,38,39,39,42,42,43,43,51,51,52,52,53,53,54,54,58,58,61,61,66,66],"right_children":[2,4,6,-1,8,10,12,-1,14,16,18,-1,-1,20,22,24,26,28,30,-1,-1,32,34,36,-1,38,40,-1,42,44,-1,46,48,-1,-1,50,52,-1,54,56,-1,-1,58,60,-1,-1,-1,-1,-1,-1,-1,62,64,66,68,-1,-1,-1,70,-1,-1,72,-1,-1,-1,-1,74,-1,-1,-1,-1,-1,-1,-1,-1],"split_conditions":[3.22E2,1E0,6E0,2.565716E-1,2E0,3.3E2,1E0,5.172038E-3,4E0,6E0,3.33E2,1.6033411E-2,9.089499E-2,3.2E2,1E1,5E0,2.1E1,1E0,5E0,7.319539E-2,1.9667244E-2,7E0,1.1E1,1E0,1.2345715E-1,7E0,3.28E2,1.6073292E-2,3E0,3E0,-6.942344E-3,3.21E2,3.2E2,4.7069423E-2,1.2205855E-2,3.25E2,3.27E2,6.860614E-3,1.1E1,2E0,2.7591228E-2,-4.8536616E-3,6E0,3.34E2,6.427288E-3,9.285241E-3,2.9260764E-2,-9.774566E-4,-7.4149133E-3,4.107237E-3,4.067898E-4,2E0,2E0,3.26E2,3.25E2,1.8696546E-3,9.387768E-3,1.696771E-2,9E0,5.2590687E-3,2.1137663E-3,3.24E2,3.0132452E-2,4.780054E-2,1.5576489E-2,4.168284E-3,3.28E2,9.653926E-4,4.408328E-3,-1.1973858E-3,8.457947E-3,1.2968922E-2,1.5893618E-3,-6.7261065E-4,-5.2639963E-3],"split_indices":[0,1,2,0,1,0,1,0,1,1,0,0,0,0,1,1,1,1,1,0,0,1,1,1,0,1,0,0,1,1,0,0,0,0,0,0,0,0,1,2,0,0,1,0,0,0,0,0,0,0,0,1,1,0,0,0,0,0,1,0,0,0,0,0,0,0,0,0,0,0,0,0,0,0,0],"split_type":[0,0,0,0,0,0,0,0,0,0,0,0,0,0,0,0,0,0,0,0,0,0,0,0,0,0,0,0,0,0,0,0,0,0,0,0,0,0,0,0,0,0,0,0,0,0,0,0,0,0,0,0,0,0,0,0,0,0,0,0,0,0,0,0,0,0,0,0,0,0,0,0,0,0,0],"sum_hessian":[7.6E1,1.8E1,5.8E1,1E0,1.7E1,5.6E1,2E0,3E0,1.4E1,3.4E1,2.2E1,1E0,1E0,3E0,1.1E1,1.6E1,1.8E1,8E0,1.4E1,2E0,1E0,7E0,4E0,1.5E1,1E0,1.1E1,7E0,2E0,6E0,1.3E1,1E0,5E0,2E0,2E0,2E0,5E0,1E1,3E0,8E0,6E0,1E0,2E0,4E0,1E1,3E0,3E0,2E0,1E0,1E0,2E0,3E0,5E0,5E0,5E0,3E0,3E0,3E0,2E0,2E0,2E0,8E0,3E0,2E0,3E0,2E0,1E0,4E0,1E0,2E0,1E0,1E0,1E0,2E0,2E0,2E0],"tree_param":{"num_deleted":"0","num_feature":"6","num_nodes":"75","size_leaf_vector":"1"}},{"base_weights":[1.2525575E-1,2.504684E-1,8.281005E-2,2.3091431E-1,1.360976E-1,6.883223E-2,3.207852E-1,4.3962E-3,1.5745552E-1,9.423705E-2,2.7180014E-2,1.4430046E-2,8.180552E-2,5.6427337E-2,1.0277384E-1,1.5974316E-1,3.066649E-2,4.797562E-2,1.2890649E-2,2.458182E-2,1.2610653E-1,1.00282446E-1,1.11111455E-1,1.1913796E-2,5.4962218E-2,1.3930194E-2,3.1832524E-2,1.827434E-2,-6.248105E-3,9.7277565E-3,6.914401E-3,7.22541E-2,1.7535853E-1,1.0051608E-2,1.4038268E-1,5.831504E-3,2.9261643E-3,2.7339458E-2,2.4832154E-2,-4.2064986E-3,5.718503E-2,1.3325171E-2,5.463195E-3,3.7980438E-3,-8.797169E-4,1.0005178E-1,-6.6734315E-3,4.0793482E-2,8.95319E-3,3.5596055E-3,3.4577848E-4,8.818404E-2,1.6918421E-1,-6.6102147E-3,1.6499192E-2,1.5892029E-3,7.979608E-3,1.470534E-2,2.1781683E-2,4.5578643E-3,1.7379761E-3,7.991251E-3,2.5359346E-2,3.4345508E-2,2.6114812E-2,4.063053E-2,1.3499642E-2,3.7514567E-3,-1.5435171E-2,8.688569E-4,3.8205464E-3,-1.077652E-3,7.612157E-3,1.167202E-2,1.3774554E-3,-5.829334E-4,-4.5621237E-3],"categories":[],"categories_nodes":[],"categories_segments":[],"categories_sizes":[],"default_left":[0,0,0,0,0,0,0,0,0,0,0,0,0,0,0,0,0,0,0,0,0,0,0,0,0,0,0,0,0,0,0,0,0,0,0,0,0,0,0,0,0,0,0,0,0,0,0,0,0,0,0,0,0,0,0,0,0,0,0,0,0,0,0,0,0,0,0,0,0,0,0,0,0,0,0,0,0],"id":26,"left_children":[1,3,5,-1,7,9,11,-1,13,15,17,-1,-1,-1,19,21,23,25,27,29,31,33,-1,35,37,-1,39,41,-1,43,-1,45,47,49,51,-1,53,55,-1,-1,57,59,-1,-1,-1,61,-1,-1,-1,-1,-1,63,65,67,69,-1,-1,-1,71,-1,-1,-1,-1,73,-1,-1,-1,-1,75,-1,-1,-1,-1,-1,-1,-1,-1],"loss_changes":[3.8849354E-1,1.8075229E0,1.7417562E-1,0E0,4.041022E-2,5.775413E-2,3.6309004E-2,0E0,7.327038E-2,1.4085037E-1,6.21615E-3,0E0,0E0,0E0,1.879324E-2,3.4438893E-1,8.001788E-3,9.319987E-4,4.1347304E-3,2.5727134E-4,1.1200681E-2,5.6481376E-2,0E0,1.7744432E-3,1.189715E-2,0E0,1.0584569E-2,2.6249E-4,0E0,4.7606422E-4,0E0,2.0954598E-2,5.813636E-3,3.560565E-4,1.6180426E-3,0E0,1.274001E-3,1.3878485E-3,0E0,0E0,1.2912136E-3,2.8452347E-4,0E0,0E0,0E0,2.9699355E-3,0E0,0E0,0E0,0E0,0E0,9.208672E-3,7.012263E-3,1.6327243E-3,4.3595443E-5,0E0,0E0,0E0,1.5319883E-3,0E0,0E0,0E0,0E0,2.2356506E-3,0E0,0E0,0E0,0E0,3.952362E-4,0E0,0E0,0E0,0E0,0E0,0E0,0E0,0E0],"parents":[2147483647,0,0,1,1,2,2,4,4,5,5,6,6,8,8,9,9,10,10,14,14,15,15,16,16,17,17,18,18,19,19,20,20,21,21,23,23,24,24,26,26,27,27,29,29,31,31,32,32,33,33,34,34,36,36,37,37,40,40,41,41,45,45,51,51,52,52,53,53,54,54,58,58,63,63,68,68],"right_children":[2,4,6,-1,8,10,12,-1,14,16,18,-1,-1,-1,20,22,24,26,28,30,32,34,-1,36,38,-1,40,42,-1,44,-1,46,48,50,52,-1,54,56,-1,-1,58,60,-1,-1,-1,62,-1,-1,-1,-1,-1,64,66,68,70,-1,-1,-1,72,-1,-1,-1,-1,74,-1,-1,-1,-1,76,-1,-1,-1,-1,-1,-1,-1,-1],"split_conditions":[3.22E2,1E0,6E0,2.3091431E-1,2E0,3.3E2,1E0,4.3962E-3,4E0,6E0,3.33E2,1.4430046E-2,8.180552E-2,5.6427337E-2,3.2E2,5E0,2.1E1,1E0,5E0,1E1,9E0,1E0,1.11111455E-1,7E0,3.28E2,1.3930194E-2,3E0,3E0,-6.248105E-3,7E0,6.914401E-3,6E0,3.21E2,3.25E2,3.27E2,5.831504E-3,1.1E1,2E0,2.4832154E-2,-4.2064986E-3,6E0,3.34E2,5.463195E-3,3.7980438E-3,-8.797169E-4,3.21E2,-6.6734315E-3,4.0793482E-2,8.95319E-3,3.5596055E-3,3.4577848E-4,2E0,2E0,3.26E2,3.25E2,1.5892029E-3,7.979608E-3,1.470534E-2,9E0,4.5578643E-3,1.7379761E-3,7.991251E-3,2.5359346E-2,3.24E2,2.6114812E-2,4.063053E-2,1.3499642E-2,3.7514567E-3,3.28E2,8.688569E-4,3.8205464E-3,-1.077652E-3,7.612157E-3,1.167202E-2,1.3774554E-3,-5.829334E-4,-4.5621237E-3],"split_indices":[0,1,2,0,1,0,1,0,1,1,0,0,0,0,0,1,1,1,1,1,1,1,0,1,0,0,1,1,0,1,0,1,0,0,0,0,1,2,0,0,1,0,0,0,0,0,0,0,0,0,0,1,1,0,0,0,0,0,1,0,0,0,0,0,0,0,0,0,0,0,0,0,0,0,0,0,0],"split_type":[0,0,0,0,0,0,0,0,0,0,0,0,0,0,0,0,0,0,0,0,0,0,0,0,0,0,0,0,0,0,0,0,0,0,0,0,0,0,0,0,0,0,0,0,0,0,0,0,0,0,0,0,0,0,0,0,0,0,0,0,0,0,0,0,0,0,0,0,0,0,0,0,0,0,0,0,0],"sum_hessian":[7.6E1,1.8E1,5.8E1,1E0,1.7E1,5.6E1,2E0,3E0,1.4E1,3.4E1,2.2E1,1E0,1E0,3E0,1.1E1,1.6E1,1.8E1,8E0,1.4E1,3E0,8E0,1.5E1,1E0,1.1E1,7E0,2E0,6E0,1.3E1,1E0,2E0,1E0,5E0,3E0,5E0,1E1,3E0,8E0,6E0,1E0,2E0,4E0,1E1,3E0,1E0,1E0,4E0,1E0,2E0,1E0,2E0,3E0,5E0,5E0,5E0,3E0,3E0,3E0,2E0,2E0,2E0,8E0,2E0,2E0,3E0,2E0,3E0,2E0,1E0,4E0,1E0,2E0,1E0,1E0,