{"learner":{"attributes":{"scikit_learn":"{\"_estimator_type\": \"regressor\"}"},"feature_names":["dayofyear","hour","dayofweek","quarter","month","year"],"feature_types":["int","int","int","int","int","int"],"gradient_booster":{"model":{"gbtree_model_param":{"num_parallel_tree":"1","num_trees":"500"},"iteration_indptr":[0,1,2,3,4,5,6,7,8,9,10,11,12,13,14,15,16,17,18,19,20,21,22,23,24,25,26,27,28,29,30,31,32,33,34,35,36,37,38,39,40,41,42,43,44,45,46,47,48,49,50,51,52,53,54,55,56,57,58,59,60,61,62,63,64,65,66,67,68,69,70,71,72,73,74,75,76,77,78,79,80,81,82,83,84,85,86,87,88,89,90,91,92,93,94,95,96,97,98,99,100,101,102,103,104,105,106,107,108,109,110,111,112,113,114,115,116,117,118,119,120,121,122,123,124,125,126,127,128,129,130,131,132,133,134,135,136,137,138,139,140,141,142,143,144,145,146,147,148,149,150,151,152,153,154,155,156,157,158,159,160,161,162,163,164,165,166,167,168,169,170,171,172,173,174,175,176,177,178,179,180,181,182,183,184,185,186,187,188,189,190,191,192,193,194,195,196,197,198,199,200,201,202,203,204,205,206,207,208,209,210,211,212,213,214,215,216,217,218,219,220,221,222,223,224,225,226,227,228,229,230,231,232,233,234,235,236,237,238,239,240,241,242,243,244,245,246,247,248,249,250,251,252,253,254,255,256,257,258,259,260,261,262,263,264,265,266,267,268,269,270,271,272,273,274,275,276,277,278,279,280,281,282,283,284,285,286,287,288,289,290,291,292,293,294,295,296,297,298,299,300,301,302,303,304,305,306,307,308,309,310,311,312,313,314,315,316,317,318,319,320,321,322,323,324,325,326,327,328,329,330,331,332,333,334,335,336,337,338,339,340,341,342,343,344,345,346,347,348,349,350,351,352,353,354,355,356,357,358,359,360,361,362,363,364,365,366,367,368,369,370,371,372,373,374,375,376,377,378,379,380,381,382,383,384,385,386,387,388,389,390,391,392,393,394,395,396,397,398,399,400,401,402,403,404,405,406,407,408,409,410,411,412,413,414,415,416,417,418,419,420,421,422,423,424,425,426,427,428,429,430,431,432,433,434,435,436,437,438,439,440,441,442,443,444,445,446,447,448,449,450,451,452,453,454,455,456,457,458,459,460,461,462,463,464,465,466,467,468,469,470,471,472,473,474,475,476,477,478,479,480,481,482,483,484,485,486,487,488,489,490,491,492,493,494,495,496,497,498,499,500],"tree_info":[0,0,0,0,0,0,0,0,0,0,0,0,0,0,0,0,0,0,0,0,0,0,0,0,0,0,0,0,0,0,0,0,0,0,0,0,0,0,0,0,0,0,0,0,0,0,0,0,0,0,0,0,0,0,0,0,0,0,0,0,0,0,0,0,0,0,0,0,0,0,0,0,0,0,0,0,0,0,0,0,0,0,0,0,0,0,0,0,0,0,0,0,0,0,0,0,0,0,0,0,0,0,0,0,0,0,0,0,0,0,0,0,0,0,0,0,0,0,0,0,0,0,0,0,0,0,0,0,0,0,0,0,0,0,0,0,0,0,0,0,0,0,0,0,0,0,0,0,0,0,0,0,0,0,0,0,0,0,0,0,0,0,0,0,0,0,0,0,0,0,0,0,0,0,0,0,0,0,0,0,0,0,0,0,0,0,0,0,0,0,0,0,0,0,0,0,0,0,0,0,0,0,0,0,0,0,0,0,0,0,0,0,0,0,0,0,0,0,0,0,0,0,0,0,0,0,0,0,0,0,0,0,0,0,0,0,0,0,0,0,0,0,0,0,0,0,0,0,0,0,0,0,0,0,0,0,0,0,0,0,0,0,0,0,0,0,0,0,0,0,0,0,0,0,0,0,0,0,0,0,0,0,0,0,0,0,0,0,0,0,0,0,0,0,0,0,0,0,0,0,0,0,0,0,0,0,0,0,0,0,0,0,0,0,0,0,0,0,0,0,0,0,0,0,0,0,0,0,0,0,0,0,0,0,0,0,0,0,0,0,0,0,0,0,0,0,0,0,0,0,0,0,0,0,0,0,0,0,0,0,0,0,0,0,0,0,0,0,0,0,0,0,0,0,0,0,0,0,0,0,0,0,0,0,0,0,0,0,0,0,0,0,0,0,0,0,0,0,0,0,0,0,0,0,0,0,0,0,0,0,0,0,0,0,0,0,0,0,0,0,0,0,0,0,0,0,0,0,0,0,0,0,0,0,0,0,0,0,0,0,0,0,0,0,0,0,0,0,0,0,0,0,0,0,0,0,0,0,0,0,0,0,0,0,0,0,0,0,0,0,0,0,0,0,0,0,0,0,0,0,0,0,0,0,0,0,0,0,0,0,0,0,0,0,0,0,0,0,0,0],"trees":[{"base_weights":[4.464286E-3,3.6123834E2,-1.2041273E4,-1.6869863E4,6.0508358E1,-2.2621996E4,3.069336E1,-3.946164E1,-2.7531885E2],"categories":[],"categories_nodes":[],"categories_segments":[],"categories_sizes":[],"default_left":[0,0,0,0,0,0,0,0,0],"id":0,"left_children":[1,-1,3,5,-1,7,-1,-1,-1],"loss_changes":[3.4798167E9,0E0,6.262329E8,6.428992E8,0E0,2.5813978E8,0E0,0E0,0E0],"parents":[2147483647,0,0,2,2,3,3,5,5],"right_children":[2,-1,4,6,-1,8,-1,-1,-1],"split_conditions":[3.35E2,3.6123834E2,3.39E2,6E0,6.0508358E1,3.36E2,3.069336E1,-3.946164E1,-2.7531885E2],"split_indices":[0,0,0,2,0,0,0,0,0],"split_type":[0,0,0,0,0,0,0,0,0],"sum_hessian":[6E0,1E0,5E0,4E0,1E0,3E0,1E0,1E0,2E0],"tree_param":{"num_deleted":"0","num_feature":"6","num_nodes":"9","size_leaf_vector":"1"}},{"base_weights":[1.9669643E1,3.594322E2,-1.1958125E4,-1.675798E4,6.020578E1,-2.2474473E4,3.053992E1,-3.9264297E1,-2.7348343E2],"categories":[],"categories_nodes":[],"categories_segments":[],"categories_sizes":[],"default_left":[0,0,0,0,0,0,0,0,0],"id":1,"left_children":[1,-1,3,5,-1,7,-1,-1,-1],"loss_changes":[3.4418076E9,0E0,6.186639E8,6.3491174E8,0E0,2.542217E8,0E0,0E0,0E0],"parents":[2147483647,0,0,2,2,3,3,5,5],"right_children":[2,-1,4,6,-1,8,-1,-1,-1],"split_conditions":[3.35E2,3.594322E2,3.39E2,6E0,6.020578E1,3.36E2,3.053992E1,-3.9264297E1,-2.7348343E2],"split_indices":[0,0,0,2,0,0,0,0,0],"split_type":[0,0,0,0,0,0,0,0,0],"sum_hessian":[6E0,1E0,5E0,4E0,1E0,3E0,1E0,1E0,2E0],"tree_param":{"num_deleted":"0","num_feature":"6","num_nodes":"9","size_leaf_vector":"1"}},{"base_weights":[3.910491E1,3.5763498E2,-1.1875544E4,-1.6646844E4,5.9904766E1,-2.2327914E4,3.0387186E1,-3.9067966E1,-2.7166022E2],"categories":[],"categories_nodes":[],"categories_segments":[],"categories_sizes":[],"default_left":[0,0,0,0,0,0,0,0,0],"id":2,"left_children":[1,-1,3,5,-1,7,-1,-1,-1],"loss_changes":[3.4042166E9,0E0,6.1118726E8,6.270236E8,0E0,2.5036134E8,0E0,0E0,0E0],"parents":[2147483647,0,0,2,2,3,3,5,5],"right_children":[2,-1,4,6,-1,8,-1,-1,-1],"split_conditions":[3.35E2,3.5763498E2,3.39E2,6E0,5.9904766E1,3.36E2,3.0387186E1,-3.9067966E1,-2.7166022E2],"split_indices":[0,0,0,2,0,0,0,0,0],"split_type":[0,0,0,0,0,0,0,0,0],"sum_hessian":[6E0,1E0,5E0,4E0,1E0,3E0,1E0,1E0,2E0],"tree_param":{"num_deleted":"0","num_feature":"6","num_nodes":"9","size_leaf_vector":"1"}},{"base_weights":[5.831027E1,3.558468E2,-1.1793531E4,-1.6536447E4,5.9605232E1,-2.218232E4,3.0235233E1,-3.8872654E1,-2.6984915E2],"categories":[],"categories_nodes":[],"categories_segments":[],"categories_sizes":[],"default_left":[0,0,0,0,0,0,0,0,0],"id":3,"left_children":[1,-1,3,5,-1,7,-1,-1,-1],"loss_changes":[3.3670392E9,0E0,6.038018E8,6.192343E8,0E0,2.4655757E8,0E0,0E0,0E0],"parents":[2147483647,0,0,2,2,3,3,5,5],"right_children":[2,-1,4,6,-1,8,-1,-1,-1],"split_conditions":[3.35E2,3.558468E2,3.39E2,6E0,5.9605232E1,3.36E2,3.0235233E1,-3.8872654E1,-2.6984915E2],"split_indices":[0,0,0,2,0,0,0,0,0],"split_type":[0,0,0,0,0,0,0,0,0],"sum_hessian":[6E0,1E0,5E0,4E0,1E0,3E0,1E0,1E0,2E0],"tree_param":{"num_deleted":"0","num_feature":"6","num_nodes":"9","size_leaf_vector":"1"}},{"base_weights":[7.729241E1,3.5406757E2,-1.1712078E4,-1.6426781E4,5.9307186E1,-2.203768E4,3.0084063E1,-3.867828E1,-2.680502E2],"categories":[],"categories_nodes":[],"categories_segments":[],"categories_sizes":[],"default_left":[0,0,0,0,0,0,0,0,0],"id":4,"left_children":[1,-1,3,5,-1,7,-1,-1,-1],"loss_changes":[3.330272E9,0E0,5.9650586E8,6.1154266E8,0E0,2.4281037E8,0E0,0E0,0E0],"parents":[2147483647,0,0,2,2,3,3,5,5],"right_children":[2,-1,4,6,-1,8,-1,-1,-1],"split_conditions":[3.35E2,3.5406757E2,3.39E2,6E0,5.9307186E1,3.36E2,3.0084063E1,-3.867828E1,-2.680502E2],"split_indices":[0,0,0,2,0,0,0,0,0],"split_type":[0,0,0,0,0,0,0,0,0],"sum_hessian":[6E0,1E0,5E0,4E0,1E0,3E0,1E0,1E0,2E0],"tree_param":{"num_deleted":"0","num_feature":"6","num_nodes":"9","size_leaf_vector":"1"}},{"base_weights":[9.605134E1,3.5229727E2,-1.1631183E4,-1.6317844E4,5.9010624E1,-2.1893988E4,2.9933672E1,-3.848492E1,-2.662632E2],"categories":[],"categories_nodes":[],"categories_segments":[],"categories_sizes":[],"default_left":[0,0,0,0,0,0,0,0,0],"id":5,"left_children":[1,-1,3,5,-1,7,-1,-1,-1],"loss_changes":[3.2939092E9,0E0,5.892988E8,6.0394726E8,0E0,2.391182E8,0E0,0E0,0E0],"parents":[2147483647,0,0,2,2,3,3,5,5],"right_children":[2,-1,4,6,-1,8,-1,-1,-1],"split_conditions":[3.35E2,3.5229727E2,3.39E2,6E0,5.9010624E1,3.36E2,2.9933672E1,-3.848492E1,-2.662632E2],"split_indices":[0,0,0,2,0,0,0,0,0],"split_type":[0,0,0,0,0,0,0,0,0],"sum_hessian":[6E0,1E0,5E0,4E0,1E0,3E0,1E0,1E0,2E0],"tree_param":{"num_deleted":"0","num_feature":"6","num_nodes":"9","size_leaf_vector":"1"}},{"base_weights":[1.1458929E2,3.5053577E2,-1.1550839E4,-1.6209628E4,5.8715546E1,-2.1751234E4,2.9783983E1,-3.82925E1,-2.6448813E2],"categories":[],"categories_nodes":[],"categories_segments":[],"categories_sizes":[],"default_left":[0,0,0,0,0,0,0,0,0],"id":6,"left_children":[1,-1,3,5,-1,7,-1,-1,-1],"loss_changes":[3.2579459E9,0E0,5.821793E8,5.964462E8,0E0,2.3548058E8,0E0,0E0,0E0],"parents":[2147483647,0,0,2,2,3,3,5,5],"right_children":[2,-1,4,6,-1,8,-1,-1,-1],"split_conditions":[3.35E2,3.5053577E2,3.39E2,6E0,5.8715546E1,3.36E2,2.9783983E1,-3.82925E1,-2.6448813E2],"split_indices":[0,0,0,2,0,0,0,0,0],"split_type":[0,0,0,0,0,0,0,0,0],"sum_hessian":[6E0,1E0,5E0,4E0,1E0,3E0,1E0,1E0,2E0],"tree_param":{"num_deleted":"0","num_feature":"6","num_nodes":"9","size_leaf_vector":"1"}},{"base_weights":[1.3290848E2,3.487831E2,-1.1471044E4,-1.6102131E4,5.842195E1,-2.1609418E4,2.9635077E1,-3.8101013E1,-2.6272488E2],"categories":[],"categories_nodes":[],"categories_segments":[],"categories_sizes":[],"default_left":[0,0,0,0,0,0,0,0,0],"id":7,"left_children":[1,-1,3,5,-1,7,-1,-1,-1],"loss_changes":[3.2223788E9,0E0,5.751465E8,5.890395E8,0E0,2.3189709E8,0E0,0E0,0E0],"parents":[2147483647,0,0,2,2,3,3,5,5],"right_children":[2,-1,4,6,-1,8,-1,-1,-1],"split_conditions":[3.35E2,3.487831E2,3.39E2,6E0,5.842195E1,3.36E2,2.9635077E1,-3.8101013E1,-2.6272488E2],"split_indices":[0,0,0,2,0,0,0,0,0],"split_type":[0,0,0,0,0,0,0,0,0],"sum_hessian":[6E0,1E0,5E0,4E0,1E0,3E0,1E0,1E0,2E0],"tree_param":{"num_deleted":"0","num_feature":"6","num_nodes":"9","size_leaf_vector":"1"}},{"base_weights":[1.510067E2,3.470392E2,-1.13918E4,-1.5995354E4,5.812984E1,-2.1468535E4,2.9486874E1,-3.7910545E1,-2.6097342E2],"categories":[],"categories_nodes":[],"categories_segments":[],"categories_sizes":[],"default_left":[0,0,0,0,0,0,0,0,0],"id":8,"left_children":[1,-1,3,5,-1,7,-1,-1,-1],"loss_changes":[3.1872033E9,0E0,5.6819955E8,5.8172506E8,0E0,2.2836608E8,0E0,0E0,0E0],"parents":[2147483647,0,0,2,2,3,3,5,5],"right_children":[2,-1,4,6,-1,8,-1,-1,-1],"split_conditions":[3.35E2,3.470392E2,3.39E2,6E0,5.812984E1,3.36E2,2.9486874E1,-3.7910545E1,-2.6097342E2],"split_indices":[0,0,0,2,0,0,0,0,0],"split_type":[0,0,0,0,0,0,0,0,0],"sum_hessian":[6E0,1E0,5E0,4E0,1E0,3E0,1E0,1E0,2E0],"tree_param":{"num_deleted":"0","num_feature":"6","num_nodes":"9","size_leaf_vector":"1"}},{"base_weights":[1.6889062E2,3.45304E2,-1.1313094E4,-1.5889281E4,5.783922E1,-2.1328574E4,2.9339453E1,-3.7721016E1,-2.5923364E2],"categories":[],"categories_nodes":[],"categories_segments":[],"categories_sizes":[],"default_left":[0,0,0,0,0,0,0,0,0],"id":9,"left_children":[1,-1,3,5,-1,7,-1,-1,-1],"loss_changes":[3.1524137E9,0E0,5.6133734E8,5.74502E8,0E0,2.2488768E8,0E0,0E0,0E0],"parents":[2147483647,0,0,2,2,3,3,5,5],"right_children":[2,-1,4,6,-1,8,-1,-1,-1],"split_conditions":[3.35E2,3.45304E2,3.39E2,6E0,5.783922E1,3.36E2,2.9339453E1,-3.7721016E1,-2.5923364E2],"split_indices":[0,0,0,2,0,0,0,0,0],"split_type":[0,0,0,0,0,0,0,0,0],"sum_hessian":[6E0,1E0,5E0,4E0,1E0,3E0,1E0,1E0,2E0],"tree_param":{"num_deleted":"0","num_feature":"6","num_nodes":"9","size_leaf_vector":"1"}},{"base_weights":[1.865625E2,3.4357748E2,-1.1234927E4,-1.5783912E4,5.755E1,-2.1189527E4,2.9192734E1,-3.753242E1,-2.575054E2],"categories":[],"categories_nodes":[],"categories_segments":[],"categories_sizes":[],"default_left":[0,0,0,0,0,0,0,0,0],"id":10,"left_children":[1,-1,3,5,-1,7,-1,-1,-1],"loss_changes":[3.1180078E9,0E0,5.545579E8,5.673692E8,0E0,2.214606E8,0E0,0E0,0E0],"parents":[2147483647,0,0,2,2,3,3,5,5],"right_children":[2,-1,4,6,-1,8,-1,-1,-1],"split_conditions":[3.35E2,3.4357748E2,3.39E2,6E0,5.755E1,3.36E2,2.9192734E1,-3.753242E1,-2.575054E2],"split_indices":[0,0,0,2,0,0,0,0,0],"split_type":[0,0,0,0,0,0,0,0,0],"sum_hessian":[6E0,1E0,5E0,4E0,1E0,3E0,1E0,1E0,2E0],"tree_param":{"num_deleted":"0","num_feature":"6","num_nodes":"9","size_leaf_vector":"1"}},{"base_weights":[2.0402232E2,3.418596E2,-1.1157294E4,-1.5679244E4,5.7262264E1,-2.1051395E4,2.9046797E1,-3.7344765E1,-2.5578874E2],"categories":[],"categories_nodes":[],"categories_segments":[],"categories_sizes":[],"default_left":[0,0,0,0,0,0,0,0,0],"id":11,"left_children":[1,-1,3,5,-1,7,-1,-1,-1],"loss_changes":[3.0839798E9,0E0,5.4786157E8,5.6032576E8,0E0,2.1808422E8,0E0,0E0,0E0],"parents":[2147483647,0,0,2,2,3,3,5,5],"right_children":[2,-1,4,6,-1,8,-1,-1,-1],"split_conditions":[3.35E2,3.418596E2,3.39E2,6E0,5.7262264E1,3.36E2,2.9046797E1,-3.7344765E1,-2.5578874E2],"split_indices":[0,0,0,2,0,0,0,0,0],"split_type":[0,0,0,0,0,0,0,0,0],"sum_hessian":[6E0,1E0,5E0,4E0,1E0,3E0,1E0,1E0,2E0],"tree_param":{"num_deleted":"0","num_feature":"6","num_nodes":"9","size_leaf_vector":"1"}},{"base_weights":[2.212701E2,3.401503E2,-1.1080195E4,-1.5575271E4,5.6975937E1,-2.0914168E4,2.8901562E1,-3.7158047E1,-2.5408353E2],"categories":[],"categories_nodes":[],"categories_segments":[],"categories_sizes":[],"default_left":[0,0,0,0,0,0,0,0,0],"id":12,"left_children":[1,-1,3,5,-1,7,-1,-1,-1],"loss_changes":[3.0503263E9,0E0,5.4124634E8,5.5337024E8,0E0,2.1475802E8,0E0,0E0,0E0],"parents":[2147483647,0,0,2,2,3,3,5,5],"right_children":[2,-1,4,6,-1,8,-1,-1,-1],"split_conditions":[3.35E2,3.401503E2,3.39E2,6E0,5.6975937E1,3.36E2,2.8901562E1,-3.7158047E1,-2.5408353E2],"split_indices":[0,0,0,2,0,0,0,0,0],"split_type":[0,0,0,0,0,0,0,0,0],"sum_hessian":[6E0,1E0,5E0,4E0,1E0,3E0,1E0,1E0,2E0],"tree_param":{"num_deleted":"0","num_feature":"6","num_nodes":"9","size_leaf_vector":"1"}},{"base_weights":[2.3831027E2,3.3844952E2,-1.1003622E4,-1.547199E4,5.6691093E1,-2.077784E4,2.875703E1,-3.6972263E1,-2.5238968E2],"categories":[],"categories_nodes":[],"categories_segments":[],"categories_sizes":[],"default_left":[0,0,0,0,0,0,0,0,0],"id":13,"left_children":[1,-1,3,5,-1,7,-1,-1,-1],"loss_changes":[3.0170424E9,0E0,5.3471174E8,5.465015E8,0E0,2.1148109E8,0E0,0E0,0E0],"parents":[2147483647,0,0,2,2,3,3,5,5],"right_children":[2,-1,4,6,-1,8,-1,-1,-1],"split_conditions":[3.35E2,3.3844952E2,3.39E2,6E0,5.6691093E1,3.36E2,2.875703E1,-3.6972263E1,-2.5238968E2],"split_indices":[0,0,0,2,0,0,0,0,0],"split_type":[0,0,0,0,0,0,0,0,0],"sum_hessian":[6E0,1E0,5E0,4E0,1E0,3E0,1E0,1E0,2E0],"tree_param":{"num_deleted":"0","num_feature":"6","num_nodes":"9","size_leaf_vector":"1"}},{"base_weights":[2.5514732E2,3.3675726E2,-1.092757E4,-1.5369391E4,5.6407654E1,-2.0642402E4,2.8613281E1,-3.6787422E1,-2.5070708E2],"categories":[],"categories_nodes":[],"categories_segments":[],"categories_sizes":[],"default_left":[0,0,0,0,0,0,0,0,0],"id":14,"left_children":[1,-1,3,5,-1,7,-1,-1,-1],"loss_changes":[2.9841242E9,0E0,5.282565E8,5.3971866E8,0E0,2.0825242E8,0E0,0E0,0E0],"parents":[2147483647,0,0,2,2,3,3,5,5],"right_children":[2,-1,4,6,-1,8,-1,-1,-1],"split_conditions":[3.35E2,3.3675726E2,3.39E2,6E0,5.6407654E1,3.36E2,2.8613281E1,-3.6787422E1,-2.5070708E2],"split_indices":[0,0,0,2,0,0,0,0,0],"split_type":[0,0,0,0,0,0,0,0,0],"sum_hessian":[6E0,1E0,5E0,4E0,1E0,3E0,1E0,1E0,2E0],"tree_param":{"num_deleted":"0","num_feature":"6","num_nodes":"9","size_leaf_vector":"1"}},{"base_weights":[2.7177902E2,3.3507352E2,-1.0852042E4,-1.5267475E4,5.6125626E1,-2.0507855E4,2.8470234E1,-3.6603516E1,-2.4903572E2],"categories":[],"categories_nodes":[],"categories_segments":[],"categories_sizes":[],"default_left":[0,0,0,0,0,0,0,0,0],"id":15,"left_children":[1,-1,3,5,-1,7,-1,-1,-1],"loss_changes":[2.951569E9,0E0,5.2187994E8,5.3302054E8,0E0,2.0507162E8,0E0,0E0,0E0],"parents":[2147483647,0,0,2,2,3,3,5,5],"right_children":[2,-1,4,6,-1,8,-1,-1,-1],"split_conditions":[3.35E2,3.3507352E2,3.39E2,6E0,5.6125626E1,3.36E2,2.8470234E1,-3.6603516E1,-2.4903572E2],"split_indices":[0,0,0,2,0,0,0,0,0],"split_type":[0,0,0,0,0,0,0,0,0],"sum_hessian":[6E0,1E0,5E0,4E0,1E0,3E0,1E0,1E0,2E0],"tree_param":{"num_deleted":"0","num_feature":"6","num_nodes":"9","size_leaf_vector":"1"}},{"base_weights":[2.8820758E2,3.3339813E2,-1.0777028E4,-1.5166234E4,5.5844997E1,-2.0374188E4,2.832789E1,-3.6420467E1,-2.4737552E2],"categories":[],"categories_nodes":[],"categories_segments":[],"categories_sizes":[],"default_left":[0,0,0,0,0,0,0,0,0],"id":16,"left_children":[1,-1,3,5,-1,7,-1,-1,-1],"loss_changes":[2.9193708E9,0E0,5.1558048E8,5.2640614E8,0E0,2.0193843E8,0E0,0E0,0E0],"parents":[2147483647,0,0,2,2,3,3,5,5],"right_children":[2,-1,4,6,-1,8,-1,-1,-1],"split_conditions":[3.35E2,3.3339813E2,3.39E2,6E0,5.5844997E1,3.36E2,2.832789E1,-3.6420467E1,-2.4737552E2],"split_indices":[0,0,0,2,0,0,0,0,0],"split_type":[0,0,0,0,0,0,0,0,0],"sum_hessian":[6E0,1E0,5E0,4E0,1E0,3E0,1E0,1E0,2E0],"tree_param":{"num_deleted":"0","num_feature":"6","num_nodes":"9","size_leaf_vector":"1"}},{"base_weights":[3.044375E2,3.3173117E2,-1.0702528E4,-1.5065666E4,5.556578E1,-2.0241395E4,2.8186249E1,-3.6238358E1,-2.4572635E2],"categories":[],"categories_nodes":[],"categories_segments":[],"categories_sizes":[],"default_left":[0,0,0,0,0,0,0,0,0],"id":17,"left_children":[1,-1,3,5,-1,7,-1,-1,-1],"loss_changes":[2.8875274E9,0E0,5.093579E8,5.1987405E8,0E0,1.9885133E8,0E0,0E0,0E0],"parents":[2147483647,0,0,2,2,3,3,5,5],"right_children":[2,-1,4,6,-1,8,-1,-1,-1],"split_conditions":[3.35E2,3.3173117E2,3.39E2,6E0,5.556578E1,3.36E2,2.8186249E1,-3.6238358E1,-2.4572635E2],"split_indices":[0,0,0,2,0,0,0,0,0],"split_type":[0,0,0,0,0,0,0,0,0],"sum_hessian":[6E0,1E0,5E0,4E0,1E0,3E0,1E0,1E0,2E0],"tree_param":{"num_deleted":"0","num_feature":"6","num_nodes":"9","size_leaf_vector":"1"}},{"base_weights":[3.204643E2,3.3007248E2,-1.0628542E4,-1.4965769E4,5.5287968E1,-2.0109477E4,2.8045311E1,-3.6057186E1,-2.4408821E2],"categories":[],"categories_nodes":[],"categories_segments":[],"categories_sizes":[],"default_left":[0,0,0,0,0,0,0,0,0],"id":18,"left_children":[1,-1,3,5,-1,7,-1,-1,-1],"loss_changes":[2.8560335E9,0E0,5.0321107E8,5.1342374E8,0E0,1.9581018E8,0E0,0E0,0E0],"parents":[2147483647,0,0,2,2,3,3,5,5],"right_children":[2,-1,4,6,-1,8,-1,-1,-1],"split_conditions":[3.35E2,3.3007248E2,3.39E2,6E0,5.5287968E1,3.36E2,2.8045311E1,-3.6057186E1,-2.4408821E2],"split_indices":[0,0,0,2,0,0,0,0,0],"split_type":[0,0,0,0,0,0,0,0,0],"sum_hessian":[6E0,1E0,5E0,4E0,1E0,3E0,1E0,1E0,2E0],"tree_param":{"num_deleted":"0","num_feature":"6","num_nodes":"9","size_leaf_vector":"1"}},{"base_weights":[3.362991E2,3.284221E2,-1.0555055E4,-1.4866528E4,5.5011562E1,-1.9978414E4,2.7905077E1,-3.5876873E1,-2.4246094E2],"categories":[],"categories_nodes":[],"categories_segments":[],"categories_sizes":[],"default_left":[0,0,0,0,0,0,0,0,0],"id":19,"left_children":[1,-1,3,5,-1,7,-1,-1,-1],"loss_changes":[2.8248852E9,0E0,4.9713862E8,5.070537E8,0E0,1.9281408E8,0E0,0E0,0E0],"parents":[2147483647,0,0,2,2,3,3,5,5],"right_children":[2,-1,4,6,-1,8,-1,-1,-1],"split_conditions":[3.35E2,3.284221E2,3.39E2,6E0,5.5011562E1,3.36E2,2.7905077E1,-3.5876873E1,-2.4246094E2],"split_indices":[0,0,0,2,0,0,0,0,0],"split_type":[0,0,0,0,0,0,0,0,0],"sum_hessian":[6E0,1E0,5E0,4E0,1E0,3E0,1E0,1E0,2E0],"tree_param":{"num_deleted":"0","num_feature":"6","num_nodes":"9","size_leaf_vector":"1"}},{"base_weights":[3.5193304E2,3.2678E2,-1.0482078E4,-1.4767953E4,5.4736485E1,-1.9848219E4,2.7765547E1,-3.56975E1,-2.4084459E2],"categories":[],"categories_nodes":[],"categories_segments":[],"categories_sizes":[],"default_left":[0,0,0,0,0,0,0,0,0],"id":20,"left_children":[1,-1,3,5,-1,7,-1,-1,-1],"loss_changes":[2.79408E9,0E0,4.911401E8,5.007634E8,0E0,1.8986253E8,0E0,0E0,0E0],"parents":[2147483647,0,0,2,2,3,3,5,5],"right_children":[2,-1,4,6,-1,8,-1,-1,-1],"split_conditions":[3.35E2,3.2678E2,3.39E2,6E0,5.4736485E1,3.36E2,2.7765547E1,-3.56975E1,-2.4084459E2],"split_indices":[0,0,0,2,0,0,0,0,0],"split_type":[0,0,0,0,0,0,0,0,0],"sum_hessian":[6E0,1E0,5E0,4E0,1E0,3E0,1E0,1E0,2E0],"tree_param":{"num_deleted":"0","num_feature":"6","num_nodes":"9","size_leaf_vector":"1"}},{"base_weights":[3.6737723E2,3.251461E2,-1.0409597E4,-1.4670028E4,5.446281E1,-1.9718871E4,2.7626719E1,-3.5518982E1,-2.3923895E2],"categories":[],"categories_nodes":[],"categories_segments":[],"categories_sizes":[],"default_left":[0,0,0,0,0,0,0,0,0],"id":21,"left_children":[1,-1,3,5,-1,7,-1,-1,-1],"loss_changes":[2.7636132E9,0E0,4.852144E8,4.9455168E8,0E0,1.8695488E8,0E0,0E0,0E0],"parents":[2147483647,0,0,2,2,3,3,5,5],"right_children":[2,-1,4,6,-1,8,-1,-1,-1],"split_conditions":[3.35E2,3.251461E2,3.39E2,6E0,5.446281E1,3.36E2,2.7626719E1,-3.5518982E1,-2.3923895E2],"split_indices":[0,0,0,2,0,0,0,0,0],"split_type":[0,0,0,0,0,0,0,0,0],"sum_hessian":[6E0,1E0,5E0,4E0,1E0,3E0,1E0,1E0,2E0],"tree_param":{"num_deleted":"0","num_feature":"6","num_nodes":"9","size_leaf_vector":"1"}},{"base_weights":[3.8262723E2,3.235204E2,-1.0337614E4,-1.4572756E4,5.4190468E1,-1.9590375E4,2.7488594E1,-3.5341404E1,-2.3764406E2],"categories":[],"categories_nodes":[],"categories_segments":[],"categories_sizes":[],"default_left":[0,0,0,0,0,0,0,0,0],"id":22,"left_children":[1,-1,3,5,-1,7,-1,-1,-1],"loss_changes":[2.7334817E9,0E0,4.793607E8,4.884174E8,0E0,1.8409011E8,0E0,0E0,0E0],"parents":[2147483647,0,0,2,2,3,3,5,5],"right_children":[2,-1,4,6,-1,8,-1,-1,-1],"split_conditions":[3.35E2,3.235204E2,3.39E2,6E0,5.4190468E1,3.36E2,2.7488594E1,-3.5341404E1,-2.3764406E2],"split_indices":[0,0,0,2,0,0,0,0,0],"split_type":[0,0,0,0,0,0,0,0,0],"sum_hessian":[6E0,1E0,5E0,4E0,1E0,3E0,1E0,1E0,2E0],"tree_param":{"num_deleted":"0","num_feature":"6","num_nodes":"9","size_leaf_vector":"1"}},{"base_weights":[3.9768973E2,3.219028E2,-1.0266122E4,-1.4476128E4,5.391953E1,-1.9462719E4,2.7351171E1,-3.516469E1,-2.3605978E2],"categories":[],"categories_nodes":[],"categories_segments":[],"categories_sizes":[],"default_left":[0,0,0,0,0,0,0,0,0],"id":23,"left_children":[1,-1,3,5,-1,7,-1,-1,-1],"loss_changes":[2.7036808E9,0E0,4.7357818E8,4.8236E8,0E0,1.8126822E8,0E0,0E0,0E0],"parents":[2147483647,0,0,2,2,3,3,5,5],"right_children":[2,-1,4,6,-1,8,-1,-1,-1],"split_conditions":[3.35E2,3.219028E2,3.39E2,6E0,5.391953E1,3.36E2,2.7351171E1,-3.516469E1,-2.3605978E2],"split_indices":[0,0,0,2,0,0,0,0,0],"split_type":[0,0,0,0,0,0,0,0,0],"sum_hessian":[6E0,1E0,5E0,4E0,1E0,3E0,1E0,1E0,2E0],"tree_param":{"num_deleted":"0","num_feature":"6","num_nodes":"9","size_leaf_vector":"1"}},{"base_weights":[4.1256473E2,3.2029327E2,-1.0195117E4,-1.4380138E4,5.364992E1,-1.9335895E4,2.7214453E1,-3.4988827E1,-2.3448602E2],"categories":[],"categories_nodes":[],"categories_segments":[],"categories_sizes":[],"default_left":[0,0,0,0,0,0,0,0,0],"id":24,"left_children":[1,-1,3,5,-1,7,-1,-1,-1],"loss_changes":[2.6742067E9,0E0,4.678656E8,4.7637805E8,0E0,1.7848806E8,0E0,0E0,0E0],"parents":[2147483647,0,0,2,2,3,3,5,5],"right_children":[2,-1,4,6,-1,8,-1,-1,-1],"split_conditions":[3.35E2,3.2029327E2,3.39E2,6E0,5.364992E1,3.36E2,2.7214453E1,-3.4988827E1,-2.3448602E2],"split_indices":[0,0,0,2,0,0,0,0,0],"split_type":[0,0,0,0,0,0,0,0,0],"sum_hessian":[6E0,1E0,5E0,4E0,1E0,3E0,1E0,1E0,2E0],"tree_param":{"num_deleted":"0","num_feature":"6","num_nodes":"9","size_leaf_vector":"1"}},{"base_weights":[4.2724777E2,3.186918E2,-1.01246045E4,-1.4284791E4,5.3381638E1,-1.9209906E4,2.707836E1,-3.4813904E1,-2.329228E2],"categories":[],"categories_nodes":[],"categories_segments":[],"categories_sizes":[],"default_left":[0,0,0,0,0,0,0,0,0],"id":25,"left_children":[1,-1,3,5,-1,7,-1,-1,-1],"loss_changes":[2.6450573E9,0E0,4.6222253E8,4.7047053E8,0E0,1.7574925E8,0E0,0E0,0E0],"parents":[2147483647,0,0,2,2,3,3,5,5],"right_children":[2,-1,4,6,-1,8,-1,-1,-1],"split_conditions":[3.35E2,3.186918E2,3.39E2,6E0,5.3381638E1,3.36E2,2.707836E1,-3.4813904E1,-2.329228E2],"split_indices":[0,0,0,2,0,0,0,0,0],"split_type":[0,0,0,0,0,0,0,0,0],"sum_hessian":[6E0,1E0,5E0,4E0,1E0,3E0,1E0,1E0,2E0],"tree_param":{"num_deleted":"0","num_feature":"6","num_nodes":"9","size_leaf_vector":"1"}},{"base_weights":[4.4175E2,3.1709836E2,-1.005457E4,-1.4190075E4,5.3114765E1,-1.9084742E4,2.6942968E1,-3.4639843E1,-2.3137E2],"categories":[],"categories_nodes":[],"categories_segments":[],"categories_sizes":[],"default_left":[0,0,0,0,0,0,0,0,0],"id":26,"left_children":[1,-1,3,5,-1,7,-1,-1,-1],"loss_changes":[2.6162276E9,0E0,4.566484E8,4.6463693E8,0E0,1.73051E8,0E0,0E0,0E0],"parents":[2147483647,0,0,2,2,3,3,5,5],"right_children":[2,-1,4,6,-1,8,-1,-1,-1],"split_conditions":[3.35E2,3.1709836E2,3.39E2,6E0,5.3114765E1,3.36E2,2.6942968E1,-3.4639843E1,-2.3137E2],"split_indices":[0,0,0,2,0,0,0,0,0],"split_type":[0,0,0,0,0,0,0,0,0],"sum_hessian":[6E0,1E0,5E0,4E0,1E0,3E0,1E0,1E0,2E0],"tree_param":{"num_deleted":"0","num_feature":"6","num_nodes":"9","size_leaf_vector":"1"}},{"base_weights":[4.5607144E2,3.1551288E2,-9.985013E3,-1.4095984E4,5.2849216E1,-1.8960395E4,2.680828E1,-3.446664E1,-2.298275E2],"categories":[],"categories_nodes":[],"categories_segments":[],"categories_sizes":[],"default_left":[0,0,0,0,0,0,0,0,0],"id":27,"left_children":[1,-1,3,5,-1,7,-1,-1,-1],"loss_changes":[2.5877146E9,0E0,4.5114176E8,4.5887603E8,0E0,1.7039309E8,0E0,0E0,0E0],"parents":[2147483647,0,0,2,2,3,3,5,5],"right_children":[2,-1,4,6,-1,8,-1,-1,-1],"split_conditions":[3.35E2,3.1551288E2,3.39E2,6E0,5.2849216E1,3.36E2,2.680828E1,-3.446664E1,-2.298275E2],"split_indices":[0,0,0,2,0,0,0,0,0],"split_type":[0,0,0,0,0,0,0,0,0],"sum_hessian":[6E0,1E0,5E0,4E0,1E0,3E0,1E0,1E0,2E0],"tree_param":{"num_deleted":"0","num_feature":"6","num_nodes":"9","size_leaf_vector":"1"}},{"base_weights":[4.7020758E2,3.139353E2,-9.915935E3,-1.4002521E4,5.2585E1,-1.8836863E4,2.6674217E1,-3.4294296E1,-2.282953E2],"categories":[],"categories_nodes":[],"categories_segments":[],"categories_sizes":[],"default_left":[0,0,0,0,0,0,0,0,0],"id":28,"left_children":[1,-1,3,5,-1,7,-1,-1,-1],"loss_changes":[2.5595144E9,0E0,4.4570214E8,4.531868E8,0E0,1.6777472E8,0E0,0E0,0E0],"parents":[2147483647,0,0,2,2,3,3,5,5],"right_children":[2,-1,4,6,-1,8,-1,-1,-1],"split_conditions":[3.35E2,3.139353E2,3.39E2,6E0,5.2585E1,3.36E2,2.6674217E1,-3.4294296E1,-2.282953E2],"split_indices":[0,0,0,2,0,0,0,0,0],"split_type":[0,0,0,0,0,0,0,0,0],"sum_hessian":[6E0,1E0,5E0,4E0,1E0,3E0,1E0,1E0,2E0],"tree_param":{"num_deleted":"0","num_feature":"6","num_nodes":"9","size_leaf_vector":"1"}},{"base_weights":[4.841652E2,3.1236563E2,-9.847328E3,-1.3909678E4,5.232211E1,-1.871414E4,2.654086E1,-3.412281E1,-2.2677333E2],"categories":[],"categories_nodes":[],"categories_segments":[],"categories_sizes":[],"default_left":[0,0,0,0,0,0,0,0,0],"id":29,"left_children":[1,-1,3,5,-1,7,-1,-1,-1],"loss_changes":[2.531624E9,0E0,4.4032858E8,4.475689E8,0E0,1.651954E8,0E0,0E0,0E0],"parents":[2147483647,0,0,2,2,3,3,5,5],"right_children":[2,-1,4,6,-1,8,-1,-1,-1],"split_conditions":[3.35E2,3.1236563E2,3.39E2,6E0,5.232211E1,3.36E2,2.654086E1,-3.412281E1,-2.2677333E2],"split_indices":[0,0,0,2,0,0,0,0,0],"split_type":[0,0,0,0,0,0,0,0,0],"sum_hessian":[6E0,1E0,5E0,4E0,1E0,3E0,1E0,1E0,2E0],"tree_param":{"num_deleted":"0","num_feature":"6","num_nodes":"9","size_leaf_vector":"1"}},{"base_weights":[4.9793973E2,3.1080383E2,-9.779198E3,-1.3817456E4,5.2060467E1,-1.8592227E4,2.6408125E1,-3.3952187E1,-2.2526155E2],"categories":[],"categories_nodes":[],"categories_segments":[],"categories_sizes":[],"default_left":[0,0,0,0,0,0,0,0,0],"id":30,"left_children":[1,-1,3,5,-1,7,-1,-1,-1],"loss_changes":[2.504041E9,0E0,4.3502003E8,4.420208E8,0E0,1.626546E8,0E0,0E0,0E0],"parents":[2147483647,0,0,2,2,3,3,5,5],"right_children":[2,-1,4,6,-1,8,-1,-1,-1],"split_conditions":[3.35E2,3.1080383E2,3.39E2,6E0,5.2060467E1,3.36E2,2.6408125E1,-3.3952187E1,-2.2526155E2],"split_indices":[0,0,0,2,0,0,0,0,0],"split_type":[0,0,0,0,0,0,0,0,0],"sum_hessian":[6E0,1E0,5E0,4E0,1E0,3E0,1E0,1E0,2E0],"tree_param":{"num_deleted":"0","num_feature":"6","num_nodes":"9","size_leaf_vector":"1"}},{"base_weights":[5.1154242E2,3.0924985E2,-9.711528E3,-1.3725841E4,5.1800156E1,-1.8471105E4,2.6276093E1,-3.378242E1,-2.2375978E2],"categories":[],"categories_nodes":[],"categories_segments":[],"categories_sizes":[],"default_left":[0,0,0,0,0,0,0,0,0],"id":31,"left_children":[1,-1,3,5,-1,7,-1,-1,-1],"loss_changes":[2.4767603E9,0E0,4.2977587E8,4.3654208E8,0E0,1.6015155E8,0E0,0E0,0E0],"parents":[2147483647,0,0,2,2,3,3,5,5],"right_children":[2,-1,4,6,-1,8,-1,-1,-1],"split_conditions":[3.35E2,3.0924985E2,3.39E2,6E0,5.1800156E1,3.36E2,2.6276093E1,-3.378242E1,-2.2375978E2],"split_indices":[0,0,0,2,0,0,0,0,0],"split_type":[0,0,0,0,0,0,0,0,0],"sum_hessian":[6E0,1E0,5E0,4E0,1E0,3E0,1E0,1E0,2E0],"tree_param":{"num_deleted":"0","num_feature":"6","num_nodes":"9","size_leaf_vector":"1"}},{"base_weights":[5.2496875E2,3.0770358E2,-9.644323E3,-1.3634834E4,5.1541172E1,-1.8350777E4,2.6144688E1,-3.3613514E1,-2.2226802E2],"categories":[],"categories_nodes":[],"categories_segments":[],"categories_sizes":[],"default_left":[0,0,0,0,0,0,0,0,0],"id":32,"left_children":[1,-1,3,5,-1,7,-1,-1,-1],"loss_changes":[2.4497787E9,0E0,4.2459565E8,4.3113152E8,0E0,1.5768538E8,0E0,0E0,0E0],"parents":[2147483647,0,0,2,2,3,3,5,5],"right_children":[2,-1,4,6,-1,8,-1,-1,-1],"split_conditions":[3.35E2,3.0770358E2,3.39E2,6E0,5.1541172E1,3.36E2,2.6144688E1,-3.3613514E1,-2.2226802E2],"split_indices":[0,0,0,2,0,0,0,0,0],"split_type":[0,0,0,0,0,0,0,0,0],"sum_hessian":[6E0,1E0,5E0,4E0,1E0,3E0,1E0,1E0,2E0],"tree_param":{"num_deleted":"0","num_feature":"6","num_nodes":"9","size_leaf_vector":"1"}},{"base_weights":[5.3821875E2,3.0616507E2,-9.577581E3,-1.3544435E4,5.1283436E1,-1.8231242E4,2.6013985E1,-3.344547E1,-2.2078624E2],"categories":[],"categories_nodes":[],"categories_segments":[],"categories_sizes":[],"default_left":[0,0,0,0,0,0,0,0,0],"id":33,"left_children":[1,-1,3,5,-1,7,-1,-1,-1],"loss_changes":[2.4230938E9,0E0,4.19478E8,4.2578874E8,0E0,1.5525632E8,0E0,0E0,0E0],"parents":[2147483647,0,0,2,2,3,3,5,5],"right_children":[2,-1,4,6,-1,8,-1,-1,-1],"split_conditions":[3.35E2,3.0616507E2,3.39E2,6E0,5.1283436E1,3.36E2,2.6013985E1,-3.344547E1,-2.2078624E2],"split_indices":[0,0,0,2,0,0,0,0,0],"split_type":[0,0,0,0,0,0,0,0,0],"sum_hessian":[6E0,1E0,5E0,4E0,1E0,3E0,1E0,1E0,2E0],"tree_param":{"num_deleted":"0","num_feature":"6","num_nodes":"9","size_leaf_vector":"1"}},{"base_weights":[5.512969E2,3.0463422E2,-9.511294E3,-1.3454635E4,5.102703E1,-1.8112488E4,2.5883905E1,-3.3278202E1,-2.1931438E2],"categories":[],"categories_nodes":[],"categories_segments":[],"categories_sizes":[],"default_left":[0,0,0,0,0,0,0,0,0],"id":34,"left_children":[1,-1,3,5,-1,7,-1,-1,-1],"loss_changes":[2.396701E9,0E0,4.144228E8,4.2051258E8,0E0,1.5286362E8,0E0,0E0,0E0],"parents":[2147483647,0,0,2,2,3,3,5,5],"right_children":[2,-1,4,6,-1,8,-1,-1,-1],"split_conditions":[3.35E2,3.0463422E2,3.39E2,6E0,5.102703E1,3.36E2,2.5883905E1,-3.3278202E1,-2.1931438E2],"split_indices":[0,0,0,2,0,0,0,0,0],"split_type":[0,0,0,0,0,0,0,0,0],"sum_hessian":[6E0,1E0,5E0,4E0,1E0,3E0,1E0,1E0,2E0],"tree_param":{"num_deleted":"0","num_feature":"6","num_nodes":"9","size_leaf_vector":"1"}},{"base_weights":[5.642031E2,3.0311102E2,-9.445464E3,-1.3365432E4,5.0771873E1,-1.7994512E4,2.5754452E1,-3.3111797E1,-2.1785228E2],"categories":[],"categories_nodes":[],"categories_segments":[],"categories_sizes":[],"default_left":[0,0,0,0,0,0,0,0,0],"id":35,"left_children":[1,-1,3,5,-1,7,-1,-1,-1],"loss_changes":[2.3705981E9,0E0,4.094287E8,4.153019E8,0E0,1.5050662E8,0E0,0E0,0E0],"parents":[2147483647,0,0,2,2,3,3,5,5],"right_children":[2,-1,4,6,-1,8,-1,-1,-1],"split_conditions":[3.35E2,3.0311102E2,3.39E2,6E0,5.0771873E1,3.36E2,2.5754452E1,-3.3111797E1,-2.1785228E2],"split_indices":[0,0,0,2,0,0,0,0,0],"split_type":[0,0,0,0,0,0,0,0,0],"sum_hessian":[6E0,1E0,5E0,4E0,1E0,3E0,1E0,1E0,2E0],"tree_param":{"num_deleted":"0","num_feature":"6","num_nodes":"9","size_leaf_vector":"1"}},{"base_weights":[5.769464E2,3.0159546E2,-9.380078E3,-1.3276815E4,5.0518047E1,-1.7877305E4,2.5625702E1,-3.294625E1,-2.163999E2],"categories":[],"categories_nodes":[],"categories_segments":[],"categories_sizes":[],"default_left":[0,0,0,0,0,0,0,0,0],"id":36,"left_children":[1,-1,3,5,-1,7,-1,-1,-1],"loss_changes":[2.3447816E9,0E0,4.0449552E8,4.101564E8,0E0,1.4818445E8,0E0,0E0,0E0],"parents":[2147483647,0,0,2,2,3,3,5,5],"right_children":[2,-1,4,6,-1,8,-1,-1,-1],"split_conditions":[3.35E2,3.0159546E2,3.39E2,6E0,5.0518047E1,3.36E2,2.5625702E1,-3.294625E1,-2.163999E2],"split_indices":[0,0,0,2,0,0,0,0,0],"split_type":[0,0,0,0,0,0,0,0,0],"sum_hessian":[6E0,1E0,5E0,4E0,1E0,3E0,1E0,1E0,2E0],"tree_param":{"num_deleted":"0","num_feature":"6","num_nodes":"9","size_leaf_vector":"1"}},{"base_weights":[5.8952234E2,3.000875E2,-9.315141E3,-1.3188787E4,5.026547E1,-1.7760863E4,2.5497578E1,-3.2781483E1,-2.1495718E2],"categories":[],"categories_nodes":[],"categories_segments":[],"categories_sizes":[],"default_left":[0,0,0,0,0,0,0,0,0],"id":37,"left_children":[1,-1,3,5,-1,7,-1,-1,-1],"loss_changes":[2.3192484E9,0E0,3.9962186E8,4.0507494E8,0E0,1.4589722E8,0E0,0E0,0E0],"parents":[2147483647,0,0,2,2,3,3,5,5],"right_children":[2,-1,4,6,-1,8,-1,-1,-1],"split_conditions":[3.35E2,3.000875E2,3.39E2,6E0,5.026547E1,3.36E2,2.5497578E1,-3.2781483E1,-2.1495718E2],"split_indices":[0,0,0,2,0,0,0,0,0],"split_type":[0,0,0,0,0,0,0,0,0],"sum_hessian":[6E0,1E0,5E0,4E0,1E0,3E0,1E0,1E0,2E0],"tree_param":{"num_deleted":"0","num_feature":"6","num_nodes":"9","size_leaf_vector":"1"}},{"base_weights":[6.0192633E2,2.9858704E2,-9.250653E3,-1.310135E4,5.001414E1,-1.7645191E4,2.5370077E1,-3.2617577E1,-2.1352415E2],"categories":[],"categories_nodes":[],"categories_segments":[],"categories_sizes":[],"default_left":[0,0,0,0,0,0,0,0,0],"id":38,"left_children":[1,-1,3,5,-1,7,-1,-1,-1],"loss_changes":[2.2939958E9,0E0,3.9480755E8,4.000571E8,0E0,1.4364416E8,0E0,0E0,0E0],"parents":[2147483647,0,0,2,2,3,3,5,5],"right_children":[2,-1,4,6,-1,8,-1,-1,-1],"split_conditions":[3.35E2,2.9858704E2,3.39E2,6E0,5.001414E1,3.36E2,2.5370077E1,-3.2617577E1,-2.1352415E2],"split_indices":[0,0,0,2,0,0,0,0,0],"split_type":[0,0,0,0,0,0,0,0,0],"sum_hessian":[6E0,1E0,5E0,4E0,1E0,3E0,1E0,1E0,2E0],"tree_param":{"num_deleted":"0","num_feature":"6","num_nodes":"9","size_leaf_vector":"1"}},{"base_weights":[6.141696E2,2.9709406E2,-9.1866045E3,-1.3014487E4,4.976406E1,-1.753027E4,2.5243202E1,-3.2454453E1,-2.1210062E2],"categories":[],"categories_nodes":[],"categories_segments":[],"categories_sizes":[],"default_left":[0,0,0,0,0,0,0,0,0],"id":39,"left_children":[1,-1,3,5,-1,7,-1,-1,-1],"loss_changes":[2.2690194E9,0E0,3.9005142E8,3.9510138E8,0E0,1.4142477E8,0E0,0E0,0E0],"parents":[2147483647,0,0,2,2,3,3,5,5],"right_children":[2,-1,4,6,-1,8,-1,-1,-1],"split_conditions":[3.35E2,2.9709406E2,3.39E2,6E0,4.976406E1,3.36E2,2.5243202E1,-3.2454453E1,-2.1210062E2],"split_indices":[0,0,0,2,0,0,0,0,0],"split_type":[0,0,0,0,0,0,0,0,0],"sum_hessian":[6E0,1E0,5E0,4E0,1E0,3E0,1E0,1E0,2E0],"tree_param":{"num_deleted":"0","num_feature":"6","num_nodes":"9","size_leaf_vector":"1"}},{"base_weights":[6.2624554E2,2.9560858E2,-9.123E3,-1.2928209E4,4.9515232E1,-1.741611E4,2.5116953E1,-3.2292187E1,-2.1068666E2],"categories":[],"categories_nodes":[],"categories_segments":[],"categories_sizes":[],"default_left":[0,0,0,0,0,0,0,0,0],"id":40,"left_children":[1,-1,3,5,-1,7,-1,-1,-1],"loss_changes":[2.2443182E9,0E0,3.8535344E8,3.9020768E8,0E0,1.392384E8,0E0,0E0,0E0],"parents":[2147483647,0,0,2,2,3,3,5,5],"right_children":[2,-1,4,6,-1,8,-1,-1,-1],"split_conditions":[3.35E2,2.9560858E2,3.39E2,6E0,4.9515232E1,3.36E2,2.5116953E1,-3.2292187E1,-2.1068666E2],"split_indices":[0,0,0,2,0,0,0,0,0],"split_type":[0,0,0,0,0,0,0,0,0],"sum_hessian":[6E0,1E0,5E0,4E0,1E0,3E0,1E0,1E0,2E0],"tree_param":{"num_deleted":"0","num_feature":"6","num_nodes":"9","size_leaf_vector":"1"}},{"base_weights":[6.3816516E2,2.9413055E2,-9.059825E3,-1.2842497E4,4.9267654E1,-1.7302691E4,2.4991405E1,-3.2130703E1,-2.0928209E2],"categories":[],"categories_nodes":[],"categories_segments":[],"categories_sizes":[],"default_left":[0,0,0,0,0,0,0,0,0],"id":41,"left_children":[1,-1,3,5,-1,7,-1,-1,-1],"loss_changes":[2.2198874E9,0E0,3.8071203E8,3.853753E8,0E0,1.3708493E8,0E0,0E0,0E0],"parents":[2147483647,0,0,2,2,3,3,5,5],"right_children":[2,-1,4,6,-1,8,-1,-1,-1],"split_conditions":[3.35E2,2.9413055E2,3.39E2,6E0,4.9267654E1,3.36E2,2.4991405E1,-3.2130703E1,-2.0928209E2],"split_indices":[0,0,0,2,0,0,0,0,0],"split_type":[0,0,0,0,0,0,0,0,0],"sum_hessian":[6E0,1E0,5E0,4E0,1E0,3E0,1E0,1E0,2E0],"tree_param":{"num_deleted":"0","num_feature":"6","num_nodes":"9","size_leaf_vector":"1"}},{"base_weights":[6.4992413E2,2.926599E2,-8.997086E3,-1.2757356E4,4.9021328E1,-1.719002E4,2.4866484E1,-3.1970078E1,-2.0788687E2],"categories":[],"categories_nodes":[],"categories_segments":[],"categories_sizes":[],"default_left":[0,0,0,0,0,0,0,0,0],"id":42,"left_children":[1,-1,3,5,-1,7,-1,-1,-1],"loss_changes":[2.195725E9,0E0,3.7612714E8,3.8060326E8,0E0,1.349632E8,0E0,0E0,0E0],"parents":[2147483647,0,0,2,2,3,3,5,5],"right_children":[2,-1,4,6,-1,8,-1,-1,-1],"split_conditions":[3.35E2,2.926599E2,3.39E2,6E0,4.9021328E1,3.36E2,2.4866484E1,-3.1970078E1,-2.0788687E2],"split_indices":[0,0,0,2,0,0,0,0,0],"split_type":[0,0,0,0,0,0,0,0,0],"sum_hessian":[6E0,1E0,5E0,4E0,1E0,3E0,1E0,1E0,2E0],"tree_param":{"num_deleted":"0","num_feature":"6","num_nodes":"9","size_leaf_vector":"1"}},{"base_weights":[6.615268E2,2.9119662E2,-8.934773E3,-1.2672778E4,4.877625E1,-1.7078082E4,2.4742188E1,-3.1810234E1,-2.0650093E2],"categories":[],"categories_nodes":[],"categories_segments":[],"categories_sizes":[],"default_left":[0,0,0,0,0,0,0,0,0],"id":43,"left_children":[1,-1,3,5,-1,7,-1,-1,-1],"loss_changes":[2.1718275E9,0E0,3.7159792E8,3.758905E8,0E0,1.3287334E8,0E0,0E0,0E0],"parents":[2147483647,0,0,2,2,3,3,5,5],"right_children":[2,-1,4,6,-1,8,-1,-1,-1],"split_conditions":[3.35E2,2.9119662E2,3.39E2,6E0,4.877625E1,3.36E2,2.4742188E1,-3.1810234E1,-2.0650093E2],"split_indices":[0,0,0,2,0,0,0,0,0],"split_type":[0,0,0,0,0,0,0,0,0],"sum_hessian":[6E0,1E0,5E0,4E0,1E0,3E0,1E0,1E0,2E0],"tree_param":{"num_deleted":"0","num_feature":"6","num_nodes":"9","size_leaf_vector":"1"}},{"base_weights":[6.729665E2,2.8974063E2,-8.872894E3,-1.2588766E4,4.853234E1,-1.6966879E4,2.4618437E1,-3.165117E1,-2.0512427E2],"categories":[],"categories_nodes":[],"categories_segments":[],"categories_sizes":[],"default_left":[0,0,0,0,0,0,0,0,0],"id":44,"left_children":[1,-1,3,5,-1,7,-1,-1,-1],"loss_changes":[2.1481917E9,0E0,3.6712346E8,3.7123616E8,0E0,1.308151E8,0E0,0E0,0E0],"parents":[2147483647,0,0,2,2,3,3,5,5],"right_children":[2,-1,4,6,-1,8,-1,-1,-1],"split_conditions":[3.35E2,2.8974063E2,3.39E2,6E0,4.853234E1,3.36E2,2.4618437E1,-3.165117E1,-2.0512427E2],"split_indices":[0,0,0,2,0,0,0,0,0],"split_type":[0,0,0,0,0,0,0,0,0],"sum_hessian":[6E0,1E0,5E0,4E0,1E0,3E0,1E0,1E0,2E0],"tree_param":{"num_deleted":"0","num_feature":"6","num_nodes":"9","size_leaf_vector":"1"}},{"base_weights":[6.8425446E2,2.8829196E2,-8.811435E3,-1.250531E4,4.828969E1,-1.6856402E4,2.4495312E1,-3.149289E1,-2.0375677E2],"categories":[],"categories_nodes":[],"categories_segments":[],"categories_sizes":[],"default_left":[0,0,0,0,0,0,0,0,0],"id":45,"left_children":[1,-1,3,5,-1,7,-1,-1,-1],"loss_changes":[2.1248159E9,0E0,3.6270336E8,3.666398E8,0E0,1.2878746E8,0E0,0E0,0E0],"parents":[2147483647,0,0,2,2,3,3,5,5],"right_children":[2,-1,4,6,-1,8,-1,-1,-1],"split_conditions":[3.35E2,2.8829196E2,3.39E2,6E0,4.828969E1,3.36E2,2.4495312E1,-3.149289E1,-2.0375677E2],"split_indices":[0,0,0,2,0,0,0,0,0],"split_type":[0,0,0,0,0,0,0,0,0],"sum_hessian":[6E0,1E0,5E0,4E0,1E0,3E0,1E0,1E0,2E0],"tree_param":{"num_deleted":"0","num_feature":"6","num_nodes":"9","size_leaf_vector":"1"}},{"base_weights":[6.953839E2,2.8685046E2,-8.750401E3,-1.2422409E4,4.8048203E1,-1.6746652E4,2.4372812E1,-3.133539E1,-2.0239844E2],"categories":[],"categories_nodes":[],"categories_segments":[],"categories_sizes":[],"default_left":[0,0,0,0,0,0,0,0,0],"id":46,"left_children":[1,-1,3,5,-1,7,-1,-1,-1],"loss_changes":[2.101696E9,0E0,3.583368E8,3.6210086E8,0E0,1.2679053E8,0E0,0E0,0E0],"parents":[2147483647,0,0,2,2,3,3,5,5],"right_children":[2,-1,4,6,-1,8,-1,-1,-1],"split_conditions":[3.35E2,2.8685046E2,3.39E2,6E0,4.8048203E1,3.36E2,2.4372812E1,-3.133539E1,-2.0239844E2],"split_indices":[0,0,0,2,0,0,0,0,0],"split_type":[0,0,0,0,0,0,0,0,0],"sum_hessian":[6E0,1E0,5E0,4E0,1E0,3E0,1E0,1E0,2E0],"tree_param":{"num_deleted":"0","num_feature":"6","num_nodes":"9","size_leaf_vector":"1"}},{"base_weights":[7.0636163E2,2.8541623E2,-8.689786E3,-1.23400625E4,4.780797E1,-1.6637625E4,2.4250937E1,-3.117875E1,-2.0104915E2],"categories":[],"categories_nodes":[],"categories_segments":[],"categories_sizes":[],"default_left":[0,0,0,0,0,0,0,0,0],"id":47,"left_children":[1,-1,3,5,-1,7,-1,-1,-1],"loss_changes":[2.0788305E9,0E0,3.5402346E8,3.576187E8,0E0,1.2482304E8,0E0,0E0,0E0],"parents":[2147483647,0,0,2,2,3,3,5,5],"right_children":[2,-1,4,6,-1,8,-1,-1,-1],"split_conditions":[3.35E2,2.8541623E2,3.39E2,6E0,4.780797E1,3.36E2,2.4250937E1,-3.117875E1,-2.0104915E2],"split_indices":[0,0,0,2,0,0,0,0,0],"split_type":[0,0,0,0,0,0,0,0,0],"sum_hessian":[6E0,1E0,5E0,4E0,1E0,3E0,1E0,1E0,2E0],"tree_param":{"num_deleted":"0","num_feature":"6","num_nodes":"9","size_leaf_vector":"1"}},{"base_weights":[7.171875E2,2.8398914E2,-8.629586E3,-1.225826E4,4.7568905E1,-1.6529309E4,2.4129686E1,-3.102289E1,-1.9970885E2],"categories":[],"categories_nodes":[],"categories_segments":[],"categories_sizes":[],"default_left":[0,0,0,0,0,0,0,0,0],"id":48,"left_children":[1,-1,3,5,-1,7,-1,-1,-1],"loss_changes":[2.0562147E9,0E0,3.4976208E8,3.531924E8,0E0,1.2288499E8,0E0,0E0,0E0],"parents":[2147483647,0,0,2,2,3,3,5,5],"right_children":[2,-1,4,6,-1,8,-1,-1,-1],"split_conditions":[3.35E2,2.8398914E2,3.39E2,6E0,4.7568905E1,3.36E2,2.4129686E1,-3.102289E1,-1.9970885E2],"split_indices":[0,0,0,2,0,0,0,0,0],"split_type":[0,0,0,0,0,0,0,0,0],"sum_hessian":[6E0,1E0,5E0,4E0,1E0,3E0,1E0,1E0,2E0],"tree_param":{"num_deleted":"0","num_feature":"6","num_nodes":"9","size_leaf_vector":"1"}},{"base_weights":[7.278661E2,2.825692E2,-8.569797E3,-1.2177E4,4.7331093E1,-1.6421703E4,2.4009062E1,-3.0867811E1,-1.983775E2],"categories":[],"categories_nodes":[],"categories_segments":[],"categories_sizes":[],"default_left":[0,0,0,0,0,0,0,0,0],"id":49,"left_children":[1,-1,3,5,-1,7,-1,-1,-1],"loss_changes":[2.0338472E9,0E0,3.455528E8,3.4882138E8,0E0,1.20976E8,0E0,0E0,0E0],"parents":[2147483647,0,0,2,2,3,3,5,5],"right_children":[2,-1,4,6,-1,8,-1,-1,-1],"split_conditions":[3.35E2,2.825692E2,3.39E2,6E0,4.7331093E1,3.36E2,2.4009062E1,-3.0867811E1,-1.983775E2],"split_indices":[0,0,0,2,0,0,0,0,0],"split_type":[0,0,0,0,0,0,0,0,0],"sum_hessian":[6E0,1E0,5E0,4E0,1E0,3E0,1E0,1E0,2E0],"tree_param":{"num_deleted":"0","num_feature":"6","num_nodes":"9","size_leaf_vector":"1"}},{"base_weights":[7.3839734E2,2.811564E2,-8.510417E3,-1.2096278E4,4.709445E1,-1.6314797E4,2.3888985E1,-3.0713436E1,-1.97055E2],"categories":[],"categories_nodes":[],"categories_segments":[],"categories_sizes":[],"default_left":[0,0,0,0,0,0,0,0,0],"id":50,"left_children":[1,-1,3,5,-1,7,-1,-1,-1],"loss_changes":[2.011725E9,0E0,3.4139434E8,3.4450432E8,0E0,1.1909613E8,0E0,0E0,0E0],"parents":[2147483647,0,0,2,2,3,3,5,5],"right_children":[2,-1,4,6,-1,8,-1,-1,-1],"split_conditions":[3.35E2,2.811564E2,3.39E2,6E0,4.709445E1,3.36E2,2.3888985E1,-3.0713436E1,-1.97055E2],"split_indices":[0,0,0,2,0,0,0,0,0],"split_type":[0,0,0,0,0,0,0,0,0],"sum_hessian":[6E0,1E0,5E0,4E0,1E0,3E0,1E0,1E0,2E0],"tree_param":{"num_deleted":"0","num_feature":"6","num_nodes":"9","size_leaf_vector":"1"}},{"base_weights":[7.487835E2,2.797506E2,-8.45144E3,-1.2016088E4,4.6858982E1,-1.6208586E4,2.3769531E1,-3.0559843E1,-1.9574124E2],"categories":[],"categories_nodes":[],"categories_segments":[],"categories_sizes":[],"default_left":[0,0,0,0,0,0,0,0,0],"id":51,"left_children":[1,-1,3,5,-1,7,-1,-1,-1],"loss_changes":[1.9898445E9,0E0,3.37286E8,3.402411E8,0E0,1.1724422E8,0E0,0E0,0E0],"parents":[2147483647,0,0,2,2,3,3,5,5],"right_children":[2,-1,4,6,-1,8,-1,-1,-1],"split_conditions":[3.35E2,2.797506E2,3.39E2,6E0,4.6858982E1,3.36E2,2.3769531E1,-3.0559843E1,-1.9574124E2],"split_indices":[0,0,0,2,0,0,0,0,0],"split_type":[0,0,0,0,0,0,0,0,0],"sum_hessian":[6E0,1E0,5E0,4E0,1E0,3E0,1E0,1E0,2E0],"tree_param":{"num_deleted":"0","num_feature":"6","num_nodes":"9","size_leaf_vector":"1"}},{"base_weights":[7.590201E2,2.7835187E2,-8.392872E3,-1.1936435E4,4.6624687E1,-1.6103078E4,2.3650703E1,-3.040703E1,-1.9443634E2],"categories":[],"categories_nodes":[],"categories_segments":[],"categories_sizes":[],"default_left":[0,0,0,0,0,0,0,0,0],"id":52,"left_children":[1,-1,3,5,-1,7,-1,-1,-1],"loss_changes":[1.9682043E9,0E0,3.3322774E8,3.360313E8,0E0,1.1542016E8,0E0,0E0,0E0],"parents":[2147483647,0,0,2,2,3,3,5,5],"right_children":[2,-1,4,6,-1,8,-1,-1,-1],"split_conditions":[3.35E2,2.7835187E2,3.39E2,6E0,4.6624687E1,3.36E2,2.3650703E1,-3.040703E1,-1.9443634E2],"split_indices":[0,0,0,2,0,0,0,0,0],"split_type":[0,0,0,0,0,0,0,0,0],"sum_hessian":[6E0,1E0,5E0,4E0,1E0,3E0,1E0,1E0,2E0],"tree_param":{"num_deleted":"0","num_feature":"6","num_nodes":"9","size_leaf_vector":"1"}},{"base_weights":[7.6911163E2,2.7696008E2,-8.334706E3,-1.185731E4,4.639156E1,-1.5998258E4,2.3532421E1,-3.0255E1,-1.9314009E2],"categories":[],"categories_nodes":[],"categories_segments":[],"categories_sizes":[],"default_left":[0,0,0,0,0,0,0,0,0],"id":53,"left_children":[1,-1,3,5,-1,7,-1,-1,-1],"loss_changes":[1.946801E9,0E0,3.2921853E8,3.318736E8,0E0,1.136233E8,0E0,0E0,0E0],"parents":[2147483647,0,0,2,2,3,3,5,5],"right_children":[2,-1,4,6,-1,8,-1,-1,-1],"split_conditions":[3.35E2,2.7696008E2,3.39E2,6E0,4.639156E1,3.36E2,2.3532421E1,-3.0255E1,-1.9314009E2],"split_indices":[0,0,0,2,0,0,0,0,0],"split_type":[0,0,0,0,0,0,0,0,0],"sum_hessian":[6E0,1E0,5E0,4E0,1E0,3E0,1E0,1E0,2E0],"tree_param":{"num_deleted":"0","num_feature":"6","num_nodes":"9","size_leaf_vector":"1"}},{"base_weights":[7.790625E2,2.7557532E2,-8.2769375E3,-1.1778709E4,4.6159607E1,-1.5894125E4,2.3414764E1,-3.010375E1,-1.918525E2],"categories":[],"categories_nodes":[],"categories_segments":[],"categories_sizes":[],"default_left":[0,0,0,0,0,0,0,0,0],"id":54,"left_children":[1,-1,3,5,-1,7,-1,-1,-1],"loss_changes":[1.9256326E9,0E0,3.2525802E8,3.2776794E8,0E0,1.1185325E8,0E0,0E0,0E0],"parents":[2147483647,0,0,2,2,3,3,5,5],"right_children":[2,-1,4,6,-1,8,-1,-1,-1],"split_conditions":[3.35E2,2.7557532E2,3.39E2,6E0,4.6159607E1,3.36E2,2.3414764E1,-3.010375E1,-1.918525E2],"split_indices":[0,0,0,2,0,0,0,0,0],"split_type":[0,0,0,0,0,0,0,0,0],"sum_hessian":[6E0,1E0,5E0,4E0,1E0,3E0,1E0,1E0,2E0],"tree_param":{"num_deleted":"0","num_feature":"6","num_nodes":"9","size_leaf_vector":"1"}},{"base_weights":[7.8887274E2,2.7419742E2,-8.2195625E3,-1.1700628E4,4.5928825E1,-1.5790668E4,2.3297655E1,-2.9953203E1,-1.9057344E2],"categories":[],"categories_nodes":[],"categories_segments":[],"categories_sizes":[],"default_left":[0,0,0,0,0,0,0,0,0],"id":55,"left_children":[1,-1,3,5,-1,7,-1,-1,-1],"loss_changes":[1.9046956E9,0E0,3.213453E8,3.2371296E8,0E0,1.1011027E8,0E0,0E0,0E0],"parents":[2147483647,0,0,2,2,3,3,5,5],"right_children":[2,-1,4,6,-1,8,-1,-1,-1],"split_conditions":[3.35E2,2.7419742E2,3.39E2,6E0,4.5928825E1,3.36E2,2.3297655E1,-2.9953203E1,-1.9057344E2],"split_indices":[0,0,0,2,0,0,0,0,0],"split_type":[0,0,0,0,0,0,0,0,0],"sum_hessian":[6E0,1E0,5E0,4E0,1E0,3E0,1E0,1E0,2E0],"tree_param":{"num_deleted":"0","num_feature":"6","num_nodes":"9","size_leaf_vector":"1"}},{"base_weights":[7.985424E2,2.728264E2,-8.1625806E3,-1.1623065E4,4.569922E1,-1.5687891E4,2.3181171E1,-2.9803436E1,-1.893029E2],"categories":[],"categories_nodes":[],"categories_segments":[],"categories_sizes":[],"default_left":[0,0,0,0,0,0,0,0,0],"id":56,"left_children":[1,-1,3,5,-1,7,-1,-1,-1],"loss_changes":[1.8839876E9,0E0,3.174803E8,3.1970874E8,0E0,1.0839296E8,0E0,0E0,0E0],"parents":[2147483647,0,0,2,2,3,3,5,5],"right_children":[2,-1,4,6,-1,8,-1,-1,-1],"split_conditions":[3.35E2,2.728264E2,3.39E2,6E0,4.569922E1,3.36E2,2.3181171E1,-2.9803436E1,-1.893029E2],"split_indices":[0,0,0,2,0,0,0,0,0],"split_type":[0,0,0,0,0,0,0,0,0],"sum_hessian":[6E0,1E0,5E0,4E0,1E0,3E0,1E0,1E0,2E0],"tree_param":{"num_deleted":"0","num_feature":"6","num_nodes":"9","size_leaf_vector":"1"}},{"base_weights":[8.0806696E2,2.7146225E2,-8.1059976E3,-1.1546025E4,4.5470703E1,-1.5585793E4,2.3065233E1,-2.9654453E1,-1.8804094E2],"categories":[],"categories_nodes":[],"categories_segments":[],"categories_sizes":[],"default_left":[0,0,0,0,0,0,0,0,0],"id":57,"left_children":[1,-1,3,5,-1,7,-1,-1,-1],"loss_changes":[1.8635077E9,0E0,3.1366198E8,3.1575443E8,0E0,1.0670176E8,0E0,0E0,0E0],"parents":[2147483647,0,0,2,2,3,3,5,5],"right_children":[2,-1,4,6,-1,8,-1,-1,-1],"split_conditions":[3.35E2,2.7146225E2,3.39E2,6E0,4.5470703E1,3.36E2,2.3065233E1,-2.9654453E1,-1.8804094E2],"split_indices":[0,0,0,2,0,0,0,0,0],"split_type":[0,0,0,0,0,0,0,0,0],"sum_hessian":[6E0,1E0,5E0,4E0,1E0,3E0,1E0,1E0,2E0],"tree_param":{"num_deleted":"0","num_feature":"6","num_nodes":"9","size_leaf_vector":"1"}},{"base_weights":[8.1745984E2,2.7010492E2,-8.0497944E3,-1.1469487E4,4.524336E1,-1.5484355E4,2.294992E1,-2.950617E1,-1.8678728E2],"categories":[],"categories_nodes":[],"categories_segments":[],"categories_sizes":[],"default_left":[0,0,0,0,0,0,0,0,0],"id":58,"left_children":[1,-1,3,5,-1,7,-1,-1,-1],"loss_changes":[1.843251E9,0E0,3.098898E8,3.1184928E8,0E0,1.0503597E8,0E0,0E0,0E0],"parents":[2147483647,0,0,2,2,3,3,5,5],"right_children":[2,-1,4,6,-1,8,-1,-1,-1],"split_conditions":[3.35E2,2.7010492E2,3.39E2,6E0,4.524336E1,3.36E2,2.294992E1,-2.950617E1,-1.8678728E2],"split_indices":[0,0,0,2,0,0,0,0,0],"split_type":[0,0,0,0,0,0,0,0,0],"sum_hessian":[6E0,1E0,5E0,4E0,1E0,3E0,1E0,1E0,2E0],"tree_param":{"num_deleted":"0","num_feature":"6","num_nodes":"9","size_leaf_vector":"1"}},{"base_weights":[8.2670984E2,2.6875436E2,-7.9939844E3,-1.1393466E4,4.501711E1,-1.538359E4,2.2835155E1,-2.9358671E1,-1.8554208E2],"categories":[],"categories_nodes":[],"categories_segments":[],"categories_sizes":[],"default_left":[0,0,0,0,0,0,0,0,0],"id":59,"left_children":[1,-1,3,5,-1,7,-1,-1,-1],"loss_changes":[1.8232169E9,0E0,3.061634E8,3.079929E8,0E0,1.0339526E8,0E0,0E0,0E0],"parents":[2147483647,0,0,2,2,3,3,5,5],"right_children":[2,-1,4,6,-1,8,-1,-1,-1],"split_conditions":[3.35E2,2.6875436E2,3.39E2,6E0,4.501711E1,3.36E2,2.2835155E1,-2.9358671E1,-1.8554208E2],"split_indices":[0,0,0,2,0,0,0,0,0],"split_type":[0,0,0,0,0,0,0,0,0],"sum_hessian":[6E0,1E0,5E0,4E0,1E0,3E0,1E0,1E0,2E0],"tree_param":{"num_deleted":"0","num_feature":"6","num_nodes":"9","size_leaf_vector":"1"}},{"base_weights":[8.358326E2,2.674106E2,-7.9385493E3,-1.131794E4,4.479203E1,-1.5283477E4,2.2721016E1,-2.9211874E1,-1.843051E2],"categories":[],"categories_nodes":[],"categories_segments":[],"categories_sizes":[],"default_left":[0,0,0,0,0,0,0,0,0],"id":60,"left_children":[1,-1,3,5,-1,7,-1,-1,-1],"loss_changes":[1.8034019E9,0E0,3.0248205E8,3.0418458E8,0E0,1.0177926E8,0E0,0E0,0E0],"parents":[2147483647,0,0,2,2,3,3,5,5],"right_children":[2,-1,4,6,-1,8,-1,-1,-1],"split_conditions":[3.35E2,2.674106E2,3.39E2,6E0,4.479203E1,3.36E2,2.2721016E1,-2.9211874E1,-1.843051E2],"split_indices":[0,0,0,2,0,0,0,0,0],"split_type":[0,0,0,0,0,0,0,0,0],"sum_hessian":[6E0,1E0,5E0,4E0,1E0,3E0,1E0,1E0,2E0],"tree_param":{"num_deleted":"0","num_feature":"6","num_nodes":"9","size_leaf_vector":"1"}},{"base_weights":[8.448214E2,2.6607358E2,-7.8834946E3,-1.1242916E4,4.4568047E1,-1.5184016E4,2.2607422E1,-2.906578E1,-1.8307634E2],"categories":[],"categories_nodes":[],"categories_segments":[],"categories_sizes":[],"default_left":[0,0,0,0,0,0,0,0,0],"id":61,"left_children":[1,-1,3,5,-1,7,-1,-1,-1],"loss_changes":[1.7838039E9,0E0,2.9884502E8,3.004235E8,0E0,1.0018758E8,0E0,0E0,0E0],"parents":[2147483647,0,0,2,2,3,3,5,5],"right_children":[2,-1,4,6,-1,8,-1,-1,-1],"split_conditions":[3.35E2,2.6607358E2,3.39E2,6E0,4.4568047E1,3.36E2,2.2607422E1,-2.906578E1,-1.8307634E2],"split_indices":[0,0,0,2,0,0,0,0,0],"split_type":[0,0,0,0,0,0,0,0,0],"sum_hessian":[6E0,1E0,5E0,4E0,1E0,3E0,1E0,1E0,2E0],"tree_param":{"num_deleted":"0","num_feature":"6","num_nodes":"9","size_leaf_vector":"1"}},{"base_weights":[8.5367413E2,2.647432E2,-7.8288203E3,-1.1168394E4,4.4345234E1,-1.5085211E4,2.2494375E1,-2.8920467E1,-1.8185583E2],"categories":[],"categories_nodes":[],"categories_segments":[],"categories_sizes":[],"default_left":[0,0,0,0,0,0,0,0,0],"id":62,"left_children":[1,-1,3,5,-1,7,-1,-1,-1],"loss_changes":[1.7644206E9,0E0,2.952525E8,2.967092E8,0E0,9.86199E7,0E0,0E0,0E0],"parents":[2147483647,0,0,2,2,3,3,5,5],"right_children":[2,-1,4,6,-1,8,-1,-1,-1],"split_conditions":[3.35E2,2.647432E2,3.39E2,6E0,4.4345234E1,3.36E2,2.2494375E1,-2.8920467E1,-1.8185583E2],"split_indices":[0,0,0,2,0,0,0,0,0],"split_type":[0,0,0,0,0,0,0,0,0],"sum_hessian":[6E0,1E0,5E0,4E0,1E0,3E0,1E0,1E0,2E0],"tree_param":{"num_deleted":"0","num_feature":"6","num_nodes":"9","size_leaf_vector":"1"}},{"base_weights":[8.623951E2,2.6341943E2,-7.774521E3,-1.1094365E4,4.4123516E1,-1.4987051E4,2.2381874E1,-2.8775858E1,-1.8064343E2],"categories":[],"categories_nodes":[],"categories_segments":[],"categories_sizes":[],"default_left":[0,0,0,0,0,0,0,0,0],"id":63,"left_children":[1,-1,3,5,-1,7,-1,-1,-1],"loss_changes":[1.7452493E9,0E0,2.917034E8,2.9304096E8,0E0,9.707584E7,0E0,0E0,0E0],"parents":[2147483647,0,0,2,2,3,3,5,5],"right_children":[2,-1,4,6,-1,8,-1,-1,-1],"split_conditions":[3.35E2,2.6341943E2,3.39E2,6E0,4.4123516E1,3.36E2,2.2381874E1,-2.8775858E1,-1.8064343E2],"split_indices":[0,0,0,2,0,0,0,0,0],"split_type":[0,0,0,0,0,0,0,0,0],"sum_hessian":[6E0,1E0,5E0,4E0,1E0,3E0,1E0,1E0,2E0],"tree_param":{"num_deleted":"0","num_feature":"6","num_nodes":"9","size_leaf_vector":"1"}},{"base_weights":[8.7098663E2,2.6210233E2,-7.7205938E3,-1.1020828E4,4.390289E1,-1.4889535E4,2.2269999E1,-2.8631952E1,-1.7943916E2],"categories":[],"categories_nodes":[],"categories_segments":[],"categories_sizes":[],"default_left":[0,0,0,0,0,0,0,0,0],"id":64,"left_children":[1,-1,3,5,-1,7,-1,-1,-1],"loss_changes":[1.7262879E9,0E0,2.8819715E8,2.8941875E8,0E0,9.55552E7,0E0,0E0,0E0],"parents":[2147483647,0,0,2,2,3,3,5,5],"right_children":[2,-1,4,6,-1,8,-1,-1,-1],"split_conditions":[3.35E2,2.6210233E2,3.39E2,6E0,4.390289E1,3.36E2,2.2269999E1,-2.8631952E1,-1.7943916E2],"split_indices":[0,0,0,2,0,0,0,0,0],"split_type":[0,0,0,0,0,0,0,0,0],"sum_hessian":[6E0,1E0,5E0,4E0,1E0,3E0,1E0,1E0,2E0],"tree_param":{"num_deleted":"0","num_feature":"6","num_nodes":"9","size_leaf_vector":"1"}},{"base_weights":[8.794464E2,2.6079178E2,-7.667039E3,-1.0947781E4,4.3683357E1,-1.479266E4,2.2158672E1,-2.8488827E1,-1.782429E2],"categories":[],"categories_nodes":[],"categories_segments":[],"categories_sizes":[],"default_left":[0,0,0,0,0,0,0,0,0],"id":65,"left_children":[1,-1,3,5,-1,7,-1,-1,-1],"loss_changes":[1.7075341E9,0E0,2.8473338E8,2.858418E8,0E0,9.405722E7,0E0,0E0,0E0],"parents":[2147483647,0,0,2,2,3,3,5,5],"right_children":[2,-1,4,6,-1,8,-1,-1,-1],"split_conditions":[3.35E2,2.6079178E2,3.39E2,6E0,4.3683357E1,3.36E2,2.2158672E1,-2.8488827E1,-1.782429E2],"split_indices":[0,0,0,2,0,0,0,0,0],"split_type":[0,0,0,0,0,0,0,0,0],"sum_hessian":[6E0,1E0,5E0,4E0,1E0,3E0,1E0,1E0,2E0],"tree_param":{"num_deleted":"0","num_feature":"6","num_nodes":"9","size_leaf_vector":"1"}},{"base_weights":[8.8778125E2,2.594878E2,-7.613849E3,-1.0875216E4,4.346492E1,-1.4696414E4,2.204789E1,-2.8346405E1,-1.7705458E2],"categories":[],"categories_nodes":[],"categories_segments":[],"categories_sizes":[],"default_left":[0,0,0,0,0,0,0,0,0],"id":66,"left_children":[1,-1,3,5,-1,7,-1,-1,-1],"loss_changes":[1.6889856E9,0E0,2.813114E8,2.82309E8,0E0,9.258182E7,0E0,0E0,0E0],"parents":[2147483647,0,0,2,2,3,3,5,5],"right_children":[2,-1,4,6,-1,8,-1,-1,-1],"split_conditions":[3.35E2,2.594878E2,3.39E2,6E0,4.346492E1,3.36E2,2.204789E1,-2.8346405E1,-1.7705458E2],"split_indices":[0,0,0,2,0,0,0,0,0],"split_type":[0,0,0,0,0,0,0,0,0],"sum_hessian":[6E0,1E0,5E0,4E0,1E0,3E0,1E0,1E0,2E0],"tree_param":{"num_deleted":"0","num_feature":"6","num_nodes":"9","size_leaf_vector":"1"}},{"base_weights":[8.9598663E2,2.581904E2,-7.561029E3,-1.0803138E4,4.3247578E1,-1.4600805E4,2.1937656E1,-2.8204687E1,-1.7587427E2],"categories":[],"categories_nodes":[],"categories_segments":[],"categories_sizes":[],"default_left":[0,0,0,0,0,0,0,0,0],"id":67,"left_children":[1,-1,3,5,-1,7,-1,-1,-1],"loss_changes":[1.6706409E9,0E0,2.7793098E8,2.7882035E8,0E0,9.11289E7,0E0,0E0,0E0],"parents":[2147483647,0,0,2,2,3,3,5,5],"right_children":[2,-1,4,6,-1,8,-1,-1,-1],"split_conditions":[3.35E2,2.581904E2,3.39E2,6E0,4.3247578E1,3.36E2,2.1937656E1,-2.8204687E1,-1.7587427E2],"split_indices":[0,0,0,2,0,0,0,0,0],"split_type":[0,0,0,0,0,0,0,0,0],"sum_hessian":[6E0,1E0,5E0,4E0,1E0,3E0,1E0,1E0,2E0],"tree_param":{"num_deleted":"0","num_feature":"6","num_nodes":"9","size_leaf_vector":"1"}},{"base_weights":[9.040692E2,2.5689944E2,-7.508568E3,-1.0731534E4,4.3031326E1,-1.4505816E4,2.1827969E1,-2.8063671E1,-1.7470177E2],"categories":[],"categories_nodes":[],"categories_segments":[],"categories_sizes":[],"default_left":[0,0,0,0,0,0,0,0,0],"id":68,"left_children":[1,-1,3,5,-1,7,-1,-1,-1],"loss_changes":[1.6524968E9,0E0,2.7459152E8,2.753749E8,0E0,8.969792E7,0E0,0E0,0E0],"parents":[2147483647,0,0,2,2,3,3,5,5],"right_children":[2,-1,4,6,-1,8,-1,-1,-1],"split_conditions":[3.35E2,2.5689944E2,3.39E2,6E0,4.3031326E1,3.36E2,2.1827969E1,-2.8063671E1,-1.7470177E2],"split_indices":[0,0,0,2,0,0,0,0,0],"split_type":[0,0,0,0,0,0,0,0,0],"sum_hessian":[6E0,1E0,5E0,4E0,1E0,3E0,1E0,1E0,2E0],"tree_param":{"num_deleted":"0","num_feature":"6","num_nodes":"9","size_leaf_vector":"1"}},{"base_weights":[9.120268E2,2.5561491E2,-7.4564663E3,-1.0660406E4,4.281617E1,-1.4411449E4,2.1718828E1,-2.7923359E1,-1.7353708E2],"categories":[],"categories_nodes":[],"categories_segments":[],"categories_sizes":[],"default_left":[0,0,0,0,0,0,0,0,0],"id":69,"left_children":[1,-1,3,5,-1,7,-1,-1,-1],"loss_changes":[1.6345505E9,0E0,2.712925E8,2.7197235E8,0E0,8.828845E7,0E0,0E0,0E0],"parents":[2147483647,0,0,2,2,3,3,5,5],"right_children":[2,-1,4,6,-1,8,-1,-1,-1],"split_conditions":[3.35E2,2.5561491E2,3.39E2,6E0,4.281617E1,3.36E2,2.1718828E1,-2.7923359E1,-1.7353708E2],"split_indices":[0,0,0,2,0,0,0,0,0],"split_type":[0,0,0,0,0,0,0,0,0],"sum_hessian":[6E0,1E0,5E0,4E0,1E0,3E0,1E0,1E0,2E0],"tree_param":{"num_deleted":"0","num_feature":"6","num_nodes":"9","size_leaf_vector":"1"}},{"base_weights":[9.1986163E2,2.5433687E2,-7.404724E3,-1.0589753E4,4.2602108E1,-1.4317703E4,2.1610233E1,-2.7783749E1,-1.7238022E2],"categories":[],"categories_nodes":[],"categories_segments":[],"categories_sizes":[],"default_left":[0,0,0,0,0,0,0,0,0],"id":70,"left_children":[1,-1,3,5,-1,7,-1,-1,-1],"loss_changes":[1.6168014E9,0E0,2.6803357E8,2.6861216E8,0E0,8.690029E7,0E0,0E0,0E0],"parents":[2147483647,0,0,2,2,3,3,5,5],"right_children":[2,-1,4,6,-1,8,-1,-1,-1],"split_conditions":[3.35E2,2.5433687E2,3.39E2,6E0,4.2602108E1,3.36E2,2.1610233E1,-2.7783749E1,-1.7238022E2],"split_indices":[0,0,0,2,0,0,0,0,0],"split_type":[0,0,0,0,0,0,0,0,0],"sum_hessian":[6E0,1E0,5E0,4E0,1E0,3E0,1E0,1E0,2E0],"tree_param":{"num_deleted":"0","num_feature":"6","num_nodes":"9","size_leaf_vector":"1"}},{"base_weights":[9.275714E2,2.5306516E2,-7.3533384E3,-1.0519568E4,4.238906E1,-1.422457E4,2.1502188E1,-2.7644844E1,-1.7123103E2],"categories":[],"categories_nodes":[],"categories_segments":[],"categories_sizes":[],"default_left":[0,0,0,0,0,0,0,0,0],"id":71,"left_children":[1,-1,3,5,-1,7,-1,-1,-1],"loss_changes":[1.5992462E9,0E0,2.6481373E8,2.6529389E8,0E0,8.553325E7,0E0,0E0,0E0],"parents":[2147483647,0,0,2,2,3,3,5,5],"right_children":[2,-1,4,6,-1,8,-1,-1,-1],"split_conditions":[3.35E2,2.5306516E2,3.39E2,6E0,4.238906E1,3.36E2,2.1502188E1,-2.7644844E1,-1.7123103E2],"split_indices":[0,0,0,2,0,0,0,0,0],"split_type":[0,0,0,0,0,0,0,0,0],"sum_hessian":[6E0,1E0,5E0,4E0,1E0,3E0,1E0,1E0,2E0],"tree_param":{"num_deleted":"0","num_feature":"6","num_nodes":"9","size_leaf_vector":"1"}},{"base_weights":[9.3516516E2,2.5179984E2,-7.3023022E3,-1.0449847E4,4.217711E1,-1.4132043E4,2.1394688E1,-2.750664E1,-1.7008946E2],"categories":[],"categories_nodes":[],"categories_segments":[],"categories_sizes":[],"default_left":[0,0,0,0,0,0,0,0,0],"id":72,"left_children":[1,-1,3,5,-1,7,-1,-1,-1],"loss_changes":[1.5818831E9,0E0,2.6163296E8,2.620167E8,0E0,8.418669E7,0E0,0E0,0E0],"parents":[2147483647,0,0,2,2,3,3,5,5],"right_children":[2,-1,4,6,-1,8,-1,-1,-1],"split_conditions":[3.35E2,2.5179984E2,3.39E2,6E0,4.217711E1,3.36E2,2.1394688E1,-2.750664E1,-1.7008946E2],"split_indices":[0,0,0,2,0,0,0,0,0],"split_type":[0,0,0,0,0,0,0,0,0],"sum_hessian":[6E0,1E0,5E0,4E0,1E0,3E0,1E0,1E0,2E0],"tree_param":{"num_deleted":"0","num_feature":"6","num_nodes":"9","size_leaf_vector":"1"}},{"base_weights":[9.426406E2,2.5054085E2,-7.2516147E3,-1.0380588E4,4.1966248E1,-1.4040121E4,2.1287733E1,-2.736914E1,-1.6895552E2],"categories":[],"categories_nodes":[],"categories_segments":[],"categories_sizes":[],"default_left":[0,0,0,0,0,0,0,0,0],"id":73,"left_children":[1,-1,3,5,-1,7,-1,-1,-1],"loss_changes":[1.5647099E9,0E0,2.5849078E8,2.5878042E8,0E0,8.286042E7,0E0,0E0,0E0],"parents":[2147483647,0,0,2,2,3,3,5,5],"right_children":[2,-1,4,6,-1,8,-1,-1,-1],"split_conditions":[3.35E2,2.5054085E2,3.39E2,6E0,4.1966248E1,3.36E2,2.1287733E1,-2.736914E1,-1.6895552E2],"split_indices":[0,0,0,2,0,0,0,0,0],"split_type":[0,0,0,0,0,0,0,0,0],"sum_hessian":[6E0,1E0,5E0,4E0,1E0,3E0,1E0,1E0,2E0],"tree_param":{"num_deleted":"0","num_feature":"6","num_nodes":"9","size_leaf_vector":"1"}},{"base_weights":[9.4999554E2,2.4928812E2,-7.201276E3,-1.0311787E4,4.1756405E1,-1.3948801E4,2.1181328E1,-2.7232265E1,-1.6782916E2],"categories":[],"categories_nodes":[],"categories_segments":[],"categories_sizes":[],"default_left":[0,0,0,0,0,0,0,0,0],"id":74,"left_children":[1,-1,3,5,-1,7,-1,-1,-1],"loss_changes":[1.5477242E9,0E0,2.5538653E8,2.5558435E8,0E0,8.155469E7,0E0,0E0,0E0],"parents":[2147483647,0,0,2,2,3,3,5,5],"right_children":[2,-1,4,6,-1,8,-1,-1,-1],"split_conditions":[3.35E2,2.4928812E2,3.39E2,6E0,4.1756405E1,3.36E2,2.1181328E1,-2.7232265E1,-1.6782916E2],"split_indices":[0,0,0,2,0,0,0,0,0],"split_type":[0,0,0,0,0,0,0,0,0],"sum_hessian":[6E0,1E0,5E0,4E0,1E0,3E0,1E0,1E0,2E0],"tree_param":{"num_deleted":"0","num_feature":"6","num_nodes":"9","size_leaf_vector":"1"}},{"base_weights":[9.572344E2,2.4804172E2,-7.1512837E3,-1.0243447E4,4.1547657E1,-1.3858078E4,2.107539E1,-2.7096092E1,-1.6671031E2],"categories":[],"categories_nodes":[],"categories_segments":[],"categories_sizes":[],"default_left":[0,0,0,0,0,0,0,0,0],"id":75,"left_children":[1,-1,3,5,-1,7,-1,-1,-1],"loss_changes":[1.5309249E9,0E0,2.5232003E8,2.5242778E8,0E0,8.026842E7,0E0,0E0,0E0],"parents":[2147483647,0,0,2,2,3,3,5,5],"right_children":[2,-1,4,6,-1,8,-1,-1,-1],"split_conditions":[3.35E2,2.4804172E2,3.39E2,6E0,4.1547657E1,3.36E2,2.107539E1,-2.7096092E1,-1.6671031E2],"split_indices":[0,0,0,2,0,0,0,0,0],"split_type":[0,0,0,0,0,0,0,0,0],"sum_hessian":[6E0,1E0,5E0,4E0,1E0,3E0,1E0,1E0,2E0],"tree_param":{"num_deleted":"0","num_feature":"6","num_nodes":"9","size_leaf_vector":"1"}},{"base_weights":[9.6435266E2,2.4680148E2,-7.101638E3,-1.01755625E4,4.133992E1,-1.3767953E4,2.097E1,-2.6960625E1,-1.6559897E2],"categories":[],"categories_nodes":[],"categories_segments":[],"categories_sizes":[],"default_left":[0,0,0,0,0,0,0,0,0],"id":76,"left_children":[1,-1,3,5,-1,7,-1,-1,-1],"loss_changes":[1.5143091E9,0E0,2.4929053E8,2.493106E8,0E0,7.900192E7,0E0,0E0,0E0],"parents":[2147483647,0,0,2,2,3,3,5,5],"right_children":[2,-1,4,6,-1,8,-1,-1,-1],"split_conditions":[3.35E2,2.4680148E2,3.39E2,6E0,4.133992E1,3.36E2,2.097E1,-2.6960625E1,-1.6559897E2],"split_indices":[0,0,0,2,0,0,0,0,0],"split_type":[0,0,0,0,0,0,0,0,0],"sum_hessian":[6E0,1E0,5E0,4E0,1E0,3E0,1E0,1E0,2E0],"tree_param":{"num_deleted":"0","num_feature":"6","num_nodes":"9","size_leaf_vector":"1"}},{"base_weights":[9.713571E2,2.4556749E2,-7.0523335E3,-1.0108128E4,4.11332E1,-1.3678418E4,2.0865156E1,-2.682586E1,-1.64495E2],"categories":[],"categories_nodes":[],"categories_segments":[],"categories_sizes":[],"default_left":[0,0,0,0,0,0,0,0,0],"id":77,"left_children":[1,-1,3,5,-1,7,-1,-1,-1],"loss_changes":[1.4978756E9,0E0,2.4629763E8,2.4623226E8,0E0,7.775418E7,0E0,0E0,0E0],"parents":[2147483647,0,0,2,2,3,3,5,5],"right_children":[2,-1,4,6,-1,8,-1,-1,-1],"split_conditions":[3.35E2,2.4556749E2,3.39E2,6E0,4.11332E1,3.36E2,2.0865156E1,-2.682586E1,-1.64495E2],"split_indices":[0,0,0,2,0,0,0,0,0],"split_type":[0,0,0,0,0,0,0,0,0],"sum_hessian":[6E0,1E0,5E0,4E0,1E0,3E0,1E0,1E0,2E0],"tree_param":{"num_deleted":"0","num_feature":"6","num_nodes":"9","size_leaf_vector":"1"}},{"base_weights":[9.7825226E2,2.4433968E2,-7.003362E3,-1.0041135E4,4.0927498E1,-1.3589461E4,2.0760859E1,-2.669172E1,-1.6339833E2],"categories":[],"categories_nodes":[],"categories_segments":[],"categories_sizes":[],"default_left":[0,0,0,0,0,0,0,0,0],"id":78,"left_children":[1,-1,3,5,-1,7,-1,-1,-1],"loss_changes":[1.4816212E9,0E0,2.4334064E8,2.431922E8,0E0,7.652563E7,0E0,0E0,0E0],"parents":[2147483647,0,0,2,2,3,3,5,5],"right_children":[2,-1,4,6,-1,8,-1,-1,-1],"split_conditions":[3.35E2,2.4433968E2,3.39E2,6E0,4.0927498E1,3.36E2,2.0760859E1,-2.669172E1,-1.6339833E2],"split_indices":[0,0,0,2,0,0,0,0,0],"split_type":[0,0,0,0,0,0,0,0,0],"sum_hessian":[6E0,1E0,5E0,4E0,1E0,3E0,1E0,1E0,2E0],"tree_param":{"num_deleted":"0","num_feature":"6","num_nodes":"9","size_leaf_vector":"1"}},{"base_weights":[9.85029E2,2.4311797E2,-6.954732E3,-9.974594E3,4.072289E1,-1.3501094E4,2.065703E1,-2.655828E1,-1.6230905E2],"categories":[],"categories_nodes":[],"categories_segments":[],"categories_sizes":[],"default_left":[0,0,0,0,0,0,0,0,0],"id":79,"left_children":[1,-1,3,5,-1,7,-1,-1,-1],"loss_changes":[1.4655448E9,0E0,2.404199E8,2.4018982E8,0E0,7.531565E7,0E0,0E0,0E0],"parents":[2147483647,0,0,2,2,3,3,5,5],"right_children":[2,-1,4,6,-1,8,-1,-1,-1],"split_conditions":[3.35E2,2.4311797E2,3.39E2,6E0,4.072289E1,3.36E2,2.065703E1,-2.655828E1,-1.6230905E2],"split_indices":[0,0,0,2,0,0,0,0,0],"split_type":[0,0,0,0,0,0,0,0,0],"sum_hessian":[6E0,1E0,5E0,4E0,1E0,3E0,1E0,1E0,2E0],"tree_param":{"num_deleted":"0","num_feature":"6","num_nodes":"9","size_leaf_vector":"1"}},{"base_weights":[9.9169867E2,2.4190234E2,-6.9064297E3,-9.908487E3,4.0519295E1,-1.3413297E4,2.055375E1,-2.6425468E1,-1.6122697E2],"categories":[],"categories_nodes":[],"categories_segments":[],"categories_sizes":[],"default_left":[0,0,0,0,0,0,0,0,0],"id":80,"left_children":[1,-1,3,5,-1,7,-1,-1,-1],"loss_changes":[1.4496433E9,0E0,2.3753424E8,2.3722467E8,0E0,7.41241E7,0E0,0E0,0E0],"parents":[2147483647,0,0,2,2,3,3,5,5],"right_children":[2,-1,4,6,-1,8,-1,-1,-1],"split_conditions":[3.35E2,2.4190234E2,3.39E2,6E0,4.0519295E1,3.36E2,2.055375E1,-2.6425468E1,-1.6122697E2],"split_indices":[0,0,0,2,0,0,0,0,0],"split_type":[0,0,0,0,0,0,0,0,0],"sum_hessian":[6E0,1E0,5E0,4E0,1E0,3E0,1E0,1E0,2E0],"tree_param":{"num_deleted":"0","num_feature":"6","num_nodes":"9","size_leaf_vector":"1"}},{"base_weights":[9.982589E2,2.4069281E2,-6.8584585E3,-9.842818E3,4.031672E1,-1.3326074E4,2.0451015E1,-2.6293358E1,-1.6015207E2],"categories":[],"categories_nodes":[],"categories_segments":[],"categories_sizes":[],"default_left":[0,0,0,0,0,0,0,0,0],"id":81,"left_children":[1,-1,3,5,-1,7,-1,-1,-1],"loss_changes":[1.4339156E9,0E0,2.3468349E8,2.3429648E8,0E0,7.295053E7,0E0,0E0,0E0],"parents":[2147483647,0,0,2,2,3,3,5,5],"right_children":[2,-1,4,6,-1,8,-1,-1,-1],"split_conditions":[3.35E2,2.4069281E2,3.39E2,6E0,4.031672E1,3.36E2,2.0451015E1,-2.6293358E1,-1.6015207E2],"split_indices":[0,0,0,2,0,0,0,0,0],"split_type":[0,0,0,0,0,0,0,0,0],"sum_hessian":[6E0,1E0,5E0,4E0,1E0,3E0,1E0,1E0,2E0],"tree_param":{"num_deleted":"0","num_feature":"6","num_nodes":"9","size_leaf_vector":"1"}},{"base_weights":[1.00470984E3,2.3948936E2,-6.810818E3,-9.777588E3,4.0115154E1,-1.3239422E4,2.034875E1,-2.6161875E1,-1.5908437E2],"categories":[],"categories_nodes":[],"categories_segments":[],"categories_sizes":[],"default_left":[0,0,0,0,0,0,0,0,0],"id":82,"left_children":[1,-1,3,5,-1,7,-1,-1,-1],"loss_changes":[1.4183606E9,0E0,2.3186717E8,2.3140448E8,0E0,7.179488E7,0E0,0E0,0E0],"parents":[2147483647,0,0,2,2,3,3,5,5],"right_children":[2,-1,4,6,-1,8,-1,-1,-1],"split_conditions":[3.35E2,2.3948936E2,3.39E2,6E0,4.0115154E1,3.36E2,2.034875E1,-2.6161875E1,-1.5908437E2],"split_indices":[0,0,0,2,0,0,0,0,0],"split_type":[0,0,0,0,0,0,0,0,0],"sum_hessian":[6E0,1E0,5E0,4E0,1E0,3E0,1E0,1E0,2E0],"tree_param":{"num_deleted":"0","num_feature":"6","num_nodes":"9","size_leaf_vector":"1"}},{"base_weights":[1.01104913E3,2.3829195E2,-6.763508E3,-9.712794E3,3.9914608E1,-1.3153344E4,2.024703E1,-2.6031094E1,-1.5802385E2],"categories":[],"categories_nodes":[],"categories_segments":[],"categories_sizes":[],"default_left":[0,0,0,0,0,0,0,0,0],"id":83,"left_children":[1,-1,3,5,-1,7,-1,-1,-1],"loss_changes":[1.4029757E9,0E0,2.2908512E8,2.285488E8,0E0,7.06567E7,0E0,0E0,0E0],"parents":[2147483647,0,0,2,2,3,3,5,5],"right_children":[2,-1,4,6,-1,8,-1,-1,-1],"split_conditions":[3.35E2,2.3829195E2,3.39E2,6E0,3.9914608E1,3.36E2,2.024703E1,-2.6031094E1,-1.5802385E2],"split_indices":[0,0,0,2,0,0,0,0,0],"split_type":[0,0,0,0,0,0,0,0,0],"sum_hessian":[6E0,1E0,5E0,4E0,1E0,3E0,1E0,1E0,2E0],"tree_param":{"num_deleted":"0","num_feature":"6","num_nodes":"9","size_leaf_vector":"1"}},{"base_weights":[1.01728125E3,2.3710046E2,-6.716521E3,-9.648425E3,3.9715E1,-1.306782E4,2.014578E1,-2.5900936E1,-1.569703E2],"categories":[],"categories_nodes":[],"categories_segments":[],"categories_sizes":[],"default_left":[0,0,0,0,0,0,0,0,0],"id":84,"left_children":[1,-1,3,5,-1,7,-1,-1,-1],"loss_changes":[1.3877586E9,0E0,2.2633626E8,2.257282E8,0E0,6.953581E7,0E0,0E0,0E0],"parents":[2147483647,0,0,2,2,3,3,5,5],"right_children":[2,-1,4,6,-1,8,-1,-1,-1],"split_conditions":[3.35E2,2.3710046E2,3.39E2,6E0,3.9715E1,3.36E2,2.014578E1,-2.5900936E1,-1.569703E2],"split_indices":[0,0,0,2,0,0,0,0,0],"split_type":[0,0,0,0,0,0,0,0,0],"sum_hessian":[6E0,1E0,5E0,4E0,1E0,3E0,1E0,1E0,2E0],"tree_param":{"num_deleted":"0","num_feature":"6","num_nodes":"9","size_leaf_vector":"1"}},{"base_weights":[1.0234085E3,2.35915E2,-6.669857E3,-9.584484E3,3.9516407E1,-1.2982859E4,2.0045078E1,-2.5771406E1,-1.5592386E2],"categories":[],"categories_nodes":[],"categories_segments":[],"categories_sizes":[],"default_left":[0,0,0,0,0,0,0,0,0],"id":85,"left_children":[1,-1,3,5,-1,7,-1,-1,-1],"loss_changes":[1.3727081E9,0E0,2.2362072E8,2.2294294E8,0E0,6.843226E7,0E0,0E0,0E0],"parents":[2147483647,0,0,2,2,3,3,5,5],"right_children":[2,-1,4,6,-1,8,-1,-1,-1],"split_conditions":[3.35E2,2.35915E2,3.39E2,6E0,3.9516407E1,3.36E2,2.0045078E1,-2.5771406E1,-1.5592386E2],"split_indices":[0,0,0,2,0,0,0,0,0],"split_type":[0,0,0,0,0,0,0,0,0],"sum_hessian":[6E0,1E0,5E0,4E0,1E0,3E0,1E0,1E0,2E0],"tree_param":{"num_deleted":"0","num_feature":"6","num_nodes":"9","size_leaf_vector":"1"}},{"base_weights":[1.0294264E3,2.3473538E2,-6.6235156E3,-9.520972E3,3.931883E1,-1.2898457E4,1.9944843E1,-2.5642578E1,-1.5488437E2],"categories":[],"categories_nodes":[],"categories_segments":[],"categories_sizes":[],"default_left":[0,0,0,0,0,0,0,0,0],"id":86,"left_children":[1,-1,3,5,-1,7,-1,-1,-1],"loss_changes":[1.3578218E9,0E0,2.2093816E8,2.2019216E8,0E0,6.734515E7,0E0,0E0,0E0],"parents":[2147483647,0,0,2,2,3,3,5,5],"right_children":[2,-1,4,6,-1,8,-1,-1,-1],"split_conditions":[3.35E2,2.3473538E2,3.39E2,6E0,3.931883E1,3.36E2,1.9944843E1,-2.5642578E1,-1.5488437E2],"split_indices":[0,0,0,2,0,0,0,0,0],"split_type":[0,0,0,0,0,0,0,0,0],"sum_hessian":[6E0,1E0,5E0,4E0,1E0,3E0,1E0,1E0,2E0],"tree_param":{"num_deleted":"0","num_feature":"6","num_nodes":"9","size_leaf_vector":"1"}},{"base_weights":[1.035346E3,2.335617E2,-6.577487E3,-9.457875E3,3.9122265E1,-1.2814602E4,1.9845156E1,-2.5514374E1,-1.5385176E2],"categories":[],"categories_nodes":[],"categories_segments":[],"categories_sizes":[],"default_left":[0,0,0,0,0,0,0,0,0],"id":87,"left_children":[1,-1,3,5,-1,7,-1,-1,-1],"loss_changes":[1.343098E9,0E0,2.1828802E8,2.1747568E8,0E0,6.6274624E7,0E0,0E0,0E0],"parents":[2147483647,0,0,2,2,3,3,5,5],"right_children":[2,-1,4,6,-1,8,-1,-1,-1],"split_conditions":[3.35E2,2.335617E2,3.39E2,6E0,3.9122265E1,3.36E2,1.9845156E1,-2.5514374E1,-1.5385176E2],"split_indices":[0,0,0,2,0,0,0,0,0],"split_type":[0,0,0,0,0,0,0,0,0],"sum_hessian":[6E0,1E0,5E0,4E0,1E0,3E0,1E0,1E0,2E0],"tree_param":{"num_deleted":"0","num_feature":"6","num_nodes":"9","size_leaf_vector":"1"}},{"base_weights":[1.0411608E3,2.323939E2,-6.531776E3,-9.395197E3,3.892664E1,-1.2731293E4,1.9745937E1,-2.5386797E1,-1.5282603E2],"categories":[],"categories_nodes":[],"categories_segments":[],"categories_sizes":[],"default_left":[0,0,0,0,0,0,0,0,0],"id":88,"left_children":[1,-1,3,5,-1,7,-1,-1,-1],"loss_changes":[1.328535E9,0E0,2.1566968E8,2.147927E8,0E0,6.522048E7,0E0,0E0,0E0],"parents":[2147483647,0,0,2,2,3,3,5,5],"right_children":[2,-1,4,6,-1,8,-1,-1,-1],"split_conditions":[3.35E2,2.323939E2,3.39E2,6E0,3.892664E1,3.36E2,1.9745937E1,-2.5386797E1,-1.5282603E2],"split_indices":[0,0,0,2,0,0,0,0,0],"split_type":[0,0,0,0,0,0,0,0,0],"sum_hessian":[6E0,1E0,5E0,4E0,1E0,3E0,1E0,1E0,2E0],"tree_param":{"num_deleted":"0","num_feature":"6","num_nodes":"9","size_leaf_vector":"1"}},{"base_weights":[1.0468728E3,2.3123195E2,-6.4863804E3,-9.3329375E3,3.873203E1,-1.2648531E4,1.9647186E1,-2.5259844E1,-1.5180719E2],"categories":[],"categories_nodes":[],"categories_segments":[],"categories_sizes":[],"default_left":[0,0,0,0,0,0,0,0,0],"id":89,"left_children":[1,-1,3,5,-1,7,-1,-1,-1],"loss_changes":[1.3141316E9,0E0,2.1308325E8,2.12143E8,0E0,6.4182464E7,0E0,0E0,0E0],"parents":[2147483647,0,0,2,2,3,3,5,5],"right_children":[2,-1,4,6,-1,8,-1,-1,-1],"split_conditions":[3.35E2,2.3123195E2,3.39E2,6E0,3.873203E1,3.36E2,1.9647186E1,-2.5259844E1,-1.5180719E2],"split_indices":[0,0,0,2,0,0,0,0,0],"split_type":[0,0,0,0,0,0,0,0,0],"sum_hessian":[6E0,1E0,5E0,4E0,1E0,3E0,1E0,1E0,2E0],"tree_param":{"num_deleted":"0","num_feature":"6","num_nodes":"9","size_leaf_vector":"1"}},{"base_weights":[1.0524844E3,2.3007578E2,-6.4412944E3,-9.271088E3,3.8538357E1,-1.2566309E4,1.9548985E1,-2.5133514E1,-1.507951E2],"categories":[],"categories_nodes":[],"categories_segments":[],"categories_sizes":[],"default_left":[0,0,0,0,0,0,0,0,0],"id":90,"left_children":[1,-1,3,5,-1,7,-1,-1,-1],"loss_changes":[1.2998848E9,0E0,2.1052778E8,2.095264E8,0E0,6.316032E7,0E0,0E0,0E0],"parents":[2147483647,0,0,2,2,3,3,5,5],"right_children":[2,-1,4,6,-1,8,-1,-1,-1],"split_conditions":[3.35E2,2.3007578E2,3.39E2,6E0,3.8538357E1,3.36E2,1.9548985E1,-2.5133514E1,-1.507951E2],"split_indices":[0,0,0,2,0,0,0,0,0],"split_type":[0,0,0,0,0,0,0,0,0],"sum_hessian":[6E0,1E0,5E0,4E0,1E0,3E0,1E0,1E0,2E0],"tree_param":{"num_deleted":"0","num_feature":"6","num_nodes":"9","size_leaf_vector":"1"}},{"base_weights":[1.0579955E3,2.2892538E2,-6.396518E3,-9.20965E3,3.8345703E1,-1.2484625E4,1.945125E1,-2.5007812E1,-1.497898E2],"categories":[],"categories_nodes":[],"categories_segments":[],"categories_sizes":[],"default_left":[0,0,0,0,0,0,0,0,0],"id":91,"left_children":[1,-1,3,5,-1,7,-1,-1,-1],"loss_changes":[1.2857939E9,0E0,2.0800346E8,2.069422E8,0E0,6.2153856E7,0E0,0E0,0E0],"parents":[2147483647,0,0,2,2,3,3,5,5],"right_children":[2,-1,4,6,-1,8,-1,-1,-1],"split_conditions":[3.35E2,2.2892538E2,3.39E2,6E0,3.8345703E1,3.36E2,1.945125E1,-2.5007812E1,-1.497898E2],"split_indices":[0,0,0,2,0,0,0,0,0],"split_type":[0,0,0,0,0,0,0,0,0],"sum_hessian":[6E0,1E0,5E0,4E0,1E0,3E0,1E0,1E0,2E0],"tree_param":{"num_deleted":"0","num_feature":"6","num_nodes":"9","size_leaf_vector":"1"}},{"base_weights":[1.0634062E3,2.2778078E2,-6.3520522E3,-9.148622E3,3.8153984E1,-1.2403477E4,1.9353985E1,-2.4882812E1,-1.4879114E2],"categories":[],"categories_nodes":[],"categories_segments":[],"categories_sizes":[],"default_left":[0,0,0,0,0,0,0,0,0],"id":92,"left_children":[1,-1,3,5,-1,7,-1,-1,-1],"loss_changes":[1.2718573E9,0E0,2.0550954E8,2.0439002E8,0E0,6.116237E7,0E0,0E0,0E0],"parents":[2147483647,0,0,2,2,3,3,5,5],"right_children":[2,-1,4,6,-1,8,-1,-1,-1],"split_conditions":[3.35E2,2.2778078E2,3.39E2,6E0,3.8153984E1,3.36E2,1.9353985E1,-2.4882812E1,-1.4879114E2],"split_indices":[0,0,0,2,0,0,0,0,0],"split_type":[0,0,0,0,0,0,0,0,0],"sum_hessian":[6E0,1E0,5E0,4E0,1E0,3E0,1E0,1E0,2E0],"tree_param":{"num_deleted":"0","num_feature":"6","num_nodes":"9","size_leaf_vector":"1"}},{"base_weights":[1.0687166E3,2.2664188E2,-6.307893E3,-9.088E3,3.7963203E1,-1.2322859E4,1.9257187E1,-2.4758436E1,-1.4779916E2],"categories":[],"categories_nodes":[],"categories_segments":[],"categories_sizes":[],"default_left":[0,0,0,0,0,0,0,0,0],"id":93,"left_children":[1,-1,3,5,-1,7,-1,-1,-1],"loss_changes":[1.2580728E9,0E0,2.0304571E8,2.018695E8,0E0,6.018592E7,0E0,0E0,0E0],"parents":[2147483647,0,0,2,2,3,3,5,5],"right_children":[2,-1,4,6,-1,8,-1,-1,-1],"split_conditions":[3.35E2,2.2664188E2,3.39E2,6E0,3.7963203E1,3.36E2,1.9257187E1,-2.4758436E1,-1.4779916E2],"split_indices":[0,0,0,2,0,0,0,0,0],"split_type":[0,0,0,0,0,0,0,0,0],"sum_hessian":[6E0,1E0,5E0,4E0,1E0,3E0,1E0,1E0,2E0],"tree_param":{"num_deleted":"0","num_feature":"6","num_nodes":"9","size_leaf_vector":"1"}},{"base_weights":[1.0739308E3,2.2550867E2,-6.2640366E3,-9.027778E3,3.7773357E1,-1.224277E4,1.9160936E1,-2.463461E1,-1.4681386E2],"categories":[],"categories_nodes":[],"categories_segments":[],"categories_sizes":[],"default_left":[0,0,0,0,0,0,0,0,0],"id":94,"left_children":[1,-1,3,5,-1,7,-1,-1,-1],"loss_changes":[1.2444388E9,0E0,2.0061154E8,1.9938058E8,0E0,5.9224896E7,0E0,0E0,0E0],"parents":[2147483647,0,0,2,2,3,3,5,5],"right_children":[2,-1,4,6,-1,8,-1,-1,-1],"split_conditions":[3.35E2,2.2550867E2,3.39E2,6E0,3.7773357E1,3.36E2,1.9160936E1,-2.463461E1,-1.4681386E2],"split_indices":[0,0,0,2,0,0,0,0,0],"split_type":[0,0,0,0,0,0,0,0,0],"sum_hessian":[6E0,1E0,5E0,4E0,1E0,3E0,1E0,1E0,2E0],"tree_param":{"num_deleted":"0","num_feature":"6","num_nodes":"9","size_leaf_vector":"1"}},{"base_weights":[1.0790491E3,2.2438109E2,-6.220479E3,-8.967956E3,3.758453E1,-1.2163203E4,1.9065155E1,-2.4511406E1,-1.458351E2],"categories":[],"categories_nodes":[],"categories_segments":[],"categories_sizes":[],"default_left":[0,0,0,0,0,0,0,0,0],"id":95,"left_children":[1,-1,3,5,-1,7,-1,-1,-1],"loss_changes":[1.2309533E9,0E0,1.9820696E8,1.9692246E8,0E0,5.8278464E7,0E0,0E0,0E0],"parents":[2147483647,0,0,2,2,3,3,5,5],"right_children":[2,-1,4,6,-1,8,-1,-1,-1],"split_conditions":[3.35E2,2.2438109E2,3.39E2,6E0,3.758453E1,3.36E2,1.9065155E1,-2.4511406E1,-1.458351E2],"split_indices":[0,0,0,2,0,0,0,0,0],"split_type":[0,0,0,0,0,0,0,0,0],"sum_hessian":[6E0,1E0,5E0,4E0,1E0,3E0,1E0,1E0,2E0],"tree_param":{"num_deleted":"0","num_feature":"6","num_nodes":"9","size_leaf_vector":"1"}},{"base_weights":[1.0840714E3,2.2325922E2,-6.177224E3,-8.908534E3,3.739664E1,-1.208416E4,1.8969843E1,-2.4388828E1,-1.4486292E2],"categories":[],"categories_nodes":[],"categories_segments":[],"categories_sizes":[],"default_left":[0,0,0,0,0,0,0,0,0],"id":96,"left_children":[1,-1,3,5,-1,7,-1,-1,-1],"loss_changes":[1.2176157E9,0E0,1.9583154E8,1.9449491E8,0E0,5.734656E7,0E0,0E0,0E0],"parents":[2147483647,0,0,2,2,3,3,5,5],"right_children":[2,-1,4,6,-1,8,-1,-1,-1],"split_conditions":[3.35E2,2.2325922E2,3.39E2,6E0,3.739664E1,3.36E2,1.8969843E1,-2.4388828E1,-1.4486292E2],"split_indices":[0,0,0,2,0,0,0,0,0],"split_type":[0,0,0,0,0,0,0,0,0],"sum_hessian":[6E0,1E0,5E0,4E0,1E0,3E0,1E0,1E0,2E0],"tree_param":{"num_deleted":"0","num_feature":"6","num_nodes":"9","size_leaf_vector":"1"}},{"base_weights":[1.0889978E3,2.2214288E2,-6.1342656E3,-8.849506E3,3.7209686E1,-1.2005633E4,1.8875E1,-2.4266874E1,-1.4389719E2],"categories":[],"categories_nodes":[],"categories_segments":[],"categories_sizes":[],"default_left":[0,0,0,0,0,0,0,0,0],"id":97,"left_children":[1,-1,3,5,-1,7,-1,-1,-1],"loss_changes":[1.204423E9,0E0,1.9348474E8,1.9209738E8,0E0,5.6428736E7,0E0,0E0,0E0],"parents":[2147483647,0,0,2,2,3,3,5,5],"right_children":[2,-1,4,6,-1,8,-1,-1,-1],"split_conditions":[3.35E2,2.2214288E2,3.39E2,6E0,3.7209686E1,3.36E2,1.8875E1,-2.4266874E1,-1.4389719E2],"split_indices":[0,0,0,2,0,0,0,0,0],"split_type":[0,0,0,0,0,0,0,0,0],"sum_hessian":[6E0,1E0,5E0,4E0,1E0,3E0,1E0,1E0,2E0],"tree_param":{"num_deleted":"0","num_feature":"6","num_nodes":"9","size_leaf_vector":"1"}},{"base_weights":[1.0938303E3,2.2103218E2,-6.091604E3,-8.790872E3,3.702367E1,-1.1927621E4,1.8780624E1,-2.4145546E1,-1.4293791E2],"categories":[],"categories_nodes":[],"categories_segments":[],"categories_sizes":[],"default_left":[0,0,0,0,0,0,0,0,0],"id":98,"left_children":[1,-1,3,5,-1,7,-1,-1,-1],"loss_changes":[1.1913751E9,0E0,1.9116632E8,1.8972966E8,0E0,5.552499E7,0E0,0E0,0E0],"parents":[2147483647,0,0,2,2,3,3,5,5],"right_children":[2,-1,4,6,-1,8,-1,-1,-1],"split_conditions":[3.35E2,2.2103218E2,3.39E2,6E0,3.702367E1,3.36E2,1.8780624E1,-2.4145546E1,-1.4293791E2],"split_indices":[0,0,0,2,0,0,0,0,0],"split_type":[0,0,0,0,0,0,0,0,0],"sum_hessian":[6E0,1E0,5E0,4E0,1E0,3E0,1E0,1E0,2E0],"tree_param":{"num_deleted":"0","num_feature":"6","num_nodes":"9","size_leaf_vector":"1"}},{"base_weights":[1.0985692E3,2.1992703E2,-6.049237E3,-8.732625E3,3.6838516E1,-1.1850117E4,1.8686718E1,-2.4024843E1,-1.41985E2],"categories":[],"categories_nodes":[],"categories_segments":[],"categories_sizes":[],"default_left":[0,0,0,0,0,0,0,0,0],"id":99,"left_children":[1,-1,3,5,-1,7,-1,-1,-1],"loss_changes":[1.1784696E9,0E0,1.8887562E8,1.873913E8,0E0,5.4634944E7,0E0,0E0,0E0],"parents":[2147483647,0,0,2,2,3,3,5,5],"right_children":[2,-1,4,6,-1,8,-1,-1,-1],"split_conditions":[3.35E2,2.1992703E2,3.39E2,6E0,3.6838516E1,3.36E2,1.8686718E1,-2.4024843E1,-1.41985E2],"split_indices":[0,0,0,2,0,0,0,0,0],"split_type":[0,0,0,0,0,0,0,0,0],"sum_hessian":[6E0,1E0,5E0,4E0,1E0,3E0,1E0,1E0,2E0],"tree_param":{"num_deleted":"0","num_feature":"6","num_nodes":"9","size_leaf_vector":"1"}},{"base_weights":[1.1032188E3,2.1882742E2,-6.0071587E3,-8.674763E3,3.6654297E1,-1.1773117E4,1.859328E1,-2.3904688E1,-1.4103844E2],"categories":[],"categories_nodes":[],"categories_segments":[],"categories_sizes":[],"default_left":[0,0,0,0,0,0,0,0,0],"id":100,"left_children":[1,-1,3,5,-1,7,-1,-1,-1],"loss_changes":[1.1657048E9,0E0,1.866125E8,1.8508182E8,0E0,5.3758784E7,0E0,0E0,0E0],"parents":[2147483647,0,0,2,2,3,3,5,5],"right_children":[2,-1,4,6,-1,8,-1,-1,-1],"split_conditions":[3.35E2,2.1882742E2,3.39E2,6E0,3.6654297E1,3.36E2,1.859328E1,-2.3904688E1,-1.4103844E2],"split_indices":[0,0,0,2,0,0,0,0,0],"split_type":[0,0,0,0,0,0,0,0,0],"sum_hessian":[6E0,1E0,5E0,4E0,1E0,3E0,1E0,1E0,2E0],"tree_param":{"num_deleted":"0","num_feature":"6","num_nodes":"9","size_leaf_vector":"1"}},{"base_weights":[1.1077745E3,2.1773328E2,-5.9653726E3,-8.617287E3,3.6471016E1,-1.1696625E4,1.8500313E1,-2.3785156E1,-1.4009824E2],"categories":[],"categories_nodes":[],"categories_segments":[],"categories_sizes":[],"default_left":[0,0,0,0,0,0,0,0,0],"id":101,"left_children":[1,-1,3,5,-1,7,-1,-1,-1],"loss_changes":[1.1530794E9,0E0,1.8437691E8,1.8280118E8,0E0,5.2895936E7,0E0,0E0,0E0],"parents":[2147483647,0,0,2,2,3,3,5,5],"right_children":[2,-1,4,6,-1,8,-1,-1,-1],"split_conditions":[3.35E2,2.1773328E2,3.39E2,6E0,3.6471016E1,3.36E2,1.8500313E1,-2.3785156E1,-1.4009824E2],"split_indices":[0,0,0,2,0,0,0,0,0],"split_type":[0,0,0,0,0,0,0,0,0],"sum_hessian":[6E0,1E0,5E0,4E0,1E0,3E0,1E0,1E0,2E0],"tree_param":{"num_deleted":"0","num_feature":"6","num_nodes":"9","size_leaf_vector":"1"}},{"base_weights":[1.1122411E3,2.166446E2,-5.9238726E3,-8.560193E3,3.628867E1,-1.1620633E4,1.8407812E1,-2.366625E1,-1.3916426E2],"categories":[],"categories_nodes":[],"categories_segments":[],"categories_sizes":[],"default_left":[0,0,0,0,0,0,0,0,0],"id":102,"left_children":[1,-1,3,5,-1,7,-1,-1,-1],"loss_changes":[1.1405917E9,0E0,1.8216834E8,1.805488E8,0E0,5.204627E7,0E0,0E0,0E0],"parents":[2147483647,0,0,2,2,3,3,5,5],"right_children":[2,-1,4,6,-1,8,-1,-1,-1],"split_conditions":[3.35E2,2.166446E2,3.39E2,6E0,3.628867E1,3.36E2,1.8407812E1,-2.366625E1,-1.3916426E2],"split_indices":[0,0,0,2,0,0,0,0,0],"split_type":[0,0,0,0,0,0,0,0,0],"sum_hessian":[6E0,1E0,5E0,4E0,1E0,3E0,1E0,1E0,2E0],"tree_param":{"num_deleted":"0","num_feature":"6","num_nodes":"9","size_leaf_vector":"1"}},{"base_weights":[1.116625E3,2.155614E2,-5.882651E3,-8.503472E3,3.6107265E1,-1.1545129E4,1.831578E1,-2.354789E1,-1.3823645E2],"categories":[],"categories_nodes":[],"categories_segments":[],"categories_sizes":[],"default_left":[0,0,0,0,0,0,0,0,0],"id":103,"left_children":[1,-1,3,5,-1,7,-1,-1,-1],"loss_changes":[1.12824E9,0E0,1.7998635E8,1.7832422E8,0E0,5.12096E7,0E0,0E0,0E0],"parents":[2147483647,0,0,2,2,3,3,5,5],"right_children":[2,-1,4,6,-1,8,-1,-1,-1],"split_conditions":[3.35E2,2.155614E2,3.39E2,6E0,3.6107265E1,3.36E2,1.831578E1,-2.354789E1,-1.3823645E2],"split_indices":[0,0,0,2,0,0,0,0,0],"split_type":[0,0,0,0,0,0,0,0,0],"sum_hessian":[6E0,1E0,5E0,4E0,1E0,3E0,1E0,1E0,2E0],"tree_param":{"num_deleted":"0","num_feature":"6","num_nodes":"9","size_leaf_vector":"1"}},{"base_weights":[1.1209152E3,2.1448358E2,-5.8417188E3,-8.447131E3,3.592672E1,-1.1470125E4,1.8224218E1,-2.3430155E1,-1.373149E2],"categories":[],"categories_nodes":[],"categories_segments":[],"categories_sizes":[],"default_left":[0,0,0,0,0,0,0,0,0],"id":104,"left_children":[1,-1,3,5,-1,7,-1,-1,-1],"loss_changes":[1.1160232E9,0E0,1.7783064E8,1.761274E8,0E0,5.038576E7,0E0,0E0,0E0],"parents":[2147483647,0,0,2,2,3,3,5,5],"right_children":[2,-1,4,6,-1,8,-1,-1,-1],"split_conditions":[3.35E2,2.1448358E2,3.39E2,6E0,3.592672E1,3.36E2,1.8224218E1,-2.3430155E1,-1.373149E2],"split_indices":[0,0,0,2,0,0,0,0,0],"split_type":[0,0,0,0,0,0,0,0,0],"sum_hessian":[6E0,1E0,5E0,4E0,1E0,3E0,1E0,1E0,2E0],"tree_param":{"num_deleted":"0","num_feature":"6","num_nodes":"9","size_leaf_vector":"1"}},{"base_weights":[1.1251205E3,2.1341116E2,-5.801065E3,-8.391162E3,3.574711E1,-1.1395609E4,1.8133125E1,-2.3312967E1,-1.3639948E2],"categories":[],"categories_nodes":[],"categories_segments":[],"categories_sizes":[],"default_left":[0,0,0,0,0,0,0,0,0],"id":105,"left_children":[1,-1,3,5,-1,7,-1,-1,-1],"loss_changes":[1.1039395E9,0E0,1.7570104E8,1.739578E8,0E0,4.9574816E7,0E0,0E0,0E0],"parents":[2147483647,0,0,2,2,3,3,5,5],"right_children":[2,-1,4,6,-1,8,-1,-1,-1],"split_conditions":[3.35E2,2.1341116E2,3.39E2,6E0,3.574711E1,3.36E2,1.8133125E1,-2.3312967E1,-1.3639948E2],"split_indices":[0,0,0,2,0,0,0,0,0],"split_type":[0,0,0,0,0,0,0,0,0],"sum_hessian":[6E0,1E0,5E0,4E0,1E0,3E0,1E0,1E0,2E0],"tree_param":{"num_deleted":"0","num_feature":"6","num_nodes":"9","size_leaf_vector":"1"}},{"base_weights":[1.1292389E3,2.1234413E2,-5.760693E3,-8.335565E3,3.556836E1,-1.1321578E4,1.8042421E1,-2.3196405E1,-1.354901E2],"categories":[],"categories_nodes":[],"categories_segments":[],"categories_sizes":[],"default_left":[0,0,0,0,0,0,0,0,0],"id":106,"left_children":[1,-1,3,5,-1,7,-1,-1,-1],"loss_changes":[1.091988E9,0E0,1.7359698E8,1.7181482E8,0E0,4.8776E7,0E0,0E0,0E0],"parents":[2147483647,0,0,2,2,3,3,5,5],"right_children":[2,-1,4,6,-1,8,-1,-1,-1],"split_conditions":[3.35E2,2.1234413E2,3.39E2,6E0,3.556836E1,3.36E2,1.8042421E1,-2.3196405E1,-1.354901E2],"split_indices":[0,0,0,2,0,0,0,0,0],"split_type":[0,0,0,0,0,0,0,0,0],"sum_hessian":[6E0,1E0,5E0,4E0,1E0,3E0,1E0,1E0,2E0],"tree_param":{"num_deleted":"0","num_feature":"6","num_nodes":"9","size_leaf_vector":"1"}},{"base_weights":[1.1332701E3,2.1128241E2,-5.720599E3,-8.280341E3,3.5390545E1,-1.1248035E4,1.7952187E1,-2.308039E1,-1.3458687E2],"categories":[],"categories_nodes":[],"categories_segments":[],"categories_sizes":[],"default_left":[0,0,0,0,0,0,0,0,0],"id":107,"left_children":[1,-1,3,5,-1,7,-1,-1,-1],"loss_changes":[1.0801667E9,0E0,1.7151851E8,1.6969862E8,0E0,4.798973E7,0E0,0E0,0E0],"parents":[2147483647,0,0,2,2,3,3,5,5],"right_children":[2,-1,4,6,-1,8,-1,-1,-1],"split_conditions":[3.35E2,2.1128241E2,3.39E2,6E0,3.5390545E1,3.36E2,1.7952187E1,-2.308039E1,-1.3458687E2],"split_indices":[0,0,0,2,0,0,0,0,0],"split_type":[0,0,0,0,0,0,0,0,0],"sum_hessian":[6E0,1E0,5E0,4E0,1E0,3E0,1E0,1E0,2E0],"tree_param":{"num_deleted":"0","num_feature":"6","num_nodes":"9","size_leaf_vector":"1"}},{"base_weights":[1.1372188E3,2.1022601E2,-5.680779E3,-8.225479E3,3.5213593E1,-1.1174969E4,1.7862421E1,-2.2965E1,-1.3368958E2],"categories":[],"categories_nodes":[],"categories_segments":[],"categories_sizes":[],"default_left":[0,0,0,0,0,0,0,0,0],"id":108,"left_children":[1,-1,3,5,-1,7,-1,-1,-1],"loss_changes":[1.0684742E9,0E0,1.6946491E8,1.6760858E8,0E0,4.7215264E7,0E0,0E0,0E0],"parents":[2147483647,0,0,2,2,3,3,5,5],"right_children":[2,-1,4,6,-1,8,-1,-1,-1],"split_conditions":[3.35E2,2.1022601E2,3.39E2,6E0,3.5213593E1,3.36E2,1.7862421E1,-2.2965E1,-1.3368958E2],"split_indices":[0,0,0,2,0,0,0,0,0],"split_type":[0,0,0,0,0,0,0,0,0],"sum_hessian":[6E0,1E0,5E0,4E0,1E0,3E0,1E0,1E0,2E0],"tree_param":{"num_deleted":"0","num_feature":"6","num_nodes":"9","size_leaf_vector":"1"}},{"base_weights":[1.1410826E3,2.0917491E2,-5.6412344E3,-8.1709814E3,3.50375E1,-1.1102383E4,1.7773125E1,-2.2850155E1,-1.3279832E2],"categories":[],"categories_nodes":[],"categories_segments":[],"categories_sizes":[],"default_left":[0,0,0,0,0,0,0,0,0],"id":109,"left_children":[1,-1,3,5,-1,7,-1,-1,-1],"loss_changes":[1.0569096E9,0E0,1.6743608E8,1.655446E8,0E0,4.6452896E7,0E0,0E0,0E0],"parents":[2147483647,0,0,2,2,3,3,5,5],"right_children":[2,-1,4,6,-1,8,-1,-1,-1],"split_conditions":[3.35E2,2.0917491E2,3.39E2,6E0,3.50375E1,3.36E2,1.7773125E1,-2.2850155E1,-1.3279832E2],"split_indices":[0,0,0,2,0,0,0,0,0],"split_type":[0,0,0,0,0,0,0,0,0],"sum_hessian":[6E0,1E0,5E0,4E0,1E0,3E0,1E0,1E0,2E0],"tree_param":{"num_deleted":"0","num_feature":"6","num_nodes":"9","size_leaf_vector":"1"}},{"base_weights":[1.1448639E3,2.0812906E2,-5.601961E3,-8.1168467E3,3.4862343E1,-1.1030273E4,1.7684296E1,-2.2735937E1,-1.3191301E2],"categories":[],"categories_nodes":[],"categories_segments":[],"categories_sizes":[],"default_left":[0,0,0,0,0,0,0,0,0],"id":110,"left_children":[1,-1,3,5,-1,7,-1,-1,-1],"loss_changes":[1.0454709E9,0E0,1.6543186E8,1.6350643E8,0E0,4.570208E7,0E0,0E0,0E0],"parents":[2147483647,0,0,2,2,3,3,5,5],"right_children":[2,-1,4,6,-1,8,-1,-1,-1],"split_conditions":[3.35E2,2.0812906E2,3.39E2,6E0,3.4862343E1,3.36E2,1.7684296E1,-2.2735937E1,-1.3191301E2],"split_indices":[0,0,0,2,0,0,0,0,0],"split_type":[0,0,0,0,0,0,0,0,0],"sum_hessian":[6E0,1E0,5E0,4E0,1E0,3E0,1E0,1E0,2E0],"tree_param":{"num_deleted":"0","num_feature":"6","num_nodes":"9","size_leaf_vector":"1"}},{"base_weights":[1.1485603E3,2.0708844E2,-5.562961E3,-8.063075E3,3.4688046E1,-1.0958637E4,1.759586E1,-2.2622265E1,-1.3103365E2],"categories":[],"categories_nodes":[],"categories_segments":[],"categories_sizes":[],"default_left":[0,0,0,0,0,0,0,0,0],"id":111,"left_children":[1,-1,3,5,-1,7,-1,-1,-1],"loss_changes":[1.0341574E9,0E0,1.6345189E8,1.6149328E8,0E0,4.4962944E7,0E0,0E0,0E0],"parents":[2147483647,0,0,2,2,3,3,5,5],"right_children":[2,-1,4,6,-1,8,-1,-1,-1],"split_conditions":[3.35E2,2.0708844E2,3.39E2,6E0,3.4688046E1,3.36E2,1.759586E1,-2.2622265E1,-1.3103365E2],"split_indices":[0,0,0,2,0,0,0,0,0],"split_type":[0,0,0,0,0,0,0,0,0],"sum_hessian":[6E0,1E0,5E0,4E0,1E0,3E0,1E0,1E0,2E0],"tree_param":{"num_deleted":"0","num_feature":"6","num_nodes":"9","size_leaf_vector":"1"}},{"base_weights":[1.1521764E3,2.0605296E2,-5.5242266E3,-8.0096562E3,3.451461E1,-1.0887465E4,1.750789E1,-2.250914E1,-1.3016011E2],"categories":[],"categories_nodes":[],"categories_segments":[],"categories_sizes":[],"default_left":[0,0,0,0,0,0,0,0,0],"id":112,"left_children":[1,-1,3,5,-1,7,-1,-1,-1],"loss_changes":[1.02296646E9,0E0,1.6149563E8,1.5950512E8,0E0,4.4235264E7,0E0,0E0,0E0],"parents":[2147483647,0,0,2,2,3,3,5,5],"right_children":[2,-1,4,6,-1,8,-1,-1,-1],"split_conditions":[3.35E2,2.0605296E2,3.39E2,6E0,3.451461E1,3.36E2,1.750789E1,-2.250914E1,-1.3016011E2],"split_indices":[0,0,0,2,0,0,0,0,0],"split_type":[0,0,0,0,0,0,0,0,0],"sum_hessian":[6E0,1E0,5E0,4E0,1E0,3E0,1E0,1E0,2E0],"tree_param":{"num_deleted":"0","num_feature":"6","num_nodes":"9","size_leaf_vector":"1"}},{"base_weights":[1.155712E3,2.0502274E2,-5.4857603E3,-7.9565938E3,3.434203E1,-1.0816758E4,1.7420313E1,-2.2396563E1,-1.2929239E2],"categories":[],"categories_nodes":[],"categories_segments":[],"categories_sizes":[],"default_left":[0,0,0,0,0,0,0,0,0],"id":113,"left_children":[1,-1,3,5,-1,7,-1,-1,-1],"loss_changes":[1.0118982E9,0E0,1.5956298E8,1.5754144E8,0E0,4.351885E7,0E0,0E0,0E0],"parents":[2147483647,0,0,2,2,3,3,5,5],"right_children":[2,-1,4,6,-1,8,-1,-1,-1],"split_conditions":[3.35E2,2.0502274E2,3.39E2,6E0,3.434203E1,3.36E2,1.7420313E1,-2.2396563E1,-1.2929239E2],"split_indices":[0,0,0,2,0,0,0,0,0],"split_type":[0,0,0,0,0,0,0,0,0],"sum_hessian":[6E0,1E0,5E0,4E0,1E0,3E0,1E0,1E0,2E0],"tree_param":{"num_deleted":"0","num_feature":"6","num_nodes":"9","size_leaf_vector":"1"}},{"base_weights":[1.1591697E3,2.0399765E2,-5.447557E3,-7.9038813E3,3.417031E1,-1.0746512E4,1.7333202E1,-2.2284609E1,-1.2843042E2],"categories":[],"categories_nodes":[],"categories_segments":[],"categories_sizes":[],"default_left":[0,0,0,0,0,0,0,0,0],"id":114,"left_children":[1,-1,3,5,-1,7,-1,-1,-1],"loss_changes":[1.00095046E9,0E0,1.5765358E8,1.5560218E8,0E0,4.281315E7,0E0,0E0,0E0],"parents":[2147483647,0,0,2,2,3,3,5,5],"right_children":[2,-1,4,6,-1,8,-1,-1,-1],"split_conditions":[3.35E2,2.0399765E2,3.39E2,6E0,3.417031E1,3.36E2,1.7333202E1,-2.2284609E1,-1.2843042E2],"split_indices":[0,0,0,2,0,0,0,0,0],"split_type":[0,0,0,0,0,0,0,0,0],"sum_hessian":[6E0,1E0,5E0,4E0,1E0,3E0,1E0,1E0,2E0],"tree_param":{"num_deleted":"0","num_feature":"6","num_nodes":"9","size_leaf_vector":"1"}},{"base_weights":[1.1625491E3,2.0297765E2,-5.4096147E3,-7.8515156E3,3.399945E1,-1.0676723E4,1.7246563E1,-2.2173203E1,-1.27574165E2],"categories":[],"categories_nodes":[],"categories_segments":[],"categories_sizes":[],"default_left":[0,0,0,0,0,0,0,0,0],"id":115,"left_children":[1,-1,3,5,-1,7,-1,-1,-1],"loss_changes":[9.9012154E8,0E0,1.5576717E8,1.53687E8,0E0,4.2118464E7,0E0,0E0,0E0],"parents":[2147483647,0,0,2,2,3,3,5,5],"right_children":[2,-1,4,6,-1,8,-1,-1,-1],"split_conditions":[3.35E2,2.0297765E2,3.39E2,6E0,3.399945E1,3.36E2,1.7246563E1,-2.2173203E1,-1.27574165E2],"split_indices":[0,0,0,2,0,0,0,0,0],"split_type":[0,0,0,0,0,0,0,0,0],"sum_hessian":[6E0,1E0,5E0,4E0,1E0,3E0,1E0,1E0,2E0],"tree_param":{"num_deleted":"0","num_feature":"6","num_nodes":"9","size_leaf_vector":"1"}},{"base_weights":[1.1658483E3,2.0196272E2,-5.371935E3,-7.7995E3,3.3829453E1,-1.0607391E4,1.7160313E1,-2.2062344E1,-1.2672364E2],"categories":[],"categories_nodes":[],"categories_segments":[],"categories_sizes":[],"default_left":[0,0,0,0,0,0,0,0,0],"id":116,"left_children":[1,-1,3,5,-1,7,-1,-1,-1],"loss_changes":[9.794106E8,0E0,1.5390352E8,1.5179549E8,0E0,4.1434496E7,0E0,0E0,0E0],"parents":[2147483647,0,0,2,2,3,3,5,5],"right_children":[2,-1,4,6,-1,8,-1,-1,-1],"split_conditions":[3.35E2,2.0196272E2,3.39E2,6E0,3.3829453E1,3.36E2,1.7160313E1,-2.2062344E1,-1.2672364E2],"split_indices":[0,0,0,2,0,0,0,0,0],"split_type":[0,0,0,0,0,0,0,0,0],"sum_hessian":[6E0,1E0,5E0,4E0,1E0,3E0,1E0,1E0,2E0],"tree_param":{"num_deleted":"0","num_feature":"6","num_nodes":"9","size_leaf_vector":"1"}},{"base_weights":[1.1690692E3,2.0095288E2,-5.3345156E3,-7.747831E3,3.3660313E1,-1.0538516E4,1.7074532E1,-2.195203E1,-1.2587885E2],"categories":[],"categories_nodes":[],"categories_segments":[],"categories_sizes":[],"default_left":[0,0,0,0,0,0,0,0,0],"id":117,"left_children":[1,-1,3,5,-1,7,-1,-1,-1],"loss_changes":[9.688166E8,0E0,1.5206242E8,1.4992758E8,0E0,4.076115E7,0E0,0E0,0E0],"parents":[2147483647,0,0,2,2,3,3,5,5],"right_children":[2,-1,4,6,-1,8,-1,-1,-1],"split_conditions":[3.35E2,2.0095288E2,3.39E2,6E0,3.3660313E1,3.36E2,1.7074532E1,-2.195203E1,-1.2587885E2],"split_indices":[0,0,0,2,0,0,0,0,0],"split_type":[0,0,0,0,0,0,0,0,0],"sum_hessian":[6E0,1E0,5E0,4E0,1E0,3E0,1E0,1E0,2E0],"tree_param":{"num_deleted":"0","num_feature":"6","num_nodes":"9","size_leaf_vector":"1"}},{"base_weights":[1.1722142E3,1.9994812E2,-5.297354E3,-7.6965063E3,3.349203E1,-1.047009E4,1.698914E1,-2.1842266E1,-1.2503969E2],"categories":[],"categories_nodes":[],"categories_segments":[],"categories_sizes":[],"default_left":[0,0,0,0,0,0,0,0,0],"id":118,"left_children":[1,-1,3,5,-1,7,-1,-1,-1],"loss_changes":[9.583382E8,0E0,1.5024363E8,1.4808269E8,0E0,4.009827E7,0E0,0E0,0E0],"parents":[2147483647,0,0,2,2,3,3,5,5],"right_children":[2,-1,4,6,-1,8,-1,-1,-1],"split_conditions":[3.35E2,1.9994812E2,3.39E2,6E0,3.349203E1,3.36E2,1.698914E1,-2.1842266E1,-1.2503969E2],"split_indices":[0,0,0,2,0,0,0,0,0],"split_type":[0,0,0,0,0,0,0,0,0],"sum_hessian":[6E0,1E0,5E0,4E0,1E0,3E0,1E0,1E0,2E0],"tree_param":{"num_deleted":"0","num_feature":"6","num_nodes":"9","size_leaf_vector":"1"}},{"base_weights":[1.175288E3,1.9894835E2,-5.260443E3,-7.6455156E3,3.3324608E1,-1.0402105E4,1.6904219E1,-2.1733046E1,-1.2420604E2],"categories":[],"categories_nodes":[],"categories_segments":[],"categories_sizes":[],"default_left":[0,0,0,0,0,0,0,0,0],"id":119,"left_children":[1,-1,3,5,-1,7,-1,-1,-1],"loss_changes":[9.4797344E8,0E0,1.4844658E8,1.462607E8,0E0,3.9445504E7,0E0,0E0,0E0],"parents":[2147483647,0,0,2,2,3,3,5,5],"right_children":[2,-1,4,6,-1,8,-1,-1,-1],"split_conditions":[3.35E2,1.9894835E2,3.39E2,6E0,3.3324608E1,3.36E2,1.6904219E1,-2.1733046E1,-1.2420604E2],"split_indices":[0,0,0,2,0,0,0,0,0],"split_type":[0,0,0,0,0,0,0,0,0],"sum_hessian":[6E0,1E0,5E0,4E0,1E0,3E0,1E0,1E0,2E0],"tree_param":{"num_deleted":"0","num_feature":"6","num_nodes":"9","size_leaf_vector":"1"}},{"base_weights":[1.1782812E3,1.9795358E2,-5.2237915E3,-7.5948687E3,3.3157967E1,-1.033457E4,1.6819687E1,-2.1624374E1,-1.2337801E2],"categories":[],"categories_nodes":[],"categories_segments":[],"categories_sizes":[],"default_left":[0,0,0,0,0,0,0,0,0],"id":120,"left_children":[1,-1,3,5,-1,7,-1,-1,-1],"loss_changes":[9.377221E8,0E0,1.466712E8,1.4446125E8,0E0,3.8802944E7,0E0,0E0,0E0],"parents":[2147483647,0,0,2,2,3,3,5,5],"right_children":[2,-1,4,6,-1,8,-1,-1,-1],"split_conditions":[3.35E2,1.9795358E2,3.39E2,6E0,3.3157967E1,3.36E2,1.6819687E1,-2.1624374E1,-1.2337801E2],"split_indices":[0,0,0,2,0,0,0,0,0],"split_type":[0,0,0,0,0,0,0,0,0],"sum_hessian":[6E0,1E0,5E0,4E0,1E0,3E0,1E0,1E0,2E0],"tree_param":{"num_deleted":"0","num_feature":"6","num_nodes":"9","size_leaf_vector":"1"}},{"base_weights":[1.1812031E3,1.9696382E2,-5.1873906E3,-7.544556E3,3.2992188E1,-1.0267477E4,1.6735624E1,-2.1516249E1,-1.2255551E2],"categories":[],"categories_nodes":[],"categories_segments":[],"categories_sizes":[],"default_left":[0,0,0,0,0,0,0,0,0],"id":121,"left_children":[1,-1,3,5,-1,7,-1,-1,-1],"loss_changes":[9.2758246E8,0E0,1.4491723E8,1.4268426E8,0E0,3.817037E7,0E0,0E0,0E0],"parents":[2147483647,0,0,2,2,3,3,5,5],"right_children":[2,-1,4,6,-1,8,-1,-1,-1],"split_conditions":[3.35E2,1.9696382E2,3.39E2,6E0,3.2992188E1,3.36E2,1.6735624E1,-2.1516249E1,-1.2255551E2],"split_indices":[0,0,0,2,0,0,0,0,0],"split_type":[0,0,0,0,0,0,0,0,0],"sum_hessian":[6E0,1E0,5E0,4E0,1E0,3E0,1E0,1E0,2E0],"tree_param":{"num_deleted":"0","num_feature":"6","num_nodes":"9","size_leaf_vector":"1"}},{"base_weights":[1.1840514E3,1.9597897E2,-5.1512397E3,-7.494575E3,3.2827187E1,-1.0200816E4,1.6651953E1,-2.1408672E1,-1.21738434E2],"categories":[],"categories_nodes":[],"categories_segments":[],"categories_sizes":[],"default_left":[0,0,0,0,0,0,0,0,0],"id":122,"left_children":[1,-1,3,5,-1,7,-1,-1,-1],"loss_changes":[9.175531E8,0E0,1.4318413E8,1.4092912E8,0E0,3.754739E7,0E0,0E0,0E0],"parents":[2147483647,0,0,2,2,3,3,5,5],"right_children":[2,-1,4,6,-1,8,-1,-1,-1],"split_conditions":[3.35E2,1.9597897E2,3.39E2,6E0,3.2827187E1,3.36E2,1.6651953E1,-2.1408672E1,-1.21738434E2],"split_indices":[0,0,0,2,0,0,0,0,0],"split_type":[0,0,0,0,0,0,0,0,0],"sum_hessian":[6E0,1E0,5E0,4E0,1E0,3E0,1E0,1E0,2E0],"tree_param":{"num_deleted":"0","num_feature":"6","num_nodes":"9","size_leaf_vector":"1"}},{"base_weights":[1.1868236E3,1.9499905E2,-5.1153413E3,-7.444931E3,3.2663048E1,-1.0134598E4,1.6568672E1,-2.130164E1,-1.2092687E2],"categories":[],"categories_nodes":[],"categories_segments":[],"categories_sizes":[],"default_left":[0,0,0,0,0,0,0,0,0],"id":123,"left_children":[1,-1,3,5,-1,7,-1,-1,-1],"loss_changes":[9.0763315E8,0E0,1.4147222E8,1.3919571E8,0E0,3.6934176E7,0E0,0E0,0E0],"parents":[2147483647,0,0,2,2,3,3,5,5],"right_children":[2,-1,4,6,-1,8,-1,-1,-1],"split_conditions":[3.35E2,1.9499905E2,3.39E2,6E0,3.2663048E1,3.36E2,1.6568672E1,-2.130164E1,-1.2092687E2],"split_indices":[0,0,0,2,0,0,0,0,0],"split_type":[0,0,0,0,0,0,0,0,0],"sum_hessian":[6E0,1E0,5E0,4E0,1E0,3E0,1E0,1E0,2E0],"tree_param":{"num_deleted":"0","num_feature":"6","num_nodes":"9",