{"learner":{"attributes":{"scikit_learn":"{\"_estimator_type\": \"regressor\"}"},"feature_names":["dayofyear","hour","dayofweek","quarter","month","year"],"feature_types":["int","int","int","int","int","int"],"gradient_booster":{"model":{"gbtree_model_param":{"num_parallel_tree":"1","num_trees":"1000"},"iteration_indptr":[0,1,2,3,4,5,6,7,8,9,10,11,12,13,14,15,16,17,18,19,20,21,22,23,24,25,26,27,28,29,30,31,32,33,34,35,36,37,38,39,40,41,42,43,44,45,46,47,48,49,50,51,52,53,54,55,56,57,58,59,60,61,62,63,64,65,66,67,68,69,70,71,72,73,74,75,76,77,78,79,80,81,82,83,84,85,86,87,88,89,90,91,92,93,94,95,96,97,98,99,100,101,102,103,104,105,106,107,108,109,110,111,112,113,114,115,116,117,118,119,120,121,122,123,124,125,126,127,128,129,130,131,132,133,134,135,136,137,138,139,140,141,142,143,144,145,146,147,148,149,150,151,152,153,154,155,156,157,158,159,160,161,162,163,164,165,166,167,168,169,170,171,172,173,174,175,176,177,178,179,180,181,182,183,184,185,186,187,188,189,190,191,192,193,194,195,196,197,198,199,200,201,202,203,204,205,206,207,208,209,210,211,212,213,214,215,216,217,218,219,220,221,222,223,224,225,226,227,228,229,230,231,232,233,234,235,236,237,238,239,240,241,242,243,244,245,246,247,248,249,250,251,252,253,254,255,256,257,258,259,260,261,262,263,264,265,266,267,268,269,270,271,272,273,274,275,276,277,278,279,280,281,282,283,284,285,286,287,288,289,290,291,292,293,294,295,296,297,298,299,300,301,302,303,304,305,306,307,308,309,310,311,312,313,314,315,316,317,318,319,320,321,322,323,324,325,326,327,328,329,330,331,332,333,334,335,336,337,338,339,340,341,342,343,344,345,346,347,348,349,350,351,352,353,354,355,356,357,358,359,360,361,362,363,364,365,366,367,368,369,370,371,372,373,374,375,376,377,378,379,380,381,382,383,384,385,386,387,388,389,390,391,392,393,394,395,396,397,398,399,400,401,402,403,404,405,406,407,408,409,410,411,412,413,414,415,416,417,418,419,420,421,422,423,424,425,426,427,428,429,430,431,432,433,434,435,436,437,438,439,440,441,442,443,444,445,446,447,448,449,450,451,452,453,454,455,456,457,458,459,460,461,462,463,464,465,466,467,468,469,470,471,472,473,474,475,476,477,478,479,480,481,482,483,484,485,486,487,488,489,490,491,492,493,494,495,496,497,498,499,500,501,502,503,504,505,506,507,508,509,510,511,512,513,514,515,516,517,518,519,520,521,522,523,524,525,526,527,528,529,530,531,532,533,534,535,536,537,538,539,540,541,542,543,544,545,546,547,548,549,550,551,552,553,554,555,556,557,558,559,560,561,562,563,564,565,566,567,568,569,570,571,572,573,574,575,576,577,578,579,580,581,582,583,584,585,586,587,588,589,590,591,592,593,594,595,596,597,598,599,600,601,602,603,604,605,606,607,608,609,610,611,612,613,614,615,616,617,618,619,620,621,622,623,624,625,626,627,628,629,630,631,632,633,634,635,636,637,638,639,640,641,642,643,644,645,646,647,648,649,650,651,652,653,654,655,656,657,658,659,660,661,662,663,664,665,666,667,668,669,670,671,672,673,674,675,676,677,678,679,680,681,682,683,684,685,686,687,688,689,690,691,692,693,694,695,696,697,698,699,700,701,702,703,704,705,706,707,708,709,710,711,712,713,714,715,716,717,718,719,720,721,722,723,724,725,726,727,728,729,730,731,732,733,734,735,736,737,738,739,740,741,742,743,744,745,746,747,748,749,750,751,752,753,754,755,756,757,758,759,760,761,762,763,764,765,766,767,768,769,770,771,772,773,774,775,776,777,778,779,780,781,782,783,784,785,786,787,788,789,790,791,792,793,794,795,796,797,798,799,800,801,802,803,804,805,806,807,808,809,810,811,812,813,814,815,816,817,818,819,820,821,822,823,824,825,826,827,828,829,830,831,832,833,834,835,836,837,838,839,840,841,842,843,844,845,846,847,848,849,850,851,852,853,854,855,856,857,858,859,860,861,862,863,864,865,866,867,868,869,870,871,872,873,874,875,876,877,878,879,880,881,882,883,884,885,886,887,888,889,890,891,892,893,894,895,896,897,898,899,900,901,902,903,904,905,906,907,908,909,910,911,912,913,914,915,916,917,918,919,920,921,922,923,924,925,926,927,928,929,930,931,932,933,934,935,936,937,938,939,940,941,942,943,944,945,946,947,948,949,950,951,952,953,954,955,956,957,958,959,960,961,962,963,964,965,966,967,968,969,970,971,972,973,974,975,976,977,978,979,980,981,982,983,984,985,986,987,988,989,990,991,992,993,994,995,996,997,998,999,1000],"tree_info":[0,0,0,0,0,0,0,0,0,0,0,0,0,0,0,0,0,0,0,0,0,0,0,0,0,0,0,0,0,0,0,0,0,0,0,0,0,0,0,0,0,0,0,0,0,0,0,0,0,0,0,0,0,0,0,0,0,0,0,0,0,0,0,0,0,0,0,0,0,0,0,0,0,0,0,0,0,0,0,0,0,0,0,0,0,0,0,0,0,0,0,0,0,0,0,0,0,0,0,0,0,0,0,0,0,0,0,0,0,0,0,0,0,0,0,0,0,0,0,0,0,0,0,0,0,0,0,0,0,0,0,0,0,0,0,0,0,0,0,0,0,0,0,0,0,0,0,0,0,0,0,0,0,0,0,0,0,0,0,0,0,0,0,0,0,0,0,0,0,0,0,0,0,0,0,0,0,0,0,0,0,0,0,0,0,0,0,0,0,0,0,0,0,0,0,0,0,0,0,0,0,0,0,0,0,0,0,0,0,0,0,0,0,0,0,0,0,0,0,0,0,0,0,0,0,0,0,0,0,0,0,0,0,0,0,0,0,0,0,0,0,0,0,0,0,0,0,0,0,0,0,0,0,0,0,0,0,0,0,0,0,0,0,0,0,0,0,0,0,0,0,0,0,0,0,0,0,0,0,0,0,0,0,0,0,0,0,0,0,0,0,0,0,0,0,0,0,0,0,0,0,0,0,0,0,0,0,0,0,0,0,0,0,0,0,0,0,0,0,0,0,0,0,0,0,0,0,0,0,0,0,0,0,0,0,0,0,0,0,0,0,0,0,0,0,0,0,0,0,0,0,0,0,0,0,0,0,0,0,0,0,0,0,0,0,0,0,0,0,0,0,0,0,0,0,0,0,0,0,0,0,0,0,0,0,0,0,0,0,0,0,0,0,0,0,0,0,0,0,0,0,0,0,0,0,0,0,0,0,0,0,0,0,0,0,0,0,0,0,0,0,0,0,0,0,0,0,0,0,0,0,0,0,0,0,0,0,0,0,0,0,0,0,0,0,0,0,0,0,0,0,0,0,0,0,0,0,0,0,0,0,0,0,0,0,0,0,0,0,0,0,0,0,0,0,0,0,0,0,0,0,0,0,0,0,0,0,0,0,0,0,0,0,0,0,0,0,0,0,0,0,0,0,0,0,0,0,0,0,0,0,0,0,0,0,0,0,0,0,0,0,0,0,0,0,0,0,0,0,0,0,0,0,0,0,0,0,0,0,0,0,0,0,0,0,0,0,0,0,0,0,0,0,0,0,0,0,0,0,0,0,0,0,0,0,0,0,0,0,0,0,0,0,0,0,0,0,0,0,0,0,0,0,0,0,0,0,0,0,0,0,0,0,0,0,0,0,0,0,0,0,0,0,0,0,0,0,0,0,0,0,0,0,0,0,0,0,0,0,0,0,0,0,0,0,0,0,0,0,0,0,0,0,0,0,0,0,0,0,0,0,0,0,0,0,0,0,0,0,0,0,0,0,0,0,0,0,0,0,0,0,0,0,0,0,0,0,0,0,0,0,0,0,0,0,0,0,0,0,0,0,0,0,0,0,0,0,0,0,0,0,0,0,0,0,0,0,0,0,0,0,0,0,0,0,0,0,0,0,0,0,0,0,0,0,0,0,0,0,0,0,0,0,0,0,0,0,0,0,0,0,0,0,0,0,0,0,0,0,0,0,0,0,0,0,0,0,0,0,0,0,0,0,0,0,0,0,0,0,0,0,0,0,0,0,0,0,0,0,0,0,0,0,0,0,0,0,0,0,0,0,0,0,0,0,0,0,0,0,0,0,0,0,0,0,0,0,0,0,0,0,0,0,0,0,0,0,0,0,0,0,0,0,0,0,0,0,0,0,0,0,0,0,0,0,0,0,0,0,0,0,0,0,0,0,0,0,0,0,0,0,0,0,0,0,0,0,0,0,0,0,0,0,0,0,0,0,0,0,0,0,0,0,0,0,0,0,0,0,0,0,0,0,0,0,0,0,0,0,0,0,0,0,0,0,0,0,0,0,0,0,0,0,0,0,0,0,0,0,0,0,0,0,0,0,0,0,0,0,0,0,0,0,0,0,0,0,0,0,0,0,0,0,0,0,0,0,0,0,0,0,0,0,0,0,0,0,0,0,0,0,0,0,0,0,0,0,0,0,0,0,0,0,0,0,0,0,0,0,0,0,0,0,0,0,0,0,0,0,0,0,0,0,0,0,0,0,0,0,0,0,0,0,0,0,0,0,0,0,0,0,0,0,0,0,0,0,0,0,0],"trees":[{"base_weights":[5.3796684E1,1.0880031E2,2.2490484E1,1.4377577E2,5.7733334E1,3.419355E1,1.5412984E1,2.5947748E1,3.212262E1,4.8427883E1,1.7234375E1,6.0037037E1,1.8664234E1,1.8959923E1,6.059406E0,1.7405556E1,3.988506E1,2.8346668E1,4.0850746E1,2.5884058E1,1.1173913E1,1.4989743E1,6.0132356E0,1.9852942E0,8.0735296E-1,5.1E1,3.4311474E1,9.573529E0,6.526471E0,3.0714285E1,2.3285715E1,8.5E-1,2.6711538E0,1.6630596E1,2.2403226E0,6.15E0,1.0840909E1,2.530303E1,4.337931E1,1.0625E1,4.805556E0,1.3166667E0,5.0068183E0,3.9382355E0,3.0871286E0,5.219355E0,1.7333335E0,9.835295E0,3.246154E1,7.1300006E0,3.275E0],"categories":[],"categories_nodes":[],"categories_segments":[],"categories_sizes":[],"default_left":[0,0,0,0,0,0,0,0,0,0,0,0,0,0,0,0,0,0,0,0,0,0,0,0,0,0,0,0,0,0,0,0,0,0,0,0,0,0,0,0,0,0,0,0,0,0,0,0,0,0,0],"id":0,"left_children":[1,3,5,7,9,11,13,-1,-1,15,-1,17,19,21,23,-1,25,-1,27,29,31,33,-1,-1,-1,35,37,-1,-1,39,41,-1,-1,43,-1,-1,-1,45,47,-1,-1,-1,-1,-1,-1,-1,-1,-1,49,-1,-1],"loss_changes":[1.5559218E6,5.775375E5,4.7347812E4,2.501325E4,3.1552375E4,8.596841E4,1.1895039E4,0E0,0E0,3.0823156E4,0E0,1.2117347E5,7.1195664E3,1.1101891E4,7.4991943E2,0E0,3.6397656E3,0E0,2.3016953E3,1.5078906E2,9.856201E2,1.0257852E3,0E0,0E0,0E0,8.5296875E1,3.8852812E3,0E0,0E0,1.8703613E3,1.2660918E3,0E0,0E0,1.86125E2,0E0,0E0,0E0,2.0959375E2,2.391289E2,0E0,0E0,0E0,0E0,0E0,0E0,0E0,0E0,0E0,8.301758E1,0E0,0E0],"parents":[2147483647,0,0,1,1,2,2,3,3,4,4,5,5,6,6,9,9,11,11,12,12,13,13,14,14,16,16,18,18,19,19,20,20,21,21,25,25,26,26,29,29,30,30,33,33,37,37,38,38,48,48],"right_children":[2,4,6,8,10,12,14,-1,-1,16,-1,18,20,22,24,-1,26,-1,28,30,32,34,-1,-1,-1,36,38,-1,-1,40,42,-1,-1,44,-1,-1,-1,46,48,-1,-1,-1,-1,-1,-1,-1,-1,-1,50,-1,-1],"split_conditions":[3.33E2,1.4E1,3.35E2,8E0,2.2E1,1.3E1,1.5E1,2.5947748E1,3.212262E1,1.5E1,1.7234375E1,3.34E2,1.9E1,9E0,1.8E1,1.7405556E1,1.7E1,2.8346668E1,5E0,1.6E1,2.1E1,3.36E2,6.0132356E0,1.9852942E0,8.0735296E-1,3.22E2,2E1,9.573529E0,6.526471E0,3.34E2,3.34E2,8.5E-1,2.6711538E0,1E0,2.2403226E0,6.15E0,1.0840909E1,3.32E2,3.27E2,1.0625E1,4.805556E0,1.3166667E0,5.0068183E0,3.9382355E0,3.0871286E0,5.219355E0,1.7333335E0,9.835295E0,5E0,7.1300006E0,3.275E0],"split_indices":[0,1,0,1,1,1,1,0,0,1,0,0,1,1,1,0,1,0,1,1,1,0,0,0,0,0,1,0,0,0,0,0,0,1,0,0,0,0,0,0,0,0,0,0,0,0,0,0,2,0,0],"split_type":[0,0,0,0,0,0,0,0,0,0,0,0,0,0,0,0,0,0,0,0,0,0,0,0,0,0,0,0,0,0,0,0,0,0,0,0,0,0,0,0,0,0,0,0,0,0,0,0,0,0,0],"sum_hessian":[9.04E2,3.27E2,5.77E2,1.93E2,1.34E2,2.16E2,3.61E2,1.1E2,8.3E1,1.03E2,3.1E1,8E1,1.36E2,2.61E2,1E2,1.7E1,8.6E1,1.4E1,6.6E1,6.8E1,6.8E1,1.94E2,6.7E1,3.3E1,6.7E1,2.6E1,6E1,3.3E1,3.3E1,2E1,4.8E1,1.7E1,5.1E1,1.33E2,6.1E1,5E0,2.1E1,3.2E1,2.8E1,3E0,1.7E1,5E0,4.3E1,3.3E1,1E2,3E1,2E0,1.6E1,1.2E1,9E0,3E0],"tree_param":{"num_deleted":"0","num_feature":"6","num_nodes":"51","size_leaf_vector":"1"}},{"base_weights":[4.328562E1,8.74576E1,1.814428E1,1.15319954E2,4.6770546E1,2.7676138E1,1.2380308E1,2.1080088E1,1.3101996E2,3.9334515E1,1.3895215E1,4.8578354E1,1.5115877E1,1.5226255E1,4.8751745E0,2.7818012E1,1.8323778E1,6.1215797E1,2.9203888E1,2.3055288E1,3.2920895E1,2.1022522E1,8.990162E0,1.2039311E1,4.8282743E0,1.5999135E0,3.2412846E0,1.4117839E1,9.177333E0,2.5632986E1,8.260502E0,7.7151384E0,5.2595677E0,2.5306217E1,1.8757622E1,6.894445E-1,1.0735984E1,1.3356906E1,1.7994851E0,5.579844E-1,7.1742857E-1,6.2983336E0,2.1566566E1,9.03125E0,3.8978393E0,1.0972222E0,4.028213E0,2.5676708E0,1.8696043E0,3.1737545E0,2.4758162E0,1.7184454E1,2.7140175E1,1.7812073E1,1.3707527E0,5.8571277E0,2.7837503E0,3.693323E0,1.5022222E0],"categories":[],"categories_nodes":[],"categories_segments":[],"categories_sizes":[],"default_left":[0,0,0,0,0,0,0,0,0,0,0,0,0,0,0,0,0,0,0,0,0,0,0,0,0,0,0,0,0,0,0,0,0,0,0,0,0,0,0,0,0,0,0,0,0,0,0,0,0,0,0,0,0,0,0,0,0,0,0],"id":1,"left_children":[1,3,5,7,9,11,13,-1,15,17,-1,19,21,23,25,-1,-1,27,29,-1,31,33,35,37,-1,-1,39,-1,-1,41,-1,-1,-1,43,45,-1,47,49,-1,-1,-1,-1,51,-1,-1,-1,-1,-1,-1,-1,-1,53,55,57,-1,-1,-1,-1,-1],"loss_changes":[1.0034544E6,3.6643925E5,3.1413453E4,1.64035E4,2.0060469E4,5.623628E4,7.657801E3,0E0,9.832625E3,2.1266047E4,0E0,8.0795125E4,4.767998E3,7.153293E3,4.8966748E2,0E0,0E0,1.3588516E3,2.0951055E3,0E0,1.4948359E3,1.9476562E2,6.307031E2,6.6137695E2,0E0,0E0,6.074829E-1,0E0,0E0,7.264414E2,0E0,0E0,0E0,1.5447695E3,7.8916016E2,0E0,3.1723145E1,1.3268555E2,0E0,0E0,0E0,0E0,4.6173047E2,0E0,0E0,0E0,0E0,0E0,0E0,0E0,0E0,3.3529785E1,1.787207E1,9.62793E0,0E0,0E0,0E0,0E0,0E0],"parents":[2147483647,0,0,1,1,2,2,3,3,4,4,5,5,6,6,8,8,9,9,11,11,12,12,13,13,14,14,17,17,18,18,20,20,21,21,22,22,23,23,26,26,29,29,33,33,34,34,36,36,37,37,42,42,51,51,52,52,53,53],"right_children":[2,4,6,8,10,12,14,-1,16,18,-1,20,22,24,26,-1,-1,28,30,-1,32,34,36,38,-1,-1,40,-1,-1,42,-1,-1,-1,44,46,-1,48,50,-1,-1,-1,-1,52,-1,-1,-1,-1,-1,-1,-1,-1,54,56,58,-1,-1,-1,-1,-1],"split_conditions":[3.33E2,1.4E1,3.35E2,9E0,2.2E1,1.3E1,1.5E1,2.1080088E1,1.3E1,1.6E1,1.3895215E1,3.34E2,1.9E1,9E0,1.8E1,2.7818012E1,1.8323778E1,1.5E1,2.1E1,2.3055288E1,5E0,1.6E1,2.1E1,3.36E2,4.8282743E0,1.5999135E0,2E1,1.4117839E1,9.177333E0,1.8E1,8.260502E0,7.7151384E0,5.2595677E0,3.34E2,3.34E2,6.894445E-1,3.34E2,1E0,1.7994851E0,5.579844E-1,7.1742857E-1,6.2983336E0,2E1,9.03125E0,3.8978393E0,1.0972222E0,4.028213E0,2.5676708E0,1.8696043E0,3.1737545E0,2.4758162E0,6E0,3.28E2,3.32E2,1.3707527E0,5.8571277E0,2.7837503E0,3.693323E0,1.5022222E0],"split_indices":[0,1,0,1,1,1,1,0,1,1,0,0,1,1,1,0,0,1,1,0,1,1,1,0,0,0,1,0,0,1,0,0,0,0,0,0,0,1,0,0,0,0,1,0,0,0,0,0,0,0,0,2,0,0,0,0,0,0,0],"split_type":[0,0,0,0,0,0,0,0,0,0,0,0,0,0,0,0,0,0,0,0,0,0,0,0,0,0,0,0,0,0,0,0,0,0,0,0,0,0,0,0,0,0,0,0,0,0,0,0,0,0,0,0,0,0,0,0,0,0,0],"sum_hessian":[9.04E2,3.27E2,5.77E2,1.93E2,1.34E2,2.16E2,3.61E2,1.23E2,7E1,1.03E2,3.1E1,8E1,1.36E2,2.61E2,1E2,5.6E1,1.4E1,3.1E1,7.2E1,1.4E1,6.6E1,6.8E1,6.8E1,1.94E2,6.7E1,3.3E1,6.7E1,1.7E1,1.4E1,5.8E1,1.4E1,3.3E1,3.3E1,2E1,4.8E1,1.7E1,5.1E1,1.33E2,6.1E1,3.3E1,3.4E1,2.1E1,3.7E1,3E0,1.7E1,5E0,4.3E1,1.7E1,3.4E1,3.3E1,1E2,2.3E1,1.4E1,2.1E1,2E0,1.1E1,3E0,1.9E1,2E0],"tree_param":{"num_deleted":"0","num_feature":"6","num_nodes":"59","size_leaf_vector":"1"}},{"base_weights":[3.4858932E1,7.037517E1,1.464408E1,9.260247E1,3.791241E1,2.2413773E1,9.946104E0,1.6626917E1,1.0401119E2,3.1977816E1,5.6015083E1,3.93075E1,1.2261908E1,1.2227864E1,3.9286082E0,2.1769114E1,1.490334E1,4.9700615E1,2.3770864E1,8.8699665E0,1.3255809E1,1.8751637E1,2.6530369E1,1.7079678E1,7.2664294E0,9.669649E0,3.87682E0,1.2893419E0,2.6117837E0,5.412795E0,1.0776707E1,2.087089E1,6.7185416E0,6.2174945E0,4.238592E0,2.0860643E1,1.5110699E1,5.592161E-1,8.674119E0,1.0727686E1,1.4453926E0,4.496698E-1,5.7804245E-1,5.095925E0,1.7653442E1,7.676563E0,3.1615808E0,9.143519E-1,3.2408803E0,2.0826664E0,1.5063671E0,2.3991857E0,9.3203335E0,1.4021158E1,4.4576397E0,1.530628E0,2.1524873E0,2.8971639E0,1.1879857E0],"categories":[],"categories_nodes":[],"categories_segments":[],"categories_sizes":[],"default_left":[0,0,0,0,0,0,0,0,0,0,0,0,0,0,0,0,0,0,0,0,0,0,0,0,0,0,0,0,0,0,0,0,0,0,0,0,0,0,0,0,0,0,0,0,0,0,0,0,0,0,0,0,0,0,0,0,0,0,0],"id":2,"left_children":[1,3,5,7,9,11,13,-1,15,17,19,21,23,25,27,-1,-1,29,31,-1,-1,-1,33,35,37,39,-1,-1,41,-1,-1,43,-1,-1,-1,45,47,-1,49,51,-1,-1,-1,-1,53,-1,-1,-1,-1,-1,-1,-1,55,57,-1,-1,-1,-1,-1],"loss_changes":[6.487191E5,2.3316075E5,2.0875133E4,1.2308125E4,1.2712078E4,3.6734133E4,4.9223945E3,0E0,3.8665625E3,1.3945398E4,8.919453E2,5.3866164E4,3.173082E3,4.609047E3,3.1806836E2,0E0,0E0,1.5716875E3,1.3781602E3,0E0,0E0,0E0,9.708164E2,1.9845898E2,4.0995386E2,4.2643945E2,0E0,0E0,3.8275146E-1,0E0,0E0,4.2506836E2,0E0,0E0,0E0,1.2524824E3,4.9071582E2,0E0,2.4875732E1,1.27365234E2,0E0,0E0,0E0,0E0,3.2721484E2,0E0,0E0,0E0,0E0,0E0,0E0,0E0,8.1123535E1,4.0756836E0,0E0,0E0,0E0,0E0,0E0],"parents":[2147483647,0,0,1,1,2,2,3,3,4,4,5,5,6,6,8,8,9,9,10,10,11,11,12,12,13,13,14,14,17,17,18,18,22,22,23,23,24,24,25,25,28,28,31,31,35,35,36,36,38,38,39,39,44,44,52,52,53,53],"right_children":[2,4,6,8,10,12,14,-1,16,18,20,22,24,26,28,-1,-1,30,32,-1,-1,-1,34,36,38,40,-1,-1,42,-1,-1,44,-1,-1,-1,46,48,-1,50,52,-1,-1,-1,-1,54,-1,-1,-1,-1,-1,-1,-1,56,58,-1,-1,-1,-1,-1],"split_conditions":[3.33E2,1.4E1,3.35E2,8E0,2.2E1,1.3E1,1.5E1,1.6626917E1,1.3E1,1.6E1,2.3E1,3.34E2,1.9E1,9E0,1.8E1,2.1769114E1,1.490334E1,3.21E2,2.1E1,8.8699665E0,1.3255809E1,1.8751637E1,5E0,1.6E1,2.1E1,3.36E2,3.87682E0,1.2893419E0,2E1,5.412795E0,1.0776707E1,1.8E1,6.7185416E0,6.2174945E0,4.238592E0,3.34E2,3.34E2,5.592161E-1,3.34E2,4E0,1.4453926E0,4.496698E-1,5.7804245E-1,5.095925E0,2E1,7.676563E0,3.1615808E0,9.143519E-1,3.2408803E0,2.0826664E0,1.5063671E0,2.3991857E0,6E0,6E0,4.4576397E0,1.530628E0,2.1524873E0,2.8971639E0,1.1879857E0],"split_indices":[0,1,0,1,1,1,1,0,1,1,1,0,1,1,1,0,0,0,1,0,0,0,1,1,1,0,0,0,1,0,0,1,0,0,0,0,0,0,0,1,0,0,0,0,1,0,0,0,0,0,0,0,1,2,0,0,0,0,0],"split_type":[0,0,0,0,0,0,0,0,0,0,0,0,0,0,0,0,0,0,0,0,0,0,0,0,0,0,0,0,0,0,0,0,0,0,0,0,0,0,0,0,0,0,0,0,0,0,0,0,0,0,0,0,0,0,0,0,0,0,0],"sum_hessian":[9.04E2,3.27E2,5.77E2,1.93E2,1.34E2,2.16E2,3.61E2,1.1E2,8.3E1,1.03E2,3.1E1,8E1,1.36E2,2.61E2,1E2,6.9E1,1.4E1,3.1E1,7.2E1,1.7E1,1.4E1,1.4E1,6.6E1,6.8E1,6.8E1,1.94E2,6.7E1,3.3E1,6.7E1,6E0,2.5E1,5.8E1,1.4E1,3.3E1,3.3E1,2E1,4.8E1,1.7E1,5.1E1,1.33E2,6.1E1,3.3E1,3.4E1,2.1E1,3.7E1,3E0,1.7E1,5E0,4.3E1,1.7E1,3.4E1,6.6E1,6.7E1,2.3E1,1.4E1,3.4E1,3.3E1,2.1E1,2E0],"tree_param":{"num_deleted":"0","num_feature":"6","num_nodes":"59","size_leaf_vector":"1"}},{"base_weights":[2.8079456E1,5.6641506E1,1.1822654E1,7.4356705E1,3.076454E1,1.8153826E1,7.9947886E0,6.745841E1,8.5357155E1,2.5933662E1,4.5503498E1,3.1806585E1,9.949246E0,9.82582E0,3.1658278E0,1.1496188E1,1.4177383E1,9.481839E1,1.3677016E1,9.594333E0,2.1075987E1,3.8750665E0,4.7538296E1,1.5251329E1,2.1380356E1,1.3881038E1,5.8732634E0,7.774323E0,3.1128585E0,1.039058E0,2.1045403E0,9.218538E0,1.94641E1,2.661463E1,1.827895E1,1.0752642E1,6.0669293E0,4.693639E0,2.7718341E0,1.7204618E1,1.217336E1,4.5358634E-1,7.008315E0,8.627539E0,5.8048835E0,3.6238095E-1,4.6573702E-1,2.90637E0,2.8700176E1,1.5003934E1,2.7322067E1,6.525078E0,2.5643935E0,7.6195985E-1,2.6074357E0,1.6892738E0,1.2137015E0,2.0919483E0,1.5850673E0,9.852258E-1,1.3269957E0,7.3204966E0,4.0827556E0,1.5365563E1,9.1563743E-1,3.2609478E1,3.3241634E0,1.0920212E0,3.1398606E0,2.3580883E0,7.374685E0],"categories":[],"categories_nodes":[],"categories_segments":[],"categories_sizes":[],"default_left":[0,0,0,0,0,0,0,0,0,0,0,0,0,0,0,0,0,0,0,0,0,0,0,0,0,0,0,0,0,0,0,0,0,0,0,0,0,0,0,0,0,0,0,0,0,0,0,0,0,0,0,0,0,0,0,0,0,0,0,0,0,0,0,0,0,0,0,0,0,0,0],"id":3,"left_children":[1,3,5,7,9,11,13,15,17,19,21,23,25,27,29,-1,-1,31,-1,-1,33,-1,35,-1,37,39,41,43,-1,-1,45,-1,-1,47,49,-1,-1,-1,-1,51,53,-1,55,57,59,-1,-1,-1,61,63,65,-1,-1,-1,-1,-1,-1,-1,-1,-1,-1,-1,-1,67,-1,69,-1,-1,-1,-1,-1],"loss_changes":[4.195468E5,1.4807275E5,1.3862609E4,8.9635E3,8.432219E3,2.3990836E4,3.1696895E3,1.670625E2,4.9167812E3,1.0122508E4,7.802344E2,3.590879E4,2.1140244E3,2.9633828E3,2.0660437E2,0E0,0E0,7.566875E2,0E0,0E0,8.613008E2,0E0,1.47475E3,0E0,7.2685156E2,1.8217871E2,2.6646997E2,2.775879E2,0E0,0E0,2.409668E-1,0E0,0E0,2.6331445E2,1.3966602E3,0E0,0E0,0E0,0E0,1.0009385E3,3.0433594E2,0E0,1.9020996E1,8.950391E1,1.254126E1,0E0,0E0,0E0,6.934004E2,1.0685449E2,3.0673145E2,0E0,0E0,0E0,0E0,0E0,0E0,0E0,0E0,0E0,0E0,0E0,0E0,6.3043945E1,0E0,3.641875E2,0E0,0E0,0E0,0E0,0E0],"parents":[2147483647,0,0,1,1,2,2,3,3,4,4,5,5,6,6,7,7,8,8,9,9,10,10,11,11,12,12,13,13,14,14,17,17,20,20,22,22,24,24,25,25,26,26,27,27,30,30,33,33,34,34,39,39,40,40,42,42,43,43,44,44,48,48,49,49,50,50,63,63,65,65],"right_children":[2,4,6,8,10,12,14,16,18,20,22,24,26,28,30,-1,-1,32,-1,-1,34,-1,36,-1,38,40,42,44,-1,-1,46,-1,-1,48,50,-1,-1,-1,-1,52,54,-1,56,58,60,-1,-1,-1,62,64,66,-1,-1,-1,-1,-1,-1,-1,-1,-1,-1,-1,-1,68,-1,70,-1,-1,-1,-1,-1],"split_conditions":[3.33E2,1.4E1,3.35E2,9E0,2.2E1,1.3E1,1.5E1,3.23E2,1.2E1,1.5E1,3.19E2,3.34E2,1.9E1,9E0,1.8E1,1.1496188E1,1.4177383E1,3.2E2,1.3677016E1,9.594333E0,1.7E1,3.8750665E0,3.29E2,1.5251329E1,8E0,1.6E1,2.1E1,3.36E2,3.1128585E0,1.039058E0,2E1,9.218538E0,1.94641E1,3.22E2,2.1E1,1.0752642E1,6.0669293E0,4.693639E0,2.7718341E0,3.34E2,3.34E2,4.5358634E-1,3.34E2,1E0,2E0,3.6238095E-1,4.6573702E-1,2.90637E0,3.26E2,3.32E2,3.27E2,6.525078E0,2.5643935E0,7.6195985E-1,2.6074357E0,1.6892738E0,1.2137015E0,2.0919483E0,1.5850673E0,9.852258E-1,1.3269957E0,7.3204966E0,4.0827556E0,3.19E2,9.1563743E-1,3.21E2,3.3241634E0,1.0920212E0,3.1398606E0,2.3580883E0,7.374685E0],"split_indices":[0,1,0,1,1,1,1,0,1,1,0,0,1,1,1,0,0,0,0,0,1,0,0,0,1,1,1,0,0,0,1,0,0,0,1,0,0,0,0,0,0,0,0,1,1,0,0,0,0,0,0,0,0,0,0,0,0,0,0,0,0,0,0,0,0,0,0,0,0,0,0],"split_type":[0,0,0,0,0,0,0,0,0,0,0,0,0,0,0,0,0,0,0,0,0,0,0,0,0,0,0,0,0,0,0,0,0,0,0,0,0,0,0,0,0,0,0,0,0,0,0,0,0,0,0,0,0,0,0,0,0,0,0,0,0,0,0,0,0,0,0,0,0,0,0],"sum_hessian":[9.04E2,3.27E2,5.77E2,1.93E2,1.34E2,2.16E2,3.61E2,1.23E2,7E1,1.03E2,3.1E1,8E1,1.36E2,2.61E2,1E2,3.6E1,8.7E1,4.2E1,2.8E1,1.7E1,8.6E1,3E0,2.8E1,1.4E1,6.6E1,6.8E1,6.8E1,1.94E2,6.7E1,3.3E1,6.7E1,3E0,3.9E1,2.6E1,6E1,1.9E1,9E0,5E1,1.6E1,2E1,4.8E1,1.7E1,5.1E1,1.33E2,6.1E1,3.3E1,3.4E1,5E0,2.1E1,4.6E1,1.4E1,3E0,1.7E1,5E0,4.3E1,1.7E1,3.4E1,3.3E1,1E2,3.3E1,2.8E1,9E0,1.2E1,4.4E1,2E0,8E0,6E0,2E0,4.2E1,2E0,6E0],"tree_param":{"num_deleted":"0","num_feature":"6","num_nodes":"71","size_leaf_vector":"1"}},{"base_weights":[2.2662834E1,4.5712097E1,9.543765E0,5.9836052E1,2.507684E1,1.4700628E1,6.4261327E0,5.417378E1,6.888234E1,2.2423544E1,8.961661E0,2.5725723E1,8.074838E0,7.895397E0,2.551149E0,4.629546E1,1.1374128E1,1.5304351E1,1.1035936E1,3.891035E1,1.9354446E1,1.2404414E1,1.721571E1,1.1285394E1,4.7472563E0,6.250172E0,1.2497211E1,8.373585E-1,1.6958103E0,4.202359E0,9.581676E0,3.6954212E0,8.353039E0,1.5869603E1,2.6699419E1,4.0994506E0,2.6855648E0,1.4196527E1,9.807451E0,3.6790892E-1,5.6624784E0,6.9294715E0,4.6812005E0,2.123946E0,2.7927978E0,2.920364E-1,3.7525094E-1,2.182169E1,1.2112669E1,3.1768978E1,3.3692589E0,5.5463166E0,2.0800083E0,6.3496655E-1,2.0978005E0,1.3701888E0,9.778965E-1,1.5642967E0,5.948673E0,7.939761E-1,1.0707483E0,1.7933444E0,2.3054947E1,1.034356E1,1.5197199E1,3.7256722E0,7.482349E0,9.252927E-1,1.426962E0,2.421975E0,2.5297867E1,7.292712E0,1.1961975E1,3.3904457E0,1.2265625E0,6.002807E0,3.6103828E0,1.9475731E0,1.0681728E0,2.525958E0,7.935524E-1],"categories":[],"categories_nodes":[],"categories_segments":[],"categories_sizes":[],"default_left":[0,0,0,0,0,0,0,0,0,0,0,0,0,0,0,0,0,0,0,0,0,0,0,0,0,0,0,0,0,0,0,0,0,0,0,0,0,0,0,0,0,0,0,0,0,0,0,0,0,0,0,0,0,0,0,0,0,0,0,0,0,0,0,0,0,0,0,0,0,0,0,0,0,0,0,0,0,0,0,0,0],"id":4,"left_children":[1,3,5,7,9,11,13,15,17,19,-1,21,23,25,27,29,-1,-1,-1,31,33,-1,35,37,39,41,43,-1,45,-1,-1,-1,-1,47,49,-1,-1,51,53,-1,55,57,59,-1,-1,-1,-1,61,63,65,-1,-1,-1,-1,-1,-1,-1,-1,67,-1,-1,-1,69,71,73,-1,-1,-1,-1,-1,75,77,79,-1,-1,-1,-1,-1,-1,-1,-1],"loss_changes":[2.7322206E5,9.409556E4,9.198156E3,6.2055625E3,6.0629453E3,1.5644113E4,2.0408584E3,1.71875E0,3.2098438E3,5.369465E3,0E0,2.3951723E4,1.4100488E3,1.9054971E3,1.3420197E2,5.022422E2,0E0,0E0,0E0,2.7830664E2,2.2382812E3,0E0,5.57584E2,1.5764062E2,1.7320654E2,1.7539258E2,3.896875E1,0E0,1.5153503E-1,0E0,0E0,0E0,0E0,1.3680781E3,1.0632422E3,0E0,0E0,7.9068896E2,1.8820215E2,0E0,1.4273804E1,7.070654E1,8.406616E0,0E0,0E0,0E0,0E0,2.213164E2,9.928027E1,7.860703E2,0E0,0E0,0E0,0E0,0E0,0E0,0E0,0E0,7.363696E1,0E0,0E0,0E0,2.828203E2,7.570337E1,1.3465894E2,0E0,0E0,0E0,0E0,0E0,1.0747949E2,1.4807373E1,5.6661377E1,0E0,0E0,0E0,0E0,0E0,0E0,0E0,0E0],"parents":[2147483647,0,0,1,1,2,2,3,3,4,4,5,5,6,6,7,7,8,8,9,9,11,11,12,12,13,13,14,14,15,15,19,19,20,20,22,22,23,23,24,24,25,25,26,26,28,28,33,33,34,34,37,37,38,38,40,40,41,41,42,42,47,47,48,48,49,49,58,58,62,62,63,63,64,64,70,70,71,71,72,72],"right_children":[2,4,6,8,10,12,14,16,18,20,-1,22,24,26,28,30,-1,-1,-1,32,34,-1,36,38,40,42,44,-1,46,-1,-1,-1,-1,48,50,-1,-1,52,54,-1,56,58,60,-1,-1,-1,-1,62,64,66,-1,-1,-1,-1,-1,-1,-1,-1,68,-1,-1,-1,70,72,74,-1,-1,-1,-1,-1,76,78,80,-1,-1,-1,-1,-1,-1,-1,-1],"split_conditions":[3.33E2,1.4E1,3.35E2,9E0,2.3E1,1.3E1,1.5E1,3.23E2,1.2E1,1.5E1,8.961661E0,3.34E2,1.9E1,9E0,1.8E1,1E0,1.1374128E1,1.5304351E1,1.1035936E1,3.2E2,2.1E1,1.2404414E1,5E0,1.6E1,2.1E1,3.36E2,1.2E1,8.373585E-1,2E1,4.202359E0,9.581676E0,3.6954212E0,8.353039E0,1.7E1,3.28E2,4.0994506E0,2.6855648E0,3.34E2,3.34E2,3.6790892E-1,3.34E2,4E0,2E0,2.123946E0,2.7927978E0,2.920364E-1,3.7525094E-1,1E0,2E1,3.22E2,3.3692589E0,5.5463166E0,2.0800083E0,6.3496655E-1,2.0978005E0,1.3701888E0,9.778965E-1,1.5642967E0,6E0,7.939761E-1,1.0707483E0,1.7933444E0,3.22E2,3.24E2,3.28E2,3.7256722E0,7.482349E0,9.252927E-1,1.426962E0,2.421975E0,3.26E2,3.2E2,3.32E2,3.3904457E0,1.2265625E0,6.002807E0,3.6103828E0,1.9475731E0,1.0681728E0,2.525958E0,7.935524E-1],"split_indices":[0,1,0,1,1,1,1,0,1,1,0,0,1,1,1,1,0,0,0,0,1,0,1,1,1,0,1,0,1,0,0,0,0,1,0,0,0,0,0,0,0,1,1,0,0,0,0,2,1,0,0,0,0,0,0,0,0,0,1,0,0,0,0,0,0,0,0,0,0,0,0,0,0,0,0,0,0,0,0,0,0],"split_type":[0,0,0,0,0,0,0,0,0,0,0,0,0,0,0,0,0,0,0,0,0,0,0,0,0,0,0,0,0,0,0,0,0,0,0,0,0,0,0,0,0,0,0,0,0,0,0,0,0,0,0,0,0,0,0,0,0,0,0,0,0,0,0,0,0,0,0,0,0,0,0,0,0,0,0,0,0,0,0,0,0],"sum_hessian":[9.04E2,3.27E2,5.77E2,1.93E2,1.34E2,2.16E2,3.61E2,1.23E2,7E1,1.2E2,1.4E1,8E1,1.36E2,2.61E2,1E2,3.6E1,8.7E1,4.2E1,2.8E1,1.7E1,1.03E2,1.4E1,6.6E1,6.8E1,6.8E1,1.94E2,6.7E1,3.3E1,6.7E1,3E0,3.3E1,3E0,1.4E1,7.2E1,3.1E1,3.3E1,3.3E1,2E1,4.8E1,1.7E1,5.1E1,1.33E2,6.1E1,3.3E1,3.4E1,3.3E1,3.4E1,2.6E1,4.6E1,1.9E1,1.2E1,3E0,1.7E1,5E0,4.3E1,1.7E1,3.4E1,6.6E1,6.7E1,3.3E1,2.8E1,3E0,2.3E1,3.2E1,1.4E1,7E0,1.2E1,3.4E1,3.3E1,5E0,1.8E1,1.3E1,1.9E1,1.1E1,3E0,9E0,9E0,4E0,9E0,1.7E1,2E0],"tree_param":{"num_deleted":"0","num_feature":"6","num_nodes":"81","size_leaf_vector":"1"}},{"base_weights":[1.830301E1,3.6910732E1,7.7119455E0,4.6968773E1,1.8612791E1,1.1909187E1,5.1746154E0,5.4357346E1,4.3672935E1,1.4022142E1,3.0511967E1,2.0817486E1,6.555309E0,6.35715E0,2.0558167E0,9.004077E0,6.3753746E1,4.5774887E1,2.9984903E1,1.7969519E1,1.2045073E1,2.3873423E1,7.288818E0,1.0088924E1,1.38738365E1,9.178446E0,3.837167E0,5.0297856E0,1.0070075E1,6.748125E-1,1.3664613E0,1.3814452E1,7.5861473E0,8.372365E0,1.1177962E1,3.447188E1,3.83499E0,1.5243429E0,1.8945423E1,8.4668255E0,1.5701523E1,5.2070518E0,1.9596382E0,3.063763E0,1.7445593E0,1.172038E1,7.901731E0,2.9841504E-1,4.575138E0,1.3822067E0,4.6039076E0,1.7116507E0,2.2501972E0,2.3534696E-1,3.02345E-1,3.1411083E0,7.5709343E0,2.0183127E0,2.0744251E1,2.2611492E0,6.931158E0,1.8984272E1,1.0200888E1,4.7143683E0,1.6871178E0,5.291388E-1,1.6877756E0,1.1113753E0,7.8790516E-1,6.398513E-1,4.9384365E0,5.0514293E0,3.0332084E0,8.747902E-1,8.173885E0,2.4075491E0,4.5286136E0,2.2351997E0,1.0425781E0,4.5996304E0,1.1499635E0,1.7275708E0,6.8774545E-1,1.0930629E0,8.118852E-1],"categories":[],"categories_nodes":[],"categories_segments":[],"categories_sizes":[],"default_left":[0,0,0,0,0,0,0,0,0,0,0,0,0,0,0,0,0,0,0,0,0,0,0,0,0,0,0,0,0,0,0,0,0,0,0,0,0,0,0,0,0,0,0,0,0,0,0,0,0,0,0,0,0,0,0,0,0,0,0,0,0,0,0,0,0,0,0,0,0,0,0,0,0,0,0,0,0,0,0,0,0,0,0,0,0],"id":5,"left_children":[1,3,5,7,9,11,13,15,17,19,21,23,25,27,29,-1,31,33,35,37,39,41,-1,-1,43,45,47,49,51,-1,53,-1,-1,-1,-1,55,-1,-1,57,59,61,-1,-1,-1,-1,63,65,-1,67,-1,69,-1,-1,-1,-1,-1,-1,-1,71,-1,73,75,77,-1,-1,-1,-1,-1,-1,-1,79,-1,-1,-1,81,-1,-1,-1,-1,83,-1,-1,-1,-1,-1],"loss_changes":[1.7806875E5,5.9491344E4,6.093953E3,2.7642812E3,6.0178945E3,1.0213123E4,1.3220176E3,2.4815469E3,2.9719375E3,4.625254E2,3.9013477E2,1.5963496E4,9.415991E2,1.2405918E3,8.717227E1,0E0,1.2255625E3,2.7662188E3,4.5459375E2,1.2826172E2,6.651631E2,2.9261133E2,0E0,0E0,3.650664E2,1.3131592E2,1.1258563E2,1.244126E2,2.5113281E1,0E0,9.5214844E-2,0E0,0E0,0E0,0E0,3.5771094E2,0E0,0E0,1.7289551E2,6.550586E1,3.3000244E2,0E0,0E0,0E0,0E0,6.1867896E2,1.1601343E2,0E0,1.0556763E1,0E0,6.0323975E1,0E0,0E0,0E0,0E0,0E0,0E0,0E0,9.525244E1,0E0,4.05177E1,1.5949951E2,4.970825E0,0E0,0E0,0E0,0E0,0E0,0E0,0E0,9.015137E0,0E0,0E0,0E0,3.2513428E0,0E0,0E0,0E0,0E0,2.2708008E1,0E0,0E0,0E0,0E0,0E0],"parents":[2147483647,0,0,1,1,2,2,3,3,4,4,5,5,6,6,7,7,8,8,9,9,10,10,11,11,12,12,13,13,14,14,16,16,17,17,18,18,19,19,20,20,21,21,24,24,25,25,26,26,27,27,28,28,30,30,35,35,38,38,39,39,40,40,45,45,46,46,48,48,50,50,58,58,60,60,61,61,62,62,70,70,74,74,79,79],"right_children":[2,4,6,8,10,12,14,16,18,20,22,24,26,28,30,-1,32,34,36,38,40,42,-1,-1,44,46,48,50,52,-1,54,-1,-1,-1,-1,56,-1,-1,58,60,62,-1,-1,-1,-1,64,66,-1,68,-1,70,-1,-1,-1,-1,-1,-1,-1,72,-1,74,76,78,-1,-1,-1,-1,-1,-1,-1,80,-1,-1,-1,82,-1,-1,-1,-1,84,-1,-1,-1,-1,-1],"split_conditions":[3.33E2,1.5E1,3.35E2,2E0,2.2E1,1.3E1,1.5E1,8E0,1.3E1,1.7E1,2.3E1,3.34E2,1.9E1,9E0,1.8E1,9.004077E0,1.4E1,1E1,3.27E2,1E0,2E1,5E0,7.288818E0,1.0088924E1,8E0,1.6E1,2.1E1,1E0,1.2E1,6.748125E-1,2E1,1.3814452E1,7.5861473E0,8.372365E0,1.1177962E1,3.2E2,3.83499E0,1.5243429E0,3.22E2,1.8E1,3.27E2,5.2070518E0,1.9596382E0,3.063763E0,1.7445593E0,3.34E2,3.34E2,2.9841504E-1,3.34E2,1.3822067E0,2E0,1.7116507E0,2.2501972E0,2.3534696E-1,3.02345E-1,3.1411083E0,7.5709343E0,2.0183127E0,1.6E1,2.2611492E0,3.24E2,3.23E2,5E0,4.7143683E0,1.6871178E0,5.291388E-1,1.6877756E0,1.1113753E0,7.8790516E-1,6.398513E-1,6E0,5.0514293E0,3.0332084E0,8.747902E-1,3.32E2,2.4075491E0,4.5286136E0,2.2351997E0,1.0425781E0,4E0,1.1499635E0,1.7275708E0,6.8774545E-1,1.0930629E0,8.118852E-1],"split_indices":[0,1,0,2,1,1,1,1,1,1,1,0,1,1,1,0,1,1,0,2,1,2,0,0,1,1,1,1,1,0,1,0,0,0,0,0,0,0,0,1,0,0,0,0,0,0,0,0,0,0,1,0,0,0,0,0,0,0,1,0,0,0,2,0,0,0,0,0,0,0,1,0,0,0,0,0,0,0,0,1,0,0,0,0,0],"split_type":[0,0,0,0,0,0,0,0,0,0,0,0,0,0,0,0,0,0,0,0,0,0,0,0,0,0,0,0,0,0,0,0,0,0,0,0,0,0,0,0,0,0,0,0,0,0,0,0,0,0,0,0,0,0,0,0,0,0,0,0,0,0,0,0,0,0,0,0,0,0,0,0,0,0,0,0,0,0,0,0,0,0,0,0,0],"sum_hessian":[9.04E2,3.27E2,5.77E2,2.1E2,1.17E2,2.16E2,3.61E2,6E1,1.5E2,8.6E1,3.1E1,8E1,1.36E2,2.61E2,1E2,3.3E1,2.7E1,1.28E2,2.2E1,2.6E1,6E1,1.7E1,1.4E1,1.4E1,6.6E1,6.8E1,6.8E1,1.94E2,6.7E1,3.3E1,6.7E1,2.1E1,6E0,9.6E1,3.2E1,1.4E1,8E0,3E0,2.3E1,3.2E1,2.8E1,1.4E1,3E0,5E1,1.6E1,2E1,4.8E1,1.7E1,5.1E1,3.3E1,1.61E2,3.3E1,3.4E1,3.3E1,3.4E1,3E0,1.1E1,5E0,1.8E1,9E0,2.3E1,1.6E1,1.2E1,3E0,1.7E1,5E0,4.3E1,1.7E1,3.4E1,3.3E1,1.28E2,8E0,1E1,9E0,1.4E1,7E0,9E0,9E0,3E0,9.5E1,3.3E1,1.2E1,2E0,3.3E1,6.2E1],"tree_param":{"num_deleted":"0","num_feature":"6","num_nodes":"85","size_leaf_vector":"1"}},{"base_weights":[1.4799663E1,2.9852823E1,6.231779E0,3.7880714E1,1.5244877E1,9.645845E0,4.1680107E0,3.5002968E1,4.4085533E1,1.1532571E1,2.486131E1,1.6837906E1,5.323197E0,5.120219E0,1.6566584E0,3.112153E1,3.905215E1,4.712669E1,2.8763636E1,1.4806255E1,9.894504E0,2.7708036E1,1.5827705E1,4.1028297E1,1.11708355E1,7.467662E0,3.1015847E0,4.0498643E0,8.114323E0,5.4381955E-1,1.1010761E0,3.9703643E0,6.416925E0,4.4763325E1,3.0607374E1,8.317885E0,1.2022672E1,2.9159873E0,7.767649E0,2.3786948E0,1.9310322E1,6.9416804E0,1.2913424E1,2.1163246E1,7.928848E0,1.6656927E0,3.570377E0,5.8683143E0,1.0733624E1,2.7089443E0,1.6936791E0,9.681136E0,6.3666286E0,2.4204777E-1,3.6966355E0,1.1138959E0,3.7059333E0,1.3793889E0,1.8130162E0,1.8966195E-1,2.4360369E-1,4.28425E0,9.222693E0,6.60469E0,3.906646E0,4.534741E0,1.0051316E0,1.8541425E0,5.682014E0,1.5595427E1,1.6825695E0,1.9538981E0,4.581389E0,4.0072136E0,1.3684399E0,4.4094902E-1,1.3578924E0,9.01449E-1,6.348265E-1,5.1564485E-1,3.9744308E0,7.17328E-1,1.3400258E0,1.9862279E0,3.7134628E0,3.6995478E0,9.2673534E-1,8.8088006E-1,6.5208566E-1],"categories":[],"categories_nodes":[],"categories_segments":[],"categories_sizes":[],"default_left":[0,0,0,0,0,0,0,0,0,0,0,0,0,0,0,0,0,0,0,0,0,0,0,0,0,0,0,0,0,0,0,0,0,0,0,0,0,0,0,0,0,0,0,0,0,0,0,0,0,0,0,0,0,0,0,0,0,0,0,0,0,0,0,0,0,0,0,0,0,0,0,0,0,0,0,0,0,0,0,0,0,0,0,0,0,0,0,0,0],"id":6,"left_children":[1,3,5,7,9,11,13,15,17,19,21,23,25,27,29,31,33,35,37,39,41,43,45,47,49,51,53,55,57,-1,59,-1,-1,61,63,-1,-1,-1,-1,-1,65,67,69,71,-1,-1,-1,-1,-1,-1,-1,73,75,-1,77,-1,79,-1,-1,-1,-1,-1,-1,-1,-1,-1,-1,-1,81,83,-1,-1,-1,-1,-1,-1,-1,-1,-1,-1,85,-1,-1,-1,-1,87,-1,-1,-1],"loss_changes":[1.1653522E5,3.7887406E4,4.032293E3,2.2244375E3,3.9257832E3,6.656625E3,8.571792E2,1.1264219E3,1.5800469E3,3.200381E2,3.8436328E2,1.0645859E4,6.295293E2,8.067832E2,5.6623566E1,2.4221875E2,1.95775E3,1.1673516E3,1.2913779E3,1.2455615E2,4.5413428E2,9.577578E2,3.1191406E0,6.410664E2,3.1512207E2,1.0652466E2,7.318201E1,8.127515E1,1.618457E1,0E0,5.974579E-2,0E0,0E0,2.4128125E2,1.8438281E2,0E0,0E0,0E0,0E0,0E0,3.1845264E2,4.413916E1,2.1884424E2,1.1395459E2,0E0,0E0,0E0,0E0,0E0,0E0,0E0,4.8024622E2,7.1260254E1,0E0,7.7177734E0,0E0,3.8804688E1,0E0,0E0,0E0,0E0,0E0,0E0,0E0,0E0,0E0,0E0,0E0,2.7169006E1,1.01776855E2,0E0,0E0,0E0,0E0,0E0,0E0,0E0,0E0,0E0,0E0,6.234375E0,0E0,0E0,0E0,0E0,1.5353027E1,0E0,0E0,0E0],"parents":[2147483647,0,0,1,1,2,2,3,3,4,4,5,5,6,6,7,7,8,8,9,9,10,10,11,11,12,12,13,13,14,14,15,15,16,16,17,17,18,18,19,19,20,20,21,21,22,22,23,23,24,24,25,25,26,26,27,27,28,28,30,30,33,33,34,34,40,40,41,41,42,42,43,43,51,51,52,52,54,54,56,56,68,68,69,69,80,80,85,85],"right_children":[2,4,6,8,10,12,14,16,18,20,22,24,26,28,30,32,34,36,38,40,42,44,46,48,50,52,54,56,58,-1,60,-1,-1,62,64,-1,-1,-1,-1,-1,66,68,70,72,-1,-1,-1,-1,-1,-1,-1,74,76,-1,78,-1,80,-1,-1,-1,-1,-1,-1,-1,-1,-1,-1,-1,82,84,-1,-1,-1,-1,-1,-1,-1,-1,-1,-1,86,-1,-1,-1,-1,88,-1,-1,-1],"split_conditions":[3.33E2,1.5E1,3.35E2,3.29E2,2.2E1,1.3E1,1.5E1,8E0,1.3E1,1.7E1,3.29E2,3.34E2,1.9E1,9E0,1.8E1,1E0,1.2E1,1E1,3.31E2,5E0,2E1,3.26E2,3.3E2,7E0,5E0,1.6E1,2.1E1,1E0,1.2E1,5.4381955E-1,2E1,3.9703643E0,6.416925E0,3.2E2,3.26E2,8.317885E0,1.2022672E1,2.9159873E0,7.767649E0,2.3786948E0,3.24E2,1.8E1,3.27E2,3.19E2,7.928848E0,1.6656927E0,3.570377E0,5.8683143E0,1.0733624E1,2.7089443E0,1.6936791E0,3.34E2,3.34E2,2.4204777E-1,3.34E2,1.1138959E0,2E0,1.3793889E0,1.8130162E0,1.8966195E-1,2.4360369E-1,4.28425E0,9.222693E0,6.60469E0,3.906646E0,4.534741E0,1.0051316E0,1.8541425E0,3.24E2,3.23E2,1.6825695E0,1.9538981E0,4.581389E0,4.0072136E0,1.3684399E0,4.4094902E-1,1.3578924E0,9.01449E-1,6.348265E-1,5.1564485E-1,6E0,7.17328E-1,1.3400258E0,1.9862279E0,3.7134628E0,4E0,9.2673534E-1,8.8088006E-1,6.5208566E-1],"split_indices":[0,1,0,0,1,1,1,1,1,1,0,0,1,1,1,1,1,1,0,2,1,0,0,1,1,1,1,1,1,0,1,0,0,0,0,0,0,0,0,0,0,1,0,0,0,0,0,0,0,0,0,0,0,0,0,0,1,0,0,0,0,0,0,0,0,0,0,0,0,0,0,0,0,0,0,0,0,0,0,0,1,0,0,0,0,1,0,0,0],"split_type":[0,0,0,0,0,0,0,0,0,0,0,0,0,0,0,0,0,0,0,0,0,0,0,0,0,0,0,0,0,0,0,0,0,0,0,0,0,0,0,0,0,0,0,0,0,0,0,0,0,0,0,0,0,0,0,0,0,0,0,0,0,0,0,0,0,0,0,0,0,0,0,0,0,0,0,0,0,0,0,0,0,0,0,0,0,0,0,0,0],"sum_hessian":[9.04E2,3.27E2,5.77E2,2.1E2,1.17E2,2.16E2,3.61E2,1.48E2,6.2E1,8.6E1,3.1E1,8E1,1.36E2,2.61E2,1E2,8E1,6.8E1,5E1,1.2E1,2.6E1,6E1,2.2E1,9E0,1.4E1,6.6E1,6.8E1,6.8E1,1.94E2,6.7E1,3.3E1,6.7E1,8E0,7.2E1,3.8E1,3E1,3.8E1,1.2E1,6E0,6E0,1.8E1,8E0,3.2E1,2.8E1,1.6E1,6E0,3E0,6E0,9E0,5E0,3.3E1,3.3E1,2E1,4.8E1,1.7E1,5.1E1,3.3E1,1.61E2,3.3E1,3.4E1,3.3E1,3.4E1,3E0,3.5E1,2.3E1,7E0,6E0,2E0,9E0,2.3E1,1.6E1,1.2E1,3E0,1.3E1,3E0,1.7E1,5E0,4.3E1,1.7E1,3.4E1,3.3E1,1.28E2,9E0,1.4E1,7E0,9E0,9.5E1,3.3E1,3.3E1,6.2E1],"tree_param":{"num_deleted":"0","num_feature":"6","num_nodes":"89","size_leaf_vector":"1"}},{"base_weights":[1.1997253E1,2.4200377E1,5.051541E0,3.0614666E1,1.2525668E1,1.1781808E1,4.306949E0,2.4781342E1,3.2875637E1,9.446887E0,2.0504677E1,3.2059116E1,2.3624747E0,6.415608E0,3.3572228E0,1.7205944E0,5.0893755E0,3.427349E1,2.372769E1,1.3685765E1,8.446476E0,1.5704478E1,2.489794E1,3.2600143E0,3.4124252E1,1.2475309E0,7.311753E-1,9.997718E0,4.711975E0,4.123968E0,1.3350008E0,6.0215163E0,9.240632E0,1.885147E1,6.436053E0,1.6947235E0,4.018344E0,7.2877727E0,1.2440942E1,1.8125278E1,1.8622074E0,3.5609052E0,6.092239E0,7.3956866E0,3.4061317E0,3.674575E-1,1.9632761E-1,2.18309E0,1.541759E0,1.1260227E0,5.1148874E-1,3.2608619E0,6.538405E0,4.3825457E-1,8.872324E-1,4.53088E0,2.5907872E0,9.021229E0,6.0924096E0,1.4881728E1,1.505102E0,1.9561213E0,4.537706E0,8.9766914E-1,2.983113E0,1.1116252E0,1.4607729E0,1.528452E-1,1.9627498E-1,5.422033E0,2.00641E0,4.631335E0,8.023969E0,9.6108294E-1,3.4148374E0,4.1554904E-1,3.1986122E0,1.4331243E0,1.417417E-1,3.4129453E0,5.9957857E0,1.7947235E0,6.3380605E-1,2.9756067E0,7.468397E-1,7.284718E-1,2.562341E-1,1.3424305E0,4.1737595E-1,6.611838E-1,4.6109304E-1],"categories":[],"categories_nodes":[],"categories_segments":[],"categories_sizes":[],"default_left":[0,0,0,0,0,0,0,0,0,0,0,0,0,0,0,0,0,0,0,0,0,0,0,0,0,0,0,0,0,0,0,0,0,0,0,0,0,0,0,0,0,0,0,0,0,0,0,0,0,0,0,0,0,0,0,0,0,0,0,0,0,0,0,0,0,0,0,0,0,0,0,0,0,0,0,0,0,0,0,0,0,0,0,0,0,0,0,0,0,0,0],"id":7,"left_children":[1,3,5,7,9,11,13,15,17,19,21,23,25,27,29,-1,-1,31,33,35,37,39,41,-1,43,45,-1,47,49,51,53,-1,-1,55,-1,-1,-1,57,59,61,-1,-1,-1,-1,-1,-1,-1,-1,-1,-1,-1,63,65,-1,67,-1,-1,69,71,73,-1,-1,-1,-1,75,-1,-1,-1,-1,77,-1,79,81,-1,-1,-1,83,-1,-1,85,87,-1,-1,89,-1,-1,-1,-1,-1,-1,-1],"loss_changes":[7.6584984E4,2.4178797E4,2.845789E3,1.9681719E3,2.705037E3,1.0811188E4,1.0238447E3,4.5942188E2,1.0921094E3,2.5333789E2,2.8382324E2,2.9576172E1,5.312201E1,9.354087E2,5.557859E2,0E0,0E0,4.920578E3,3.4133496E2,3.3058203E2,2.4720654E2,1.09825195E2,4.959082E1,0E0,1.0205469E2,1.8031273E0,0E0,2.2986816E1,2.0517676E2,5.2466504E2,3.6780396E1,0E0,0E0,8.781055E1,0E0,0E0,0E0,6.729321E1,6.7970215E1,2.3503809E2,0E0,0E0,0E0,0E0,0E0,0E0,0E0,0E0,0E0,0E0,0E0,5.309253E1,1.0428955E1,0E0,3.7452698E-2,0E0,0E0,2.564502E1,7.00802E1,1.1677869E2,0E0,0E0,0E0,0E0,2.4961304E1,0E0,0E0,0E0,0E0,5.2448364E1,0E0,1.943512E1,4.0719727E1,0E0,0E0,0E0,4.2960205E0,0E0,0E0,2.6693878E0,1.3994629E1,0E0,0E0,1.3628479E1,0E0,0E0,0E0,0E0,0E0,0E0,0E0],"parents":[2147483647,0,0,1,1,2,2,3,3,4,4,5,5,6,6,7,7,8,8,9,9,10,10,11,11,12,12,13,13,14,14,17,17,18,18,19,19,20,20,21,21,22,22,24,24,25,25,27,27,28,28,29,29,30,30,33,33,37,37,38,38,39,39,51,51,52,52,54,54,57,57,58,58,59,59,64,64,69,69,71,71,72,72,76,76,79,79,80,80,83,83],"right_children":[2,4,6,8,10,12,14,16,18,20,22,24,26,28,30,-1,-1,32,34,36,38,40,42,-1,44,46,-1,48,50,52,54,-1,-1,56,-1,-1,-1,58,60,62,-1,-1,-1,-1,-1,-1,-1,-1,-1,-1,-1,64,66,-1,68,-1,-1,70,72,74,-1,-1,-1,-1,76,-1,-1,-1,-1,78,-1,80,82,-1,-1,-1,84,-1,-1,86,88,-1,-1,90,-1,-1,-1,-1,-1,-1,-1],"split_conditions":[3.33E2,1.5E1,3.34E2,3.23E2,2.2E1,1.6E1,3.35E2,1E0,1.3E1,1.6E1,2.3E1,2E0,2.1E1,8E0,1.5E1,1.7205944E0,5.0893755E0,1E1,3.31E2,4E0,2.1E1,3.28E2,3.26E2,3.2600143E0,1.3E1,1.8E1,7.311753E-1,5E0,1.9E1,9E0,1.8E1,6.0215163E0,9.240632E0,3.27E2,6.436053E0,1.6947235E0,4.018344E0,1.8E1,3.27E2,3.22E2,1.8622074E0,3.5609052E0,6.092239E0,7.3956866E0,3.4061317E0,3.674575E-1,1.9632761E-1,2.18309E0,1.541759E0,1.1260227E0,5.1148874E-1,1E0,1.2E1,4.3825457E-1,2E1,4.53088E0,2.5907872E0,3.23E2,2E1,3.21E2,1.505102E0,1.9561213E0,4.537706E0,8.9766914E-1,2E0,1.1116252E0,1.4607729E0,1.528452E-1,1.9627498E-1,3.22E2,2.00641E0,3.26E2,3.28E2,9.6108294E-1,3.4148374E0,4.1554904E-1,6E0,1.4331243E0,1.417417E-1,5E0,3.32E2,1.7947235E0,6.3380605E-1,5E0,7.468397E-1,7.284718E-1,2.562341E-1,1.3424305E0,4.1737595E-1,6.611838E-1,4.6109304E-1],"split_indices":[0,1,0,0,1,1,0,1,1,1,1,1,1,1,1,0,0,1,0,2,1,0,0,0,1,1,0,1,1,1,1,0,0,0,0,0,0,1,0,0,0,0,0,0,0,0,0,0,0,0,0,1,1,0,1,0,0,0,1,0,0,0,0,0,1,0,0,0,0,0,0,0,0,0,0,0,1,0,0,2,0,0,0,1,0,0,0,0,0,0,0],"split_type":[0,0,0,0,0,0,0,0,0,0,0,0,0,0,0,0,0,0,0,0,0,0,0,0,0,0,0,0,0,0,0,0,0,0,0,0,0,0,0,0,0,0,0,0,0,0,0,0,0,0,0,0,0,0,0,0,0,0,0,0,0,0,0,0,0,0,0,0,0,0,0,0,0,0,0,0,0,0,0,0,0,0,0,0,0,0,0,0,0,0,0],"sum_hessian":[9.04E2,3.27E2,5.77E2,2.1E2,1.17E2,5.6E1,5.21E2,6.2E1,1.48E2,8.6E1,3.1E1,1.7E1,3.9E1,1.6E2,3.61E2,3E0,5.9E1,1.26E2,2.2E1,1.4E1,7.2E1,1.7E1,1.4E1,3E0,1.4E1,2.2E1,1.7E1,5E1,1.1E2,2.61E2,1E2,9.6E1,3E1,1.6E1,6E0,9E0,5E0,5.8E1,1.4E1,1.1E1,6E0,8E0,6E0,1.1E1,3E0,5E0,1.7E1,3.3E1,1.7E1,7.6E1,3.4E1,1.94E2,6.7E1,3.3E1,6.7E1,8E0,8E0,2.1E1,3.7E1,8E0,6E0,5E0,6E0,3.3E1,1.61E2,3.3E1,3.4E1,3.3E1,3.4E1,6E0,1.5E1,2.3E1,1.4E1,2E0,6E0,3.3E1,1.28E2,4E0,2E0,1.4E1,9E0,1.1E1,3E0,9.5E1,3.3E1,1.2E1,2E0,7E0,2E0,6.1E1,3.4E1],"tree_param":{"num_deleted":"0","num_feature":"6","num_nodes":"91","size_leaf_vector":"1"}},{"base_weights":[9.70968E0,1.9585873E1,4.0883975E0,2.5276049E1,1.12638E1,9.694864E0,3.468365E0,2.2303762E1,3.011108E1,1.0018054E1,2.0561893E1,2.6428507E1,1.9223536E0,5.165793E0,2.7038505E0,2.017423E1,2.6948895E1,8.295698E0,2.6050043E1,1.468045E1,8.2490015E0,2.9278553E0,2.5239275E1,3.728934E0,3.2140713E1,1.0225371E0,5.9306437E-1,8.07121E0,3.7843325E0,3.3211389E0,1.0757965E0,2.4807577E0,2.0788548E1,1.6799522E1,2.8418785E1,3.007821E1,1.9593733E1,1.0953153E0,1.6593784E1,5.9785967E0,1.2177278E1,6.413559E0,2.4201875E0,7.712073E0,2.895212E0,3.0621466E-1,1.5924351E-1,1.7593138E0,1.2505378E0,9.037429E-1,4.1211373E-1,2.6250093E0,5.268553E0,3.5318166E-1,7.1492016E-1,5.4172263E0,1.9625153E1,4.1372943E0,1.7425385E0,6.238655E0,3.9500954E0,2.8782055E0,6.2409563E0,1.578606E1,5.3171573E0,9.612285E0,1.8207619E1,7.3797684E0,5.010061E0,1.4601044E1,1.5023385E0,7.234158E-1,2.4005935E0,8.9583904E-1,1.1769655E0,1.2317528E-1,1.5814155E-1,4.409492E0,1.4189322E1,3.7101047E0,1.758366E0,2.6796212E0,6.846785E-1,3.8755307E0,1.7366139E0,4.5626073E0,1.6302083E0,3.8194227E0,6.5810776E0,1.7620411E0,3.9021726E0,3.3488357E-1,2.5733793E0,4.712374E0,1.8371864E1,1.2038244E0,1.2284292E-1,2.7960033E0,4.9726095E0,1.4656911E0,5.387351E-1,2.392176E0,6.01865E-1,5.182902E-2,1.189541E0,2.1461408E0,4.3128505E0,3.46019E-1,6.6287524E-1,1.2982905E0,5.7562774E-1,5.8153826E-1,4.1519806E-1],"categories":[],"categories_nodes":[],"categories_segments":[],"categories_sizes":[],"default_left":[0,0,0,0,0,0,0,0,0,0,0,0,0,0,0,0,0,0,0,0,0,0,0,0,0,0,0,0,0,0,0,0,0,0,0,0,0,0,0,0,0,0,0,0,0,0,0,0,0,0,0,0,0,0,0,0,0,0,0,0,0,0,0,0,0,0,0,0,0,0,0,0,0,0,0,0,0,0,0,0,0,0,0,0,0,0,0,0,0,0,0,0,0,0,0,0,0,0,0,0,0,0,0,0,0,0,0,0,0,0,0,0,0],"id":8,"left_children":[1,3,5,7,9,11,13,15,17,19,21,23,25,27,29,31,33,-1,35,37,39,-1,41,-1,43,45,-1,47,49,51,53,-1,55,57,59,61,63,-1,65,67,69,-1,-1,-1,-1,-1,-1,-1,-1,-1,-1,71,73,-1,75,-1,77,-1,-1,-1,-1,-1,-1,79,-1,81,83,85,87,89,-1,-1,91,-1,-1,-1,-1,-1,93,-1,-1,-1,-1,-1,-1,95,-1,97,99,-1,-1,-1,101,103,105,-1,-1,107,109,-1,-1,111,-1,-1,-1,-1,-1,-1,-1,-1,-1,-1,-1],"loss_changes":[5.0162695E4,1.5247422E4,1.9756133E3,2.1163984E3,1.3577246E3,7.362752E3,6.634365E2,6.829297E2,2.197086E3,8.769121E2,4.6050293E1,2.010791E2,3.450705E1,6.1566455E2,3.602295E2,1.6698828E2,5.964453E1,0E0,8.410469E2,4.7264502E2,7.298867E2,0E0,2.3995752E2,0E0,4.6240625E2,1.4280434E0,0E0,1.2270996E1,1.3120398E2,3.4135107E2,2.3891052E1,0E0,6.1882812E1,3.9796875E1,1.0541992E2,1.16458984E2,2.1927832E2,0E0,1.17924805E2,4.309497E1,2.5218652E2,0E0,0E0,0E0,0E0,0E0,0E0,0E0,0E0,0E0,0E0,3.4730957E1,6.720093E0,0E0,2.3452759E-2,0E0,6.352031E2,0E0,0E0,0E0,0E0,0E0,0E0,1.849419E2,0E0,1.1814331E2,5.4624023E1,1.0611572E1,4.5943604E1,3.9674463E2,0E0,0E0,1.6017761E1,0E0,0E0,0E0,0E0,0E0,9.0436865E2,0E0,0E0,0E0,0E0,0E0,0E0,3.6559204E1,0E0,1.4421234E1,2.3839905E1,0E0,0E0,0E0,2.991455E0,4.7969574E1,1.8329053E2,0E0,0E0,2.5538864E0,1.3128418E1,0E0,0E0,9.611511E0,0E0,0E0,0E0,0E0,0E0,0E0,0E0,0E0,0E0,0E0,0E0],"parents":[2147483647,0,0,1,1,2,2,3,3,4,4,5,5,6,6,7,7,8,8,9,9,10,10,11,11,12,12,13,13,14,14,15,15,16,16,18,18,19,19,20,20,22,22,24,24,25,25,27,27,28,28,29,29,30,30,32,32,33,33,34,34,35,35,36,36,38,38,39,39,40,40,51,51,52,52,54,54,56,56,63,63,65,65,66,66,67,67,68,68,69,69,72,72,78,78,85,85,87,87,88,88,92,92,93,93,94,94,97,97,98,98,101,101],"right_children":[2,4,6,8,10,12,14,16,18,20,22,24,26,28,30,32,34,-1,36,38,40,-1,42,-1,44,46,-1,48,50,52,54,-1,56,58,60,62,64,-1,66,68,70,-1,-1,-1,-1,-1,-1,-1,-1,-1,-1,72,74,-1,76,-1,78,-1,-1,-1,-1,-1,-1,80,-1,82,84,86,88,90,-1,-1,92,-1,-1,-1,-1,-1,94,-1,-1,-1,-1,-1,-1,96,-1,98,100,-1,-1,-1,102,104,106,-1,-1,108,110,-1,-1,112,-1,-1,-1,-1,-1,-1,-1,-1,-1,-1,-1],"split_conditions":[3.33E2,1.4E1,3.34E2,9E0,2.3E1,1.6E1,3.35E2,3.29E2,2E0,1.6E1,3.26E2,7E0,2.1E1,8E0,1.5E1,1E0,1E0,8.295698E0,1.2E1,3.21E2,2.1E1,2.9278553E0,3.29E2,3.728934E0,1.3E1,1.8E1,5.9306437E-1,5E0,1.9E1,9E0,1.8E1,2.4807577E0,1E0,3.31E2,6E0,3.2E2,6E0,1.0953153E0,1E0,1.8E1,3.28E2,6.413559E0,2.4201875E0,7.712073E0,2.895212E0,3.0621466E-1,1.5924351E-1,1.7593138E0,1.2505378E0,9.037429E-1,4.1211373E-1,1E0,1.2E1,3.5318166E-1,2E1,5.4172263E0,6E0,4.1372943E0,1.7425385E0,6.238655E0,3.9500954E0,2.8782055E0,6.2409563E0,3.27E2,5.3171573E0,3.25E2,6E0,3.23E2,2E1,3.24E2,1.5023385E0,7.234158E-1,2E0,8.9583904E-1,1.1769655E0,1.2317528E-1,1.5814155E-1,4.409492E0,3E0,3.7101047E0,1.758366E0,2.6796212E0,6.846785E-1,3.8755307E0,1.7366139E0,3.22E2,1.6302083E0,3.26E2,3.28E2,1.7620411E0,3.9021726E0,3.3488357E-1,6E0,3.2E2,7E0,1.2038244E0,1.2284292E-1,1.9E1,3.29E2,1.4656911E0,5.387351E-1,4E0,6.01865E-1,5.182902E-2,1.189541E0,2.1461408E0,4.3128505E0,3.46019E-1,6.6287524E-1,1.2982905E0,5.7562774E-1,5.8153826E-1,4.1519806E-1],"split_indices":[0,1,0,1,1,1,0,0,2,1,0,1,1,1,1,1,1,0,1,0,1,0,0,0,1,1,0,1,1,1,1,0,2,0,1,0,2,0,2,1,0,0,0,0,0,0,0,0,0,0,0,1,1,0,1,0,1,0,0,0,0,0,0,0,0,0,2,0,1,0,0,0,1,0,0,0,0,0,2,0,0,0,0,0,0,0,0,0,0,0,0,0,1,0,1,0,0,1,0,0,0,1,0,0,0,0,0,0,0,0,0,0,0],"split_type":[0,0,0,0,0,0,0,0,0,0,0,0,0,0,0,0,0,0,0,0,0,0,0,0,0,0,0,0,0,0,0,0,0,0,0,0,0,0,0,0,0,0,0,0,0,0,0,0,0,0,0,0,0,0,0,0,0,0,0,0,0,0,0,0,0,0,0,0,0,0,0,0,0,0,0,0,0,0,0,0,0,0,0,0,0,0,0,0,0,0,0,0,0,0,0,0,0,0,0,0,0,0,0,0,0,0,0,0,0,0,0,0,0],"sum_hessian":[9.04E2,3.27E2,5.77E2,1.93E2,1.34E2,5.6E1,5.21E2,1.23E2,7E1,1.2E2,1.4E1,1.7E1,3.9E1,1.6E2,3.61E2,8.8E1,3.5E1,1.6E1,5.4E1,3.1E1,8.9E1,8E0,6E0,9E0,8E0,2.2E1,1.7E1,5E1,1.1E2,2.61E2,1E2,8E0,8E1,6E0,2.9E1,3.1E1,2.3E1,6E0,2.5E1,5.8E1,3.1E1,3E0,3E0,5E0,3E0,5E0,1.7E1,3.3E1,1.7E1,7.6E1,3.4E1,1.94E2,6.7E1,3.3E1,6.7E1,9E0,7.1E1,3E0,3E0,2E1,9E0,3E0,2.8E1,1.7E1,6E0,6E0,1.9E1,2.1E1,3.7E1,1.9E1,1.2E1,3.3E1,1.61E2,3.3E1,3.4E1,3.3E1,3.4E1,4.7E1,2.4E1,1.1E1,6E0,3E0,3E0,1.6E1,3E0,6E0,1.5E1,2.3E1,1.4E1,1E1,9E0,3.3E1,1.28E2,8E0,1.6E1,4E0,2E0,1.4E1,9E0,1.1E1,3E0,9.5E1,3.3E1,2E0,6E0,6E0,1E1,6E0,8E0,4E0,5E0,3.3E1,6.2E1],"tree_param":{"num_deleted":"0","num_feature":"6","num_nodes":"113","size_leaf_vector":"1"}},{"base_weights":[7.907197E0,1.5976994E1,3.3141167E0,2.0092005E1,8.483398E0,8.025974E0,2.7932546E0,1.8177702E1,2.430056E1,6.3134885E0,1.4117736E1,2.193926E1,1.564346E0,4.159501E0,2.1778984E0,1.57591715E1,2.0753403E1,2.5926853E1,1.6051214E1,8.906535E0,5.694185E0,1.5897147E1,1.7226635E0,3.057726E0,2.6891157E1,8.382669E-1,4.8104116E-1,6.5159836E0,3.03932E0,2.6749632E0,8.669193E-1,1.6815624E1,1.2363958E1,3.072847E1,1.7889038E1,2.2889263E1,7.218408E0,1.6723989E0,4.289481E0,5.657743E0,3.2852554E0,4.9158287E0,8.376106E0,1.167852E1,4.7742724E0,6.426727E0,2.4609303E0,2.5517884E-1,1.2916416E-1,1.4177995E0,1.014325E0,7.253416E-1,3.3204585E-1,2.1136327E0,4.245324E0,2.8462282E-1,5.7607305E-1,2.039734E0,1.7653605E1,4.4918824E-2,1.3509394E1,6.9935455E0,2.2776783E0,2.0461716E1,1.4133577E1,1.4279595E1,4.7855105E0,1.2500751E0,5.819769E-1,6.0382185E0,4.13666E0,1.0111961E1,9.895412E-1,1.1030887E0,2.521044E0,5.829881E-1,1.9324098E0,7.2194076E-1,9.482978E-1,9.926476E-2,1.274169E-1,4.7107244E0,1.6343521E1,1.6682638E1,8.35056E0,1.3073777E1,2.5071127E1,1.554299E1,1.3690075E0,3.5167007E0,1.4811577E0,3.8396094E0,1.3245443E0,3.175655E0,5.398491E0,5.980001E-1,2.3439329E0,2.6987675E-1,2.0710957E0,7.696479E0,3.4952981E0,2.0793154E0,3.9374912E0,6.4925116E-1,2.0148737E0,3.9507103E0,3.5720673E0,5.6331515E0,3.236892E0,1.0772635E1,3.529986E0,1.0112123E0,1.0646387E-1,3.820045E-1,3.8076994E0,1.1969812E0,4.5792493E-1,1.9241233E0,4.8503238E-1,8.218838E-1,1.8718837E0,1.0755821E0,1.7464142E-1,2.7307673E0,7.5153506E-1,5.060893E-1,9.8118496E-1,4.3167242E-1,2.9084215E-1],"categories":[],"categories_nodes":[],"categories_segments":[],"categories_sizes":[],"default_left":[0,0,0,0,0,0,0,0,0,0,0,0,0,0,0,0,0,0,0,0,0,0,0,0,0,0,0,0,0,0,0,0,0,0,0,0,0,0,0,0,0,0,0,0,0,0,0,0,0,0,0,0,0,0,0,0,0,0,0,0,0,0,0,0,0,0,0,0,0,0,0,0,0,0,0,0,0,0,0,0,0,0,0,0,0,0,0,0,0,0,0,0,0,0,0,0,0,0,0,0,0,0,0,0,0,0,0,0,0,0,0,0,0,0,0,0,0,0,0,0,0,0,0,0,0,0,0,0,0],"id":9,"left_children":[1,3,5,7,9,11,13,15,17,19,21,23,25,27,29,31,33,35,37,39,41,43,-1,-1,45,47,-1,49,51,53,55,57,59,61,63,65,-1,-1,-1,67,-1,69,71,73,-1,-1,-1,-1,-1,-1,-1,-1,-1,75,77,-1,79,-1,81,-1,83,-1,-1,85,87,89,-1,-1,-1,91,93,95,-1,-1,-1,-1,97,-1,-1,-1,-1,-1,99,101,103,105,107,109,-1,-1,-1,111,-1,113,115,-1,-1,-1,117,119,-1,-1,-1,-1,-1,-1,121,-1,-1,123,-1,-1,-1,-1,125,-1,-1,127,-1,-1,-1,-1,-1,-1,-1,-1,-1,-1,-1],"loss_changes":[3.3491086E4,9.943828E3,1.3961245E3,1.2581797E3,1.3535361E3,5.0901206E3,4.2980103E2,6.01125E2,4.2903906E2,8.8996826E1,1.7650098E2,1.8166992E2,2.240503E1,4.0518555E2,2.3357532E2,8.262891E1,1.4217793E3,7.4864453E2,3.6005908E2,2.735155E2,1.1121118E2,4.9494287E2,0E0,0E0,2.9283105E2,1.1130543E0,0E0,6.256592E0,8.389563E1,2.219779E2,1.55186615E1,1.4710547E2,3.1677734E2,7.496006E2,2.5185156E2,3.377539E1,0E0,0E0,0E0,1.3537903E0,0E0,2.6619385E1,3.923706E1,2.7569092E1,0E0,0E0,0E0,0E0,0E0,0E0,0E0,0E0,0E0,2.2684021E1,4.329956E0,0E0,1.4663696E-2,0E0,9.256836E0,0E0,2.0446582E2,0E0,0E0,7.2790234E2,1.6069385E2,2.8753296E1,0E0,0E0,0E0,2.8433228E0,2.8935974E1,6.800818E1,0E0,0E0,0E0,0E0,1.030426E1,0E0,0E0,0E0,0E0,0E0,3.063506E2,2.1979736E1,5.5284485E1,8.1800854E2,3.9168945E1,2.093164E1,0E0,0E0,0E0,2.547068E1,0E0,1.1925674E1,1.3643066E1,0E0,0E0,0E0,2.0465698E0,3.2937012E0,0E0,0E0,0E0,0E0,0E0,0E0,2.9420006E1,0E0,0E0,1.3059705E2,0E0,0E0,0E0,0E0,8.626495E0,0E0,0E0,7.428192E0,0E0,0E0,0E0,0E0,0E0,0E0,0E0,0E0,0E0,0E0,0E0],"parents":[2147483647,0,0,1,1,2,2,3,3,4,4,5,5,6,6,7,7,8,8,9,9,10,10,11,11,12,12,13,13,14,14,15,15,16,16,17,17,18,18,19,19,20,20,21,21,24,24,25,25,27,27,28,28,29,29,30,30,31,31,32,32,33,33,34,34,35,35,39,39,41,41,42,42,43,43,53,53,54,54,56,56,58,58,60,60,63,63,64,64,65,65,69,69,70,70,71,71,76,76,82,82,83,83,84,84,85,85,86,86,87,87,91,91,93,93,94,94,98,98,99,99,106,106,109,109,114,114,117,117],"right_children":[2,4,6,8,10,12,14,16,18,20,22,24,26,28,30,32,34,36,38,40,42,44,-1,-1,46,48,-1,50,52,54,56,58,60,62,64,66,-1,-1,-1,68,-1,70,72,74,-1,-1,-1,-1,-1,-1,-1,-1,-1,76,78,-1,80,-1,82,-1,84,-1,-1,86,88,90,-1,-1,-1,92,94,96,-1,-1,-1,-1,98,-1,-1,-1,-1,-1,100,102,104,106,108,110,-1,-1,-1,112,-1,114,116,-1,-1,-1,118,120,-1,-1,-1,-1,-1,-1,122,-1,-1,124,-1,-1,-1,-1,126,-1,-1,128,-1,-1,-1,-1,-1,-1,-1,-1,-1,-1,-1],"split_conditions":[3.33E2,1.5E1,3.34E2,3.29E2,2.2E1,1.6E1,3.35E2,8E0,1.3E1,1.6E1,3.29E2,7E0,2.1E1,8E0,1.5E1,6E0,2E0,1.1E1,3.31E2,5E0,2.1E1,3.26E2,1.7226635E0,3.057726E0,1.3E1,1.8E1,4.8104116E-1,5E0,1.9E1,9E0,1.8E1,1E0,3.2E2,1.3E1,1.2E1,1E0,7.218408E0,1.6723989E0,4.289481E0,3.29E2,3.2852554E0,1.8E1,3.27E2,3.19E2,4.7742724E0,6.426727E0,2.4609303E0,2.5517884E-1,1.2916416E-1,1.4177995E0,1.014325E0,7.253416E-1,3.3204585E-1,1E0,1.2E1,2.8462282E-1,2E1,2.039734E0,3.2E2,4.4918824E-2,3.25E2,6.9935455E0,2.2776783E0,1E1,3.27E2,3.31E2,4.7855105E0,1.2500751E0,5.819769E-1,3.23E2,2E1,3.21E2,9.895412E-1,1.1030887E0,2.521044E0,5.829881E-1,2E0,7.2194076E-1,9.482978E-1,9.926476E-2,1.274169E-1,4.7107244E0,3.21E2,3.23E2,3.26E2,3.23E2,1.1E1,3E0,1.3690075E0,3.5167007E0,1.4811577E0,3.22E2,1.3245443E0,3.24E2,3.28E2,5.980001E-1,2.3439329E0,2.6987675E-1,6E0,3E0,3.4952981E0,2.0793154E0,3.9374912E0,6.4925116E-1,2.0148737E0,3.9507103E0,3.27E2,5.6331515E0,3.236892E0,1.4E1,3.529986E0,1.0112123E0,1.0646387E-1,3.820045E-1,2E0,1.1969812E0,4.5792493E-1,5E0,4.8503238E-1,8.218838E-1,1.8718837E0,1.0755821E0,1.7464142E-1,2.7307673E0,7.5153506E-1,5.060893E-1,9.8118496E-1,4.3167242E-1,2.9084215E-1],"split_indices":[0,1,0,0,1,1,0,1,1,1,0,1,1,1,1,1,2,1,0,2,1,0,0,0,1,1,0,1,1,1,1,1,0,1,1,1,0,0,0,0,0,1,0,0,0,0,0,0,0,0,0,0,0,1,1,0,1,0,0,0,0,0,0,1,0,0,0,0,0,0,1,0,0,0,0,0,1,0,0,0,0,0,0,0,0,0,1,2,0,0,0,0,0,0,0,0,0,0,1,1,0,0,0,0,0,0,0,0,0,1,0,0,0,0,2,0,0,1,0,0,0,0,0,0,0,0,0,0,0],"split_type":[0,0,0,0,0,0,0,0,0,0,0,0,0,0,0,0,0,0,0,0,0,0,0,0,0,0,0,0,0,0,0,0,0,0,0,0,0,0,0,0,0,0,0,0,0,0,0,0,0,0,0,0,0,0,0,0,0,0,0,0,0,0,0,0,0,0,0,0,0,0,0,0,0,0,0,0,0,0,0,0,0,0,0,0,0,0,0,0,0,0,0,0,0,0,0,0,0,0,0,0,0,0,0,0,0,0,0,0,0,0,0,0,0,0,0,0,0,0,0,0,0,0,0,0,0,0,0,0,0],"sum_hessian":[9.04E2,3.27E2,5.77E2,2.1E2,1.17E2,5.6E1,5.21E2,1.48E2,6.2E1,8.6E1,3.1E1,1.7E1,3.9E1,1.6E2,3.61E2,8E1,6.8E1,5E1,1.2E1,1.4E1,7.2E1,2.2E1,9E0,9E0,8E0,2.2E1,1.7E1,5E1,1.1E2,2.61E2,1E2,5.8E1,2.2E1,1.3E1,5.5E1,4.1E1,9E0,6E0,6E0,1.1E1,3E0,5.8E1,1.4E1,1.6E1,6E0,5E0,3E0,5E0,1.7E1,3.3E1,1.7E1,7.6E1,3.4E1,1.94E2,6.7E1,3.3E1,6.7E1,8E0,5E1,2E0,2E1,1E1,3E0,3E1,2.5E1,6E0,3.5E1,8E0,3E0,2.1E1,3.7E1,8E0,6E0,3E0,1.3E1,3.3E1,1.61E2,3.3E1,3.4E1,3.3E1,3.4E1,6E0,4.4E1,1.1E1,9E0,1.3E1,1.7E1,2E1,5E0,3E0,3E0,6E0,1.5E1,2.3E1,1.4E1,2E0,6E0,3.3E1,1.28E2,6E0,3.8E1,5E0,6E0,3E0,6E0,7E0,6E0,1.1E1,6E0,8E0,1.2E1,4E0,2E0,9E0,1.4E1,1.1E1,3E0,9.5E1,3.3E1,3E0,3E0,3E0,3E0,5E0,3E0,8E0,6E0,6.1E1,3.4E1],"tree_param":{"num_deleted":"0","num_feature":"6","num_nodes":"129","size_leaf_vector":"1"}},{"base_weights":[6.4605985E0,1.3091012E1,2.6868336E0,1.6435463E1,6.9997387E0,6.64553E0,2.249415E0,1.995458E1,1.4904989E1,5.8377304E0,1.4589679E1,1.8215042E1,1.2731115E0,3.3492746E0,1.7540369E0,1.5510343E1,2.4638493E1,1.5549279E1,1.0643322E1,4.794373E0,8.03546E0,1.9591621E0,1.8668983E1,1.2536677E1,2.2500443E1,6.8732405E-1,3.9017782E-1,5.2604747E0,2.440982E0,2.1542099E0,6.9859755E-1,1.0625266E1,1.926234E1,5.544866E0,3.2623098E0,1.403335E1,1.9534002E1,6.3880503E-1,1.1601015E1,6.57537E0,3.6692395E0,9.689201E0,9.7462636E-1,4.735385E0,1.7987595E0,2.9061005E0,1.182663E0,5.3556056E0,2.091791E0,2.1264903E-1,1.04766466E-1,1.1425794E0,8.227302E-1,5.8215725E-1,2.6753414E-1,1.7014724E0,3.4208217E0,2.2937241E-1,4.6419185E-1,2.4227467E0,5.5186313E-1,1.2589844E0,2.1436163E1,1.23018265E1,1.6193224E1,2.2440847E1,2.6671426E0,2.943874E0,1.542302E0,9.6109456E-1,9.581223E0,3.7598178E0,2.1749699E-1,1.140231E0,2.6214263E0,4.6981964E-1,1.555048E0,5.8179927E-1,7.6405716E-1,7.99957E-2,1.0266157E-1,4.5709715E0,1.6286204E0,1.5305665E1,1.7073597E0,1.4010385E1,4.023797E0,2.8921716E0,5.247848E0,2.373903E0,2.0962627E-1,2.3801295E-1,3.8516653E0,2.1748896E-1,1.6662376E0,1.3404454E0,1.71024E1,9.489333E0,3.1140783E0,8.360891E-1,2.8720183E0,1.546825E0,3.908791E-1,4.3281617E0,1.369369E1,2.1972444E0,8.994892E-1,1.9397681E0,7.054318E-1,3.8485625E-1,2.6371315E-1,6.542005E0,3.3999765E0,1.3036102E-1,6.12956E-1,6.986012E-1,1.5911007E0],"categories":[],"categories_nodes":[],"categories_segments":[],"categories_sizes":[],"default_left":[0,0,0,0,0,0,0,0,0,0,0,0,0,0,0,0,0,0,0,0,0,0,0,0,0,0,0,0,0,0,0,0,0,0,0,0,0,0,0,0,0,0,0,0,0,0,0,0,0,0,0,0,0,0,0,0,0,0,0,0,0,0,0,0,0,0,0,0,0,0,0,0,0,0,0,0,0,0,0,0,0,0,0,0,0,0,0,0,0,0,0,0,0,0,0,0,0,0,0,0,0,0,0,0,0,0,0,0,0,0,0,0,0,0,0,0,0],"id":10,"left_children":[1,3,5,7,9,11,13,15,17,19,21,23,25,27,29,31,33,35,37,39,41,-1,43,45,47,49,-1,51,53,55,57,59,61,-1,-1,63,65,-1,67,69,71,73,-1,-1,-1,-1,-1,-1,-1,-1,-1,-1,-1,-1,-1,75,77,-1,79,-1,-1,-1,81,83,85,87,-1,-1,-1,-1,89,91,-1,-1,-1,-1,93,-1,-1,-1,-1,-1,-1,95,-1,97,-1,-1,-1,-1,-1,-1,99,-1,101,-1,103,105,-1,-1,107,109,-1,-1,111,-1,-1,113,-1,-1,-1,115,-1,-1,-1,-1,-1],"loss_changes":[2.2609395E4,6.566961E3,9.859209E2,8.390039E2,9.555386E2,3.5197173E3,2.785349E2,8.876504E2,2.4910938E2,1.9994897E2,1.1045703E2,1.5593262E2,1.4540451E1,2.6664404E2,1.513888E2,4.1851172E2,2.6725E2,5.0510547E2,1.27031494E2,1.2215515E2,1.2013257E2,0E0,1.2622388E2,4.6134766E1,1.8350635E2,8.56617E-1,0E0,2.9604492E0,5.364203E1,1.4442151E2,1.0080288E1,1.6561377E2,3.7246094E2,0E0,0E0,1.6356055E2,2.953125E2,0E0,1.2906836E2,9.7599E1,6.9022217E0,1.978916E2,0E0,0E0,0E0,0E0,0E0,0E0,0E0,0E0,0E0,0E0,0E0,0E0,0E0,1.4838501E1,2.789795E0,0E0,9.153366E-3,0E0,0E0,0E0,9.677197E1,5.25292E2,6.089746E1,2.570918E2,0E0,0E0,0E0,0E0,1.632951E2,6.0374146E0,0E0,0E0,0E0,0E0,6.610901E0,0E0,0E0,0E0,0E0,0E0,0E0,3.6457715E2,0E0,5.6780273E1,0E0,0E0,0E0,0E0,0E0,0E0,1.8435059E0,0E0,1.415741E0,0E0,9.041016E1,2.5312988E1,0E0,0E0,1.7086945E0,5.733856E0,0E0,0E0,2.9074902E2,0E0,0E0,9.594147E0,0E0,0E0,0E0,2.3796997E0,0E0,0E0,0E0,0E0,0E0],"parents":[2147483647,0,0,1,1,2,2,3,3,4,4,5,5,6,6,7,7,8,8,9,9,10,10,11,11,12,12,13,13,14,14,15,15,16,16,17,17,18,18,19,19,20,20,22,22,23,23,24,24,25,25,27,27,28,28,29,29,30,30,31,31,32,32,35,35,36,36,38,38,39,39,40,40,41,41,55,55,56,56,58,58,62,62,63,63,64,64,65,65,70,70,71,71,76,76,83,83,85,85,92,92,94,94,96,96,97,97,100,100,101,101,104,104,107,107,111,111],"right_children":[2,4,6,8,10,12,14,16,18,20,22,24,26,28,30,32,34,36,38,40,42,-1,44,46,48,50,-1,52,54,56,58,60,62,-1,-1,64,66,-1,68,70,72,74,-1,-1,-1,-1,-1,-1,-1,-1,-1,-1,-1,-1,-1,76,78,-1,80,-1,-1,-1,82,84,86,88,-1,-1,-1,-1,90,92,-1,-1,-1,-1,94,-1,-1,-1,-1,-1,-1,96,-1,98,-1,-1,-1,-1,-1,-1,100,-1,102,-1,104,106,-1,-1,108,110,-1,-1,112,-1,-1,114,-1,-1,-1,116,-1,-1,-1,-1,-1],"split_conditions":[3.33E2,1.5E1,3.34E2,2E0,2.3E1,1.6E1,3.35E2,8E0,1.3E1,2.1E1,3.26E2,7E0,2.1E1,8E0,1.5E1,3.26E2,1.3E1,1E1,3.2E2,1.7E1,3.28E2,1.9591621E0,3.29E2,4E0,1.3E1,1.8E1,3.9017782E-1,5E0,1.9E1,9E0,1.8E1,7E0,1E0,5.544866E0,3.2623098E0,5E0,1.2E1,6.3880503E-1,3.24E2,5E0,3.32E2,3.24E2,9.7462636E-1,4.735385E0,1.7987595E0,2.9061005E0,1.182663E0,5.3556056E0,2.091791E0,2.1264903E-1,1.04766466E-1,1.1425794E0,8.227302E-1,5.8215725E-1,2.6753414E-1,1E0,1.2E1,2.2937241E-1,2E1,2.4227467E0,5.5186313E-1,1.2589844E0,6E0,5E0,7E0,3.24E2,2.6671426E0,2.943874E0,1.542302E0,9.6109456E-1,3.24E2,3.19E2,2.1749699E-1,1.140231E0,2.6214263E0,4.6981964E-1,2E0,5.8179927E-1,7.6405716E-1,7.99957E-2,1.0266157E-1,4.5709715E0,1.6286204E0,1E0,1.7073597E0,3.23E2,4.023797E0,2.8921716E0,5.247848E0,2.373903E0,2.0962627E-1,2.3801295E-1,5E0,2.1748896E-1,6E0,1.3404454E0,3E0,5E0,3.1140783E0,8.360891E-1,2E1,4E0,3.908791E-1,4.3281617E0,3.21E2,2.1972444E0,8.994892E-1,3.24E2,7.054318E-1,3.8485625E-1,2.6371315E-1,3E0,3.3999765E0,1.3036102E-1,6.12956E-1,6.986012E-1,1.5911007E0],"split_indices":[0,1,0,2,1,1,0,1,1,1,0,1,1,1,1,0,1,1,0,1,0,0,0,1,1,1,0,1,1,1,1,1,1,0,0,2,1,0,0,2,0,0,0,0,0,0,0,0,0,0,0,0,0,0,0,1,1,0,1,0,0,0,1,1,1,0,0,0,0,0,0,0,0,0,0,0,1,0,0,0,0,0,0,1,0,0,0,0,0,0,0,0,2,0,1,0,2,1,0,0,1,1,0,0,0,0,0,0,0,0,0,1,0,0,0,0,0],"split_type":[0,0,0,0,0,0,0,0,0,0,0,0,0,0,0,0,0,0,0,0,0,0,0,0,0,0,0,0,0,0,0,0,0,0,0,0,0,0,0,0,0,0,0,0,0,0,0,0,0,0,0,0,0,0,0,0,0,0,0,0,0,0,0,0,0,0,0,0,0,0,0,0,0,0,0,0,0,0,0,0,0,0,0,0,0,0,0,0,0,0,0,0,0,0,0,0,0,0,0,0,0,0,0,0,0,0,0,0,0,0,0,0,0,0,0,0,0],"sum_hessian":[9.04E2,3.27E2,5.77E2,2.1E2,1.17E2,5.6E1,5.21E2,6E1,1.5E2,1.03E2,1.4E1,1.7E1,3.9E1,1.6E2,3.61E2,3.3E1,2.7E1,1.28E2,2.2E1,7.2E1,3.1E1,8E0,6E0,9E0,8E0,2.2E1,1.7E1,5E1,1.1E2,2.61E2,1E2,1.6E1,1.7E1,1.8E1,9E0,9.6E1,3.2E1,3E0,1.9E1,2.6E1,4.6E1,1.9E1,1.2E1,3E0,3E0,6E0,3E0,5E0,3E0,5E0,1.7E1,3.3E1,1.7E1,7.6E1,3.4E1,1.94E2,6.7E1,3.3E1,6.7E1,1.3E1,3E0,3E0,1.4E1,5.7E1,3.9E1,2E1,1.2E1,9E0,1E1,1.8E1,8E0,4.4E1,2E0,1E1,9E0,3.3E1,1.61E2,3.3E1,3.4E1,3.3E1,3.4E1,1.2E1,2E0,3E1,2.7E1,2.8E1,1.1E1,8E0,1.2E1,6E0,2E0,2E0,4.2E1,3.3E1,1.28E2,6E0,2.4E1,9E0,1.9E1,2.9E1,1.3E1,9.5E1,3.3E1,8E0,1.6E1,6E0,3E0,7E0,6E0,3.3E1,6.2E1,6E0,1E1,4E0,3E0,3E0,3E0],"tree_param":{"num_deleted":"0","num_feature":"6","num_nodes":"117","size_leaf_vector":"1"}},{"base_weights":[5.2751427E0,1.0710576E1,2.181549E0,1.3425493E1,5.765169E0,5.531227E0,1.8116003E0,1.2137653E1,1.6258234E1,4.7761583E0,1.2237965E1,1.5212933E1,1.0361791E0,2.6969042E0,1.4128557E0,1.0521183E1,1.385934E1,1.725886E1,1.1082064E1,3.9215946E0,6.576377E0,1.410479E0,1.4911412E1,1.043822E1,1.8827843E1,5.6366E-1,3.164776E-1,4.2469153E0,1.9604404E0,1.7350956E0,5.6295776E-1,1.1886929E1,9.037806E0,2.0585325E1,1.1930356E1,1.4872065E1,5.111503E0,1.1213065E0,2.9948885E0,6.2867985E0,3.253804E0,7.9394426E0,7.9469556E-1,4.0250773E0,1.790039E0,2.4079123E0,1.0052636E0,4.4630046E0,1.7780224E0,1.7720757E-1,8.497727E-2,9.207848E-1,6.6732544E-1,4.6723786E-1,2.1555606E-1,1.3700331E0,2.7564497E0,1.848473E-1,3.7403962E-1,1.596539E1,8.672665E0,7.6380305E0,3.0291011E0,4.7138352E0,1.4466804E0,1.3175565E1,7.648412E0,1.7956644E1,1.2493349E1,3.7978613E0,2.436382E0,8.050551E-1,2.7215364E0,9.329163E-1,2.1495693E0,3.786193E-1,1.2517974E0,4.688619E-1,6.1561173E-1,6.446714E-2,8.271589E-2,1.841897E0,3.639806E0,5.949253E0,3.1702716E0,-1.8871866E-1,8.155369E0,1.5908031E1,2.0926762E0,-1.0765915E-1,9.739947E0,1.1190977E1,5.011329E0,2.6560943E0,7.5250115E0,8.569781E-1,3.5051614E-1,1.9959532E0,3.7010334E0,1.7527045E-1,1.341048E0,8.6608803E-1,1.6211455E0,5.217397E0,1.7943379E0,7.7921195E0,1.824999E1,2.678292E0,7.7130485E-1,2.5859156E0,1.0701363E0,1.9032677E0,4.7231445E-1,1.299654E0,2.8408067E0,9.312455E-1,3.888415E-1,1.2442162E0,3.1500265E-1,2.011063E0,1.7075304E0,2.2393272E0,6.581406E-1,2.207195E0,4.456201E0,1.1112219E-1,3.4678966E-1,7.998001E-1,2.804355E-1,1.4097135E0,1.8310006E-1,1.2855224E-1,4.690834E-1,3.1014886E-1,2.3915127E-1],"categories":[],"categories_nodes":[],"categories_segments":[],"categories_sizes":[],"default_left":[0,0,0,0,0,0,0,0,0,0,0,0,0,0,0,0,0,0,0,0,0,0,0,0,0,0,0,0,0,0,0,0,0,0,0,0,0,0,0,0,0,0,0,0,0,0,0,0,0,0,0,0,0,0,0,0,0,0,0,0,0,0,0,0,0,0,0,0,0,0,0,0,0,0,0,0,0,0,0,0,0,0,0,0,0,0,0,0,0,0,0,0,0,0,0,0,0,0,0,0,0,0,0,0,0,0,0,0,0,0,0,0,0,0,0,0,0,0,0,0,0,0,0,0,0,0,0,0,0,0,0,0,0,0,0],"id":11,"left_children":[1,3,5,7,9,11,13,15,17,19,21,23,25,27,29,31,33,35,37,39,41,-1,43,45,47,49,-1,51,53,55,57,59,61,63,65,67,-1,-1,-1,69,71,73,-1,-1,-1,-1,-1,-1,-1,-1,-1,-1,-1,-1,-1,75,77,-1,79,81,83,85,-1,-1,-1,87,89,91,93,95,-1,-1,97,-1,-1,-1,99,-1,-1,-1,-1,-1,-1,101,-1,-1,103,105,-1,-1,107,109,-1,-1,111,-1,-1,113,115,-1,117,-1,-1,119,-1,121,123,-1,-1,-1,-1,-1,-1,125,127,-1,-1,129,-1,-1,131,-1,-1,-1,-1,-1,-1,-1,-1,133,-1,-1,-1,-1,-1],"loss_changes":[1.5194232E4,4.326449E3,7.0624243E2,5.7241406E2,6.9694604E2,2.4648616E3,1.8046106E2,2.6885938E2,1.3503906E2,1.3420386E2,1.0278931E2,1.1415332E2,9.431835E0,1.7546008E2,9.816455E1,5.666797E1,6.496377E2,6.3007324E2,1.931123E2,9.4844604E1,8.198645E1,0E0,9.960864E1,2.6148315E1,1.1350903E2,6.5249825E-1,0E0,1.2124634E0,3.4296173E1,9.391235E1,6.547764E0,3.7279834E2,2.5194238E2,3.8727686E2,1.9781543E2,8.38291E1,0E0,0E0,0E0,1.7382324E2,1.3272156E1,1.3380847E2,0E0,0E0,0E0,0E0,0E0,0E0,0E0,0E0,0E0,0E0,0E0,0E0,0E0,9.689972E0,1.7973633E0,0E0,5.7048798E-3,7.3840576E1,3.749093E2,1.719607E2,0E0,0E0,0E0,1.448081E2,2.6208478E2,4.8817188E2,5.652832E0,4.4437256E0,0E0,0E0,1.9619781E1,0E0,0E0,0E0,4.253189E0,0E0,0E0,0E0,0E0,0E0,0E0,3.1226257E1,0E0,0E0,3.7132812E1,2.1892969E2,0E0,0E0,2.0615625E2,3.23573E1,0E0,0E0,3.9219055E1,0E0,0E0,1.042643E1,1.6118942E1,0E0,9.628601E-1,0E0,0E0,1.526347E2,0E0,5.510608E1,1.6122461E2,0E0,0E0,0E0,0E0,0E0,0E0,3.883604E0,1.105481E1,0E0,0E0,3.9319763E0,0E0,0E0,3.24687E0,0E0,0E0,0E0,0E0,0E0,0E0,0E0,0E0,1.651001E-2,0E0,0E0,0E0,0E0,0E0],"parents":[2147483647,0,0,1,1,2,2,3,3,4,4,5,5,6,6,7,7,8,8,9,9,10,10,11,11,12,12,13,13,14,14,15,15,16,16,17,17,18,18,19,19,20,20,22,22,23,23,24,24,25,25,27,27,28,28,29,29,30,30,31,31,32,32,33,33,34,34,35,35,39,39,40,40,41,41,55,55,56,56,58,58,59,59,60,60,61,61,65,65,66,66,67,67,68,68,69,69,72,72,76,76,83,83,86,86,87,87,90,90,91,91,94,94,97,97,98,98,100,100,103,103,105,105,106,106,113,113,114,114,117,117,120,120,129,129],"right_children":[2,4,6,8,10,12,14,16,18,20,22,24,26,28,30,32,34,36,38,40,42,-1,44,46,48,50,-1,52,54,56,58,60,62,64,66,68,-1,-1,-1,70,72,74,-1,-1,-1,-1,-1,-1,-1,-1,-1,-1,-1,-1,-1,76,78,-1,80,82,84,86,-1,-1,-1,88,90,92,94,96,-1,-1,98,-1,-1,-1,100,-1,-1,-1,-1,-1,-1,102,-1,-1,104,106,-1,-1,108,110,-1,-1,112,-1,-1,114,116,-1,118,-1,-1,120,-1,122,124,-1,-1,-1,-1,-1,-1,126,128,-1,-1,130,-1,-1,132,-1,-1,-1,-1,-1,-1,-1,-1,134,-1,-1,-1,-1,-1],"split_conditions":[3.33E2,1.5E1,3.34E2,3.29E2,2.3E1,1.6E1,3.35E2,8E0,1.3E1,2.1E1,3E0,7E0,2.1E1,8E0,1.5E1,4E0,2E0,1.1E1,3.31E2,1.6E1,3.28E2,1.410479E0,5E0,4E0,1.3E1,1.8E1,3.164776E-1,5E0,1.9E1,9E0,1.8E1,3E0,6E0,1.3E1,3.27E2,3E0,5.111503E0,1.1213065E0,2.9948885E0,5E0,1.8E1,3.24E2,7.9469556E-1,4.0250773E0,1.790039E0,2.4079123E0,1.0052636E0,4.4630046E0,1.7780224E0,1.7720757E-1,8.497727E-2,9.207848E-1,6.6732544E-1,4.6723786E-1,2.1555606E-1,1E0,1.2E1,1.848473E-1,2E1,1E0,3E0,3.2E2,3.0291011E0,4.7138352E0,1.4466804E0,1.1E1,1E1,2E0,3.32E2,3.29E2,2.436382E0,8.050551E-1,2E1,9.329163E-1,2.1495693E0,3.786193E-1,2E0,4.688619E-1,6.1561173E-1,6.446714E-2,8.271589E-2,1.841897E0,3.639806E0,3.24E2,3.1702716E0,-1.8871866E-1,2E0,9E0,2.0926762E0,-1.0765915E-1,1.2E1,3.32E2,5.011329E0,2.6560943E0,6E0,8.569781E-1,3.5051614E-1,3.26E2,3.26E2,1.7527045E-1,6E0,8.6608803E-1,1.6211455E0,3.25E2,1.7943379E0,3.22E2,3.21E2,2.678292E0,7.7130485E-1,2.5859156E0,1.0701363E0,1.9032677E0,4.7231445E-1,1.9E1,3.29E2,9.312455E-1,3.888415E-1,5E0,3.1500265E-1,2.011063E0,5E0,2.2393272E0,6.581406E-1,2.207195E0,4.456201E0,1.1112219E-1,3.4678966E-1,7.998001E-1,2.804355E-1,3.36E2,1.8310006E-1,1.2855224E-1,4.690834E-1,3.1014886E-1,2.3915127E-1],"split_indices":[0,1,0,0,1,1,0,1,1,1,2,1,1,1,1,1,2,1,0,1,0,0,2,1,1,1,0,1,1,1,1,2,2,1,0,1,0,0,0,2,1,0,0,0,0,0,0,0,0,0,0,0,0,0,0,1,1,0,1,2,1,0,0,0,0,1,1,1,0,0,0,0,1,0,0,0,1,0,0,0,0,0,0,0,0,0,2,1,0,0,1,0,0,0,1,0,0,0,0,0,1,0,0,0,0,0,0,0,0,0,0,0,0,1,0,0,0,1,0,0,1,0,0,0,0,0,0,0,0,0,0,0,0,0,0],"split_type":[0,0,0,0,0,0,0,0,0,0,0,0,0,0,0,0,0,0,0,0,0,0,0,0,0,0,0,0,0,0,0,0,0,0,0,0,0,0,0,0,0,0,0,0,0,0,0,0,0,0,0,0,0,0,0,0,0,0,0,0,0,0,0,0,0,0,0,0,0,0,0,0,0,0,0,0,0,0,0,0,0,0,0,0,0,0,0,0,0,0,0,0,0,0,0,0,0,0,0,0,0,0,0,0,0,0,0,0,0,0,0,0,0,0,0,0,0,0,0,0,0,0,0,0,0,0,0,0,0,0,0,0,0,0,0],"sum_hessian":[9.04E2,3.27E2,5.77E2,2.1E2,1.17E2,5.6E1,5.21E2,1.48E2,6.2E1,1.03E2,1.4E1,1.7E1,3.9E1,1.6E2,3.61E2,8E1,6.8E1,5E1,1.2E1,7.2E1,3.1E1,6E0,8E0,9E0,8E0,2.2E1,1.7E1,5E1,1.1E2,2.61E2,1E2,3.8E1,4.2E1,1.3E1,5.5E1,4.1E1,9E0,6E0,6E0,1.4E1,5.8E1,1.9E1,1.2E1,3E0,5E0,6E0,3E0,5E0,3E0,5E0,1.7E1,3.3E1,1.7E1,7.6E1,3.4E1,1.94E2,6.7E1,3.3E1,6.7E1,1.5E1,2.3E1,3.6E1,6E0,1E1,3E0,4.1E1,1.4E1,1.5E1,2.6E1,1.1E1,3E0,2.1E1,3.7E1,1E1,9E0,3.3E1,1.61E2,3.3E1,3.4E1,3.3E1,3.4E1,5E0,1E1,1.8E1,5E0,2E0,3.4E1,1.8E1,2.3E1,3E0,1.1E1,9E0,6E0,2.1E1,5E0,8E0,3E0,2.3E1,1.4E1,3.3E1,1.28E2,1.2E1,6E0,9E0,2.5E1,5E0,1.3E1,6E0,5E0,6E0,3E0,3E0,2E0,1.4E1,9E0,8E0,6E0,9.5E1,3.3E1,3E0,6E0,2E0,3E0,6E0,7E0,6E0,8E0,4E0,5E0,6.1E1,3.4E1,3E0,3E0,3.3E1,2.8E1],"tree_param":{"num_deleted":"0","num_feature":"6","num_nodes":"135","size_leaf_vector":"1"}},{"base_weights":[4.32663E0,8.815032E0,1.7720932E0,1.1036438E1,4.768152E0,4.604506E0,1.459412E0,1.3606904E1,9.92495E0,3.928469E0,1.02720785E1,1.2706692E1,8.4340984E-1,2.171629E0,1.138621E0,1.1048525E1,1.735342E1,1.0350954E1,7.104097E0,3.2373743E0,5.382264E0,1.1686829E0,1.25752535E1,9.559113E-1,2.7946966E0,4.6232745E-1,2.5669846E-1,3.4286728E0,1.5745039E0,1.3983274E0,4.5365366E-1,1.4237452E1,8.906467E0,2.054881E1,2.2289069E0,9.335647E0,1.3021679E1,2.2908364E-1,7.9406276E0,5.2723637E0,2.6651332E0,6.50568E0,6.479825E-1,3.421316E0,1.491699E0,1.4767298E-1,6.892603E-2,7.420444E-1,5.4127526E-1,3.75004E-1,1.7367657E-1,1.1042383E0,2.2211075E0,1.4896522E-1,3.013961E-1,9.390266E0,4.8015695E0,2.4388368E0,4.0546165E0,2.6637504E0,4.861302E0,8.232939E0,1.0701182E1,1.5169588E1,1.7100624E0,2.0372958E0,1.0354141E0,3.1389124E0,2.0709252E0,3.2568145E0,2.252446E0,7.632954E-1,1.762647E0,3.0512246E-1,1.0089854E0,3.7784743E-1,4.960071E-1,5.1952925E-2,6.664536E-2,2.1275156E0,9.096157E-1,1.4513986E0,6.415934E0,1.0389478E1,5.551309E0,9.568709E0,3.104748E0,1.8932962E0,3.5902002E0,7.0462626E-1,2.9793856E-1,2.6790783E0,9.370603E-1,1.6608517E0,3.0488336E0,1.4124744E-1,1.080958E0,1.09268956E-1,3.9872056E-1,1.6177765E0,4.0933838E-1,1.2535971E0,1.2662631E1,6.3076677E0,3.5590966E0,6.5647135E0,2.0712132E0,3.746918E0,4.6577072E-1,1.0702503E0,2.3806686E0,7.6569104E-1,3.221831E-1,1.0030022E0,2.538551E-1,3.5207303E0,9.640577E0,3.0247412E0,8.420274E0,1.0691757E0,-9.1509245E-2,1.5925378E0,4.954155E-1,2.6706287E-1,8.191415E-1,1.4988801E-1,-3.2453667E-2,9.207268E-2,2.8513804E-1,6.71832E-1,2.3369625E-1,2.2732608E-1,1.4752638E-1,4.420522E0,2.6006105E0,-5.011075E-1,1.5114659E0,2.0358658E0,5.594193E-1,4.638977E-1,1.0832852E0,-1.635559E-1,-2.766533E-2],"categories":[],"categories_nodes":[],"categories_segments":[],"categories_sizes":[],"default_left":[0,0,0,0,0,0,0,0,0,0,0,0,0,0,0,0,0,0,0,0,0,0,0,0,0,0,0,0,0,0,0,0,0,0,0,0,0,0,0,0,0,0,0,0,0,0,0,0,0,0,0,0,0,0,0,0,0,0,0,0,0,0,0,0,0,0,0,0,0,0,0,0,0,0,0,0,0,0,0,0,0,0,0,0,0,0,0,0,0,0,0,0,0,0,0,0,0,0,0,0,0,0,0,0,0,0,0,0,0,0,0,0,0,0,0,0,0,0,0,0,0,0,0,0,0,0,0,0,0,0,0,0,0,0,0,0,0,0,0,0,0,0,0],"id":12,"left_children":[1,3,5,7,9,11,13,15,17,19,21,23,25,27,29,31,33,35,37,39,41,-1,43,-1,-1,45,-1,47,49,51,53,55,57,59,-1,61,63,-1,65,67,69,71,-1,-1,-1,-1,-1,-1,-1,-1,-1,73,75,-1,77,79,-1,-1,81,-1,-1,83,85,87,-1,-1,-1,89,-1,91,93,-1,-1,-1,95,-1,-1,-1,-1,-1,-1,97,99,101,103,105,-1,-1,-1,-1,-1,107,-1,109,111,-1,113,-1,-1,-1,-1,-1,115,117,119,121,-1,123,125,127,129,-1,-1,131,-1,-1,133,135,137,-1,-1,-1,-1,-1,-1,-1,-1,-1,-1,-1,-1,-1,-1,139,-1,141,-1,-1,-1,-1,-1,-1,-1],"loss_changes":[1.0360916E4,2.8960176E3,5.0518152E2,4.6778906E2,5.0499E2,1.7262496E3,1.1679004E2,3.9295605E2,1.0792285E2,8.706543E1,7.9517334E1,1.1396973E2,6.114912E0,1.15450134E2,6.37619E1,1.3959814E2,2.273086E2,2.2823047E2,1.055509E2,7.0957214E1,5.5938232E1,0E0,8.108203E1,0E0,0E0,4.9278116E-1,0E0,3.302002E-1,2.1926025E1,6.0943726E1,4.2531643E0,4.3758472E2,3.6529663E2,5.6625E1,0E0,5.7958984E1,1.8723047E2,0E0,7.139465E1,1.3013913E2,7.070801E0,9.047412E1,0E0,0E0,0E0,0E0,0E0,0E0,0E0,0E0,0E0,6.2873993E0,1.1579285E0,0E0,3.5505295E-3,1.8056213E1,0E0,0E0,6.4452225E1,0E0,0E0,2.7774072E2,6.991455E1,1.631836E2,0E0,0E0,0E0,2.3555374E0,0E0,5.6040497E0,1.28396E1,0E0,0E0,0E0,2.7664948E0,0E0,0E0,0E0,0E0,0E0,0E0,2.3458729E0,2.730162E1,2.1106299E2,1.9741577E1,1.4797852E1,0E0,0E0,0E0,0E0,0E0,4.0797043E1,0E0,7.6550903E0,1.0648163E1,0E0,6.2068176E-1,0E0,0E0,0E0,0E0,0E0,1.1399927E2,1.0630597E2,7.4214645E1,3.7419952E1,0E0,4.624649E0,1.368698E0,2.595335E0,7.936039E0,0E0,0E0,2.565834E0,0E0,0E0,1.8825195E2,1.4761801E2,8.033368E1,0E0,0E0,0E0,0E0,0E0,0E0,0E0,0E0,0E0,0E0,0E0,0E0,0E0,0E0,2.0836487E0,0E0,5.7617486E-1,0E0,0E0,0E0,0E0,0E0,0E0,0E0],"parents":[2147483647,0,0,1,1,2,2,3,3,4,4,5,5,6,6,7,7,8,8,9,9,10,10,11,11,12,12,13,13,14,14,15,15,16,16,17,17,18,18,19,19,20,20,22,22,25,25,27,27,28,28,29,29,30,30,31,31,32,32,33,33,35,35,36,36,38,38,39,39,40,40,41,41,51,51,52,52,54,54,55,55,58,58,61,61,62,62,63,63,67,67,69,69,70,70,74,74,81,81,82,82,83,83,84,84,85,85,91,91,93,93,94,94,96,96,102,102,103,103,104,104,105,105,107,107,108,108,109,109,110,110,113,113,116,116,117,117,118,118,133,133,135,135],"right_children":[2,4,6,8,10,12,14,16,18,20,22,24,26,28,30,32,34,36,38,40,42,-1,44,-1,-1,46,-1,48,50,52,54,56,58,60,-1,62,64,-1,66,68,70,72,-1,-1,-1,-1,-1,-1,-1,-1,-1,74,76,-1,78,80,-1,-1,82,-1,-1,84,86,88,-1,-1,-1,90,-1,92,94,-1,-1,-1,96,-1,-1,-1,-1,-1,-1,98,100,102,104,106,-1,-1,-1,-1,-1,108,-1,110,112,-1,114,-1,-1,-1,-1,-1,116,118,120,122,-1,124,126,128,130,-1,-1,132,-1,-1,134,136,138,-1,-1,-1,-1,-1,-1,-1,-1,-1,-1,-1,-1,-1,-1,140,-1,142,-1,-1,-1,-1,-1,-1,-1],"split_conditions":[3.33E2,1.5E1,3.34E2,2E0,2.3E1,1.6E1,3.35E2,9E0,1.3E1,2.1E1,3E0,2E0,2.1E1,8E0,1.5E1,3E0,1.3E1,1E1,3.2E2,1.6E1,3.28E2,1.1686829E0,5E0,9.559113E-1,2.7946966E0,1.8E1,2.5669846E-1,5E0,1.9E1,9E0,1.8E1,2E0,1E0,1.1E1,2.2289069E0,5E0,1.2E1,2.2908364E-1,3.24E2,5E0,1.8E1,3.24E2,6.479825E-1,3.421316E0,1.491699E0,1.4767298E-1,6.892603E-2,7.420444E-1,5.4127526E-1,3.75004E-1,1.7367657E-1,1E0,1.2E1,1.4896522E-1,2E1,3.32E2,4.8015695E0,2.4388368E0,3.26E2,2.6637504E0,4.861302E0,5E0,9E0,3.24E2,1.7100624E0,2.0372958E0,1.0354141E0,3.29E2,2.0709252E0,6E0,2E1,7.632954E-1,1.762647E0,3.0512246E-1,2E0,3.7784743E-1,4.960071E-1,5.1952925E-2,6.664536E-2,2.1275156E0,9.096157E-1,5E0,6E0,2E0,3.27E2,3.23E2,3.104748E0,1.8932962E0,3.5902002E0,7.0462626E-1,2.9793856E-1,4E0,9.370603E-1,3.26E2,3.26E2,1.4124744E-1,6E0,1.09268956E-1,3.9872056E-1,1.6177765E0,4.0933838E-1,1.2535971E0,3E0,7E0,8E0,5E0,2.0712132E0,1E0,1.7E1,1.9E1,3.29E2,7.6569104E-1,3.221831E-1,5E0,2.538551E-1,3.5207303E0,3.21E2,3.22E2,3.22E2,1.0691757E0,-9.1509245E-2,1.5925378E0,4.954155E-1,2.6706287E-1,8.191415E-1,1.4988801E-1,-3.2453667E-2,9.207268E-2,2.8513804E-1,6.71832E-1,2.3369625E-1,2.2732608E-1,1.4752638E-1,3E0,2.6006105E0,3.2E2,1.5114659E0,2.0358658E0,5.594193E-1,4.638977E-1,1.0832852E0,-1.635559E-1,-2.766533E-2],"split_indices":[0,1,0,2,1,1,0,1,1,1,2,1,1,1,1,1,1,1,0,1,0,0,2,0,0,1,0,1,1,1,1,1,2,1,0,2,1,0,0,2,1,0,0,0,0,0,0,0,0,0,0,1,1,0,1,0,0,0,0,0,0,1,1,0,0,0,0,0,0,2,1,0,0,0,1,0,0,0,0,0,0,1,1,1,0,0,0,0,0,0,0,2,0,0,0,0,1,0,0,0,0,0,2,1,1,1,0,2,1,1,0,0,0,1,0,0,0,0,0,0,0,0,0,0,0,0,0,0,0,0,0,0,0,1,0,0,0,0,0,0,0,0,0],"split_type":[0,0,0,0,0,0,0,0,0,0,0,0,0,0,0,0,0,0,0,0,0,0,0,0,0,0,0,0,0,0,0,0,0,0,0,0,0,0,0,0,0,0,0,0,0,0,0,0,0,0,0,0,0,0,0,0,0,0,0,0,0,0,0,0,0,0,0,0,0,0,0,0,0,0,0,0,0,0,0,0,0,0,0,0,0,0,0,0,0,0,0,0,0,0,0,0,0,0,0,0,0,0,0,0,0,0,0,0,0,0,0,0,0,0,0,0,0,0,0,0,0,0,0,0,0,0,0,0,0,0,0,0,0,0,0,0,0,0,0,0,0,0,0],"sum_hessian":[9.04E2,3.27E2,5.77E2,2.1E2,1.17E2,5.6E1,5.21E2,6E1,1.5E2,1.03E2,1.4E1,1.7E1,3.9E1,1.6E2,3.61E2,3.8E1,2.2E1,1.28E2,2.2E1,7.2E1,3.1E1,6E0,8E0,3E0,1.4E1,2.2E1,1.7E1,5E1,1.1E2,2.61E2,1E2,1.3E1,2.5E1,1.3E1,9E0,9.6E1,3.2E1,3E0,1.9E1,1.4E1,5.8E1,1.9E1,1.2E1,3E0,5E0,5E0,1.7E1,3.3E1,1.7E1,7.6E1,3.4E1,1.94E2,6.7E1,3.3E1,6.7E1,1E1,3E0,1.4E1,1.1E1,6E0,7E0,5.7E1,3.9E1,2E1,1.2E1,9E0,1E1,1.1E1,3E0,2.1E1,3.7E1,1E1,9E0,3.3E1,1.61E2,3.3E1,3.4E1,3.3E1,3.4E1,7E0,3E0,6E0,5E0,3E1,2.7E1,3.4E1,5E0,8E0,1.2E1,8E0,3E0,1.7E1,4E0,2.3E1,1.4E1,3.3E1,1.28E2,3E0,3E0,3E0,2E0,1.2E1,1.8E1,1.8E1,9E0,9E0,2.5E1,1.1E1,6E0,1.4E1,9E0,8E0,6E0,9.5E1,3.3E1,5E0,1.3E1,8E0,1E1,6E0,3E0,6E0,3E0,2E0,9E0,4E0,2E0,6E0,8E0,4E0,5E0,6.1E1,3.4E1,6E0,7E0,5E0,3E0,7E0,3E0,3E0,3E0,2E0,3E0],"tree_param":{"num_deleted":"0","num_feature":"6","num_nodes":"143","size_leaf_vector":"1"}},{"base_weights":[3.5488777E0,7.2684326E0,1.4319868E0,9.085744E0,3.957237E0,3.757709E0,1.1752853E0,8.587664E0,1.3949182E1,3.2462244E0,8.623108E0,1.0373722E1,6.865603E-1,1.7486825E0,9.170196E-1,7.554274E0,9.628718E0,7.731735E-1,3.141624E0,2.693801E0,4.4049964E0,9.683367E-1,1.0606092E1,6.728302E0,1.3271554E1,3.7927935E-1,2.0821095E-1,5.536205E-1,1.2645464E0,1.1261003E0,3.655723E-1,8.286154E0,6.103578E0,1.0930818E1,6.3781953E0,4.4227896E0,2.20857E0,5.3308406E0,2.6417744E0,2.908118E0,1.2430824E0,8.368232E0,4.3526992E-1,3.2533894E0,1.092115E0,1.2306074E-1,5.59067E-2,3.009773E-1,1.399337E-1,8.889037E-1,1.7897363E0,1.2004852E-1,2.4286109E-1,6.8194685E0,1.9961442E0,4.6836452E0,2.0317025E0,3.0194852E0,9.59883E0,1.9472161E-1,1.392871E0,2.5946758E0,1.7602867E0,2.702756E0,1.8643419E0,2.457549E0,1.3377911E0,3.9992225E-1,7.1734774E-1,8.1252366E-1,2.1163576E0,2.4589281E-1,8.1194097E-1,3.0450055E-1,3.9963987E-1,4.186795E-2,5.3697165E-2,7.301701E0,1.7901345E-1,-1.4174806E-1,5.0941277E0,8.055162E0,1.166594E1,2.896795E0,2.5324765E-1,2.2101316E0,7.871305E-1,1.3821292E0,2.5115926E0,1.4007467E-1,5.853091E-1,1.13828756E-1,8.6963993E-1,1.064003E1,6.2441144E0,1.3117412E0,2.5947971E0,9.943726E0,4.38478E0,9.167275E-1,2.5292265E0,2.7075598E-1,6.8853456E-1,3.0880516E0,3.893934E-1,8.813479E-1,1.9950882E0,6.295684E-1,2.669518E-1,2.0581536E-1,8.041139E-1,1.0820404E0,2.6419702E0,3.5130806E0,6.666702E0,-2.3515701E-2,7.0239735E-1,5.9750805E0,1.1926347E1,-7.7783205E-2,5.85578E0,2.3145448E-1,6.71696E-1,6.295303E-1,-2.8126527E-2,7.6288715E-2,2.3444699E-1,5.64339E-1,1.9474691E-1,1.3465643E-1,2.0457743E-1,2.6541176E-1,1.05135E0,5.0252028E0,8.462279E0,1.4755199E0,4.755066E-1,1.6081198E0,3.731826E0,1.603693E0,1.21427156E-1,1.5549265E-1,5.435079E-2,1.9008474E0,3.6050258E0,6.492085E-1,2.046818E0,4.500776E0,9.287872E-2,3.9431307E-1,1.0606142E0],"categories":[],"categories_nodes":[],"categories_segments":[],"categories_sizes":[],"default_left":[0,0,0,0,0,0,0,0,0,0,0,0,0,0,0,0,0,0,0,0,0,0,0,0,0,0,0,0,0,0,0,0,0,0,0,0,0,0,0,0,0,0,0,0,0,0,0,0,0,0,0,0,0,0,0,0,0,0,0,0,0,0,0,0,0,0,0,0,0,0,0,0,0,0,0,0,0,0,0,0,0,0,0,0,0,0,0,0,0,0,0,0,0,0,0,0,0,0,0,0,0,0,0,0,0,0,0,0,0,0,0,0,0,0,0,0,0,0,0,0,0,0,0,0,0,0,0,0,0,0,0,0,0,0,0,0,0,0,0,0,0,0,0,0,0,0,0,0,0,0,0],"id":13,"left_children":[1,3,5,7,9,11,13,15,17,19,21,23,25,27,29,31,33,-1,-1,35,37,-1,39,41,43,45,-1,-1,47,49,51,53,55,57,59,61,63,65,67,-1,-1,69,-1,-1,-1,-1,-1,-1,-1,71,73,-1,75,77,-1,79,-1,-1,81,-1,-1,83,-1,85,87,89,-1,-1,-1,-1,-1,-1,91,-1,-1,-1,-1,93,-1,-1,95,97,99,101,-1,103,-1,105,107,-1,-1,-1,109,111,113,-1,115,117,119,-1,-1,-1,-1,121,123,125,127,-1,-1,-1,129,-1,-1,131,133,-1,-1,135,137,-1,139,-1,-1,141,-1,-1,-1,-1,-1,-1,-1,-1,-1,143,145,-1,-1,-1,-1,-1,-1,-1,-1,-1,147,-1,-1,149,-1,-1,-1],"loss_changes":[7.115464E3,1.9377773E3,3.4065894E2,3.9133203E2,3.6347144E2,1.1510471E3,7.569891E1,1.359707E2,2.58521E2,5.470764E1,6.1126343E1,1.0085364E2,3.9623241E0,7.595923E1,4.1325836E1,5.772168E1,3.2390332E2,0E0,0E0,5.1475952E1,3.8156128E1,0E0,6.51004E1,5.6436584E1,1.2174573E2,3.6947823E-1,0E0,0E0,1.4016739E1,3.9651093E1,2.7626896E0,9.3487305E1,1.7121497E2,2.1582373E2,8.5089966E1,9.723303E1,4.9978027E0,6.160675E1,7.1658325E-1,0E0,0E0,2.372528E1,0E0,0E0,0E0,0E0,0E0,0E0,0E0,4.112793E0,7.4591064E-1,0E0,2.2053719E-3,1.020282E2,0E0,7.001483E1,0E0,0E0,7.195703E1,0E0,0E0,1.1481247E0,0E0,4.663498E0,8.388931E0,4.5432014E0,0E0,0E0,0E0,0E0,0E0,0E0,1.7745209E0,0E0,0E0,0E0,0E0,5.7132446E1,0E0,0E0,8.547455E1,1.8514673E2,8.0875E1,2.9200592E0,0E0,2.7569847E1,0E0,5.608635E0,7.029785E0,0E0,0E0,0E0,5.2020264E-1,2.2610107E1,1.0048218E1,0E0,3.0266083E1,9.397388E1,9.356477E1,0E0,0E0,0E0,0E0,2.3789825E0,9.7948444E-1,1.7340937E0,5.694996E0,0E0,0E0,0E0,2.059063E0,0E0,0E0,1.589418E1,2.8213867E1,0E0,0E0,2.7870148E1,1.9007422E2,0E0,1.0864337E2,0E0,0E0,5.3355813E-2,0E0,0E0,0E0,0E0,0E0,0E0,0E0,0E0,0E0,6.1152283E1,5.9201538E1,0E0,0E0,0E0,0E0,0E0,0E0,0E0,0E0,0E0,3.4481766E1,0E0,0E0,9.83638E0,0E0,0E0,0E0],"parents":[2147483647,0,0,1,1,2,2,3,3,4,4,5,5,6,6,7,7,8,8,9,9,10,10,11,11,12,12,13,13,14,14,15,15,16,16,19,19,20,20,22,22,23,23,24,24,25,25,28,28,29,29,30,30,31,31,32,32,33,33,34,34,35,35,36,36,37,37,38,38,41,41,49,49,50,50,52,52,53,53,55,55,58,58,61,61,63,63,64,64,65,65,72,72,77,77,80,80,81,81,82,82,83,83,85,85,87,87,88,88,92,92,93,93,94,94,96,96,97,97,98,98,103,103,104,104,105,105,106,106,110,110,113,113,114,114,117,117,118,118,120,120,123,123,133,133,134,134,144,144,147,147],"right_children":[2,4,6,8,10,12,14,16,18,20,22,24,26,28,30,32,34,-1,-1,36,38,-1,40,42,44,46,-1,-1,48,50,52,54,56,58,60,62,64,66,68,-1,-1,70,-1,-1,-1,-1,-1,-1,-1,72,74,-1,76,78,-1,80,-1,-1,82,-1,-1,84,-1,86,88,90,-1,-1,-1,-1,-1,-1,92,-1,-1,-1,-1,94,-1,-1,96,98,100,102,-1,104,-1,106,108,-1,-1,-1,110,112,114,-1,116,118,120,-1,-1,-1,-1,122,124,126,128,-1,-1,-1,130,-1,-1,132,134,-1,-1,136,138,-1,140,-1,-1,142,-1,-1,-1,-1,-1,-1,-1,-1,-1,144,146,-1,-1,-1,-1,-1,-1,-1,-1,-1,148,-1,-1,150,-1,-1,-1],"split_conditions":[3.33E2,1.5E1,3.34E2,3.32E2,2.3E1,1.6E1,3.35E2,8E0,1E0,2.1E1,3E0,7E0,2.1E1,8E0,1.5E1,5E0,1.3E1,7.731735E-1,3.141624E0,1.6E1,3.28E2,9.683367E-1,5E0,4E0,1.3E1,1.8E1,2.0821095E-1,5.536205E-1,1.9E1,9E0,1.8E1,3.26E2,6E0,2E0,3.2E2,5E0,1.8E1,3.22E2,3.32E2,2.908118E0,1.2430824E0,2E0,4.3526992E-1,3.2533894E0,1.092115E0,1.2306074E-1,5.59067E-2,3.009773E-1,1.399337E-1,1E0,1.2E1,1.2004852E-1,2E1,6E0,1.9961442E0,3.2E2,2.0317025E0,3.0194852E0,5E0,1.9472161E-1,1.392871E0,3.29E2,1.7602867E0,6E0,2E1,2.2E1,1.3377911E0,3.9992225E-1,7.1734774E-1,8.1252366E-1,2.1163576E0,2.4589281E-1,2E0,3.0450055E-1,3.9963987E-1,4.186795E-2,5.3697165E-2,3.2E2,1.7901345E-1,-1.4174806E-1,4E0,3.27E2,9E0,3.21E2,2.5324765E-1,4E0,7.871305E-1,3.26E2,3.26E2,1.4007467E-1,5.853091E-1,1.13828756E-1,4E0,2E0,1E0,1.3117412E0,3.22E2,1E1,1E1,9.167275E-1,2.5292265E0,2.7075598E-1,6.8853456E-1,1E0,1.7E1,1.9E1,3.29E2,6.295684E-1,2.669518E-1,2.0581536E-1,6E0,1.0820404E0,2.6419702E0,3.22E2,4E0,-2.3515701E-2,7.0239735E-1,3.22E2,3.22E2,-7.7783205E-2,1.2E1,2.3145448E-1,6.71696E-1,3.22E2,-2.8126527E-2,7.6288715E-2,2.3444699E-1,5.64339E-1,1.9474691E-1,1.3465643E-1,2.0457743E-1,2.6541176E-1,1.05135E0,2E0,2E0,1.4755199E0,4.755066E-1,1.6081198E0,3.731826E0,1.603693E0,1.21427156E-1,1.5549265E-1,5.435079E-2,1.9008474E0,3.25E2,6.492085E-1,2.046818E0,3E0,9.287872E-2,3.9431307E-1,1.0606142E0],"split_indices":[0,1,0,0,1,1,0,1,1,1,2,1,1,1,1,1,1,0,0,1,0,0,2,1,1,1,0,0,1,1,1,0,2,2,0,2,1,0,0,0,0,1,0,0,0,0,0,0,0,1,1,0,1,2,0,0,0,0,2,0,0,0,0,2,1,1,0,0,0,0,0,0,1,0,0,0,0,0,0,0,2,0,1,0,0,2,0,0,0,0,0,0,1,1,1,0,0,1,1,0,0,0,0,2,1,1,0,0,0,0,1,0,0,0,2,0,0,0,0,0,1,0,0,0,0,0,0,0,0,0,0,0,0,1,1,0,0,0,0,0,0,0,0,0,0,0,0,1,0,0,0],"split_type":[0,0,0,0,0,0,0,0,0,0,0,0,0,0,0,0,0,0,0,0,0,0,0,0,0,0,0,0,0,0,0,0,0,0,0,0,0,0,0,0,0,0,0,0,0,0,0,0,0,0,0,0,0,0,0,0,0,0,0,0,0,0,0,0,0,0,0,0,0,0,0,0,0,0,0,0,0,0,0,0,0,0,0,0,0,0,0,0,0,0,0,0,0,0,0,0,0,0,0,0,0,0,0,0,0,0,0,0,0,0,0,0,0,0,0,0,0,0,0,0,0,0,0,0,0,0,0,0,0,0,0,0,0,0,0,0,0,0,0,0,0,0,0,0,0,0,0,0,0,0,0],"sum_hessian":[9.04E2,3.27E2,5.77E2,2.1E2,1.17E2,5.6E1,5.21E2,1.93E2,1.7E1,1.03E2,1.4E1,1.7E1,3.9E1,1.6E2,3.61E2,1.01E2,9.2E1,3E0,1.4E1,7.2E1,3.1E1,6E0,8E0,9E0,8E0,2.2E1,1.7E1,5E1,1.1E2,2.61E2,1E2,6.4E1,3.7E1,6.4E1,2.8E1,1.4E1,5.8E1,1.9E1,1.2E1,3E0,5E0,6E0,3E0,5E0,3E0,5E0,1.7E1,7.6E1,3.4E1,1.94E2,6.7E1,3.3E1,6.7E1,3.7E1,2.7E1,2.9E1,8E0,1.3E1,5.1E1,3E0,2.5E1,1.1E1,3E0,2.1E1,3.7E1,7E0,1.2E1,9E0,3E0,3E0,3E0,3.3E1,1.61E2,3.3E1,3.4E1,3.3E1,3.4E1,3.4E1,3E0,2E0,2.7E1,3.2E1,1.9E1,8E0,3E0,1.7E1,4E0,2.3E1,1.4E1,2E0,5E0,3.3E1,1.28E2,6E0,2.8E1,1.6E1,1.1E1,2E1,1.2E1,3E0,1.6E1,3E0,5E0,1.1E1,6E0,1.4E1,9E0,8E0,6E0,3.3E1,9.5E1,3E0,3E0,5E0,2.3E1,3E0,8E0,8E0,1.2E1,3E0,9E0,2E0,9E0,4E0,2E0,6E0,8E0,4E0,5E0,6.2E1,3.3E1,3E0,2E0,1.4E1,9E0,5E0,3E0,9E0,3E0,6E0,3E0,2E0,2E0,2E0,1.2E1,3E0,6E0,9E0,3E0,3E0,6E0],"tree_param":{"num_deleted":"0","num_feature":"6","num_nodes":"151","size_leaf_vector":"1"}},{"base_weights":[2.9100132E0,5.97712E0,1.1644751E0,7.625412E0,3.5641885E0,3.1482162E0,9.456288E-1,9.130994E0,6.465384E0,3.0790796E0,7.239789E0,8.72729E0,5.589276E-1,1.4051234E0,7.386558E-1,7.5519795E0,1.3094125E1,5.1776376E0,7.6397033E0,4.641795E0,2.4892352E0,8.023359E-1,8.946119E0,5.7190523E0,1.1100078E1,3.1120464E-1,1.6888219E-1,2.2253385E0,1.0156089E0,9.0702116E-1,2.9459265E-1,1.01471815E1,5.5943575E0,1.6193296E1,8.522836E0,2.979238E0,5.697672E0,6.005593E0,9.010375E0,2.2608884E-1,5.4086285E0,1.8319122E0,3.623386E0,2.4719002E0,1.0359024E0,7.1129913E0,3.699791E-1,2.7111583E0,9.2829746E-1,1.0255064E-1,4.5346532E-2,2.4526675E0,3.344619E-1,2.4156347E-1,1.1274661E-1,7.157627E-1,1.4421444E0,9.6744984E-2,1.9569427E-1,6.4181314E0,1.3652141E1,1.80763E0,3.7897477E0,1.9855509E0,3.8500862E0,2.0614202E0,1.0636195E0,3.2043806E-1,7.861361E-1,1.8706999E0,5.006856E0,1.2991732E0,3.0435665E0,2.1080651E0,6.316566E0,1.6648798E0,4.1176777E0,2.2472956E0,1.543219E0,4.3678308E0,2.1993642E0,6.906441E-1,1.7989029E0,3.804817E-1,5.6721944E-1,1.9816056E-1,6.5361995E-1,2.4539159E-1,3.219957E-1,3.374064E-2,4.326458E-2,1.3947251E0,6.5719795E-1,7.761898E-1,3.2955978E0,2.4769008E0,6.9993463E0,5.4356894E0,2.2086856E0,3.1574327E-1,7.9643553E-1,6.1762476E-1,1.7285283E0,3.0202186E0,1.5504917E0,1.8283762E0,6.6118926E-1,1.1502793E0,2.069041E0,4.9324042E-1,1.2045679E0,3.279364E-1,6.097458E-1,9.173261E-2,6.999371E-1,2.865804E-1,3.9132328E0,7.399765E-1,1.7097946E0,4.3833027E0,6.798522E0,6.698273E-1,1.0321274E-1,6.7197865E-1,2.152607E-1,2.5457041E0,3.374743E-1,1.0590386E-1,1.487434E0,5.176448E-1,2.2118853E-1,1.658628E-1,6.4682513E-1,-1.2284851E-1,1.2634146E-1,1.1382004E0,1.1869634E0,5.144998E0,-6.6114806E-2,1.6951386E0,8.3002675E-1,2.0059407E-1,5.507908E-1,5.4559326E-1,-2.4376424E-2,8.876722E-1,2.0460658E0,5.407631E-1,1.6486552E-1,4.0418014E-1,-6.412151E-2,3.727187E0,6.6285896E0,1.3476054E-1,4.710388E-2,2.423265E-1,3.8617745E-1,4.740448E-1,1.6475601E-1,9.2702135E-2,1.2307035E-1,1.0269378E0,1.9883009E0,1.6953175E0,5.3228915E-1,3.4745537E-2,9.398028E-2,-1.9988632E-2,7.158939E-1],"categories":[],"categories_nodes":[],"categories_segments":[],"categories_sizes":[],"default_left":[0,0,0,0,0,0,0,0,0,0,0,0,0,0,0,0,0,0,0,0,0,0,0,0,0,0,0,0,0,0,0,0,0,0,0,0,0,0,0,0,0,0,0,0,0,0,0,0,0,0,0,0,0,0,0,0,0,0,0,0,0,0,0,0,0,0,0,0,0,0,0,0,0,0,0,0,0,0,0,0,0,0,0,0,0,0,0,0,0,0,0,0,0,0,0,0,0,0,0,0,0,0,0,0,0,0,0,0,0,0,0,0,0,0,0,0,0,0,0,0,0,0,0,0,0,0,0,0,0,0,0,0,0,0,0,0,0,0,0,0,0,0,0,0,0,0,0,0,0,0,0,0,0,0,0,0,0,0,0,0,0,0,0,0,0,0,0,0,0],"id":14,"left_children":[1,3,5,7,9,11,13,15,17,19,21,23,25,27,29,31,33,35,37,39,41,-1,43,45,47,49,-1,51,53,55,57,59,61,63,65,67,69,71,73,-1,75,77,79,-1,-1,81,-1,-1,-1,-1,-1,83,-1,-1,-1,85,87,-1,89,91,93,-1,95,-1,-1,-1,-1,-1,-1,-1,97,-1,99,-1,101,-1,103,105,107,109,111,-1,-1,-1,-1,-1,113,-1,-1,-1,-1,-1,-1,-1,-1,115,117,119,121,-1,-1,-1,-1,123,-1,125,-1,127,129,-1,-1,-1,-1,-1,131,133,135,-1,-1,137,139,-1,-1,-1,-1,141,143,-1,145,-1,-1,-1,147,-1,-1,-1,149,151,-1,-1,-1,-1,-1,153,-1,155,157,159,-1,-1,-1,161,163,-1,-1,-1,165,-1,-1,-1,-1,-1,167,-1,-1,-1,-1,-1,-1],"loss_changes":[4.8381855E3,1.2773486E3,2.4795245E2,2.7978906E2,2.1842212E2,8.185345E2,4.8605835E1,4.1425635E2,1.3132568E2,9.997839E1,4.6734375E1,6.500049E1,2.5660467E0,4.9177155E1,2.6797684E1,2.5313916E2,1.7366553E2,4.8190186E1,7.355762E1,8.004974E1,6.045764E1,0E0,5.1695618E1,4.077542E1,7.982495E1,2.7532172E-1,0E0,2.3100739E0,8.959946E0,2.5782639E1,1.7945299E0,2.3913306E2,1.9569153E2,3.8741943E1,8.084961E0,1.0734657E1,6.681604E1,2.2343262E1,5.294165E1,0E0,6.3589844E1,3.6071167E0,2.4316925E1,0E0,0E0,1.714154E1,0E0,0E0,0E0,0E0,0E0,1.7780914E0,0E0,0E0,0E0,2.6852798E0,4.80484E-1,0E0,1.3673306E-3,1.4431152E0,2.6739233E2,0E0,9.221985E1,0E0,0E0,0E0,0E0,0E0,0E0,0E0,3.599225E1,0E0,1.9628181E0,0E0,7.093524E1,0E0,5.6366302E1,3.7122498E0,5.471443E0,4.80907E1,1.1809158E0,0E0,0E0,0E0,0E0,0E0,1.1417999E0,0E0,0E0,0E0,0E0,0E0,0E0,0E0,0E0,6.1799088E1,4.1603394E0,1.8963684E1,1.1784096E1,0E0,0E0,0E0,0E0,7.608795E0,0E0,1.8391281E1,0E0,4.235388E0,4.6379395E0,0E0,0E0,0E0,0E0,0E0,3.4999466E-1,3.1861057E0,5.140512E1,0E0,0E0,8.06926E1,2.2568176E1,0E0,0E0,0E0,0E0,1.0931473E0,7.3570365E-1,0E0,3.2094498E0,0E0,0E0,0E0,1.361557E0,0E0,0E0,0E0,8.191233E0,1.5259613E1,0E0,0E0,0E0,0E0,0E0,4.0078282E-2,0E0,9.9427414E-1,8.209572E-1,7.779312E-2,0E0,0E0,0E0,1.9160522E1,3.609018E1,0E0,0E0,0E0,7.3008537E-3,0E0,0E0,0E0,0E0,0E0,2.3616983E1,0E0,0E0,0E0,0E0,0E0,0E0],"parents":[2147483647,0,0,1,1,2,2,3,3,4,4,5,5,6,6,7,7,8,8,9,9,10,10,11,11,12,12,13,13,14,14,15,15,16,16,17,17,18,18,19,19,20,20,22,22,23,23,24,24,25,25,27,27,28,28,29,29,30,30,31,31,32,32,33,33,34,34,35,35,36,36,37,37,38,38,40,40,41,41,42,42,45,45,51,51,55,55,56,56,58,58,59,59,60,60,62,62,70,70,72,72,74,74,76,76,77,77,78,78,79,79,80,80,86,86,95,95,96,96,97,97,98,98,103,103,105,105,107,107,108,108,114,114,115,115,116,116,119,119,120,120,125,125,126,126,128,128,132,132,136,136,137,137,143,143,145,145,146,146,147,147,151,151,152,152,156,156,162,162],"right_children":[2,4,6,8,10,12,14,16,18,20,22,24,26,28,30,32,34,36,38,40,42,-1,44,46,48,50,-1,52,54,56,58,60,62,64,66,68,70,72,74,-1,76,78,80,-1,-1,82,-1,-1,-1,-1,-1,84,-1,-1,-1,86,88,-1,90,92,94,-1,96,-1,-1,-1,-1,-1,-1,-1,98,-1,100,-1,102,-1,104,106,108,110,112,-1,-1,-1,-1,-1,114,-1,-1,-1,-1,-1,-1,-1,-1,116,118,120,122,-1,-1,-1,-1,124,-1,126,-1,128,130,-1,-1,-1,-1,-1,132,134,136,-1,-1,138,140,-1,-1,-1,-1,142,144,-1,146,-1,-1,-1,148,-1,-1,-1,150,152,-1,-1,-1,-1,-1,154,-1,156,158,160,-1,-1,-1,162,164,-1,-1,-1,166,-1,-1,-1,-1,-1,168,-1,-1,-1,-1,-1,-1],"split_conditions":[3.33E2,1.4E1,3.34E2,3E0,2.3E1,1.6E1,3.35E2,1E1,5E0,1.6E1,3E0,7E0,2.1E1,8E0,1.5E1,4E0,1.2E1,3E0,7E0,3.21E2,2.1E1,8.023359E-1,5E0,4E0,1.3E1,1.8E1,1.6888219E-1,5E0,1.9E1,9E0,1.8E1,2E0,1E0,1E0,2E0,3.22E2,4E0,6E0,1.2E1,2.2608884E-1,3.23E2,1.8E1,3.28E2,2.4719002E0,1.0359024E0,2E0,3.699791E-1,2.7111583E0,9.2829746E-1,1.0255064E-1,4.5346532E-2,3E0,3.344619E-1,2.4156347E-1,1.1274661E-1,1E0,1.2E1,9.6744984E-2,2E1,3.32E2,1E0,1.80763E0,9E0,1.9855509E0,3.8500862E0,2.0614202E0,1.0636195E0,3.2043806E-1,7.861361E-1,1.8706999E0,1.2E1,1.2991732E0,3.23E2,2.1080651E0,6E0,1.6648798E0,3.32E2,6E0,2E1,3.24E2,3.32E2,6.906441E-1,1.7989029E0,3.804817E-1,5.6721944E-1,1.9816056E-1,2E0,2.4539159E-1,3.219957E-1,3.374064E-2,4.326458E-2,1.3947251E0,6.5719795E-1,7.761898E-1,3.2955978E0,3.26E2,3.2E2,1E1,3.21E2,3.1574327E-1,7.9643553E-1,6.1762476E-1,1.7285283E0,3.31E2,1.5504917E0,4E0,6.6118926E-1,3.24E2,3.26E2,4.9324042E-1,1.2045679E0,3.279364E-1,6.097458E-1,9.173261E-2,4E0,3.2E2,6E0,7.399765E-1,1.7097946E0,9E0,1.1E1,6.698273E-1,1.0321274E-1,6.7197865E-1,2.152607E-1,1E0,1.7E1,1.0590386E-1,2E0,5.176448E-1,2.2118853E-1,1.658628E-1,6E0,-1.2284851E-1,1.2634146E-1,1.1382004E0,3.27E2,7E0,-6.6114806E-2,1.6951386E0,8.3002675E-1,2.0059407E-1,5.507908E-1,3.22E2,-2.4376424E-2,1E0,3.29E2,3.36E2,1.6486552E-1,4.0418014E-1,-6.412151E-2,5E0,3.22E2,1.3476054E-1,4.710388E-2,2.423265E-1,3.26E2,4.740448E-1,1.6475601E-1,9.2702135E-2,1.2307035E-1,1.0269378E0,3.22E2,1.6953175E0,5.3228915E-1,3.4745537E-2,9.398028E-2,-1.9988632E-2,7.158939E-1],"split_indices":[0,1,0,2,1,1,0,1,2,1,2,1,1,1,1,1,1,1,1,0,1,0,2,1,1,1,0,1,1,1,1,1,2,2,2,0,1,1,1,0,0,1,0,0,0,1,0,0,0,0,0,1,0,0,0,1,1,0,1,0,2,0,1,0,0,0,0,0,0,0,1,0,0,0,2,0,0,2,1,0,0,0,0,0,0,0,1,0,0,0,0,0,0,0,0,0,0,1,0,0,0,0,0,0,0,2,0,0,0,0,0,0,0,0,1,0,1,0,0,1,1,0,0,0,0,2,1,0,2,0,0,0,1,0,0,0,0,1,0,0,0,0,0,0,0,2,0,0,0,0,0,1,0,0,0,0,0,0,0,0,0,0,0,0,0,0,0,0,0],"split_type":[0,0,0,0,0,0,0,0,0,0,0,0,0,0,0,0,0,0,0,0,0,0,0,0,0,0,0,0,0,0,0,0,0,0,0,0,0,0,0,0,0,0,0,0,0,0,0,0,0,0,0,0,0,0,0,0,0,0,0,0,0,0,0,0,0,0,0,0,0,0,0,0,0,0,0,0,0,0,0,0,0,0,0,0,0,0,0,0,0,0,0,0,0,0,0,0,0,0,0,0,0,0,0,0,0,0,0,0,0,0,0,0,0,0,0,0,0,0,0,0,0,0,0,0,0,0,0,0,0,0,0,0,0,0,0,0,0,0,0,0,0,0,0,0,0,0,0,0,0,0,0,0,0,0,0,0,0,0,0,0,0,0,0,0,0,0,0,0,0],"sum_hessian":[9.04E2,3.27E2,5.77E2,1.93E2,1.34E2,5.6E1,5.21E2,8.1E1,1.12E2,1.2E2,1.4E1,1.7E1,3.9E1,1.6E2,3.61E2,6E1,2.1E1,5.6E1,5.6E1,3.1E1,8.9E1,6E0,8E0,9E0,8E0,2.2E1,1.7E1,5E1,1.1E2,2.61E2,1E2,2.4E1,3.6E1,1.1E1,1E1,1.2E1,4.4E1,2.8E1,2.8E1,6E0,2.5E1,5.8E1,3.1E1,3E0,5E0,6E0,3E0,5E0,3E0,5E0,1.7E1,3.3E1,1.7E1,7.6E1,3.4E1,1.94E2,6.7E1,3.3E1,6.7E1,1.3E1,1.1E1,1.1E1,2.5E1,5E0,6E0,5E0,5E0,6E0,6E0,5E0,3.9E1,2.3E1,5E0,1.6E1,1.2E1,6E0,1.9E1,2.1E1,3.7E1,1.9E1,1.2E1,3E0,3E0,1.6E1,1.7E1,3.3E1,1.61E2,3.3E1,3.4E1,3.3E1,3.4E1,1E1,3E0,3E0,8E0,1.9E1,6E0,3.3E1,6E0,3E0,2E0,6E0,6E0,1.6E1,3E0,1.7E1,4E0,2.3E1,1.4E1,1E1,9E0,9E0,3E0,3.3E1,1.28E2,8E0,1.1E1,3E0,3E0,2.1E1,1.2E1,3E0,3E0,1.3E1,3E0,1.1E1,6E0,9E0,1.4E1,8E0,6E0,3.3E1,9.5E1,2E0,6E0,6E0,5E0,1.8E1,3E0,6E0,6E0,2E0,9E0,4E0,2E0,8E0,6E0,6.2E1,3.3E1,3E0,2E0,1.1E1,7E0,2E0,2E0,4E0,4E0,4E0,2E0,3.4E1,2.8E1,5E0,6E0,4E0,3E0,2E0,2E0,3E0,3E0],"tree_param":{"num_deleted":"0","num_feature":"6","num_nodes":"169","size_leaf_vector":"1"}},{"base_weights":[2.3971572E0,4.941903E0,9.489327E-1,6.2954273E0,2.9602318E0,2.6381483E0,7.6266026E-1,7.5587416E0,5.322974E0,2.5491216E0,6.079172E0,7.342888E0,4.5506185E-1,1.1342632E0,5.9528255E-1,6.2360573E0,1.0882606E1,4.320352E0,6.23221E0,3.8487077E0,2.058723E0,6.647923E-1,7.5466504E0,4.8611937E0,9.28445E0,2.553939E-1,1.369824E-1,1.8054117E0,8.156791E-1,7.309749E-1,2.3739468E-1,8.362695E0,4.630598E0,1.2412611E1,4.7338233E0,2.4685147E0,4.75932E0,5.0830665E0,7.709942E0,1.8733063E-1,4.484695E0,1.5235747E0,2.9810674E0,2.101115E0,8.632518E-1,6.0460424E0,3.1448212E-1,2.2592998E0,7.890526E-1,8.545888E-2,3.678104E-2,1.9900079E0,2.712859E-1,9.693908E-1,9.084162E-2,5.768993E-1,1.1620598E0,7.796516E-2,1.57688E-1,1.0562142E0,1.1261031E1,7.381153E0,3.1830113E0,1.0434159E0,1.3581862E1,3.8147888E-1,1.1340379E0,2.6550642E-1,6.5137047E-1,1.5589169E0,4.185047E0,5.2702236E0,4.6300814E-1,1.9870955E0,5.233724E0,1.3794719E0,3.4160275E0,1.869202E0,1.2833806E0,3.5791554E0,1.831619E0,5.870476E-1,1.5290673E0,3.0886158E-1,4.6007815E-1,2.1967183E-1,8.4770185E-1,1.5969418E-1,5.268355E-1,1.977567E-1,2.594367E-1,2.7191011E-2,3.4858927E-2,6.597611E-1,2.7097147E0,5.4029016E0,1.9973862E0,2.0556087E0,5.9494452E0,1.6546259E0,3.1223843E0,4.5370646E0,1.8773825E0,3.566812E0,1.1563395E0,5.11746E-1,1.4322088E0,2.4683642E0,1.3179181E0,1.5263166E0,6.061215E-1,9.6671325E-1,1.7044898E0,4.0356037E-1,9.877459E-1,2.6890755E-1,5.182835E-1,8.632584E-2,2.1873747E-1,7.3925614E-2,5.6418604E-1,1.2537907E0,3.1622925E-1,2.2965156E-1,3.2537758E0,6.289803E-1,1.4533256E0,3.6832037E0,5.6330557E0,5.6935275E-1,8.7731175E-2,4.3286405E0,2.683819E-1,5.4718226E-1,1.8297176E-1,1.1534853E0,5.2721256E-1,4.34206E-1,1.2572706E0,3.916069E-1,1.0354662E-1,1.3366586E-1,5.2142507E-1,-1.06468715E-1,1.0468271E-1,9.430806E-1,1.0062485E0,4.3239174E0,-5.6197356E-2,1.4045423E0,6.8773544E-1,3.5695153E-1,1.1580727E0,5.136973E-1,7.6787895E-1,5.070305E-2,1.02482796E-1,7.5136566E-1,1.7281096E0,4.3603536E-1,1.3286221E-1,3.4355393E-1,-5.557251E-2,3.1253197E0,5.5813236E0,1.0454849E0,5.9091188E-2,2.0355423E-1,3.3468705E-1,4.6516472E-1,2.0477188E-1,7.469148E-2,9.930497E-2,1.6876265E0,8.5634845E-1,1.4240668E0,4.5244598E-1,9.748154E-2,3.0121613E-1,-2.1126302E-2,4.0823366E-2,3.0112712E-2,8.1449635E-2,6.076595E-1,-1.699028E-2],"categories":[],"categories_nodes":[],"categories_segments":[],"categories_sizes":[],"default_left":[0,0,0,0,0,0,0,0,0,0,0,0,0,0,0,0,0,0,0,0,0,0,0,0,0,0,0,0,0,0,0,0,0,0,0,0,0,0,0,0,0,0,0,0,0,0,0,0,0,0,0,0,0,0,0,0,0,0,0,0,0,0,0,0,0,0,0,0,0,0,0,0,0,0,0,0,0,0,0,0,0,0,0,0,0,0,0,0,0,0,0,0,0,0,0,0,0,0,0,0,0,0,0,0,0,0,0,0,0,0,0,0,0,0,0,0,0,0,0,0,0,0,0,0,0,0,0,0,0,0,0,0,0,0,0,0,0,0,0,0,0,0,0,0,0,0,0,0,0,0,0,0,0,0,0,0,0,0,0,0,0,0,0,0,0,0,0,0,0,0,0,0,0,0,0,0,0,0,0,0,0,0,0,0,0],"id":15,"left_children":[1,3,5,7,9,11,13,15,17,19,21,23,25,27,29,31,33,35,37,39,41,-1,43,45,47,49,-1,51,53,55,57,59,61,63,65,67,69,71,73,-1,75,77,79,-1,-1,81,-1,-1,-1,-1,-1,83,-1,85,-1,87,89,-1,91,-1,93,95,97,-1,99,-1,-1,-1,-1,-1,101,103,-1,-1,105,-1,107,109,111,113,115,-1,-1,-1,-1,-1,117,-1,119,-1,-1,-1,-1,-1,-1,121,-1,123,125,-1,-1,127,129,131,-1,-1,-1,133,-1,135,-1,137,139,-1,-1,-1,-1,-1,-1,-1,141,-1,-1,143,145,-1,-1,147,149,-1,-1,151,-1,-1,-1,153,-1,155,157,-1,-1,-1,159,-1,-1,-1,161,163,-1,-1,-1,-1,-1,-1,165,-1,-1,167,169,171,-1,-1,-1,173,175,177,179,-1,181,-1,-1,-1,-1,183,-1,-1,-1,-1,-1,-1,-1,-1,-1,-1,-1],"loss_changes":[3.330564E3,8.611387E2,1.7985822E2,1.9809717E2,1.5760425E2,5.820973E2,3.1792175E1,2.926421E2,7.608765E1,6.919171E1,3.5563416E1,4.1596924E1,1.6608257E0,3.295195E1,1.7406174E1,1.6954395E2,1.4820996E2,3.458667E1,5.7603027E1,5.5064392E1,3.9881287E1,0E0,4.068158E1,2.946025E1,5.21167E1,2.0406413E-1,0E0,1.5275879E0,5.727112E0,1.6731552E1,1.1656575E0,1.6381934E2,1.2382739E2,7.216943E1,5.064148E0,7.3696594E0,4.5817444E1,5.9311523E0,7.475134E1,0E0,4.347516E1,2.4991455E0,1.5443451E1,0E0,0E0,1.238475E1,0E0,0E0,0E0,0E0,0E0,1.1509705E0,0E0,2.77359E-1,0E0,1.7424164E0,3.0950165E-1,0E0,8.457899E-4,0E0,1.738728E2,7.9002075E0,6.886127E1,0E0,2.1719238E1,0E0,0E0,0E0,0E0,0E0,2.3975708E1,7.2578125E0,0E0,0E0,4.869922E1,0E0,4.388388E1,4.1353683E0,3.4196014E0,3.2490112E1,1.3268242E0,0E0,0E0,0E0,0E0,0E0,4.0312366E0,0E0,7.4269104E-1,0E0,0E0,0E0,0E0,0E0,0E0,1.9876404E1,0E0,4.3008797E1,3.005844E0,0E0,0E0,1.1070374E1,8.513973E0,1.1141296E1,0E0,0E0,0E0,4.5628433E0,0E0,4.820553E0,0E0,3.1674614E0,3.4996986E0,0E0,0E0,0E0,0E0,0E0,0E0,0E0,2.2598267E-1,0E0,0E0,2.2932425E0,3.4675697E1,0E0,0E0,5.7092987E1,1.5493744E1,0E0,0E0,1.5694778E1,0E0,0E0,0E0,6.7578487E0,0E0,1.14097595E-2,2.2745552E0,0E0,0E0,0E0,8.8163376E-1,0E0,0E0,0E0,5.9593368E0,1.1191956E1,0E0,0E0,0E0,0E0,0E0,0E0,2.692913E0,0E0,0E0,6.584139E-1,5.6526566E-1,5.3043365E-2,0E0,0E0,0E0,1.2724976E1,2.4757141E1,1.8364048E0,1.4100623E-1,0E0,5.4843426E-3,0E0,0E0,0E0,0E0,1.7017296E1,0E0,0E0,0E0,0E0,0E0,0E0,0E0,0E0,0E0,0E0,0E0],"parents":[2147483647,0,0,1,1,2,2,3,3,4,4,5,5,6,6,7,7,8,8,9,9,10,10,11,11,12,12,13,13,14,14,15,15,16,16,17,17,18,18,19,19,20,20,22,22,23,23,24,24,25,25,27,27,28,28,29,29,30,30,31,31,32,32,33,33,34,34,35,35,36,36,37,37,38,38,40,40,41,41,42,42,45,45,51,51,53,53,55,55,56,56,58,58,60,60,61,61,62,62,64,64,70,70,71,71,74,74,76,76,77,77,78,78,79,79,80,80,86,86,88,88,95,95,97,97,98,98,101,101,102,102,103,103,107,107,109,109,111,111,112,112,120,120,123,123,124,124,127,127,128,128,131,131,135,135,137,137,138,138,142,142,146,146,147,147,154,154,157,157,158,158,159,159,163,163,164,164,165,165,166,166,168,168,173,173],"right_children":[2,4,6,8,10,12,14,16,18,20,22,24,26,28,30,32,34,36,38,40,42,-1,44,46,48,50,-1,52,54,56,58,60,62,64,66,68,70,72,74,-1,76,78,80,-1,-1,82,-1,-1,-1,-1,-1,84,-1,86,-1,88,90,-1,92,-1,94,96,98,-1,100,-1,-1,-1,-1,-1,102,104,-1,-1,106,-1,108,110,112,114,116,-1,-1,-1,-1,-1,118,-1,120,-1,-1,-1,-1,-1,-1,122,-1,124,126,-1,-1,128,130,132,-1,-1,-1,134,-1,136,-1,138,140,-1,-1,-1,-1,-1,-1,-1,142,-1,-1,144,146,-1,-1,148,150,-1,-1,152,-1,-1,-1,154,-1,156,158,-1,-1,-1,160,-1,-1,-1,162,164,-1,-1,-1,-1,-1,-1,166,-1,-1,168,170,172,-1,-1,-1,174,176,178,180,-1,182,-1,-1,-1,-1,184,-1,-1,-1,-1,-1,-1,-1,-1,-1,-1,-1],"split_conditions":[3.33E2,1.4E1,3.34E2,3E0,2.3E1,1.6E1,3.35E2,1E1,5E0,1.6E1,3E0,7E0,2.1E1,8E0,1.5E1,4E0,1.3E1,3E0,9E0,3.21E2,2.1E1,6.647923E-1,5E0,4E0,1.3E1,1.8E1,1.369824E-1,5E0,1.9E1,9E0,1.8E1,2E0,1E0,3.2E2,3.27E2,3.22E2,4E0,8E0,1.2E1,1.8733063E-1,3.23E2,1.8E1,3.28E2,2.101115E0,8.632518E-1,2E0,3.1448212E-1,2.2592998E0,7.890526E-1,8.545888E-2,3.678104E-2,3E0,2.712859E-1,1.4E1,9.084162E-2,1E0,1.2E1,7.796516E-2,2E1,1.0562142E0,1E0,8E0,9E0,1.0434159E0,1E0,3.8147888E-1,1.1340379E0,2.6550642E-1,6.5137047E-1,1.5589169E0,1.2E1,3.23E2,4.6300814E-1,1.9870955E0,6E0,1.3794719E0,3.32E2,3.3E2,2E1,3.24E2,3.32E2,5.870476E-1,1.5290673E0,3.0886158E-1,4.6007815E-1,2.1967183E-1,1.7E1,1.5969418E-1,2E0,1.977567E-1,2.594367E-1,2.7191011E-2,3.4858927E-2,6.597611E-1,2.7097147E0,7E0,1.9973862E0,3.26E2,3.2E2,1.6546259E0,3.1223843E0,1E1,3.21E2,5E0,1.1563395E0,5.11746E-1,1.4322088E0,3.31E2,1.3179181E0,6E0,6.061215E-1,3.24E2,3.28E2,4.0356037E-1,9.877459E-1,2.6890755E-1,5.182835E-1,8.632584E-2,2.1873747E-1,7.3925614E-2,4E0,1.2537907E0,3.1622925E-1,3.2E2,6E0,6.289803E-1,1.4533256E0,9E0,1.1E1,5.6935275E-1,8.7731175E-2,2E0,2.683819E-1,5.4718226E-1,1.8297176E-1,3.2E2,5.2721256E-1,1.9E1,2E0,3.916069E-1,1.0354662E-1,1.3366586E-1,6E0,-1.06468715E-1,1.0468271E-1,9.430806E-1,3.27E2,7E0,-5.6197356E-2,1.4045423E0,6.8773544E-1,3.5695153E-1,1.1580727E0,5.136973E-1,5E0,5.070305E-2,1.02482796E-1,1E0,1.9E1,3.36E2,1.3286221E-1,3.4355393E-1,-5.557251E-2,3.22E2,3.22E2,1.7E1,3.23E2,2.0355423E-1,3.26E2,4.6516472E-1,2.0477188E-1,7.469148E-2,9.930497E-2,3.21E2,8.5634845E-1,1.4240668E0,4.5244598E-1,9.748154E-2,3.0121613E-1,-2.1126302E-2,4.0823366E-2,3.0112712E-2,8.1449635E-2,6.076595E-1,-1.699028E-2],"split_indices":[0,1,0,2,1,1,0,1,2,1,2,1,1,1,1,1,1,1,1,0,1,0,2,1,1,1,0,1,1,1,1,1,2,0,0,0,1,1,1,0,0,1,0,0,0,1,0,0,0,0,0,1,0,1,0,1,1,0,1,0,2,1,1,0,2,0,0,0,0,0,1,0,0,0,2,0,0,0,1,0,0,0,0,0,0,0,1,0,1,0,0,0,0,0,0,1,0,0,0,0,0,1,0,1,0,0,0,0,0,2,0,0,0,0,0,0,0,0,0,0,1,0,0,0,1,0,0,1,1,0,0,1,0,0,0,0,0,1,2,0,0,0,1,0,0,0,0,1,0,0,0,0,0,0,2,0,0,2,1,0,0,0,0,0,0,1,0,0,0,0,0,0,0,0,0,0,0,0,0,0,0,0,0,0,0],"split_type":[0,0,0,0,0,0,0,0,0,0,0,0,0,0,0,0,0,0,0,0,0,0,0,0,0,0,0,0,0,0,0,0,0,0,0,0,0,0,0,0,0,0,0,0,0,0,0,0,0,0,0,0,0,0,0,0,0,0,0,0,0,0,0,0,0,0,0,0,0,0,0,0,0,0,0,0,0,0,0,0,0,0,0,0,0,0,0,0,0,0,0,0,0,0,0,0,0,0,0,0,0,0,0,0,0,0,0,0,0,0,0,0,0,0,0,0,0,0,0,0,0,0,0,0,0,0,0,0,0,0,0,0,0,0,0,0,0,0,0,0,0,0,0,0,0,0,0,0,0,0,0,0,0,0,0,0,0,0,0,0,0,0,0,0,0,0,0,0,0,0,0,0,0,0,0,0,0,0,0,0,0,0,0,0,0],"sum_hessian":[9.04E2,3.27E2,5.77E2,1.93E2,1.34E2,5.6E1,5.21E2,8.1E1,1.12E2,1.2E2,1.4E1,1.7E1,3.9E1,1.6E2,3.61E2,6E1,2.1E1,5.6E1,5.6E1,3.1E1,8.9E1,6E0,8E0,9E0,8E0,2.2E1,1.7E1,5E1,1.1E2,2.61E2,1E2,2.4E1,3.6E1,1.6E1,5E0,1.2E1,4.4E1,3.4E1,2.2E1,6E0,2.5E1,5.8E1,3.1E1,3E0,5E0,6E0,3E0,5E0,3E0,5E0,1.7E1,3.3E1,1.7E1,7.6E1,3.4E1,1.94E2,6.7E1,3.3E1,6.7E1,1.3E1,1.1E1,1.1E1,2.5E1,3E0,1.3E1,2E0,3E0,6E0,6E0,5E0,3.9E1,3.1E1,3E0,1E1,1.2E1,6E0,1.9E1,2.1E1,3.7E1,1.9E1,1.2E1,3E0,3E0,1.6E1,1.7E1,3.3E1,4.3E1,3.3E1,1.61E2,3.3E1,3.4E1,3.3E1,3.4E1,3E0,8E0,8E0,3E0,1.9E1,6E0,5E0,8E0,3.3E1,6E0,9E0,2.2E1,6E0,6E0,1.6E1,3E0,1.8E1,3E0,2.3E1,1.4E1,1E1,9E0,9E0,3E0,1.7E1,2.6E1,3.3E1,1.28E2,6E0,2E0,8E0,1.1E1,3E0,3E0,2.1E1,1.2E1,3E0,3E0,6E0,3E0,1.3E1,3E0,1.5E1,3E0,9E0,1.4E1,1.1E1,3E0,3.3E1,9.5E1,2E0,6E0,6E0,5E0,1.8E1,3E0,6E0,6E0,3E0,3E0,2E0,1.3E1,4E0,5E0,8E0,6E0,6.2E1,3.3E1,3E0,2E0,1.1E1,7E0,9E0,4E0,4E0,4E0,2E0,4E0,3.4E1,2.8E1,6E0,5E0,4E0,3E0,5E0,4E0,2E0,2E0,2E0,2E0,3E0,3E0],"tree_param":{"num_deleted":"0","num_feature":"6","num_nodes":"185","size_leaf_vector":"1"}},{"base_weights":[1.9798846E0,4.098609E0,7.741382E-1,5.2140064E0,2.465381E0,2.2111888E0,6.157359E-1,6.2743177E0,4.3984356E0,2.1177454E0,5.1052814E0,6.178697E0,3.7053034E-1,9.176952E-1,4.797381E-1,5.174169E0,9.039535E0,3.9058185E0,5.690643E0,3.1919312E0,1.7122822E0,3.3197403E-1,5.828312E0,4.132013E0,7.7662683E0,2.0963007E-1,1.1110802E-1,1.4647259E0,6.580894E-1,5.89098E-1,1.9130218E-1,6.8671827E0,3.8903983E0,1.0272463E1,4.0396476E0,1.4912808E0,4.5322423E0,6.1422358E0,2.6652566E-1,1.5521654E-1,3.7195852E0,1.2815518E0,2.4529324E0,6.51475E0,5.653496E-1,5.139134E0,2.6730958E-1,1.8827509E0,6.7069435E-1,7.1215756E-2,2.9833544E-2,1.614622E0,2.2004297E-1,7.823278E-1,7.3192455E-2,4.6497652E-1,9.3637127E-1,6.283083E-2,1.2706293E-1,4.300301E0,9.289613E0,6.2022095E0,2.6737776E0,8.869042E-1,1.1206698E1,3.3061525E-1,9.639328E-1,2.0411034E0,-2.1616593E-1,9.929253E-1,3.1786082E0,4.33337E0,1.7206167E0,1.1429912E0,2.8352263E0,1.5892444E0,1.0696892E0,2.9328895E0,1.5258496E0,7.6379293E-1,1.7859482E0,4.9898988E-1,1.299707E0,2.507231E-1,3.7317428E-1,1.7702977E-1,6.85095E-1,1.2869462E-1,4.2464405E-1,1.593688E-1,2.090317E-1,2.1912728E-2,2.808638E-2,9.490997E-1,4.0018654E-1,5.6079715E-1,2.227987E0,4.4967737E0,1.6977776E0,1.705951E0,5.057029E0,6.8942695E0,2.5672927E0,2.1999164E-1,4.9915895E-1,7.362768E-1,7.457047E-2,1.5098262E0,1.8930345E0,2.017642E0,1.1202306E0,1.2978584E0,5.152033E-1,8.207974E-1,1.3966032E0,1.6509292E0,8.099513E-1,2.2050431E-1,4.4054148E-1,7.00197E-2,1.7661043E-1,5.957528E-2,4.5476386E-1,1.0388564E0,2.7406618E-1,1.8352254E-1,2.7056096E0,5.3463286E-1,1.2353271E0,1.82335E0,7.007683E-1,3.971329E-2,5.0072783E-1,4.455628E-1,1.5552597E-1,9.810438E-1,4.4813043E-1,3.626833E-1,1.071487E0,3.560007E-1,1.4082909E-1,9.707044E-1,4.111998E-1,1.07719116E-1,4.2033637E-1,-9.227295E-2,4.336853E-1,7.8140956E-1,8.529968E-1,4.4520417E-1,6.4418846E-1,4.2590562E-2,8.54023E-2,6.361054E-1,1.4781935E0,2.89843E-1,1.8244425E-3,3.515899E-1,1.0707134E-1,4.4292834E-2,1.0749703E-1,2.920212E-1,-4.8162844E-2,8.762581E-1,5.1211547E-2,1.8664446E-1,3.3200994E-1,4.0314278E-1,1.7200851E-1,6.017993E-2,8.01288E-2,4.061737E-1,2.5302157E-1,-1.830953E-2,3.5380047E-2,2.6097616E-2,8.002978E-2,1.03794865E-1,4.4005968E-2],"categories":[],"categories_nodes":[],"categories_segments":[],"categories_sizes":[],"default_left":[0,0,0,0,0,0,0,0,0,0,0,0,0,0,0,0,0,0,0,0,0,0,0,0,0,0,0,0,0,0,0,0,0,0,0,0,0,0,0,0,0,0,0,0,0,0,0,0,0,0,0,0,0,0,0,0,0,0,0,0,0,0,0,0,0,0,0,0,0,0,0,0,0,0,0,0,0,0,0,0,0,0,0,0,0,0,0,0,0,0,0,0,0,0,0,0,0,0,0,0,0,0,0,0,0,0,0,0,0,0,0,0,0,0,0,0,0,0,0,0,0,0,0,0,0,0,0,0,0,0,0,0,0,0,0,0,0,0,0,0,0,0,0,0,0,0,0,0,0,0,0,0,0,0,0,0,0,0,0,0,0,0,0,0,0,0,0,0,0,0,0,0,0,0,0,0,0,0,0],"id":16,"left_children":[1,3,5,7,9,11,13,15,17,19,21,23,25,27,29,31,33,35,37,39,41,-1,43,45,47,49,-1,51,53,55,57,59,61,63,65,67,69,71,-1,-1,73,75,77,79,-1,81,-1,-1,-1,-1,-1,83,-1,85,-1,87,89,-1,91,93,95,97,99,-1,101,-1,-1,103,-1,-1,105,107,-1,-1,109,111,113,115,117,-1,-1,-1,-1,-1,-1,-1,119,-1,121,-1,-1,-1,-1,-1,-1,-1,-1,123,-1,125,127,129,-1,-1,-1,-1,-1,-1,131,133,-1,135,-1,137,139,141,-1,-1,-1,-1,-1,-1,143,-1,-1,145,147,-1,-1,-1,-1,-1,-1,-1,-1,149,-1,151,153,-1,-1,155,-1,-1,157,-1,159,-1,161,-1,163,-1,-1,165,167,-1,-1,169,-1,-1,-1,-1,-1,171,173,-1,175,-1,-1,-1,-1,177,-1,-1,-1,-1,-1,-1,-1],