{"learner":{"attributes":{"scikit_learn":"{\"_estimator_type\": \"regressor\"}"},"feature_names":["dayofyear","hour","dayofweek","quarter","month","year"],"feature_types":["int","int","int","int","int","int"],"gradient_booster":{"model":{"gbtree_model_param":{"num_parallel_tree":"1","num_trees":"1000"},"iteration_indptr":[0,1,2,3,4,5,6,7,8,9,10,11,12,13,14,15,16,17,18,19,20,21,22,23,24,25,26,27,28,29,30,31,32,33,34,35,36,37,38,39,40,41,42,43,44,45,46,47,48,49,50,51,52,53,54,55,56,57,58,59,60,61,62,63,64,65,66,67,68,69,70,71,72,73,74,75,76,77,78,79,80,81,82,83,84,85,86,87,88,89,90,91,92,93,94,95,96,97,98,99,100,101,102,103,104,105,106,107,108,109,110,111,112,113,114,115,116,117,118,119,120,121,122,123,124,125,126,127,128,129,130,131,132,133,134,135,136,137,138,139,140,141,142,143,144,145,146,147,148,149,150,151,152,153,154,155,156,157,158,159,160,161,162,163,164,165,166,167,168,169,170,171,172,173,174,175,176,177,178,179,180,181,182,183,184,185,186,187,188,189,190,191,192,193,194,195,196,197,198,199,200,201,202,203,204,205,206,207,208,209,210,211,212,213,214,215,216,217,218,219,220,221,222,223,224,225,226,227,228,229,230,231,232,233,234,235,236,237,238,239,240,241,242,243,244,245,246,247,248,249,250,251,252,253,254,255,256,257,258,259,260,261,262,263,264,265,266,267,268,269,270,271,272,273,274,275,276,277,278,279,280,281,282,283,284,285,286,287,288,289,290,291,292,293,294,295,296,297,298,299,300,301,302,303,304,305,306,307,308,309,310,311,312,313,314,315,316,317,318,319,320,321,322,323,324,325,326,327,328,329,330,331,332,333,334,335,336,337,338,339,340,341,342,343,344,345,346,347,348,349,350,351,352,353,354,355,356,357,358,359,360,361,362,363,364,365,366,367,368,369,370,371,372,373,374,375,376,377,378,379,380,381,382,383,384,385,386,387,388,389,390,391,392,393,394,395,396,397,398,399,400,401,402,403,404,405,406,407,408,409,410,411,412,413,414,415,416,417,418,419,420,421,422,423,424,425,426,427,428,429,430,431,432,433,434,435,436,437,438,439,440,441,442,443,444,445,446,447,448,449,450,451,452,453,454,455,456,457,458,459,460,461,462,463,464,465,466,467,468,469,470,471,472,473,474,475,476,477,478,479,480,481,482,483,484,485,486,487,488,489,490,491,492,493,494,495,496,497,498,499,500,501,502,503,504,505,506,507,508,509,510,511,512,513,514,515,516,517,518,519,520,521,522,523,524,525,526,527,528,529,530,531,532,533,534,535,536,537,538,539,540,541,542,543,544,545,546,547,548,549,550,551,552,553,554,555,556,557,558,559,560,561,562,563,564,565,566,567,568,569,570,571,572,573,574,575,576,577,578,579,580,581,582,583,584,585,586,587,588,589,590,591,592,593,594,595,596,597,598,599,600,601,602,603,604,605,606,607,608,609,610,611,612,613,614,615,616,617,618,619,620,621,622,623,624,625,626,627,628,629,630,631,632,633,634,635,636,637,638,639,640,641,642,643,644,645,646,647,648,649,650,651,652,653,654,655,656,657,658,659,660,661,662,663,664,665,666,667,668,669,670,671,672,673,674,675,676,677,678,679,680,681,682,683,684,685,686,687,688,689,690,691,692,693,694,695,696,697,698,699,700,701,702,703,704,705,706,707,708,709,710,711,712,713,714,715,716,717,718,719,720,721,722,723,724,725,726,727,728,729,730,731,732,733,734,735,736,737,738,739,740,741,742,743,744,745,746,747,748,749,750,751,752,753,754,755,756,757,758,759,760,761,762,763,764,765,766,767,768,769,770,771,772,773,774,775,776,777,778,779,780,781,782,783,784,785,786,787,788,789,790,791,792,793,794,795,796,797,798,799,800,801,802,803,804,805,806,807,808,809,810,811,812,813,814,815,816,817,818,819,820,821,822,823,824,825,826,827,828,829,830,831,832,833,834,835,836,837,838,839,840,841,842,843,844,845,846,847,848,849,850,851,852,853,854,855,856,857,858,859,860,861,862,863,864,865,866,867,868,869,870,871,872,873,874,875,876,877,878,879,880,881,882,883,884,885,886,887,888,889,890,891,892,893,894,895,896,897,898,899,900,901,902,903,904,905,906,907,908,909,910,911,912,913,914,915,916,917,918,919,920,921,922,923,924,925,926,927,928,929,930,931,932,933,934,935,936,937,938,939,940,941,942,943,944,945,946,947,948,949,950,951,952,953,954,955,956,957,958,959,960,961,962,963,964,965,966,967,968,969,970,971,972,973,974,975,976,977,978,979,980,981,982,983,984,985,986,987,988,989,990,991,992,993,994,995,996,997,998,999,1000],"tree_info":[0,0,0,0,0,0,0,0,0,0,0,0,0,0,0,0,0,0,0,0,0,0,0,0,0,0,0,0,0,0,0,0,0,0,0,0,0,0,0,0,0,0,0,0,0,0,0,0,0,0,0,0,0,0,0,0,0,0,0,0,0,0,0,0,0,0,0,0,0,0,0,0,0,0,0,0,0,0,0,0,0,0,0,0,0,0,0,0,0,0,0,0,0,0,0,0,0,0,0,0,0,0,0,0,0,0,0,0,0,0,0,0,0,0,0,0,0,0,0,0,0,0,0,0,0,0,0,0,0,0,0,0,0,0,0,0,0,0,0,0,0,0,0,0,0,0,0,0,0,0,0,0,0,0,0,0,0,0,0,0,0,0,0,0,0,0,0,0,0,0,0,0,0,0,0,0,0,0,0,0,0,0,0,0,0,0,0,0,0,0,0,0,0,0,0,0,0,0,0,0,0,0,0,0,0,0,0,0,0,0,0,0,0,0,0,0,0,0,0,0,0,0,0,0,0,0,0,0,0,0,0,0,0,0,0,0,0,0,0,0,0,0,0,0,0,0,0,0,0,0,0,0,0,0,0,0,0,0,0,0,0,0,0,0,0,0,0,0,0,0,0,0,0,0,0,0,0,0,0,0,0,0,0,0,0,0,0,0,0,0,0,0,0,0,0,0,0,0,0,0,0,0,0,0,0,0,0,0,0,0,0,0,0,0,0,0,0,0,0,0,0,0,0,0,0,0,0,0,0,0,0,0,0,0,0,0,0,0,0,0,0,0,0,0,0,0,0,0,0,0,0,0,0,0,0,0,0,0,0,0,0,0,0,0,0,0,0,0,0,0,0,0,0,0,0,0,0,0,0,0,0,0,0,0,0,0,0,0,0,0,0,0,0,0,0,0,0,0,0,0,0,0,0,0,0,0,0,0,0,0,0,0,0,0,0,0,0,0,0,0,0,0,0,0,0,0,0,0,0,0,0,0,0,0,0,0,0,0,0,0,0,0,0,0,0,0,0,0,0,0,0,0,0,0,0,0,0,0,0,0,0,0,0,0,0,0,0,0,0,0,0,0,0,0,0,0,0,0,0,0,0,0,0,0,0,0,0,0,0,0,0,0,0,0,0,0,0,0,0,0,0,0,0,0,0,0,0,0,0,0,0,0,0,0,0,0,0,0,0,0,0,0,0,0,0,0,0,0,0,0,0,0,0,0,0,0,0,0,0,0,0,0,0,0,0,0,0,0,0,0,0,0,0,0,0,0,0,0,0,0,0,0,0,0,0,0,0,0,0,0,0,0,0,0,0,0,0,0,0,0,0,0,0,0,0,0,0,0,0,0,0,0,0,0,0,0,0,0,0,0,0,0,0,0,0,0,0,0,0,0,0,0,0,0,0,0,0,0,0,0,0,0,0,0,0,0,0,0,0,0,0,0,0,0,0,0,0,0,0,0,0,0,0,0,0,0,0,0,0,0,0,0,0,0,0,0,0,0,0,0,0,0,0,0,0,0,0,0,0,0,0,0,0,0,0,0,0,0,0,0,0,0,0,0,0,0,0,0,0,0,0,0,0,0,0,0,0,0,0,0,0,0,0,0,0,0,0,0,0,0,0,0,0,0,0,0,0,0,0,0,0,0,0,0,0,0,0,0,0,0,0,0,0,0,0,0,0,0,0,0,0,0,0,0,0,0,0,0,0,0,0,0,0,0,0,0,0,0,0,0,0,0,0,0,0,0,0,0,0,0,0,0,0,0,0,0,0,0,0,0,0,0,0,0,0,0,0,0,0,0,0,0,0,0,0,0,0,0,0,0,0,0,0,0,0,0,0,0,0,0,0,0,0,0,0,0,0,0,0,0,0,0,0,0,0,0,0,0,0,0,0,0,0,0,0,0,0,0,0,0,0,0,0,0,0,0,0,0,0,0,0,0,0,0,0,0,0,0,0,0,0,0,0,0,0,0,0,0,0,0,0,0,0,0,0,0,0,0,0,0,0,0,0,0,0,0,0,0,0,0,0,0,0,0,0,0,0,0,0,0,0,0,0,0,0,0,0,0,0,0,0,0,0,0,0,0,0,0,0,0,0,0,0,0,0,0,0,0,0,0,0,0,0,0,0,0,0,0,0,0,0,0,0,0,0,0,0,0,0,0,0,0,0,0,0,0,0,0,0,0,0,0,0,0,0,0,0,0,0,0,0,0,0,0,0,0,0,0,0,0,0,0,0,0,0,0,0,0,0,0,0,0,0,0,0,0,0,0,0,0],"trees":[{"base_weights":[4.72421E2,1.0486692E3,1.4459775E2,1.3666624E3,5.8393335E2,4.3633334E2,1.1246456E2,2.4383305E2,3.210028E2,4.6161057E2,1.9264688E2,1.1555278E3,1.017875E2,1.4169751E2,4.6037266E1,1.6369444E2,3.8247125E2,2.5001334E2,1.02425E2,4.7260868E1,3.3161114E1,2.0518813E2,2.333626E1,3.308602E1,6.2826088E1,3.2571234E2,1.2664001E2,1.2583334E1,7.8833337E0,2.2579167E2,1.9527777E1,9.285295E0,2.4975E1,1.0451428E1,1.432E1,4.2937036E2,2.5923404E2,4.0203922E1,5.126177E1,5.8074074E0,4.2029414E0,4.8083336E1,4.6138635E2,4.3727276E1,3.3126666E2,9.5705E1,3.8666668E1,7.7E1,4.297143E1],"categories":[],"categories_nodes":[],"categories_segments":[],"categories_sizes":[],"default_left":[0,0,0,0,0,0,0,0,0,0,0,0,0,0,0,0,0,0,0,0,0,0,0,0,0,0,0,0,0,0,0,0,0,0,0,0,0,0,0,0,0,0,0,0,0,0,0,0,0],"id":0,"left_children":[1,3,5,7,9,11,13,-1,-1,15,-1,17,19,21,23,-1,25,-1,-1,27,-1,29,-1,31,33,35,-1,-1,-1,37,-1,-1,39,-1,-1,41,43,-1,-1,-1,-1,-1,45,-1,47,-1,-1,-1,-1],"loss_changes":[1.7080971E8,4.767472E7,5.369329E6,4.86352E6,5.818972E6,1.3596781E7,1.00713E6,0E0,0E0,2.624102E6,0E0,4.54688E5,1.3179144E5,5.51021E5,3.292853E4,0E0,1.031865E6,0E0,0E0,3.4459766E2,0E0,2.017595E5,0E0,8.903539E3,2.6568438E3,3.91736E5,0E0,0E0,0E0,1.19785E4,0E0,0E0,3.550078E2,0E0,0E0,5.24125E4,6.5018E4,0E0,0E0,0E0,0E0,0E0,8.555E3,0E0,1.1106125E4,0E0,0E0,0E0,0E0],"parents":[2147483647,0,0,1,1,2,2,3,3,4,4,5,5,6,6,9,9,11,11,12,12,13,13,14,14,16,16,19,19,21,21,23,23,24,24,25,25,29,29,32,32,35,35,36,36,42,42,44,44],"right_children":[2,4,6,8,10,12,14,-1,-1,16,-1,18,20,22,24,-1,26,-1,-1,28,-1,30,-1,32,34,36,-1,-1,-1,38,-1,-1,40,-1,-1,42,44,-1,-1,-1,-1,-1,46,-1,48,-1,-1,-1,-1],"split_conditions":[3.33E2,1.4E1,3.34E2,9E0,2.2E1,1.6E1,1.7E1,2.4383305E2,3.210028E2,1.5E1,1.9264688E2,1.3E1,2.1E1,3.35E2,2E1,1.6369444E2,2.1E1,2.5001334E2,1.02425E2,1.8E1,3.3161114E1,1.4E1,2.333626E1,1.8E1,3.35E2,1.7E1,1.2664001E2,1.2583334E1,7.8833337E0,8E0,1.9527777E1,9.285295E0,3.35E2,1.0451428E1,1.432E1,3.22E2,2E1,4.0203922E1,5.126177E1,5.8074074E0,4.2029414E0,4.8083336E1,3.32E2,4.3727276E1,3.26E2,9.5705E1,3.8666668E1,7.7E1,4.297143E1],"split_indices":[0,1,0,1,1,1,1,0,0,1,0,1,1,0,1,0,1,0,0,1,0,1,0,1,0,1,0,0,0,1,0,0,0,0,0,0,1,0,0,0,0,0,0,0,0,0,0,0,0],"split_type":[0,0,0,0,0,0,0,0,0,0,0,0,0,0,0,0,0,0,0,0,0,0,0,0,0,0,0,0,0,0,0,0,0,0,0,0,0,0,0,0,0,0,0,0,0,0,0,0,0],"sum_hessian":[9.04E2,3.27E2,5.77E2,1.93E2,1.34E2,5.6E1,5.21E2,1.23E2,7E1,1.03E2,3.1E1,1.7E1,3.9E1,3.61E2,1.6E2,1.7E1,8.6E1,1.4E1,3E0,2.2E1,1.7E1,1E2,2.61E2,9.2E1,6.8E1,7.2E1,1.4E1,5E0,1.7E1,8.3E1,1.7E1,3.3E1,5.9E1,3.4E1,3.4E1,2.6E1,4.6E1,5E1,3.3E1,2.6E1,3.3E1,5E0,2.1E1,3.2E1,1.4E1,1.9E1,2E0,8E0,6E0],"tree_param":{"num_deleted":"0","num_feature":"6","num_nodes":"49","size_leaf_vector":"1"}},{"base_weights":[3.8012292E2,8.431853E2,1.16689384E2,1.0962415E3,4.732884E2,3.5619064E2,9.031341E1,1.9545973E2,1.2885325E3,3.4797165E2,7.081845E2,9.4400214E2,8.277069E1,1.1372909E2,3.7103523E1,2.722942E2,1.8509282E2,6.638719E2,2.6531168E2,1.0300053E2,1.5532155E2,2.0334418E2,8.706126E1,3.869855E1,2.6897345E1,1.6524944E2,9.343411E1,2.6676296E1,5.0619877E1,6.1220833E1,1.4300371E2,3.9519965E2,4.5558502E1,1.0486111E1,6.3942595E0,1.8172221E2,1.5839197E1,8.888598E1,1.0510251E2,7.4828544E0,2.014684E1,8.420865E0,1.1537829E1,3.49625E1,8.7145744E1,3.23208E1,4.131095E1,1.8621555E1,1.5926384E1,2.5590609E1,1.5980385E1,4.688944E0,3.387076E0],"categories":[],"categories_nodes":[],"categories_segments":[],"categories_sizes":[],"default_left":[0,0,0,0,0,0,0,0,0,0,0,0,0,0,0,0,0,0,0,0,0,0,0,0,0,0,0,0,0,0,0,0,0,0,0,0,0,0,0,0,0,0,0,0,0,0,0,0,0,0,0,0,0],"id":1,"left_children":[1,3,5,7,9,11,13,-1,15,17,19,21,23,25,27,-1,-1,29,31,-1,-1,-1,-1,33,-1,35,37,39,41,-1,-1,43,-1,-1,-1,45,-1,47,49,-1,51,-1,-1,-1,-1,-1,-1,-1,-1,-1,-1,-1,-1],"loss_changes":[1.1029908E8,3.0183488E7,3.619104E6,3.177824E6,3.72749E6,9.082869E6,6.46164E5,0E0,6.20208E5,2.173974E6,2.08078E5,2.23266E5,8.5965E4,3.63069E5,2.1340688E4,0E0,0E0,1.10504E5,2.65727E5,0E0,0E0,0E0,0E0,4.484375E2,0E0,1.287795E5,4.562E3,5.76675E3,1.72475E3,0E0,0E0,5.78105E4,0E0,0E0,0E0,8.58525E3,0E0,2.04E2,2.8933938E4,0E0,2.3841406E2,0E0,0E0,0E0,0E0,0E0,0E0,0E0,0E0,0E0,0E0,0E0,0E0],"parents":[2147483647,0,0,1,1,2,2,3,3,4,4,5,5,6,6,8,8,9,9,10,10,11,11,12,12,13,13,14,14,17,17,18,18,23,23,25,25,26,26,27,27,28,28,31,31,35,35,37,37,38,38,40,40],"right_children":[2,4,6,8,10,12,14,-1,16,18,20,22,24,26,28,-1,-1,30,32,-1,-1,-1,-1,34,-1,36,38,40,42,-1,-1,44,-1,-1,-1,46,-1,48,50,-1,52,-1,-1,-1,-1,-1,-1,-1,-1,-1,-1,-1,-1],"split_conditions":[3.33E2,1.4E1,3.34E2,9E0,2.1E1,1.6E1,1.7E1,1.9545973E2,1.3E1,1.5E1,2.2E1,1.3E1,2.1E1,3.35E2,2E1,2.722942E2,1.8509282E2,3.2E2,1.6E1,1.0300053E2,1.5532155E2,2.0334418E2,8.706126E1,1.8E1,2.6897345E1,1.4E1,9E0,1.8E1,3.35E2,6.1220833E1,1.4300371E2,3.21E2,4.5558502E1,1.0486111E1,6.3942595E0,8E0,1.5839197E1,5E0,1.2E1,7.4828544E0,3.35E2,8.420865E0,1.1537829E1,3.49625E1,8.7145744E1,3.23208E1,4.131095E1,1.8621555E1,1.5926384E1,2.5590609E1,1.5980385E1,4.688944E0,3.387076E0],"split_indices":[0,1,0,1,1,1,1,0,1,1,1,1,1,0,1,0,0,0,1,0,0,0,0,1,0,1,1,1,0,0,0,0,0,0,0,1,0,1,1,0,0,0,0,0,0,0,0,0,0,0,0,0,0],"split_type":[0,0,0,0,0,0,0,0,0,0,0,0,0,0,0,0,0,0,0,0,0,0,0,0,0,0,0,0,0,0,0,0,0,0,0,0,0,0,0,0,0,0,0,0,0,0,0,0,0,0,0,0,0],"sum_hessian":[9.04E2,3.27E2,5.77E2,1.93E2,1.34E2,5.6E1,5.21E2,1.23E2,7E1,8.9E1,4.5E1,1.7E1,3.9E1,3.61E2,1.6E2,5.6E1,1.4E1,1.7E1,7.2E1,1.4E1,3.1E1,1.4E1,3E0,2.2E1,1.7E1,1E2,2.61E2,9.2E1,6.8E1,3E0,1.4E1,1.4E1,5.8E1,5E0,1.7E1,8.3E1,1.7E1,1.94E2,6.7E1,3.3E1,5.9E1,3.4E1,3.4E1,3E0,1.1E1,5E1,3.3E1,1.27E2,6.7E1,3.3E1,3.4E1,2.6E1,3.3E1],"tree_param":{"num_deleted":"0","num_feature":"6","num_nodes":"53","size_leaf_vector":"1"}},{"base_weights":[3.0610754E2,6.7846E2,9.427761E1,8.8035834E2,3.8329898E2,2.9081537E2,7.263599E1,7.834152E2,1.0372681E3,2.8250946E2,5.7216327E2,7.713353E2,6.7311E1,9.14407E1,2.9903423E1,1.4494987E2,1.8237741E2,2.1879077E2,1.5054214E2,4.5714014E2,1.830062E2,4.8837717E2,1.4255255E2,1.653866E2,7.400207E1,3.169277E1,2.1816736E1,1.330854E2,7.503782E1,2.1508337E1,4.0785156E1,4.6717617E1,4.9974493E2,1.631114E2,2.3049016E2,1.11227234E2,6.931302E1,8.738426E0,5.186455E0,1.4625433E2,1.284735E1,7.128595E1,8.4693344E1,6.0303006E0,1.6252071E1,6.7848115E0,9.296193E0,1.16309685E2,3.5584515E2,4.5879356E1,2.6411243E1,5.5211823E1,2.7794867E1,2.5983389E1,3.3291767E1,1.492634E1,1.27879505E1,2.0623022E1,1.2875625E1,3.785888E0,2.729585E0,7.860432E1,3.664739E1],"categories":[],"categories_nodes":[],"categories_segments":[],"categories_sizes":[],"default_left":[0,0,0,0,0,0,0,0,0,0,0,0,0,0,0,0,0,0,0,0,0,0,0,0,0,0,0,0,0,0,0,0,0,0,0,0,0,0,0,0,0,0,0,0,0,0,0,0,0,0,0,0,0,0,0,0,0,0,0,0,0,0,0],"id":2,"left_children":[1,3,5,7,9,11,13,15,17,19,21,23,25,27,29,-1,-1,-1,-1,31,33,35,-1,-1,-1,37,-1,39,41,43,45,-1,47,49,51,-1,-1,-1,-1,53,-1,55,57,-1,59,-1,-1,-1,61,-1,-1,-1,-1,-1,-1,-1,-1,-1,-1,-1,-1,-1,-1],"loss_changes":[7.131827E7,1.9208912E7,2.43734E6,2.138368E6,2.408156E6,6.069784E6,4.1673075E5,2.73688E5,3.21832E5,1.480209E6,1.93796E5,9.5655E4,5.605758E4,2.3729325E5,1.3830625E4,0E0,0E0,0E0,0E0,1.880465E5,1.814075E4,1.14752E5,0E0,0E0,0E0,4.5677344E2,0E0,8.2178125E4,3.453875E3,3.735039E3,1.1196562E3,0E0,9.91175E4,6.2339375E4,2.4189062E4,0E0,0E0,0E0,0E0,6.10175E3,0E0,2.0875E1,1.8810094E4,0E0,1.599873E2,0E0,0E0,0E0,4.98725E3,0E0,0E0,0E0,0E0,0E0,0E0,0E0,0E0,0E0,0E0,0E0,0E0,0E0,0E0],"parents":[2147483647,0,0,1,1,2,2,3,3,4,4,5,5,6,6,7,7,8,8,9,9,10,10,11,11,12,12,13,13,14,14,19,19,20,20,21,21,25,25,27,27,28,28,29,29,30,30,32,32,33,33,34,34,39,39,41,41,42,42,44,44,48,48],"right_children":[2,4,6,8,10,12,14,16,18,20,22,24,26,28,30,-1,-1,-1,-1,32,34,36,-1,-1,-1,38,-1,40,42,44,46,-1,48,50,52,-1,-1,-1,-1,54,-1,56,58,-1,60,-1,-1,-1,62,-1,-1,-1,-1,-1,-1,-1,-1,-1,-1,-1,-1,-1,-1],"split_conditions":[3.33E2,1.4E1,3.34E2,9E0,2.1E1,1.6E1,1.7E1,5E0,1.3E1,1.6E1,2.3E1,1.3E1,2.1E1,3.35E2,2E1,1.4494987E2,1.8237741E2,2.1879077E2,1.5054214E2,3.21E2,2E1,3.28E2,1.4255255E2,1.653866E2,7.400207E1,1.8E1,2.1816736E1,1.4E1,9E0,1.8E1,3.35E2,4.6717617E1,1.5E1,1.7E1,3.26E2,1.11227234E2,6.931302E1,8.738426E0,5.186455E0,8E0,1.284735E1,5E0,1.2E1,6.0303006E0,3.35E2,6.7848115E0,9.296193E0,1.16309685E2,3.29E2,4.5879356E1,2.6411243E1,5.5211823E1,2.7794867E1,2.5983389E1,3.3291767E1,1.492634E1,1.27879505E1,2.0623022E1,1.2875625E1,3.785888E0,2.729585E0,7.860432E1,3.664739E1],"split_indices":[0,1,0,1,1,1,1,2,1,1,1,1,1,0,1,0,0,0,0,0,1,0,0,0,0,1,0,1,1,1,0,0,1,1,0,0,0,0,0,1,0,1,1,0,0,0,0,0,0,0,0,0,0,0,0,0,0,0,0,0,0,0,0],"split_type":[0,0,0,0,0,0,0,0,0,0,0,0,0,0,0,0,0,0,0,0,0,0,0,0,0,0,0,0,0,0,0,0,0,0,0,0,0,0,0,0,0,0,0,0,0,0,0,0,0,0,0,0,0,0,0,0,0,0,0,0,0,0,0],"sum_hessian":[9.04E2,3.27E2,5.77E2,1.93E2,1.34E2,5.6E1,5.21E2,1.23E2,7E1,8.9E1,4.5E1,1.7E1,3.9E1,3.61E2,1.6E2,8.9E1,3.4E1,5.6E1,1.4E1,3.1E1,5.8E1,3.1E1,1.4E1,1.4E1,3E0,2.2E1,1.7E1,1E2,2.61E2,9.2E1,6.8E1,6E0,2.5E1,4.4E1,1.4E1,1.9E1,1.2E1,5E0,1.7E1,8.3E1,1.7E1,1.94E2,6.7E1,3.3E1,5.9E1,3.4E1,3.4E1,1.4E1,1.1E1,1.2E1,3.2E1,8E0,6E0,5E1,3.3E1,1.27E2,6.7E1,3.3E1,3.4E1,2.6E1,3.3E1,8E0,3E0],"tree_param":{"num_deleted":"0","num_feature":"6","num_nodes":"63","size_leaf_vector":"1"}},{"base_weights":[2.469749E2,5.4719885E2,7.617831E1,7.078777E2,3.1224414E2,2.3747914E2,5.841906E1,6.180365E2,8.1816925E2,2.4761147E2,1.0250854E2,6.303676E2,5.474234E1,7.352089E1,2.4100546E1,5.649541E2,1.4628578E2,1.7012328E2,1.2244094E2,4.4419397E2,2.0409311E2,6.7257214E2,6.2901745E1,2.5959646E1,1.7695799E1,1.071824E2,6.026389E1,1.7341572E1,3.2861183E1,1.2085427E2,9.407106E1,4.5030064E1,9.459854E1,1.7505157E2,3.3182242E2,9.711605E1,1.7442598E2,7.282022E0,4.2067914E0,1.1770912E2,1.0420628E1,5.7170887E1,6.82473E1,4.859713E0,1.3110249E1,5.46662E0,7.4900756E0,2.3767336E2,1.3535284E2,7.777906E1,4.2207962E1,1.0444303E2,2.6829248E1,1.0793666E1,1.2634086E1,1.6619728E1,1.0374074E1,3.056754E0,2.1997242E0,2.5805576E1,2.565006E2,1.0644531E2,1.899259E2,2.2733719E1,1.6242912E1,5.3232227E1,2.1319397E1,1.0688477E1,1.1191322E2,4.212272E1,1.6076279E1,1.2002894E2,1.3851939E1,2.505771E1,8.640397E0],"categories":[],"categories_nodes":[],"categories_segments":[],"categories_sizes":[],"default_left":[0,0,0,0,0,0,0,0,0,0,0,0,0,0,0,0,0,0,0,0,0,0,0,0,0,0,0,0,0,0,0,0,0,0,0,0,0,0,0,0,0,0,0,0,0,0,0,0,0,0,0,0,0,0,0,0,0,0,0,0,0,0,0,0,0,0,0,0,0,0,0,0,0,0,0],"id":3,"left_children":[1,3,5,7,9,11,13,15,17,19,-1,21,23,25,27,29,-1,-1,-1,31,33,35,-1,37,-1,39,41,43,45,-1,-1,-1,-1,47,49,-1,-1,-1,-1,51,-1,53,55,-1,57,-1,-1,59,61,-1,-1,63,-1,-1,-1,-1,-1,-1,-1,-1,65,67,69,-1,-1,-1,-1,-1,71,-1,-1,73,-1,-1,-1],"loss_changes":[4.636421E7,1.2161712E7,1.6418542E6,1.416632E6,1.620775E6,4.0578175E6,2.6876612E5,2.54904E5,4.062E4,7.990575E5,0E0,2.8422E4,3.654439E4,1.550835E5,8.963406E3,1.3326E4,0E0,0E0,0E0,7.05275E3,2.6463675E5,1.362465E5,0E0,4.1809375E2,0E0,5.242725E4,2.5676875E3,2.4191074E3,7.268594E2,0E0,0E0,0E0,0E0,1.493085E5,2.132875E4,0E0,0E0,0E0,0E0,4.306125E3,0E0,3.375E2,1.22285625E4,0E0,1.072793E2,0E0,0E0,2.2132625E4,5.392925E4,0E0,0E0,1.6975625E3,0E0,0E0,0E0,0E0,0E0,0E0,0E0,0E0,3.487125E3,3.5829688E3,1.7063875E4,0E0,0E0,0E0,0E0,0E0,1.725625E3,0E0,0E0,3.881125E3,0E0,0E0,0E0],"parents":[2147483647,0,0,1,1,2,2,3,3,4,4,5,5,6,6,7,7,8,8,9,9,11,11,12,12,13,13,14,14,15,15,19,19,20,20,21,21,23,23,25,25,26,26,27,27,28,28,33,33,34,34,39,39,41,41,42,42,44,44,47,47,48,48,51,51,60,60,61,61,62,62,68,68,71,71],"right_children":[2,4,6,8,10,12,14,16,18,20,-1,22,24,26,28,30,-1,-1,-1,32,34,36,-1,38,-1,40,42,44,46,-1,-1,-1,-1,48,50,-1,-1,-1,-1,52,-1,54,56,-1,58,-1,-1,60,62,-1,-1,64,-1,-1,-1,-1,-1,-1,-1,-1,66,68,70,-1,-1,-1,-1,-1,72,-1,-1,74,-1,-1,-1],"split_conditions":[3.33E2,1.4E1,3.34E2,8E0,2.2E1,1.6E1,1.7E1,5E0,1.3E1,1.5E1,1.0250854E2,1.3E1,2.1E1,3.35E2,2E1,5E0,1.4628578E2,1.7012328E2,1.2244094E2,3.2E2,2.1E1,7E0,6.2901745E1,1.8E1,1.7695799E1,1.4E1,9E0,1.8E1,3.35E2,1.2085427E2,9.407106E1,4.5030064E1,9.459854E1,1.7E1,3.27E2,9.711605E1,1.7442598E2,7.282022E0,4.2067914E0,8E0,1.0420628E1,3.36E2,1.2E1,4.859713E0,3.35E2,5.46662E0,7.4900756E0,3.22E2,2E1,7.777906E1,4.2207962E1,5E0,2.6829248E1,1.0793666E1,1.2634086E1,1.6619728E1,1.0374074E1,3.056754E0,2.1997242E0,2.5805576E1,3.32E2,3.2E2,3.28E2,2.2733719E1,1.6242912E1,5.3232227E1,2.1319397E1,1.0688477E1,3.29E2,4.212272E1,1.6076279E1,6E0,1.3851939E1,2.505771E1,8.640397E0],"split_indices":[0,1,0,1,1,1,1,2,1,1,0,1,1,0,1,1,0,0,0,0,1,1,0,1,0,1,1,1,0,0,0,0,0,1,0,0,0,0,0,1,0,0,1,0,0,0,0,0,1,0,0,1,0,0,0,0,0,0,0,0,0,0,0,0,0,0,0,0,0,0,0,2,0,0,0],"split_type":[0,0,0,0,0,0,0,0,0,0,0,0,0,0,0,0,0,0,0,0,0,0,0,0,0,0,0,0,0,0,0,0,0,0,0,0,0,0,0,0,0,0,0,0,0,0,0,0,0,0,0,0,0,0,0,0,0,0,0,0,0,0,0,0,0,0,0,0,0,0,0,0,0,0,0],"sum_hessian":[9.04E2,3.27E2,5.77E2,1.93E2,1.34E2,5.6E1,5.21E2,1.1E2,8.3E1,1.03E2,3.1E1,1.7E1,3.9E1,3.61E2,1.6E2,7.9E1,3.1E1,6.9E1,1.4E1,1.7E1,8.6E1,1.4E1,3E0,2.2E1,1.7E1,1E2,2.61E2,9.2E1,6.8E1,5.2E1,2.7E1,3E0,1.4E1,7.2E1,1.4E1,9E0,5E0,5E0,1.7E1,8.3E1,1.7E1,1.94E2,6.7E1,3.3E1,5.9E1,3.4E1,3.4E1,2.6E1,4.6E1,8E0,6E0,5E1,3.3E1,1.33E2,6.1E1,3.3E1,3.4E1,2.6E1,3.3E1,5E0,2.1E1,3.2E1,1.4E1,3.3E1,1.7E1,1.9E1,2E0,4E0,2.8E1,1.1E1,3E0,2.2E1,6E0,2E1,2E0],"tree_param":{"num_deleted":"0","num_feature":"6","num_nodes":"75","size_leaf_vector":"1"}},{"base_weights":[1.9950926E2,4.415173E2,6.183079E1,5.696721E2,2.5408359E2,1.9636276E2,4.702207E1,5.0380093E2,6.766912E2,2.0267004E2,4.132375E2,5.228743E2,4.4523487E1,5.916657E1,1.9423746E1,4.4861282E2,1.1340669E2,1.4237256E2,9.9585304E1,7.262246E1,1.6714555E2,3.3127853E2,9.680782E1,5.561605E2,5.346649E1,2.1267231E1,1.4353258E1,8.650064E1,4.840356E1,1.3982034E1,2.6476727E1,9.844404E1,7.66965E1,1.4301105E2,2.734571E2,7.209178E1,2.7806503E1,7.963517E1,1.4535498E2,6.0683517E0,3.412175E0,9.49507E1,8.452288E0,4.585685E1,5.499481E1,3.916357E0,1.0575807E1,4.4045334E0,6.0348616E0,2.2150691E2,1.20630554E2,6.395167E1,3.4972317E1,8.431867E1,2.1621214E1,9.647112E0,8.140985E0,1.3393546E1,8.358539E0,2.468046E0,1.772719E0,1.8839645E1,2.4548422E2,1.0621984E2,1.5582066E2,1.8320705E1,1.3174807E1,5.5166706E1,2.316545E1,1.335068E2,7.678096E1,4.6691044E1,2.3391483E1,6.2152667E0,2.8439207E1,8.8655106E1,1.1503779E1,9.832628E0,1.00744514E2,8.7486E0,2.2156332E1],"categories":[],"categories_nodes":[],"categories_segments":[],"categories_sizes":[],"default_left":[0,0,0,0,0,0,0,0,0,0,0,0,0,0,0,0,0,0,0,0,0,0,0,0,0,0,0,0,0,0,0,0,0,0,0,0,0,0,0,0,0,0,0,0,0,0,0,0,0,0,0,0,0,0,0,0,0,0,0,0,0,0,0,0,0,0,0,0,0,0,0,0,0,0,0,0,0,0,0,0,0],"id":4,"left_children":[1,3,5,7,9,11,13,15,17,19,21,23,25,27,29,31,-1,-1,-1,-1,33,35,-1,37,-1,39,-1,41,43,45,47,-1,-1,49,51,-1,-1,-1,-1,-1,-1,53,-1,55,57,-1,59,-1,-1,61,63,-1,-1,65,-1,-1,-1,-1,-1,-1,-1,-1,67,69,71,-1,-1,-1,-1,73,75,-1,-1,-1,-1,77,-1,-1,79,-1,-1],"loss_changes":[3.012666E7,7.733996E6,1.142285E6,1.026676E6,1.020908E6,2.8026245E6,1.7380838E5,1.78344E5,9.1956E4,5.32069E5,2.53385E4,4.4285E3,2.3816344E4,1.0231225E5,5.8090312E3,1.2894E4,0E0,0E0,0E0,0E0,1.8411525E5,5.0861E4,0E0,1.149325E5,0E0,3.6026855E2,0E0,3.3743438E4,1.876E3,1.566791E3,4.7185938E2,0E0,0E0,1.01524125E5,1.2563E4,0E0,0E0,0E0,0E0,0E0,0E0,2.633625E3,0E0,4.2628125E2,7.9498438E3,0E0,7.1885254E1,0E0,0E0,2.2663625E4,1.33685E4,0E0,0E0,8.1840625E2,0E0,0E0,0E0,0E0,0E0,0E0,0E0,0E0,1.5271E4,2.5897594E4,1.7952656E4,0E0,0E0,0E0,0E0,1.5162E4,3.899375E2,0E0,0E0,0E0,0E0,1.2537266E3,0E0,0E0,3.0328125E2,0E0,0E0],"parents":[2147483647,0,0,1,1,2,2,3,3,4,4,5,5,6,6,7,7,8,8,9,9,10,10,11,11,12,12,13,13,14,14,15,15,20,20,21,21,23,23,25,25,27,27,28,28,29,29,30,30,33,33,34,34,41,41,43,43,44,44,46,46,49,49,50,50,53,53,62,62,63,63,64,64,69,69,70,70,75,75,78,78],"right_children":[2,4,6,8,10,12,14,16,18,20,22,24,26,28,30,32,-1,-1,-1,-1,34,36,-1,38,-1,40,-1,42,44,46,48,-1,-1,50,52,-1,-1,-1,-1,-1,-1,54,-1,56,58,-1,60,-1,-1,62,64,-1,-1,66,-1,-1,-1,-1,-1,-1,-1,-1,68,70,72,-1,-1,-1,-1,74,76,-1,-1,-1,-1,78,-1,-1,80,-1,-1],"split_conditions":[3.33E2,1.4E1,3.34E2,9E0,2.2E1,1.6E1,1.7E1,4E0,1.3E1,1.5E1,2.3E1,1.3E1,2.1E1,3.35E2,2E1,2E0,1.1340669E2,1.4237256E2,9.9585304E1,7.262246E1,2.1E1,5E0,9.680782E1,7E0,5.346649E1,1.8E1,1.4353258E1,1.4E1,9E0,1.8E1,3.35E2,9.844404E1,7.66965E1,1.6E1,3.27E2,7.209178E1,2.7806503E1,7.963517E1,1.4535498E2,6.0683517E0,3.412175E0,8E0,8.452288E0,5E0,1.2E1,3.916357E0,3.35E2,4.4045334E0,6.0348616E0,3.21E2,2E1,6.395167E1,3.4972317E1,5E0,2.1621214E1,9.647112E0,8.140985E0,1.3393546E1,8.358539E0,2.468046E0,1.772719E0,1.8839645E1,3.29E2,1.8E1,2E0,1.8320705E1,1.3174807E1,5.5166706E1,2.316545E1,3.2E2,3.25E2,4.6691044E1,2.3391483E1,6.2152667E0,2.8439207E1,1.9E1,1.1503779E1,9.832628E0,3.19E2,8.7486E0,2.2156332E1],"split_indices":[0,1,0,1,1,1,1,2,1,1,1,1,1,0,1,2,0,0,0,0,1,2,0,1,0,1,0,1,1,1,0,0,0,1,0,0,0,0,0,0,0,1,0,1,1,0,0,0,0,0,1,0,0,1,0,0,0,0,0,0,0,0,0,1,2,0,0,0,0,0,0,0,0,0,0,1,0,0,0,0,0],"split_type":[0,0,0,0,0,0,0,0,0,0,0,0,0,0,0,0,0,0,0,0,0,0,0,0,0,0,0,0,0,0,0,0,0,0,0,0,0,0,0,0,0,0,0,0,0,0,0,0,0,0,0,0,0,0,0,0,0,0,0,0,0,0,0,0,0,0,0,0,0,0,0,0,0,0,0,0,0,0,0,0,0],"sum_hessian":[9.04E2,3.27E2,5.77E2,1.93E2,1.34E2,5.6E1,5.21E2,1.23E2,7E1,1.03E2,3.1E1,1.7E1,3.9E1,3.61E2,1.6E2,7E1,5.3E1,5.6E1,1.4E1,1.7E1,8.6E1,1.7E1,1.4E1,1.4E1,3E0,2.2E1,1.7E1,1E2,2.61E2,9.2E1,6.8E1,3.8E1,3.2E1,7.2E1,1.4E1,1.4E1,3E0,9E0,5E0,5E0,1.7E1,8.3E1,1.7E1,1.94E2,6.7E1,3.3E1,5.9E1,3.4E1,3.4E1,1.4E1,5.8E1,8E0,6E0,5E1,3.3E1,1.27E2,6.7E1,3.3E1,3.4E1,2.6E1,3.3E1,3E0,1.1E1,4.4E1,1.4E1,3.3E1,1.7E1,8E0,3E0,2.1E1,2.3E1,3E0,1.1E1,2E0,1.9E1,1.2E1,1.1E1,4E0,8E0,2E0,6E0],"tree_param":{"num_deleted":"0","num_feature":"6","num_nodes":"81","size_leaf_vector":"1"}},{"base_weights":[1.6134763E2,3.5672882E2,5.019473E1,4.5847226E2,2.0787726E2,1.6239354E2,3.7846977E1,4.1159006E2,5.6393317E2,1.5452705E2,3.0773904E2,8.675385E1,3.6214634E1,4.761256E1,1.5654504E1,7.533068E1,9.75537E1,1.2125343E2,8.099604E1,2.5177171E2,9.916509E1,2.5783493E2,7.873703E1,1.7425983E1,1.1642087E1,6.9810104E1,3.8873764E1,1.1273338E1,2.1332676E1,2.479765E1,2.7649142E2,8.690689E1,1.2932869E2,2.977478E2,1.765971E2,5.05696E0,2.7676535E0,7.65929E1,6.8557434E0,3.6776703E1,4.431573E1,3.1561234E0,8.531324E0,3.5487955E0,4.862374E0,6.8611305E1,2.210713E2,2.4157349E1,7.092674E1,3.2196117E1,1.403158E1,3.20305E1,6.658721E1,1.5254928E1,3.9813274E1,6.80725E1,8.712078E1,6.886632E0,8.249721E0,1.0793621E1,6.734595E0,1.9927186E0,1.4286029E0,1.9690634E1,4.8062847E1,7.626554E1,8.941958E0,1.638823E1,1.1878274E1,2.0011303E1,1.4012731E1,8.810159E0,8.3727425E1,1.7873022E1,7.7670875E0],"categories":[],"categories_nodes":[],"categories_segments":[],"categories_sizes":[],"default_left":[0,0,0,0,0,0,0,0,0,0,0,0,0,0,0,0,0,0,0,0,0,0,0,0,0,0,0,0,0,0,0,0,0,0,0,0,0,0,0,0,0,0,0,0,0,0,0,0,0,0,0,0,0,0,0,0,0,0,0,0,0,0,0,0,0,0,0,0,0,0,0,0,0,0,0],"id":5,"left_children":[1,3,5,7,9,11,13,15,17,19,21,-1,23,25,27,-1,-1,-1,-1,29,31,33,-1,35,-1,37,39,41,43,-1,45,47,49,51,53,-1,-1,55,-1,57,59,-1,61,-1,-1,-1,63,-1,65,-1,-1,-1,-1,-1,-1,67,69,-1,-1,-1,-1,-1,-1,-1,-1,71,-1,-1,-1,-1,-1,-1,73,-1,-1],"loss_changes":[1.9636142E7,4.872144E6,7.946171E5,7.27076E5,6.71678E5,1.9360789E6,1.1238369E5,1.83554E5,1.38032E5,4.59562E5,9.5791E4,0E0,1.5516477E4,6.750694E4,3.764707E3,0E0,0E0,0E0,0E0,6.6799E4,1.057575E4,5.11765E4,0E0,2.985923E2,0E0,2.1715719E4,1.3601875E3,1.01475977E3,3.0631836E2,0E0,2.007525E4,1.5796219E4,1.6798906E4,4.351425E4,1.4120531E4,0E0,0E0,1.6044375E3,0E0,6.233125E2,5.1682344E3,0E0,4.8135742E1,0E0,0E0,0E0,1.6452375E4,0E0,1.209125E3,0E0,0E0,0E0,0E0,0E0,0E0,1.2735625E3,4.91625E2,0E0,0E0,0E0,0E0,0E0,0E0,0E0,0E0,2.5616875E3,0E0,0E0,0E0,0E0,0E0,0E0,1.5912031E3,0E0,0E0],"parents":[2147483647,0,0,1,1,2,2,3,3,4,4,5,5,6,6,7,7,8,8,9,9,10,10,12,12,13,13,14,14,19,19,20,20,21,21,23,23,25,25,26,26,27,27,28,28,30,30,31,31,32,32,33,33,34,34,37,37,39,39,40,40,42,42,46,46,48,48,55,55,56,56,65,65,72,72],"right_children":[2,4,6,8,10,12,14,16,18,20,22,-1,24,26,28,-1,-1,-1,-1,30,32,34,-1,36,-1,38,40,42,44,-1,46,48,50,52,54,-1,-1,56,-1,58,60,-1,62,-1,-1,-1,64,-1,66,-1,-1,-1,-1,-1,-1,68,70,-1,-1,-1,-1,-1,-1,-1,-1,72,-1,-1,-1,-1,-1,-1,74,-1,-1],"split_conditions":[3.33E2,1.4E1,3.34E2,1E1,2.1E1,1.6E1,1.7E1,5E0,1.3E1,1.6E1,2.3E1,8.675385E1,2.1E1,3.35E2,2E1,7.533068E1,9.75537E1,1.2125343E2,8.099604E1,3.21E2,2E1,3.28E2,7.873703E1,1.8E1,1.1642087E1,1.4E1,9E0,1.8E1,3.35E2,2.479765E1,3.25E2,1.7E1,3.26E2,3.21E2,3.29E2,5.05696E0,2.7676535E0,8E0,6.8557434E0,3.36E2,1.2E1,3.1561234E0,3.35E2,3.5487955E0,4.862374E0,6.8611305E1,1E0,2.4157349E1,5E0,3.2196117E1,1.403158E1,3.20305E1,6.658721E1,1.5254928E1,3.9813274E1,3E0,1.1E1,6.886632E0,8.249721E0,1.0793621E1,6.734595E0,1.9927186E0,1.4286029E0,1.9690634E1,4.8062847E1,3.21E2,8.941958E0,1.638823E1,1.1878274E1,2.0011303E1,1.4012731E1,8.810159E0,3.29E2,1.7873022E1,7.7670875E0],"split_indices":[0,1,0,1,1,1,1,2,1,1,1,0,1,0,1,0,0,0,0,0,1,0,0,1,0,1,1,1,0,0,0,1,0,0,0,0,0,1,0,0,1,0,0,0,0,0,2,0,2,0,0,0,0,0,0,1,1,0,0,0,0,0,0,0,0,0,0,0,0,0,0,0,0,0,0],"split_type":[0,0,0,0,0,0,0,0,0,0,0,0,0,0,0,0,0,0,0,0,0,0,0,0,0,0,0,0,0,0,0,0,0,0,0,0,0,0,0,0,0,0,0,0,0,0,0,0,0,0,0,0,0,0,0,0,0,0,0,0,0,0,0,0,0,0,0,0,0,0,0,0,0,0,0],"sum_hessian":[9.04E2,3.27E2,5.77E2,1.93E2,1.34E2,5.6E1,5.21E2,1.37E2,5.6E1,8.9E1,4.5E1,1.7E1,3.9E1,3.61E2,1.6E2,9.8E1,3.9E1,4.2E1,1.4E1,3.1E1,5.8E1,3.1E1,1.4E1,2.2E1,1.7E1,1E2,2.61E2,9.2E1,6.8E1,6E0,2.5E1,4.4E1,1.4E1,1.9E1,1.2E1,5E0,1.7E1,8.3E1,1.7E1,1.94E2,6.7E1,3.3E1,5.9E1,3.4E1,3.4E1,9E0,1.6E1,1.2E1,3.2E1,8E0,6E0,5E0,1.4E1,3E0,9E0,5E1,3.3E1,1.33E2,6.1E1,3.3E1,3.4E1,2.6E1,3.3E1,3E0,1.3E1,2.5E1,7E0,1.6E1,3.4E1,1.6E1,1.7E1,6E0,1.9E1,1.6E1,3E0],"tree_param":{"num_deleted":"0","num_feature":"6","num_nodes":"75","size_leaf_vector":"1"}},{"base_weights":[1.3029967E2,2.8807358E2,4.0541634E1,3.687115E2,1.7006006E2,1.3177835E2,3.0501335E1,3.3052484E2,4.546948E2,1.3608182E2,2.75175E2,3.5183508E2,2.9458372E1,3.8371292E1,1.26167E1,2.968752E2,3.893597E2,1.0503837E2,3.6851862E2,2.461598E2,1.117429E2,2.3851019E1,2.8719238E2,4.9685146E1,4.2764157E2,1.4280985E1,9.443026E0,5.65327E1,3.1223686E1,9.0893955E0,1.7188042E1,2.7722372E2,3.537594E2,8.311768E1,5.5645393E1,3.086318E2,1.02528824E2,2.366254E1,2.638417E2,9.547961E1,1.8344138E2,3.202058E2,1.9244624E2,1.0667018E2,3.2433437E1,4.214133E0,2.2448742E0,6.2015873E1,5.5607696E0,2.9498983E1,3.5710354E1,2.543464E0,6.8820825E0,2.8593154E0,3.9176838E0,5.9249065E1,2.1200424E2,3.9979364E2,4.2230785E1,7.207124E1,3.762641E1,5.7716675E1,2.4731247E1,1.4504277E2,8.1260506E1,4.2280624E1,1.2128465E2,3.8533684E1,6.997475E1,1.7663532E1,4.4891193E1,5.501224E1,7.069733E1,5.5195837E0,6.6263895E0,8.69839E0,5.4261584E0,1.6089357E0,1.151286E0,1.4687874E1,4.4664074E1,3.6887856E1,8.835189E1,1.2294051E1,1.6081339E2,7.102662E1,1.0654481E2,1.296669E1,2.9482939E1,1.3303386E1,9.570494E0,1.6244469E1,1.1365882E1,3.905296E1,1.8763569E1,8.993399E1,5.0735413E1,3.4857975E1,1.5016878E1,8.944563E0,2.0818602E1,6.1722157E1,6.9210315E0,6.839238E0,1.4031268E1],"categories":[],"categories_nodes":[],"categories_segments":[],"categories_sizes":[],"default_left":[0,0,0,0,0,0,0,0,0,0,0,0,0,0,0,0,0,0,0,0,0,0,0,0,0,0,0,0,0,0,0,0,0,0,0,0,0,0,0,0,0,0,0,0,0,0,0,0,0,0,0,0,0,0,0,0,0,0,0,0,0,0,0,0,0,0,0,0,0,0,0,0,0,0,0,0,0,0,0,0,0,0,0,0,0,0,0,0,0,0,0,0,0,0,0,0,0,0,0,0,0,0,0,0,0],"id":6,"left_children":[1,3,5,7,9,11,13,15,17,19,21,23,25,27,29,31,33,-1,35,37,39,-1,41,-1,43,45,-1,47,49,51,53,55,57,-1,-1,59,-1,-1,61,63,65,67,69,-1,-1,-1,-1,71,-1,73,75,-1,77,-1,-1,-1,79,81,-1,-1,-1,-1,-1,83,85,-1,87,-1,-1,-1,-1,89,91,-1,-1,-1,-1,-1,-1,-1,-1,-1,-1,-1,93,95,97,-1,-1,-1,-1,-1,-1,-1,-1,99,101,-1,-1,-1,-1,103,-1,-1,-1],"loss_changes":[1.2804459E7,3.058664E6,5.254538E5,4.86696E5,4.4472225E5,1.2730588E6,7.2988125E4,1.57617E5,1.5274E5,2.5112812E5,2.571075E4,3.48665E4,1.010577E4,4.5226312E4,2.4398164E3,4.7725E3,2.1371E4,0E0,9.208725E4,9.474625E3,8.393175E4,0E0,2.908675E4,0E0,1.66076E5,2.4082373E2,0E0,1.418575E4,9.739844E2,6.5721875E2,1.9885352E2,2.7757E4,4.687675E4,0E0,0E0,7.555925E4,0E0,0E0,1.63413125E4,3.966E4,4.301875E2,8.265625E3,1.35078125E4,0E0,0E0,0E0,0E0,1.2181562E3,0E0,4.3239062E2,3.3598906E3,0E0,3.2211914E1,0E0,0E0,0E0,1.49598125E4,4.504725E4,0E0,0E0,0E0,0E0,0E0,9.884625E3,7.6991562E3,0E0,7.6810156E2,0E0,0E0,0E0,0E0,1.0179219E3,3.4682812E2,0E0,0E0,0E0,0E0,0E0,0E0,0E0,0E0,0E0,0E0,0E0,9.37775E3,1.27015625E4,1.8882875E4,0E0,0E0,0E0,0E0,0E0,0E0,0E0,0E0,9.427875E3,2.1173516E3,0E0,0E0,0E0,0E0,6.189883E2,0E0,0E0,0E0],"parents":[2147483647,0,0,1,1,2,2,3,3,4,4,5,5,6,6,7,7,8,8,9,9,10,10,11,11,12,12,13,13,14,14,15,15,16,16,18,18,19,19,20,20,22,22,24,24,25,25,27,27,28,28,29,29,30,30,31,31,32,32,35,35,38,38,39,39,40,40,41,41,42,42,47,47,49,49,50,50,52,52,56,56,57,57,63,63,64,64,66,66,71,71,72,72,84,84,85,85,86,86,95,95,96,96,101,101],"right_children":[2,4,6,8,10,12,14,16,18,20,22,24,26,28,30,32,34,-1,36,38,40,-1,42,-1,44,46,-1,48,50,52,54,56,58,-1,-1,60,-1,-1,62,64,66,68,70,-1,-1,-1,-1,72,-1,74,76,-1,78,-1,-1,-1,80,82,-1,-1,-1,-1,-1,84,86,-1,88,-1,-1,-1,-1,90,92,-1,-1,-1,-1,-1,-1,-1,-1,-1,-1,-1,94,96,98,-1,-1,-1,-1,-1,-1,-1,-1,100,102,-1,-1,-1,-1,104,-1,-1,-1],"split_conditions":[3.33E2,1.4E1,3.34E2,1E1,2.2E1,1.6E1,1.7E1,3.28E2,1.2E1,1.5E1,3.19E2,7E0,2.1E1,3.35E2,2E1,8E0,3.32E2,1.0503837E2,3.3E2,3.2E2,2.1E1,2.3851019E1,3.29E2,4.9685146E1,1.3E1,1.8E1,9.443026E0,1.4E1,9E0,1.8E1,3.35E2,6E0,3.26E2,8.311768E1,5.5645393E1,3.26E2,1.02528824E2,2.366254E1,5E0,1.6E1,3.27E2,3.22E2,3.3E2,1.0667018E2,3.2433437E1,4.214133E0,2.2448742E0,8E0,5.5607696E0,3.36E2,1.2E1,2.543464E0,3.35E2,2.8593154E0,3.9176838E0,5.9249065E1,3.2E2,3.2E2,4.2230785E1,7.207124E1,3.762641E1,5.7716675E1,2.4731247E1,3.21E2,2E1,4.2280624E1,3.29E2,3.8533684E1,6.997475E1,1.7663532E1,4.4891193E1,3E0,1.1E1,5.5195837E0,6.6263895E0,8.69839E0,5.4261584E0,1.6089357E0,1.151286E0,1.4687874E1,4.4664074E1,3.6887856E1,8.835189E1,1.2294051E1,3.26E2,1.8E1,2E0,1.296669E1,2.9482939E1,1.3303386E1,9.570494E0,1.6244469E1,1.1365882E1,3.905296E1,1.8763569E1,3.23E2,3.25E2,3.4857975E1,1.5016878E1,8.944563E0,2.0818602E1,1.9E1,6.9210315E0,6.839238E0,1.4031268E1],"split_indices":[0,1,0,1,1,1,1,0,1,1,0,1,1,0,1,1,0,0,0,0,1,0,0,0,1,1,0,1,1,1,0,1,0,0,0,0,0,0,2,1,0,0,0,0,0,0,0,1,0,0,1,0,0,0,0,0,0,0,0,0,0,0,0,0,1,0,0,0,0,0,0,1,1,0,0,0,0,0,0,0,0,0,0,0,0,1,2,0,0,0,0,0,0,0,0,0,0,0,0,0,0,1,0,0,0],"split_type":[0,0,0,0,0,0,0,0,0,0,0,0,0,0,0,0,0,0,0,0,0,0,0,0,0,0,0,0,0,0,0,0,0,0,0,0,0,0,0,0,0,0,0,0,0,0,0,0,0,0,0,0,0,0,0,0,0,0,0,0,0,0,0,0,0,0,0,0,0,0,0,0,0,0,0,0,0,0,0,0,0,0,0,0,0,0,0,0,0,0,0,0,0,0,0,0,0,0,0,0,0,0,0,0,0],"sum_hessian":[9.04E2,3.27E2,5.77E2,1.93E2,1.34E2,5.6E1,5.21E2,1.37E2,5.6E1,1.03E2,3.1E1,1.7E1,3.9E1,3.61E2,1.6E2,9.1E1,4.6E1,2.8E1,2.8E1,1.7E1,8.6E1,3E0,2.8E1,9E0,8E0,2.2E1,1.7E1,1E2,2.61E2,9.2E1,6.8E1,7.2E1,1.9E1,3.5E1,1.1E1,2.2E1,6E0,3E0,1.4E1,7.2E1,1.4E1,1.9E1,9E0,5E0,3E0,5E0,1.7E1,8.3E1,1.7E1,1.94E2,6.7E1,3.3E1,5.9E1,3.4E1,3.4E1,5.3E1,1.9E1,1.3E1,6E0,1.4E1,8E0,1.1E1,3E0,1.4E1,5.8E1,8E0,6E0,5E0,1.4E1,3E0,6E0,5E1,3.3E1,1.33E2,6.1E1,3.3E1,3.4E1,2.6E1,3.3E1,2E0,1.7E1,3E0,1E1,3E0,1.1E1,4.4E1,1.4E1,3E0,3E0,1.6E1,3.4E1,1.6E1,1.7E1,6E0,5E0,2.1E1,2.3E1,3E0,1.1E1,6E0,1.5E1,1.2E1,1.1E1,4E0,8E0],"tree_param":{"num_deleted":"0","num_feature":"6","num_nodes":"105","size_leaf_vector":"1"}},{"base_weights":[1.0601264E2,2.3443872E2,3.2950756E1,2.9879443E2,1.402206E2,1.09013756E2,2.4581903E1,2.6189642E2,3.5902765E2,1.044929E2,2.0707436E2,2.9195633E2,2.3964247E1,3.0924425E1,1.0168396E1,2.3120007E2,3.1245346E2,4.7185364E1,3.8006635E2,1.7066986E2,6.682925E1,1.7289168E2,2.6619244E2,2.037091E2,3.575692E2,1.1705615E1,7.6593413E0,4.578106E1,2.5079218E1,7.3285456E0,1.3848652E1,4.1490322E1,5.2931477E1,6.679593E1,4.5443737E1,7.982337E1,5.4438446E1,2.0282286E2,1.2070826E2,5.8100285E1,8.856084E1,1.9779343E2,1.2128193E2,3.4800823E1,6.1663513E1,4.5925545E1,2.1484852E1,8.8891815E1,2.756842E1,3.5117772E0,1.8208426E0,5.02137E1,4.510402E0,2.3661472E1,2.8776E1,2.0497327E0,5.5516696E0,2.3037918E0,3.1565342E0,2.011316E1,2.165699E2,1.0449943E1,1.3346875E2,7.3300064E1,4.174631E1,2.9629276E1,6.1318916E1,2.1488272E1,4.414961E1,1.487754E1,3.0170034E1,4.4458298E1,5.736993E1,2.5177464E1,2.045988E1,7.0098796E0,4.3719344E0,1.2990665E0,9.2780125E-1,4.713529E1,2.1021559E1,3.235817E1,1.5636306E1,3.705604E1,1.6915113E1,5.098315E1,5.652175E0,1.3774447E1,5.798845E0,9.82495E0,6.634797E0,1.3186684E1,9.218995E0,4.1433654E0,5.301775E0,3.2610872E0,4.8269515E0,3.0192668E0,8.564132E0,5.469849E1,4.073169E0,6.0230174E0,1.2888799E1],"categories":[],"categories_nodes":[],"categories_segments":[],"categories_sizes":[],"default_left":[0,0,0,0,0,0,0,0,0,0,0,0,0,0,0,0,0,0,0,0,0,0,0,0,0,0,0,0,0,0,0,0,0,0,0,0,0,0,0,0,0,0,0,0,0,0,0,0,0,0,0,0,0,0,0,0,0,0,0,0,0,0,0,0,0,0,0,0,0,0,0,0,0,0,0,0,0,0,0,0,0,0,0,0,0,0,0,0,0,0,0,0,0,0,0,0,0,0,0,0,0,0,0],"id":7,"left_children":[1,3,5,7,9,11,13,15,17,19,21,23,25,27,29,31,33,-1,35,37,39,41,43,45,47,49,-1,51,53,55,57,-1,-1,-1,-1,-1,-1,59,61,63,65,67,69,-1,-1,-1,-1,-1,-1,-1,-1,71,-1,73,75,-1,77,-1,-1,-1,79,-1,81,83,85,-1,87,-1,-1,-1,-1,89,91,93,95,-1,-1,-1,-1,-1,-1,-1,-1,97,-1,99,-1,-1,-1,-1,-1,-1,-1,-1,-1,-1,-1,-1,-1,101,-1,-1,-1],"loss_changes":[8.483937E6,1.946922E6,3.65252E5,3.37134E5,3.0081375E5,8.7987644E5,4.740575E4,1.20198E5,9.4214E4,2.1291625E5,4.6935125E4,3.1382625E4,6.5795664E3,3.0287969E4,1.5811816E3,9.456E3,4.844E3,0E0,1.2611E4,2.6922875E4,6.0465312E3,1.7136812E4,4.603125E3,2.8809375E2,1.10563375E5,1.9035425E2,0E0,9.267141E3,6.9228125E2,4.256504E2,1.290918E2,0E0,0E0,0E0,0E0,0E0,0E0,3.5236875E3,6.1297656E3,8.125953E3,1.52641875E4,1.7762438E4,6.804125E3,0E0,0E0,0E0,0E0,0E0,0E0,0E0,0E0,9.0915625E2,0E0,4.313203E2,2.1842734E3,0E0,2.1542969E1,0E0,0E0,0E0,7.1733125E3,0E0,6.1411406E3,5.856703E3,1.5486797E3,0E0,9.330078E2,0E0,0E0,0E0,0E0,1.0558828E3,2.4360938E2,2.11E2,6.446328E2,0E0,0E0,0E0,0E0,0E0,0E0,0E0,0E0,2.3969043E2,0E0,3.648203E2,0E0,0E0,0E0,0E0,0E0,0E0,0E0,0E0,0E0,0E0,0E0,0E0,0E0,6.946172E2,0E0,0E0,0E0],"parents":[2147483647,0,0,1,1,2,2,3,3,4,4,5,5,6,6,7,7,8,8,9,9,10,10,11,11,12,12,13,13,14,14,15,15,16,16,18,18,19,19,20,20,21,21,22,22,23,23,24,24,25,25,27,27,28,28,29,29,30,30,37,37,38,38,39,39,40,40,41,41,42,42,51,51,53,53,54,54,56,56,60,60,62,62,63,63,64,64,66,66,71,71,72,72,73,73,74,74,83,83,85,85,99,99],"right_children":[2,4,6,8,10,12,14,16,18,20,22,24,26,28,30,32,34,-1,36,38,40,42,44,46,48,50,-1,52,54,56,58,-1,-1,-1,-1,-1,-1,60,62,64,66,68,70,-1,-1,-1,-1,-1,-1,-1,-1,72,-1,74,76,-1,78,-1,-1,-1,80,-1,82,84,86,-1,88,-1,-1,-1,-1,90,92,94,96,-1,-1,-1,-1,-1,-1,-1,-1,98,-1,100,-1,-1,-1,-1,-1,-1,-1,-1,-1,-1,-1,-1,-1,102,-1,-1,-1],"split_conditions":[3.33E2,1.4E1,3.34E2,9E0,2.1E1,1.6E1,1.7E1,3.28E2,3.21E2,1.6E1,2.3E1,7E0,2.1E1,3.35E2,2E1,4E0,3.32E2,4.7185364E1,1.3E1,1.5E1,2E1,3.28E2,3E0,4E0,1.3E1,1.8E1,7.6593413E0,1.4E1,9E0,1.8E1,3.35E2,4.1490322E1,5.2931477E1,6.679593E1,4.5443737E1,7.982337E1,5.4438446E1,3.2E2,3.21E2,1.8E1,2E0,3.21E2,3.3E2,3.4800823E1,6.1663513E1,4.5925545E1,2.1484852E1,8.8891815E1,2.756842E1,3.5117772E0,1.8208426E0,8E0,4.510402E0,5E0,1.2E1,2.0497327E0,3.35E2,2.3037918E0,3.1565342E0,2.011316E1,5E0,1.0449943E1,3.26E2,3.23E2,3.25E2,2.9629276E1,3.28E2,2.1488272E1,4.414961E1,1.487754E1,3.0170034E1,5E0,1.1E1,1E0,6E0,7.0098796E0,4.3719344E0,1.2990665E0,9.2780125E-1,4.713529E1,2.1021559E1,3.235817E1,1.5636306E1,3.2E2,1.6915113E1,5E0,5.652175E0,1.3774447E1,5.798845E0,9.82495E0,6.634797E0,1.3186684E1,9.218995E0,4.1433654E0,5.301775E0,3.2610872E0,4.8269515E0,3.0192668E0,8.564132E0,3.21E2,4.073169E0,6.0230174E0,1.2888799E1],"split_indices":[0,1,0,1,1,1,1,0,0,1,1,1,1,0,1,2,0,0,1,1,1,0,2,1,1,1,0,1,1,1,0,0,0,0,0,0,0,0,0,1,2,0,0,0,0,0,0,0,0,0,0,1,0,1,1,0,0,0,0,0,2,0,0,0,0,0,0,0,0,0,0,1,1,1,1,0,0,0,0,0,0,0,0,0,0,2,0,0,0,0,0,0,0,0,0,0,0,0,0,0,0,0,0],"split_type":[0,0,0,0,0,0,0,0,0,0,0,0,0,0,0,0,0,0,0,0,0,0,0,0,0,0,0,0,0,0,0,0,0,0,0,0,0,0,0,0,0,0,0,0,0,0,0,0,0,0,0,0,0,0,0,0,0,0,0,0,0,0,0,0,0,0,0,0,0,0,0,0,0,0,0,0,0,0,0,0,0,0,0,0,0,0,0,0,0,0,0,0,0,0,0,0,0,0,0,0,0,0,0],"sum_hessian":[9.04E2,3.27E2,5.77E2,1.93E2,1.34E2,5.6E1,5.21E2,1.23E2,7E1,8.9E1,4.5E1,1.7E1,3.9E1,3.61E2,1.6E2,8E1,4.3E1,1.2E1,5.8E1,3.1E1,5.8E1,3.1E1,1.4E1,9E0,8E0,2.2E1,1.7E1,1E2,2.61E2,9.2E1,6.8E1,5.1E1,2.9E1,3.2E1,1.1E1,4.7E1,1.1E1,1.7E1,1.4E1,4.4E1,1.4E1,1.9E1,1.2E1,6E0,8E0,6E0,3E0,5E0,3E0,5E0,1.7E1,8.3E1,1.7E1,1.94E2,6.7E1,3.3E1,5.9E1,3.4E1,3.4E1,3E0,1.4E1,3E0,1.1E1,2.1E1,2.3E1,3E0,1.1E1,5E0,1.4E1,6E0,6E0,5E1,3.3E1,1.27E2,6.7E1,3.3E1,3.4E1,2.6E1,3.3E1,1.1E1,3E0,6E0,5E0,6E0,1.5E1,1.2E1,1.1E1,8E0,3E0,3.3E1,1.7E1,1.6E1,1.7E1,3.3E1,9.4E1,3.4E1,3.3E1,2E0,4E0,1E1,2E0,4E0,6E0],"tree_param":{"num_deleted":"0","num_feature":"6","num_nodes":"103","size_leaf_vector":"1"}},{"base_weights":[8.605564E1,1.901373E2,2.6843115E1,2.3587642E2,1.06738205E2,9.066473E1,1.9822666E1,2.1489197E2,2.8176227E2,6.53099E1,1.7016273E2,2.4378009E2,1.9496195E1,2.493924E1,8.195195E0,1.8243973E2,2.4987369E2,2.9251907E2,3.0783873E1,1.0046291E2,5.526574E1,1.4177226E2,2.193849E2,3.3941666E1,2.9899536E2,9.596345E0,6.212576E0,3.7054314E1,2.0173738E1,5.9088216E0,1.1158058E1,4.021313E1,1.476355E2,2.1015366E2,6.227496E1,2.5991028E2,3.440572E2,1.5317882E1,2.939354E1,4.7749912E1,7.412884E1,1.6151665E2,1.0049073E2,2.883496E1,5.070111E1,7.407651E1,2.3433155E1,2.926481E0,1.4769057E0,4.0633644E1,3.6584377E0,1.9019094E1,2.3188179E1,1.6518433E0,4.4784503E0,1.856198E0,2.543265E0,1.029875E2,1.8584677E2,2.4825183E2,2.8990686E1,5.649827E1,3.7112385E1,7.729452E1,2.1613467E2,5.993544E1,3.4590263E1,2.5184885E1,5.0686245E1,2.0301842E1,3.7203987E1,1.2327102E1,2.4998026E1,3.5889378E1,4.655494E1,2.0215763E1,1.6486847E1,5.649138E0,3.52253E0,1.0488759E0,7.476987E-1,7.1974525E0,2.1904343E1,1.6240255E1,4.0749897E1,2.4276869E1,5.1810516E1,1.6416254E1,5.9230885E1,3.1299604E1,6.871765E1,4.25546E1,2.3079714E1,1.1325657E1,4.9290185E0,8.949817E0,6.1121364E0,1.0704486E1,7.477629E0,3.590491E0,4.4671073E0,2.6275046E0,3.8899548E0,8.5423975E0,3.638451E0,1.4910072E1,6.516388E0,4.5478054E1,3.53008E0,1.2236206E1,5.394388E0,5.059336E0,1.0679292E1,3.1727011E0,9.060344E-1],"categories":[],"categories_nodes":[],"categories_segments":[],"categories_sizes":[],"default_left":[0,0,0,0,0,0,0,0,0,0,0,0,0,0,0,0,0,0,0,0,0,0,0,0,0,0,0,0,0,0,0,0,0,0,0,0,0,0,0,0,0,0,0,0,0,0,0,0,0,0,0,0,0,0,0,0,0,0,0,0,0,0,0,0,0,0,0,0,0,0,0,0,0,0,0,0,0,0,0,0,0,0,0,0,0,0,0,0,0,0,0,0,0,0,0,0,0,0,0,0,0,0,0,0,0,0,0,0,0,0,0,0,0,0,0],"id":8,"left_children":[1,3,5,7,9,11,13,15,17,19,21,23,25,27,29,31,33,35,-1,37,39,41,43,-1,45,47,-1,49,51,53,55,-1,57,59,-1,61,63,-1,-1,65,67,69,71,-1,-1,-1,-1,-1,-1,73,-1,75,77,-1,79,-1,-1,81,83,85,-1,-1,-1,-1,87,89,91,-1,93,-1,-1,-1,-1,95,97,99,101,-1,-1,-1,-1,-1,-1,-1,-1,-1,-1,-1,-1,103,105,107,109,-1,-1,-1,-1,-1,-1,-1,-1,-1,-1,-1,-1,-1,-1,111,-1,113,-1,-1,-1,-1,-1],"loss_changes":[5.572354E6,1.226013E6,2.5717938E5,1.42621E5,2.9894E5,6.163761E5,3.085086E4,1.23563E5,4.16125E4,2.0222844E4,3.3179625E4,2.2876E4,4.282246E3,2.0152344E4,1.0247178E3,2.282475E4,1.031185E5,6.3695E3,0E0,5.3973125E3,4.824875E3,9.8515625E3,1.9441875E3,0E0,7.342656E4,1.4814014E2,0E0,6.0394688E3,4.7089844E2,2.7567163E2,8.3802734E1,0E0,3.5453938E4,7.57955E4,0E0,1.3056E4,1.956175E4,0E0,0E0,5.1428984E3,1.1830711E4,1.0524875E4,4.67125E3,0E0,0E0,0E0,0E0,0E0,0E0,6.8890625E2,0E0,2.5760938E2,1.4200039E3,0E0,1.4399292E1,0E0,0E0,3.5011094E3,1.343025E4,5.55225E3,0E0,0E0,0E0,0E0,5.0779688E4,3.3818594E3,1.2180273E3,0E0,4.612422E2,0E0,0E0,0E0,0E0,1.0401797E3,1.7046094E2,2.13125E2,4.1929688E2,0E0,0E0,0E0,0E0,0E0,0E0,0E0,0E0,0E0,0E0,0E0,0E0,2.700747E2,9.433047E2,1.4377539E2,1.7643018E2,0E0,0E0,0E0,0E0,0E0,0E0,0E0,0E0,0E0,0E0,0E0,0E0,0E0,0E0,4.070918E2,0E0,6.789612E1,0E0,0E0,0E0,0E0,0E0],"parents":[2147483647,0,0,1,1,2,2,3,3,4,4,5,5,6,6,7,7,8,8,9,9,10,10,11,11,12,12,13,13,14,14,15,15,16,16,17,17,19,19,20,20,21,21,22,22,24,24,25,25,27,27,28,28,29,29,30,30,32,32,33,33,35,35,36,36,39,39,40,40,41,41,42,42,49,49,51,51,52,52,54,54,57,57,58,58,59,59,64,64,65,65,66,66,68,68,73,73,74,74,75,75,76,76,89,89,90,90,91,91,92,92,107,107,109,109],"right_children":[2,4,6,8,10,12,14,16,18,20,22,24,26,28,30,32,34,36,-1,38,40,42,44,-1,46,48,-1,50,52,54,56,-1,58,60,-1,62,64,-1,-1,66,68,70,72,-1,-1,-1,-1,-1,-1,74,-1,76,78,-1,80,-1,-1,82,84,86,-1,-1,-1,-1,88,90,92,-1,94,-1,-1,-1,-1,96,98,100,102,-1,-1,-1,-1,-1,-1,-1,-1,-1,-1,-1,-1,104,106,108,110,-1,-1,-1,-1,-1,-1,-1,-1,-1,-1,-1,-1,-1,-1,112,-1,114,-1,-1,-1,-1,-1],"split_conditions":[3.33E2,1.5E1,3.34E2,3.29E2,2.1E1,1.6E1,1.7E1,8E0,1.4E1,1.6E1,2.3E1,7E0,2.1E1,3.35E2,2E1,5E0,4E0,1E1,3.0783873E1,5E0,2E1,3.28E2,3E0,3.3941666E1,1.3E1,1.8E1,6.212576E0,1.4E1,9E0,1.8E1,3.35E2,4.021313E1,4E0,1.2E1,6.227496E1,3.32E2,1.3E1,1.5317882E1,2.939354E1,1.8E1,2E0,3.22E2,3.3E2,2.883496E1,5.070111E1,7.407651E1,2.3433155E1,2.926481E0,1.4769057E0,8E0,3.6584377E0,5E0,1.2E1,1.6518433E0,3.35E2,1.856198E0,2.543265E0,3.2E2,3.22E2,3.2E2,2.8990686E1,5.649827E1,3.7112385E1,7.729452E1,3.3E2,3.23E2,3.25E2,2.5184885E1,3.28E2,2.0301842E1,3.7203987E1,1.2327102E1,2.4998026E1,3E0,1.1E1,2E0,6E0,5.649138E0,3.52253E0,1.0488759E0,7.476987E-1,7.1974525E0,2.1904343E1,1.6240255E1,4.0749897E1,2.4276869E1,5.1810516E1,1.6416254E1,5.9230885E1,1.7E1,3.3E2,5E0,3.27E2,1.1325657E1,4.9290185E0,8.949817E0,6.1121364E0,1.0704486E1,7.477629E0,3.590491E0,4.4671073E0,2.6275046E0,3.8899548E0,8.5423975E0,3.638451E0,1.4910072E1,6.516388E0,3.21E2,3.53008E0,3.26E2,5.394388E0,5.059336E0,1.0679292E1,3.1727011E0,9.060344E-1],"split_indices":[0,1,0,0,1,1,1,1,1,1,1,1,1,0,1,1,2,1,0,2,1,0,2,0,1,1,0,1,1,1,0,0,2,1,0,0,1,0,0,1,2,0,0,0,0,0,0,0,0,1,0,1,1,0,0,0,0,0,0,0,0,0,0,0,0,0,0,0,0,0,0,0,0,1,1,1,1,0,0,0,0,0,0,0,0,0,0,0,0,1,0,2,0,0,0,0,0,0,0,0,0,0,0,0,0,0,0,0,0,0,0,0,0,0,0],"split_type":[0,0,0,0,0,0,0,0,0,0,0,0,0,0,0,0,0,0,0,0,0,0,0,0,0,0,0,0,0,0,0,0,0,0,0,0,0,0,0,0,0,0,0,0,0,0,0,0,0,0,0,0,0,0,0,0,0,0,0,0,0,0,0,0,0,0,0,0,0,0,0,0,0,0,0,0,0,0,0,0,0,0,0,0,0,0,0,0,0,0,0,0,0,0,0,0,0,0,0,0,0,0,0,0,0,0,0,0,0,0,0,0,0,0,0],"sum_hessian":[9.04E2,3.27E2,5.77E2,2.1E2,1.17E2,5.6E1,5.21E2,1.48E2,6.2E1,7.2E1,4.5E1,1.7E1,3.9E1,3.61E2,1.6E2,8E1,6.8E1,5.6E1,6E0,1.4E1,5.8E1,3.1E1,1.4E1,9E0,8E0,2.2E1,1.7E1,1E2,2.61E2,9.2E1,6.8E1,4.9E1,3.1E1,4.4E1,2.4E1,3.8E1,1.8E1,1.1E1,3E0,4.4E1,1.4E1,1.9E1,1.2E1,6E0,8E0,5E0,3E0,5E0,1.7E1,8.3E1,1.7E1,1.94E2,6.7E1,3.3E1,5.9E1,3.4E1,3.4E1,1.6E1,1.5E1,2.6E1,1.8E1,2.7E1,1.1E1,1.2E1,6E0,2.1E1,2.3E1,3E0,1.1E1,7E0,1.2E1,6E0,6E0,5E1,3.3E1,1.27E2,6.7E1,3.3E1,3.4E1,2.6E1,3.3E1,2E0,1.4E1,3E0,1.2E1,3E0,2.3E1,3E0,3E0,6E0,1.5E1,1.2E1,1.1E1,8E0,3E0,1.6E1,3.4E1,1.6E1,1.7E1,6.6E1,6.1E1,3.4E1,3.3E1,2E0,4E0,1.2E1,3E0,1E1,2E0,4E0,7E0,4E0,6E0,2E0,2E0],"tree_param":{"num_deleted":"0","num_feature":"6","num_nodes":"115","size_leaf_vector":"1"}},{"base_weights":[7.006487E1,1.5483502E2,2.183879E1,1.9578076E2,9.484756E1,7.502419E1,1.5989352E1,1.7319005E2,2.4703934E2,7.533914E1,1.5528592E2,2.0232692E2,1.5862357E1,2.011893E1,6.6049004E0,1.5430603E2,4.311964E1,5.7852295E1,1.9629858E2,1.3363698E2,6.2411552E1,1.717929E2,2.0358255E1,1.3916084E2,2.5003069E2,7.868529E0,5.0390906E0,3.0008821E1,1.6229626E1,4.764137E0,8.990207E0,1.8349046E2,1.3051204E2,1.5355153E2,6.1742107E1,1.27475815E1,1.4336758E2,5.4282166E1,1.956276E1,2.5060144E1,5.2032124E1,3.2234028E1,1.3170875E1,6.173042E1,1.991818E1,2.438735E0,1.1979345E0,3.290268E1,2.9673994E0,1.5290018E1,1.8685421E1,1.3311913E0,3.6127036E0,1.4955653E0,2.0491447E0,1.6230486E2,4.8627438E1,1.1372444E2,3.1344446E1,4.1179546E1,1.5545723E1,3.1424982E1,1.3250745E1,8.33511E1,4.5971725E1,2.9006834E1,3.777872E1,2.8336656E0,3.4935405E0,4.5525403E0,2.8381531E0,8.468701E-1,6.0255736E-1,3.9683636E1,7.956222E1,2.8726746E1,1.7334608E1,1.2509604E1,2.4984507E1,3.9585464E1,6.2065716E1,7.2651453E0,4.9246354E0,8.689525E0,6.065188E0,1.8269253E1,6.6315126E0,1.1055182E1,3.220482E1,2.1407156E1,4.1903553E1,9.304023E0,2.7300676E1,9.312207E0,4.1896663E0,1.6300587E1,3.281246E1,3.8729851E0,8.750397E0,8.281835E0,3.5930023E0,2.1315696E0,7.852295E-1],"categories":[],"categories_nodes":[],"categories_segments":[],"categories_sizes":[],"default_left":[0,0,0,0,0,0,0,0,0,0,0,0,0,0,0,0,0,0,0,0,0,0,0,0,0,0,0,0,0,0,0,0,0,0,0,0,0,0,0,0,0,0,0,0,0,0,0,0,0,0,0,0,0,0,0,0,0,0,0,0,0,0,0,0,0,0,0,0,0,0,0,0,0,0,0,0,0,0,0,0,0,0,0,0,0,0,0,0,0,0,0,0,0,0,0,0,0,0,0,0,0,0,0],"id":9,"left_children":[1,3,5,7,9,11,13,15,17,19,21,23,25,27,29,31,-1,-1,33,35,37,39,-1,41,43,45,-1,47,49,51,53,55,57,59,-1,-1,61,63,-1,-1,-1,-1,-1,-1,-1,-1,-1,65,-1,67,69,-1,71,-1,-1,73,-1,75,-1,-1,-1,-1,-1,77,79,81,83,-1,-1,-1,-1,-1,-1,-1,85,-1,-1,-1,-1,87,89,-1,-1,-1,-1,-1,-1,-1,91,-1,93,-1,95,-1,-1,97,99,-1,101,-1,-1,-1,-1],"loss_changes":[3.696378E6,7.87074E5,1.786189E5,1.818615E5,1.4747362E5,4.2608394E5,2.0096625E4,7.724725E4,6.533425E4,7.0039125E4,1.07700625E4,1.944425E4,2.7860342E3,1.3437219E4,6.6408545E2,4.4799E4,0E0,0E0,9.1950125E4,3.1049688E3,1.9728938E4,6.1895062E4,0E0,5.5204688E3,4.8631938E4,1.1386951E2,0E0,3.9462344E3,3.1885938E2,1.7853638E2,5.4402832E1,1.3611E4,7.69725E3,7.528381E4,0E0,0E0,5.5030625E3,1.3803234E4,0E0,0E0,0E0,0E0,0E0,0E0,0E0,0E0,0E0,4.9984375E2,0E0,2.2883984E2,9.2314453E2,0E0,9.6189575E0,0E0,0E0,8.580925E4,0E0,1.9105281E4,0E0,0E0,0E0,0E0,0E0,5.158539E3,3.6071484E3,7.418086E2,1.1887891E2,0E0,0E0,0E0,0E0,0E0,0E0,0E0,3.5331875E3,0E0,0E0,0E0,0E0,3.4311016E3,9.115227E3,0E0,0E0,0E0,0E0,0E0,0E0,0E0,1.046707E3,0E0,1.9580664E2,0E0,1.1021504E3,0E0,0E0,8.504883E1,1.4259531E3,0E0,4.1657715E0,0E0,0E0,0E0,0E0],"parents":[2147483647,0,0,1,1,2,2,3,3,4,4,5,5,6,6,7,7,8,8,9,9,10,10,11,11,12,12,13,13,14,14,15,15,18,18,19,19,20,20,21,21,23,23,24,24,25,25,27,27,28,28,29,29,30,30,31,31,32,32,33,33,36,36,37,37,47,47,49,49,50,50,52,52,55,55,57,57,63,63,64,64,65,65,66,66,74,74,79,79,80,80,88,88,90,90,92,92,95,95,96,96,98,98],"right_children":[2,4,6,8,10,12,14,16,18,20,22,24,26,28,30,32,-1,-1,34,36,38,40,-1,42,44,46,-1,48,50,52,54,56,58,60,-1,-1,62,64,-1,-1,-1,-1,-1,-1,-1,-1,-1,66,-1,68,70,-1,72,-1,-1,74,-1,76,-1,-1,-1,-1,-1,78,80,82,84,-1,-1,-1,-1,-1,-1,-1,86,-1,-1,-1,-1,88,90,-1,-1,-1,-1,-1,-1,-1,92,-1,94,-1,96,-1,-1,98,100,-1,102,-1,-1,-1,-1],"split_conditions":[3.33E2,1.4E1,3.34E2,1E1,2.2E1,1.6E1,1.7E1,5E0,1.2E1,1.5E1,3.29E2,7E0,2.1E1,3.35E2,2E1,2E0,4.311964E1,5.7852295E1,3.3E2,3.2E2,2.1E1,3.26E2,2.0358255E1,4E0,1.3E1,1.8E1,5.0390906E0,1.4E1,9E0,1.8E1,3.35E2,8E0,4E0,3.24E2,6.1742107E1,1.27475815E1,5E0,1.6E1,1.956276E1,2.5060144E1,5.2032124E1,3.2234028E1,1.3170875E1,6.173042E1,1.991818E1,2.438735E0,1.1979345E0,8E0,2.9673994E0,3.36E2,1.2E1,1.3311913E0,3.35E2,1.4955653E0,2.0491447E0,5E0,4.8627438E1,4E0,3.1344446E1,4.1179546E1,1.5545723E1,3.1424982E1,1.3250745E1,5E0,2E1,3E0,1.1E1,2.8336656E0,3.4935405E0,4.5525403E0,2.8381531E0,8.468701E-1,6.0255736E-1,3.9683636E1,3.32E2,2.8726746E1,1.7334608E1,1.2509604E1,2.4984507E1,1.7E1,2E0,7.2651453E0,4.9246354E0,8.689525E0,6.065188E0,1.8269253E1,6.6315126E0,1.1055182E1,1E0,2.1407156E1,3.28E2,9.304023E0,3E0,9.312207E0,4.1896663E0,2E0,5E0,3.8729851E0,3.2E2,8.281835E0,3.5930023E0,2.1315696E0,7.852295E-1],"split_indices":[0,1,0,1,1,1,1,2,1,1,0,1,1,0,1,2,0,0,0,0,1,0,0,1,1,1,0,1,1,1,0,1,2,0,0,0,2,1,0,0,0,0,0,0,0,0,0,1,0,0,1,0,0,0,0,1,0,1,0,0,0,0,0,2,1,1,1,0,0,0,0,0,0,0,0,0,0,0,0,1,2,0,0,0,0,0,0,0,2,0,0,0,2,0,0,2,2,0,0,0,0,0,0],"split_type":[0,0,0,0,0,0,0,0,0,0,0,0,0,0,0,0,0,0,0,0,0,0,0,0,0,0,0,0,0,0,0,0,0,0,0,0,0,0,0,0,0,0,0,0,0,0,0,0,0,0,0,0,0,0,0,0,0,0,0,0,0,0,0,0,0,0,0,0,0,0,0,0,0,0,0,0,0,0,0,0,0,0,0,0,0,0,0,0,0,0,0,0,0,0,0,0,0,0,0,0,0,0,0],"sum_hessian":[9.04E2,3.27E2,5.77E2,1.93E2,1.34E2,5.6E1,5.21E2,1.37E2,5.6E1,1.03E2,3.1E1,1.7E1,3.9E1,3.61E2,1.6E2,9.8E1,3.9E1,2.8E1,2.8E1,1.7E1,8.6E1,2.2E1,9E0,9E0,8E0,2.2E1,1.7E1,1E2,2.61E2,9.2E1,6.8E1,4.1E1,5.7E1,2.2E1,6E0,3E0,1.4E1,7.2E1,1.4E1,1.6E1,6E0,6E0,3E0,5E0,3E0,5E0,1.7E1,8.3E1,1.7E1,1.94E2,6.7E1,3.3E1,5.9E1,3.4E1,3.4E1,3.3E1,8E0,3.8E1,1.9E1,1.2E1,1E1,1.1E1,3E0,1.4E1,5.8E1,5E1,3.3E1,1.33E2,6.1E1,3.3E1,3.4E1,2.6E1,3.3E1,2.2E1,1.1E1,1.6E1,2.2E1,1.1E1,3E0,4.4E1,1.4E1,1.6E1,3.4E1,1.6E1,1.7E1,8E0,3E0,1.2E1,3.2E1,3E0,1.1E1,6E0,2.6E1,8E0,3E0,1E1,1.6E1,6E0,4E0,9E0,7E0,2E0,2E0],"tree_param":{"num_deleted":"0","num_feature":"6","num_nodes":"103","size_leaf_vector":"1"}},{"base_weights":[5.7026047E1,1.2598972E2,1.7792286E1,1.5534135E2,7.2437325E1,6.2400566E1,1.2887182E1,1.3973036E2,1.8979684E2,4.4952133E1,1.144804E2,1.6892006E2,1.2906778E1,1.621567E1,5.3232074E0,1.1664148E2,1.6480965E2,1.9646484E2,1.0838644E2,6.918049E1,3.803048E1,9.2862366E1,1.5296686E2,1.1586916E2,2.090966E2,6.452939E0,4.0872617E0,2.4303213E1,1.3036062E1,3.841208E0,7.243537E0,1.0866378E2,3.2483345E1,1.3515176E2,2.1160144E2,1.7420499E2,2.4261794E2,1.1263135E1,2.667212E1,5.108089E1,2.1236832E1,3.2535572E1,5.1979843E1,1.06434654E2,6.483866E1,1.9595804E1,1.7873886E2,2.6708197E1,1.1195239E1,5.1442013E1,1.6930456E1,2.0322785E0,9.7165835E-1,2.6642908E1,2.4068906E0,1.2264463E1,1.5057026E1,1.0727834E0,2.9143195E0,1.2049986E0,1.6510245E0,2.4792734E1,7.682692E1,1.5629208E2,7.7177345E1,4.5777225E1,1.3445708E2,4.0501144E1,1.3626112E2,5.655498E1,1.5059114E2,4.7083297E0,1.1528979E1,4.1163414E1,2.3271067E1,1.8196081E1,3.4648003E1,1.0713059E1,2.4097351E1,6.7920833E0,1.7290848E1,4.808313E1,2.1566236E1,2.3444479E1,3.0656939E1,1.3109561E1,1.0493332E1,3.6688125E0,2.286741E0,6.8376917E-1,4.855902E-1,3.9265137E0,1.6155018E1,1.95445E2,1.2961143E2,1.6560024E1,5.79209E0,4.2051113E1,5.0088687E0,6.780665E1,3.0683044E1,1.1621948E1,4.108495E1,1.8473593E0,4.3894234E1,2.9044874E1,1.5076854E1,7.656705E0,3.561216E0,5.2879615E0,3.2968338E0,7.053849E0,4.919542E0,2.259834E0,2.9709015E0,1.566478E0,2.5847821E0,4.2498474E1,1.5830909E1,7.2860904E0,2.8481363E1,1.960695E1,5.636783E0,4.6635853E1,4.253761E0,3.277456E0,3.2849663E1,3.7048585E0,9.96807E0,5.047548E0,1.0255705E1,2.5803366E0,7.341198E0,6.8053186E-1,2.3827405E0],"categories":[],"categories_nodes":[],"categories_segments":[],"categories_sizes":[],"default_left":[0,0,0,0,0,0,0,0,0,0,0,0,0,0,0,0,0,0,0,0,0,0,0,0,0,0,0,0,0,0,0,0,0,0,0,0,0,0,0,0,0,0,0,0,0,0,0,0,0,0,0,0,0,0,0,0,0,0,0,0,0,0,0,0,0,0,0,0,0,0,0,0,0,0,0,0,0,0,0,0,0,0,0,0,0,0,0,0,0,0,0,0,0,0,0,0,0,0,0,0,0,0,0,0,0,0,0,0,0,0,0,0,0,0,0,0,0,0,0,0,0,0,0,0,0,0,0,0,0,0,0,0,0,0,0],"id":10,"left_children":[1,3,5,7,9,11,13,15,17,19,21,23,25,27,29,31,33,35,37,39,41,43,45,47,49,51,-1,53,55,57,59,61,-1,63,65,67,69,-1,-1,71,-1,73,75,77,79,-1,81,-1,-1,-1,-1,-1,-1,83,-1,85,87,-1,89,-1,-1,-1,91,93,95,-1,97,-1,99,-1,101,-1,-1,103,105,-1,107,-1,-1,-1,-1,-1,-1,109,111,113,115,-1,-1,-1,-1,-1,-1,117,119,-1,-1,-1,-1,121,-1,-1,-1,-1,123,125,127,-1,-1,-1,-1,-1,-1,-1,-1,-1,-1,-1,-1,-1,-1,-1,-1,129,-1,-1,131,-1,133,-1,-1,-1,-1,-1,-1],"loss_changes":[2.4464212E6,5.04314E5,1.25666984E5,8.69735E4,1.3121019E5,2.983268E5,1.3055867E4,6.705525E4,1.2905E4,9.611156E3,2.406725E4,1.4137406E4,1.8119004E3,8.992086E3,4.3037012E2,1.1930875E4,6.715625E4,1.6294E4,1.5926797E3,4.622289E3,2.8311875E3,5.2699688E3,3.7445312E3,3.1090625E3,3.2113562E4,8.6647644E1,0E0,2.5785898E3,2.2389062E2,1.1562634E2,3.531665E1,2.5547562E4,0E0,4.3089688E4,2.56E3,1.7507625E4,1.6544875E4,0E0,0E0,8.1215625E2,0E0,2.6390547E3,6.9869805E3,8.404594E3,5.7408477E3,0E0,1.3435906E4,0E0,0E0,0E0,0E0,0E0,0E0,3.5970703E2,0E0,1.543086E2,6.001387E2,0E0,6.422333E0,0E0,0E0,0E0,4.285328E3,8.0960625E3,1.3976562E3,0E0,5.2787516E4,0E0,1.42571875E4,0E0,2.3560438E4,0E0,0E0,1.5126484E3,6.9757715E2,0E0,5.3070312E1,0E0,0E0,0E0,0E0,0E0,0E0,6.274297E2,8.265625E1,2.3651172E2,3.3857373E2,0E0,0E0,0E0,0E0,0E0,0E0,4.9871875E3,2.1042375E4,0E0,0E0,0E0,0E0,4.4233184E3,0E0,0E0,0E0,0E0,2.4871875E2,8.7756836E1,2.6695068E1,0E0,0E0,0E0,0E0,0E0,0E0,0E0,0E0,0E0,0E0,0E0,0E0,0E0,0E0,0E0,0E0,3.9470312E2,0E0,0E0,2.1876465E2,0E0,4.8878845E1,0E0,0E0,0E0,0E0,0E0,0E0],"parents":[2147483647,0,0,1,1,2,2,3,3,4,4,5,5,6,6,7,7,8,8,9,9,10,10,11,11,12,12,13,13,14,14,15,15,16,16,17,17,18,18,19,19,20,20,21,21,22,22,23,23,24,24,25,25,27,27,28,28,29,29,30,30,31,31,33,33,34,34,35,35,36,36,39,39,41,41,42,42,43,43,44,44,46,46,53,53,55,55,56,56,58,58,62,62,63,63,64,64,66,66,68,68,70,70,73,73,74,74,76,76,83,83,84,84,85,85,86,86,93,93,94,94,99,99,104,104,105,105,106,106,123,123,126,126,128,128],"right_children":[2,4,6,8,10,12,14,16,18,20,22,24,26,28,30,32,34,36,38,40,42,44,46,48,50,52,-1,54,56,58,60,62,-1,64,66,68,70,-1,-1,72,-1,74,76,78,80,-1,82,-1,-1,-1,-1,-1,-1,84,-1,86,88,-1,90,-1,-1,-1,92,94,96,-1,98,-1,100,-1,102,-1,-1,104,106,-1,108,-1,-1,-1,-1,-1,-1,110,112,114,116,-1,-1,-1,-1,-1,-1,118,120,-1,-1,-1,-1,122,-1,-1,-1,-1,124,126,128,-1,-1,-1,-1,-1,-1,-1,-1,-1,-1,-1,-1,-1,-1,-1,-1,130,-1,-1,132,-1,134,-1,-1,-1,-1,-1,-1],"split_conditions":[3.33E2,1.5E1,3.34E2,3.29E2,2.1E1,1.6E1,1.7E1,8E0,1.4E1,1.6E1,2.3E1,7E0,2.1E1,3.35E2,2E1,6E0,4E0,1.1E1,3.31E2,5E0,2E1,3.28E2,3E0,4E0,1.3E1,1.8E1,4.0872617E0,1.4E1,9E0,1.8E1,3.35E2,5E0,3.2483345E1,1.3E1,3.24E2,5E0,1.3E1,1.1263135E1,2.667212E1,3.21E2,2.1236832E1,1.8E1,2E0,3.21E2,3.3E2,1.9595804E1,5E0,2.6708197E1,1.1195239E1,5.1442013E1,1.6930456E1,2.0322785E0,9.7165835E-1,8E0,2.4068906E0,5E0,1.2E1,1.0727834E0,3.35E2,1.2049986E0,1.6510245E0,2.4792734E1,3.2E2,2E0,3.27E2,4.5777225E1,1.1E1,4.0501144E1,6E0,5.655498E1,3.3E2,4.7083297E0,1.1528979E1,3.2E2,3.25E2,1.8196081E1,3.28E2,1.0713059E1,2.4097351E1,6.7920833E0,1.7290848E1,4.808313E1,2.1566236E1,5E0,1.1E1,2E0,6E0,3.6688125E0,2.286741E0,6.8376917E-1,4.855902E-1,3.9265137E0,1.6155018E1,1.2E1,9E0,1.6560024E1,5.79209E0,4.2051113E1,5.0088687E0,3.3E2,3.0683044E1,1.1621948E1,4.108495E1,1.8473593E0,3.3E2,3.21E2,1.9E1,7.656705E0,3.561216E0,5.2879615E0,3.2968338E0,7.053849E0,4.919542E0,2.259834E0,2.9709015E0,1.566478E0,2.5847821E0,4.2498474E1,1.5830909E1,7.2860904E0,2.8481363E1,1.960695E1,5.636783E0,3.23E2,4.253761E0,3.277456E0,1.9E1,3.7048585E0,3.27E2,5.047548E0,1.0255705E1,2.5803366E0,7.341198E0,6.8053186E-1,2.3827405E0],"split_indices":[0,1,0,0,1,1,1,1,1,1,1,1,1,0,1,2,2,1,0,2,1,0,2,1,1,1,0,1,1,1,0,1,0,1,0,1,1,0,0,0,0,1,2,0,0,0,2,0,0,0,0,0,0,1,0,1,1,0,0,0,0,0,0,2,0,0,1,0,1,0,0,0,0,0,0,0,0,0,0,0,0,0,0,1,1,1,1,0,0,0,0,0,0,1,1,0,0,0,0,0,0,0,0,0,0,0,1,0,0,0,0,0,0,0,0,0,0,0,0,0,0,0,0,0,0,0,1,0,0,0,0,0,0,0,0],"split_type":[0,0,0,0,0,0,0,0,0,0,0,0,0,0,0,0,0,0,0,0,0,0,0,0,0,0,0,0,0,0,0,0,0,0,0,0,0,0,0,0,0,0,0,0,0,0,0,0,0,0,0,0,0,0,0,0,0,0,0,0,0,0,0,0,0,0,0,0,0,0,0,0,0,0,0,0,0,0,0,0,0,0,0,0,0,0,0,0,0,0,0,0,0,0,0,0,0,0,0,0,0,0,0,0,0,0,0,0,0,0,0,0,0,0,0,0,0,0,0,0,0,0,0,0,0,0,0,0,0,0,0,0,0,0,0],"sum_hessian":[9.04E2,3.27E2,5.77E2,2.1E2,1.17E2,5.6E1,5.21E2,1.48E2,6.2E1,7.2E1,4.5E1,1.7E1,3.9E1,3.61E2,1.6E2,8E1,6.8E1,5.6E1,6E0,1.4E1,5.8E1,3.1E1,1.4E1,9E0,8E0,2.2E1,1.7E1,1E2,2.61E2,9.2E1,6.8E1,7.1E1,9E0,4.4E1,2.4E1,4.1E1,1.5E1,3E0,3E0,1.1E1,3E0,4.4E1,1.4E1,1.9E1,1.2E1,6E0,8E0,6E0,3E0,5E0,3E0,5E0,1.7E1,8.3E1,1.7E1,1.94E2,6.7E1,3.3E1,5.9E1,3.4E1,3.4E1,4.6E1,2.5E1,3.1E1,1.3E1,1.8E1,6E0,2.1E1,2E1,9E0,6E0,3E0,8E0,2.1E1,2.3E1,3E0,1.1E1,5E0,1.4E1,6E0,6E0,3E0,5E0,5E1,3.3E1,1.27E2,6.7E1,3.3E1,3.4E1,2.6E1,3.3E1,2E0,2.3E1,1E1,2.1E1,1.1E1,2E0,3E0,3E0,5E0,1.5E1,3E0,3E0,2E0,1.9E1,1.2E1,1.1E1,8E0,3E0,3.3E1,1.7E1,1.6E1,1.7E1,6.6E1,6.1E1,3.4E1,3.3E1,8E0,2E0,3E0,1.8E1,2E0,3E0,1.6E1,3E0,4E0,8E0,5E0,6E0,4E0,1.2E1,2E0,6E0,2E0,4E0],"tree_param":{"num_deleted":"0","num_feature":"6","num_nodes":"135","size_leaf_vector":"1"}},{"base_weights":[4.6663307E1,1.0319016E2,1.4505053E1,1.2678621E2,6.0122723E1,5.190934E1,1.0392889E1,1.091516E2,1.4884117E2,4.239694E1,1.06435875E2,1.4104024E2,1.0502702E1,1.3078344E1,4.2902317E0,1.316008E2,8.491303E1,1.3202785E2,1.7439102E2,3.7444714E1,6.3671295E1,1.2978366E1,1.1758006E2,9.648564E1,1.748742E2,5.2929583E0,3.3152225E0,1.9669947E1,1.048739E1,3.0970752E0,5.8362217E0,1.05003815E2,1.591971E2,7.1624664E1,1.03753624E2,1.1257488E2,3.237355E1,4.7477524E1,1.3210237E2,5.7842663E1,3.1624138E1,7.446323E1,4.070005E1,1.4161205E2,6.977409E1,2.2129639E1,9.515952E0,4.286834E1,1.4390884E1,1.6935654E0,7.8812313E-1,2.1559067E1,1.9522555E0,9.859684E0,1.21332035E1,8.6453706E-1,2.350945E0,9.7088474E-1,1.3302542E0,1.2854948E2,5.11243E1,3.4550873E1,9.384609E1,9.3262405E1,5.2517433E1,2.620141E1,6.2112877E1,1.0320233E1,2.3244532E1,3.265795E1,9.795037E1,4.221781E1,1.805131E1,2.6947823E1,4.3544807E1,6.336597E0,1.6432005E1,2.987767E0,1.1257251E1,1.8484232E1,3.6925434E1,6.8607574E0,1.6015022E1,1.8923912E1,2.487771E1,9.033629E0,1.1486E1,2.9566321E0,1.8424596E0,5.5208033E-1,3.9132857E-1,1.5466578E1,2.7696009E1,1.15036955E1,4.791266E0,1.0174832E1,2.26713E1,7.232849E1,2.3917303E1,3.094403E0,1.1460129E1,1.4616788E1,6.8661623E0,4.0389107E1,1.4151872E2,4.0020804E0,9.479381E0,3.3903656E1,1.9448816E1,1.5466669E1,2.8653227E1,4.902206E0,3.1338975E0,5.7260656E0,3.9902952E0,8.479121E0,2.0830295E0,1.922505E0,2.6572838E0,5.9839683E0,1.9669226E1,4.2575316E0,9.878656E0,3.9957886E1,9.573667E0,1.6010437E0,3.609324E1,2.4251207E1,1.2625493E1,6.955584E0,3.862035E0,1.897068E0,1.2621343E0,3.820887E1,3.6156976E0,2.753064E0,2.738212E1,1.3738202E1,9.4159347E-1,2.1199701E1,8.362343E0,2.2362916E0,6.082706E0,6.987268E0,3.414856E0,5.25638E0,1.8101867E0,1.7392944E0,5.8979493E-1],"categories":[],"categories_nodes":[],"categories_segments":[],"categories_sizes":[],"default_left":[0,0,0,0,0,0,0,0,0,0,0,0,0,0,0,0,0,0,0,0,0,0,0,0,0,0,0,0,0,0,0,0,0,0,0,0,0,0,0,0,0,0,0,0,0,0,0,0,0,0,0,0,0,0,0,0,0,0,0,0,0,0,0,0,0,0,0,0,0,0,0,0,0,0,0,0,0,0,0,0,0,0,0,0,0,0,0,0,0,0,0,0,0,0,0,0,0,0,0,0,0,0,0,0,0,0,0,0,0,0,0,0,0,0,0,0,0,0,0,0,0,0,0,0,0,0,0,0,0,0,0,0,0,0,0,0,0,0,0,0,0,0,0,0,0,0,0,0,0],"id":11,"left_children":[1,3,5,7,9,11,13,15,17,19,21,23,25,27,29,31,33,35,37,39,41,-1,43,45,47,49,-1,51,53,55,57,59,61,63,65,67,-1,-1,69,71,73,75,77,79,81,-1,-1,-1,-1,-1,-1,83,-1,85,87,-1,89,-1,-1,91,93,-1,95,97,99,-1,101,-1,-1,-1,103,105,-1,107,109,-1,-1,-1,-1,-1,-1,-1,-1,111,113,115,117,-1,-1,-1,-1,-1,-1,-1,-1,-1,-1,119,-1,-1,-1,-1,-1,121,123,-1,-1,125,127,-1,129,-1,-1,-1,-1,131,-1,-1,-1,-1,-1,-1,-1,-1,-1,-1,133,135,137,-1,-1,-1,-1,139,-1,-1,141,143,-1,145,-1,-1,-1,147,-1,-1,-1,-1,-1],"loss_changes":[1.6436169E6,3.2569775E5,8.836417E4,6.5818E4,9.2358E4,2.0888353E5,8.498641E3,5.4665875E4,1.6067125E4,6.7817656E3,7.1851875E3,1.0261375E4,1.1778999E3,5.9761484E3,2.7890674E2,2.8056375E4,7.8406875E3,1.60258125E4,5.6553938E4,6.8379062E3,6.8790625E2,0E0,1.7692062E4,1.6617188E3,2.1135031E4,6.5382324E1,0E0,1.6801406E3,1.5104102E2,7.488275E1,2.2926758E1,3.6561375E4,8.595125E3,1.1226141E4,1.7964406E4,2.6770625E3,0E0,0E0,7.4381875E3,3.786496E3,2.115504E3,3.6035938E2,1.9697852E3,1.4675844E4,9.069219E2,0E0,0E0,0E0,0E0,0E0,0E0,2.638086E2,0E0,1.5820703E2,3.9015137E2,0E0,4.285858E0,0E0,0E0,9.8896875E2,7.0666797E2,0E0,1.0187891E2,7.186094E2,3.1889531E3,0E0,8.437578E2,0E0,0E0,0E0,2.6886219E4,4.3173828E2,0E0,1.6879004E3,5.331617E3,0E0,0E0,0E0,0E0,0E0,0E0,0E0,0E0,5.4325E2,5.7314453E1,1.434082E1,8.1413086E1,0E0,0E0,0E0,0E0,0E0,0E0,0E0,0E0,0E0,0E0,1.0297973E4,0E0,0E0,0E0,0E0,0E0,1.5248145E2,2.8635938E4,0E0,0E0,9.586113E2,4.8025488E2,0E0,1.5112305E1,0E0,0E0,0E0,0E0,1.605166E2,0E0,0E0,0E0,0E0,0E0,0E0,0E0,0E0,0E0,0E0,7.149414E1,4.9871582E1,4.1039795E1,0E0,0E0,0E0,0E0,1.5538867E2,0E0,0E0,1.01930176E2,1.0591394E2,0E0,7.0836914E1,0E0,0E0,0E0,8.865662E0,0E0,0E0,0E0,0E0,0E0],"parents":[2147483647,0,0,1,1,2,2,3,3,4,4,5,5,6,6,7,7,8,8,9,9,10,10,11,11,12,12,13,13,14,14,15,15,16,16,17,17,18,18,19,19,20,20,22,22,23,23,24,24,25,25,27,27,28,28,29,29,30,30,31,31,32,32,33,33,34,34,35,35,38,38,39,39,40,40,41,41,42,42,43,43,44,44,51,51,53,53,54,54,56,56,59,59,60,60,62,62,63,63,64,64,66,66,70,70,71,71,73,73,74,74,83,83,84,84,85,85,86,86,97,97,103,103,104,104,107,107,108,108,110,110,115,115,126,126,127,127,128,128,133,133,136,136,137,137,139,139,143,143],"right_children":[2,4,6,8,10,12,14,16,18,20,22,24,26,28,30,32,34,36,38,40,42,-1,44,46,48,50,-1,52,54,56,58,60,62,64,66,68,-1,-1,70,72,74,76,78,80,82,-1,-1,-1,-1,-1,-1,84,-1,86,88,-1,90,-1,-1,92,94,-1,96,98,100,-1,102,-1,-1,-1,104,106,-1,108,110,-1,-1,-1,-1,-1,-1,-1,-1,112,114,116,118,-1,-1,-1,-1,-1,-1,-1,-1,-1,-1,120,-1,-1,-1,-1,-1,122,124,-1,-1,126,128,-1,130,-1,-1,-1,-1,132,-1,-1,-1,-1,-1,-1,-1,-1,-1,-1,134,136,138,-1,-1,-1,-1,140,-1,-1,142,144,-1,146,-1,-1,-1,148,-1,-1,-1,-1,-1],"split_conditions":[3.33E2,1.5E1,3.34E2,4E0,2.2E1,1.6E1,1.7E1,2E0,1E1,2.1E1,3.22E2,7E0,2.1E1,3.35E2,2E1,8E0,1E1,6E0,1.2E1,1.6E1,3.27E2,1.2978366E1,3.29E2,4E0,1.3E1,1.8E1,3.3152225E0,1.4E1,9E0,1.8E1,3.35E2,5E0,1.4E1,4E0,1.3E1,1E0,3.237355E1,4.7477524E1,3.24E2,5E0,2E1,3.21E2,3.29E2,3.26E2,3.3E2,2.2129639E1,9.515952E0,4.286834E1,1.4390884E1,1.6935654E0,7.8812313E-1,8E0,1.9522555E0,3.36E2,1.2E1,8.6453706E-1,3.35E2,9.7088474E-1,1.3302542E0,3.25E2,3.32E2,3.4550873E1,3.25E2,3E0,5E0,2.620141E1,3.21E2,1.0320233E1,2.3244532E1,3.265795E1,3.3E2,3.21E2,1.805131E1,1.8E1,2E0,6.336597E0,1.6432005E1,2.987767E0,1.1257251E1,1.8484232E1,3.6925434E1,6.8607574E0,1.6015022E1,3E0,1.1E1,6E0,2E0,2.9566321E0,1.8424596E0,5.5208033E-1,3.9132857E-1,1.5466578E1,2.7696009E1,1.15036955E1,4.791266E0,1.0174832E1,2.26713E1,3E0,2.3917303E1,3.094403E0,1.1460129E1,1.4616788E1,6.8661623E0,3.29E2,1.3E1,4.0020804E0,9.479381E0,3.2E2,3.25E2,1.5466669E1,3.23E2,4.902206E0,3.1338975E0,5.7260656E0,3.9902952E0,4E0,2.0830295E0,1.922505E0,2.6572838E0,5.9839683E0,1.9669226E1,4.2575316E0,9.878656E0,3.9957886E1,9.573667E0,1.6010437E0,3.3E2,3.21E2,5E0,6.955584E0,3.862035E0,1.897068E0,1.2621343E0,3.23E2,3.6156976E0,2.753064E0,1.9E1,3.27E2,9.4159347E-1,3.22E2,8.362343E0,2.2362916E0,6.082706E0,3.26E2,3.414856E0,5.25638E0,1.8101867E0,1.7392944E0,5.8979493E-1],"split_indices":[0,1,0,2,1,1,1,2,1,1,0,1,1,0,1,1,1,2,1,1,0,0,0,1,1,1,0,1,1,1,0,1,1,1,1,1,0,0,0,2,1,0,0,0,0,0,0,0,0,0,0,1,0,0,1,0,0,0,0,0,0,0,0,1,1,0,0,0,0,0,0,0,0,1,2,0,0,0,0,0,0,0,0,1,1,1,1,0,0,0,0,0,0,0,0,0,0,2,0,0,0,0,0,0,1,0,0,0,0,0,0,0,0,0,0,1,0,0,0,0,0,0,0,0,0,0,0,0,2,0,0,0,0,0,0,0,1,0,0,0,0,0,0,0,0,0,0,0,0],"split_type":[0,0,0,0,0,0,0,0,0,0,0,0,0,0,0,0,0,0,0,0,0,0,0,0,0,0,0,0,0,0,0,0,0,0,0,0,0,0,0,0,0,0,0,0,0,0,0,0,0,0,0,0,0,0,0,0,0,0,0,0,0,0,0,0,0,0,0,0,0,0,0,0,0,0,0,0,0,0,0,0,0,0,0,0,0,0,0,0,0,0,0,0,0,0,0,0,0,0,0,0,0,0,0,0,0,0,0,0,0,0,0,0,0,0,0,0,0,0,0,0,0,0,0,0,0,0,0,0,0,0,0,0,0,0,0,0,0,0,0,0,0,0,0,0,0,0,0,0,0],"sum_hessian":[9.04E2,3.27E2,5.77E2,2.1E2,1.17E2,5.6E1,5.21E2,1.2E2,9E1,8.6E1,3.1E1,1.7E1,3.9E1,3.61E2,1.6E2,6E1,6E1,5.8E1,3.2E1,7.2E1,1.4E1,8E0,2.3E1,9E0,8E0,2.2E1,1.7E1,1E2,2.61E2,9.2E1,6.8E1,3.3E1,2.7E1,3.8E1,2.2E1,3.8E1,2E1,1.1E1,2.1E1,1.4E1,5.8E1,8E0,6E0,1.4E1,9E0,6E0,3E0,5E0,3E0,5E0,1.7E1,8.3E1,1.7E1,1.94E2,6.7E1,3.3E1,5.9E1,3.4E1,3.4E1,2.2E1,1.1E1,2.1E1,6E0,1.6E1,2.2E1,1.2E1,1E1,3E0,3.5E1,9E0,1.2E1,1.1E1,3E0,4.4E1,1.4E1,2E0,6E0,3E0,3E0,8E0,6E0,3E0,6E0,5E1,3.3E1,1.33E2,6.1E1,3.3E1,3.4E1,2.6E1,3.3E1,5E0,1.7E1,8E0,3E0,3E0,3E0,1.1E1,5E0,3E0,1.9E1,6E0,4E0,6E0,6E0,3E0,8E0,2.1E1,2.3E1,3E0,1.1E1,1.6E1,3.4E1,1.6E1,1.7E1,1E2,3.3E1,3.3E1,2.8E1,5E0,6E0,3E0,3E0,3E0,3E0,2E0,1.9E1,1.2E1,1.1E1,5E0,6E0,6.6E1,3.4E1,1.6E1,3E0,4E0,8E0,9E0,2E0,4E0,1.2E1,2E0,6E0,4E0,5E0,2E0,2E0,2E0,2E0],"tree_param":{"num_deleted":"0","num_feature":"6","num_nodes":"149","size_leaf_vector":"1"}},{"base_weights":[3.82213E1,8.460366E1,1.1834383E1,1.03554115E2,5.00007E1,4.3188915E1,8.387941E0,9.208769E1,1.2902939E2,3.5448975E1,8.800069E1,1.1777136E2,8.547087E0,1.0557499E1,3.4577074E0,7.5339966E1,1.1041346E2,1.3927115E2,9.5687706E1,3.1273857E1,5.3404606E1,6.563068E1,1.0897798E2,8.035307E1,1.4626154E2,4.3422656E0,2.6890152E0,1.5931055E1,8.445718E0,2.4971006E0,4.702327E0,8.5149315E1,5.7658485E1,9.051457E1,1.4181493E2,2.9040562E1,8.137616E0,6.567284E1,2.368112E1,4.8376316E1,2.639571E1,1.2420085E1,3.459504E1,7.098129E1,5.8316407E0,1.35397215E1,1.289755E2,1.8335987E1,8.088562E0,3.5723625E1,1.2232254E1,1.4113048E0,6.392552E-1,1.7458595E1,1.5834962E0,7.9381166E0,9.777136E0,6.967153E-1,1.8964794E0,7.8225535E-1,1.0718049E0,6.43233E1,1.8970768E1,3.094864E1,6.839256E1,1.09249916E2,5.912674E1,3.2831066E1,1.08565674E2,1.6436483E1,4.072577E0,3.489771E1,1.534361E1,2.2411667E1,3.6588127E1,2.5396028E0,9.568662E0,8.127795E0,1.6417711E1,3.533185E1,1.5138082E1,1.5296701E1,2.0187946E1,7.266027E0,9.262664E0,2.382697E0,1.4844956E0,4.4575378E-1,3.1536475E-1,7.3096115E1,2.630249E0,1.8749593E0,3.4701187E1,4.4053658E1,1.8638777E1,2.8800797E1,8.703746E1,6.528124E1,5.7675734E0,2.6779516E1,3.6188965E0,3.401767E0,3.89708E1,2.8061369E1,1.6298954E1,1.31466675E1,2.3824047E1,3.9794376E0,2.525026E0,4.6482196E0,3.2365727E0,6.81458E0,1.6786766E0,1.5493122E0,2.1441524E0,3.545764E1,1.8426687E1,3.192627E0,8.281938E0,9.924917E0,3.822586E0,5.106968E1,2.28603E1,1.5179286E1,8.461452E0,1.0200437E1,4.890949E0,1.3875712E0,5.965366E0,2.0252663E1,1.0657524E1,5.2651997E0,2.4477289E0,7.61659E0,1.0169204E0,3.63797E0,8.772204E0,4.474158E0,1.2034675E1,2.3125732E0,2.283003E1,1.1564957E1,8.1604815E-1,1.285096E0,1.7167367E0,1.9381186E0,5.039957E0,6.0556335E0,2.8457134E0,1.5073894E0,5.111552E-1],"categories":[],"categories_nodes":[],"categories_segments":[],"categories_sizes":[],"default_left":[0,0,0,0,0,0,0,0,0,0,0,0,0,0,0,0,0,0,0,0,0,0,0,0,0,0,0,0,0,0,0,0,0,0,0,0,0,0,0,0,0,0,0,0,0,0,0,0,0,0,0,0,0,0,0,0,0,0,0,0,0,0,0,0,0,0,0,0,0,0,0,0,0,0,0,0,0,0,0,0,0,0,0,0,0,0,0,0,0,0,0,0,0,0,0,0,0,0,0,0,0,0,0,0,0,0,0,0,0,0,0,0,0,0,0,0,0,0,0,0,0,0,0,0,0,0,0,0,0,0,0,0,0,0,0,0,0,0,0,0,0,0,0,0,0,0,0,0,0,0,0],"id":12,"left_children":[1,3,5,7,9,11,13,15,17,19,21,23,25,27,29,31,33,35,37,39,41,43,45,47,49,51,-1,53,55,57,59,61,63,65,67,-1,-1,69,-1,71,73,-1,75,77,-1,-1,79,-1,-1,-1,-1,-1,-1,81,-1,83,85,-1,87,-1,-1,89,-1,91,93,95,97,-1,99,-1,-1,101,-1,103,105,-1,-1,-1,-1,-1,-1,107,109,111,113,-1,-1,-1,-1,115,-1,-1,117,119,-1,-1,121,123,-1,-1,-1,-1,125,127,129,-1,131,-1,-1,-1,-1,133,-1,-1,-1,135,-1,-1,-1,-1,-1,137,-1,-1,-1,-1,-1,-1,-1,139,141,-1,-1,143,-1,-1,-1,-1,-1,-1,145,147,-1,-1,-1,-1,-1,149,-1,-1,-1],"loss_changes":[1.1066169E6,2.099055E5,6.2097312E4,4.975325E4,6.2130375E4,1.4626272E5,5.5470312E3,3.741175E4,8.1865E3,4.8519375E3,7.8640938E3,7.436422E3,7.6542456E2,3.9733438E3,1.8074768E2,9.139375E3,3.0278625E4,2.0990875E4,4.4977188E3,4.813336E3,3.0510547E2,1.4430156E3,3.6508125E3,8.1278516E2,1.3857469E4,4.8987183E1,0E0,1.0981172E3,9.945508E1,4.849579E1,1.4883545E1,4.004E3,7.057922E3,2.0003188E4,7.4840625E2,0E0,0E0,5.807008E3,0E0,3.0528203E3,1.5758125E3,0E0,1.423169E3,1.7193047E3,0E0,0E0,9.496094E3,0E0,0E0,0E0,0E0,0E0,0E0,1.8683984E2,0E0,1.0628906E2,2.536377E2,0E0,2.8587189E0,0E0,0E0,7.5682188E3,0E0,5.65208E2,9.174477E3,8.309531E3,1.6592734E3,0E0,2.7370703E4,0E0,0E0,2.1150781E2,0E0,1.0967051E3,4.0141426E3,0E0,0E0,0E0,0E0,0E0,0E0,3.756123E2,3.964746E1,1.1000977E1,5.4009766E1,0E0,0E0,0E0,0E0,8.197742E3,0E0,0E0,4.7030957E2,8.577871E2,0E0,0E0,1.2794578E4,4.47125E2,0E0,0E0,0E0,0E0,3.2458984E2,6.1350586E2,3.1946582E2,0E0,2.5638672E1,0E0,0E0,0E0,0E0,1.0140576E2,0E0,0E0,0E0,2.1792969E2,0E0,0E0,0E0,0E0,0E0,1.2665332E3,0E0,0E0,0E0,0E0,0E0,0E0,0E0,2.7178223E1,2.4433472E1,0E0,0E0,2.2024414E1,0E0,0E0,0E0,0E0,0E0,0E0,3.603418E1,6.0583984E1,0E0,0E0,0E0,0E0,0E0,6.659195E0,0E0,0E0,0E0],"parents":[2147483647,0,0,1,1,2,2,3,3,4,4,5,5,6,6,7,7,8,8,9,9,10,10,11,11,12,12,13,13,14,14,15,15,16,16,17,17,18,18,19,19,20,20,21,21,22,22,23,23,24,24,25,25,27,27,28,28,29,29,30,30,31,31,32,32,33,33,34,34,37,37,39,39,40,40,42,42,43,43,46,46,53,53,55,55,56,56,58,58,61,61,63,63,64,64,65,65,66,66,68,68,71,71,73,73,74,74,81,81,82,82,83,83,84,84,89,89,92,92,93,93,96,96,97,97,102,102,103,103,104,104,106,106,111,111,115,115,121,121,129,129,130,130,133,133,140,140,141,141,147,147],"right_children":[2,4,6,8,10,12,14,16,18,20,22,24,26,28,30,32,34,36,38,40,42,44,46,48,50,52,-1,54,56,58,60,62,64,66,68,-1,-1,70,-1,72,74,-1,76,78,-1,-1,80,-1,-1,-1,-1,-1,-1,82,-1,84,86,-1,88,-1,-1,90,-1,92,94,96,98,-1,100,-1,-1,102,-1,104,106,-1,-1,-1,-1,-1,-1,108,110,112,114,-1,-1,-1,-1,116,-1,-1,118,120,-1,-1,122,124,-1,-1,-1,-1,126,128,130,-1,132,-1,-1,-1,-1,134,-1,-1,-1,136,-1,-1,-1,-1,-1,138,-1,-1,-1,-1,-1,-1,-1,140,142,-1,-1,144,-1,-1,-1,-1,-1,-1,146,148,-1,-1,-1,-1,-1,150,-1,-1,-1],"split_conditions":[3.33E2,1.5E1,3.34E2,3.29E2,2.2E1,1.6E1,1.7E1,8E0,3.32E2,2.1E1,2.3E1,7E0,2.1E1,3.35E2,2E1,5E0,4E0,1.4E1,6E0,1.6E1,3.27E2,5E0,3E0,4E0,1.3E1,1.8E1,2.6890152E0,1.4E1,9E0,1.8E1,3.35E2,3.22E2,3.23E2,1.2E1,1.2E1,2.9040562E1,8.137616E0,3E0,2.368112E1,5E0,2E1,1.2420085E1,3.29E2,3.22E2,5.8316407E0,1.35397215E1,5E0,1.8335987E1,8.088562E0,3.5723625E1,1.2232254E1,1.4113048E0,6.392552E-1,8E0,1.5834962E0,3.36E2,1.2E1,6.967153E-1,3.35E2,7.8225535E-1,1.0718049E0,4E0,1.8970768E1,3.2E2,4E0,2E0,3.26E2,3.2831066E1,3.24E2,1.6436483E1,4.072577E0,3.21E2,1.534361E1,1.8E1,2E0,2.5396028E0,9.568662E0,8.127795E0,1.6417711E1,3.533185E1,1.5138082E1,3E0,1.1E1,6E0,2E0,2.382697E0,1.4844956E0,4.4575378E-1,3.1536475E-1,2E0,2.630249E0,1.8749593E0,6E0,3.27E2,1.8638777E1,2.8800797E1,1E1,1.4E1,5.7675734E0,2.6779516E1,3.6188965E0,3.401767E0,3.26E2,3.2E2,3.25E2,1.31466675E1,3.28E2,3.9794376E0,2.525026E0,4.6482196E0,3.2365727E0,4E0,1.6786766E0,1.5493122E0,2.1441524E0,3.2E2,1.8426687E1,3.192627E0,8.281938E0,9.924917E0,3.822586E0,9E0,2.28603E1,1.5179286E1,8.461452E0,1.0200437E1,4.890949E0,1.3875712E0,5.965366E0,3.21E2,5E0,5.2651997E0,2.4477289E0,1E0,1.0169204E0,3.63797E0,8.772204E0,4.474158E0,1.2034675E1,2.3125732E0,1.9E1,3.27E2,8.1604815E-1,1.285096E0,1.7167367E0,1.9381186E0,5.039957E0,3.26E2,2.8457134E0,1.5073894E0,5.111552E-1],"split_indices":[0,1,0,0,1,1,1,1,0,1,1,1,1,0,1,1,2,1,1,1,0,2,2,1,1,1,0,1,1,1,0,0,0,1,1,0,0,1,0,2,1,0,0,0,0,0,2,0,0,0,0,0,0,1,0,0,1,0,0,0,0,1,0,0,2,2,0,0,0,0,0,0,0,1,2,0,0,0,0,0,0,1,1,1,1,0,0,0,0,1,0,0,1,0,0,0,1,1,0,0,0,0,0,0,0,0,0,0,0,0,0,1,0,0,0,0,0,0,0,0,0,1,0,0,0,0,0,0,0,0,2,0,0,1,0,0,0,0,0,0,1,0,0,0,0,0,0,0,0,0,0],"split_type":[0,0,0,0,0,0,0,0,0,0,0,0,0,0,0,0,0,0,0,0,0,0,0,0,0,0,0,0,0,0,0,0,0,0,0,0,0,0,0,0,0,0,0,0,0,0,0,0,0,0,0,0,0,0,0,0,0,0,0,0,0,0,0,0,0,0,0,0,0,0,0,0,0,0,0,0,0,0,0,0,0,0,0,0,0,0,0,0,0,0,0,0,0,0,0,0,0,0,0,0,0,0,0,0,0,0,0,0,0,0,0,0,0,0,0,0,0,0,0,0,0,0,0,0,0,0,0,0,0,0,0,0,0,0,0,0,0,0,0,0,0,0,0,0,0,0,0,0,0,0,0],"sum_hessian":[9.04E2,3.27E2,5.77E2,2.1E2,1.17E2,5.6E1,5.21E2,1.48E2,6.2E1,8.6E1,3.1E1,1.7E1,3.9E1,3.61E2,1.6E2,8E1,6.8E1,4.5E1,1.7E1,7.2E1,1.4E1,1.7E1,1.4E1,9E0,8E0,2.2E1,1.7E1,1E2,2.61E2,9.2E1,6.8E1,4.9E1,3.1E1,4.4E1,2.4E1,4.2E1,3E0,9E0,8E0,1.4E1,5.8E1,8E0,6E0,1.4E1,3E0,6E0,8E0,6E0,3E0,5E0,3E0,5E0,1.7E1,8.3E1,1.7E1,1.94E2,6.7E1,3.3E1,5.9E1,3.4E1,3.4E1,1.8E1,3.1E1,1E1,2.1E1,2.6E1,1.8E1,1.2E1,1.2E1,6E0,3E0,1.1E1,3E0,4.4E1,1.4E1,3E0,3E0,5E0,9E0,3E0,5E0,5E1,3.3E1,1.33E2,6.1E1,3.3E1,3.4E1,2.6E1,3.3E1,1.5E1,3E0,2E0,8E0,1.2E1,9E0,8E0,1.8E1,1.4E1,4E0,9E0,3E0,3E0,8E0,2.1E1,2.3E1,3E0,1.1E1,1.6E1,3.4E1,1.6E1,1.7E1,1E2,3.3E1,3.3E1,2.8E1,6E0,9E0,3E0,5E0,9E0,3E0,9E0,9E0,8E0,6E0,3E0,5E0,2E0,1.9E1,1.2E1,1.1E1,8E0,3E0,6.6E1,3.4E1,3E0,3E0,3E0,6E0,4E0,8E0,9E0,2E0,3.3E1,3.3E1,2E0,6E0,4E0,5E0,2E0,2E0],"tree_param":{"num_deleted":"0","num_feature":"6","num_nodes":"151","size_leaf_vector":"1"}},{"base_weights":[3.1293001E1,6.931794E1,9.660695E0,8.4456314E1,4.1661026E1,3.5939205E1,6.772696E0,7.540827E1,1.0451509E2,2.9526402E1,7.3350136E1,9.834934E1,6.95616E0,8.526749E0,2.7867358E0,6.1483974E1,9.066131E1,9.132734E1,1.24941025E2,2.6074156E1,4.4358894E1,5.419215E1,9.144971E1,6.692493E1,1.2233766E2,3.562966E0,2.181091E0,1.2902991E1,6.8071785E0,2.013356E0,3.7887297E0,6.916818E1,4.7556023E1,7.4580055E1,1.1598111E2,1.1245675E2,6.484285E1,3.415018E1,8.009181E1,4.095683E1,2.1848492E1,3.8357015E0,4.675753E1,5.842139E1,4.956891E0,1.1218624E1,1.0878819E2,1.7493597E1,9.125067E0,2.9769688E1,1.0397418E1,1.1760864E0,5.1850694E-1,1.4138178E1,1.2843914E0,6.398652E0,7.878582E0,5.614704E-1,1.5298691E0,6.30274E-1,8.6356795E-1,5.32201E1,1.5295169E1,2.5972502E1,5.6186146E1,8.9924736E1,4.884919E1,2.6769949E1,8.9190865E1,2.4967384E1,1.3618792E1,3.6592358E1,1.4276822E1,6.2615705E0,2.3486816E1,2.9459259E1,1.3042066E1,1.8425419E1,3.0661144E1,1.1485927E1,2.9405779E1,6.7731605E0,1.3462522E1,3.003208E1,1.2615072E1,1.23649025E1,1.6382261E1,5.8553386E0,7.469706E0,1.920175E0,1.1960791E0,3.59905E-1,2.5414687E-1,6.040423E1,2.2357118E0,1.6249675E0,2.9035889E1,3.6300423E1,1.5283793E1,2.3680658E1,7.170201E1,5.3801037E1,4.844761E0,2.19592E1,3.076062E0,1.0021354E1,3.4616914E0,2.8915024E0,3.285345E1,5.0622973E0,1.515438E1,1.1174667E1,1.9701984E1,2.158661E0,8.133362E0,2.8596632E0,1.6051924E0,3.7732594E0,2.62522E0,5.4914536E0,1.352815E0,1.2485641E0,1.7301098E0,3.0139004E1,7.554946E1,2.713733E0,6.9016113E0,4.069215E1,3.2492006E0,4.250664E1,1.8745438E1,1.2480741E1,7.0109215E0,8.670371E0,4.0757885E0,1.7030643E1,1.4324452E0,4.9187846E0,2.538865E0,6.1380763E0,8.193469E-1,3.0922792E0,7.4563723E0,1.7174383E1,7.719562E0,9.24062E0,4.174991E0,3.8030396E0,9.971589E0,1.902927E0,1.8809715E1,1.0356363E0,1.3834878E0,4.710275E0,1.3685993E1,7.5095882E0,4.1662087E0,1.7810563E0,4.4300133E-1],"categories":[],"categories_nodes":[],"categories_segments":[],"categories_sizes":[],"default_left":[0,0,0,0,0,0,0,0,0,0,0,0,0,0,0,0,0,0,0,0,0,0,0,0,0,0,0,0,0,0,0,0,0,0,0,0,0,0,0,0,0,0,0,0,0,0,0,0,0,0,0,0,0,0,0,0,0,0,0,0,0,0,0,0,0,0,0,0,0,0,0,0,0,0,0,0,0,0,0,0,0,0,0,0,0,0,0,0,0,0,0,0,0,0,0,0,0,0,0,0,0,0,0,0,0,0,0,0,0,0,0,0,0,0,0,0,0,0,0,0,0,0,0,0,0,0,0,0,0,0,0,0,0,0,0,0,0,0,0,0,0,0,0,0,0,0,0,0,0,0,0,0,0,0,0,0,0,0,0],"id":13,"left_children":[1,3,5,7,9,11,13,15,17,19,21,23,25,27,29,31,33,35,37,39,41,43,45,47,49,51,-1,53,55,57,59,61,63,65,67,69,71,-1,73,75,77,-1,79,81,-1,-1,83,-1,-1,-1,-1,-1,-1,85,-1,87,89,-1,91,-1,-1,93,-1,95,97,99,101,-1,103,-1,-1,105,-1,-1,-1,107,-1,109,111,-1,113,-1,-1,-1,-1,115,117,119,121,-1,-1,-1,-1,123,-1,-1,125,127,-1,-1,129,131,-1,-1,-1,-1,-1,-1,133,-1,135,-1,137,-1,-1,-1,-1,-1,-1,139,-1,-1,-1,141,143,-1,-1,145,-1,147,-1,-1,-1,-1,-1,149,-1,-1,-1,151,-1,-1,-1,-1,-1,-1,-1,-1,-1,-1,153,-1,-1,-1,155,157,-1,-1,-1],"loss_changes":[7.437535E5,1.3380875E5,4.3622355E4,3.041375E4,4.320942E4,1.02419516E5,3.6258418E3,2.6071625E4,5.5598125E3,3.29825E3,6.1401875E3,5.3813125E3,4.971731E2,2.6363086E3,1.171344E2,5.3796562E3,1.9445125E4,1.6211281E4,3.1524031E4,3.6960664E3,9.238281E0,7.907578E2,3.0931797E3,3.8483203E2,9.047219E3,3.6480408E1,0E0,7.1774023E2,6.426465E1,3.1406555E1,9.662048E0,1.757125E3,4.5013047E3,1.33746875E4,2.94375E1,3.5821562E3,1.2685469E3,0E0,2.0005547E4,2.261795E3,1.2148691E3,0E0,7.1857227E2,9.9533984E2,0E0,0E0,7.54975E3,0E0,0E0,0E0,0E0,0E0,0E0,1.3170117E2,0E0,6.973682E1,1.6489014E2,0E0,1.9059143E0,0E0,0E0,5.063375E3,0E0,3.6550537E2,6.0775234E3,5.522078E3,1.0136172E3,0E0,1.8082703E4,0E0,0E0,6.9639307E2,0E0,0E0,0E0,1.3604785E2,0E0,6.3002637E2,3.043751E3,0E0,1.0282397E3,0E0,0E0,0E0,0E0,3.130791E2,2.736621E1,7.1660156E0,3.581909E1,0E0,0E0,0E0,0E0,5.056992E3,0E0,0E0,2.935249E2,4.838711E2,0E0,0E0,8.233602E3,2.315E2,0E0,0E0,0E0,0E0,0E0,0E0,2.951963E2,0E0,3.728711E2,0E0,9.916943E1,0E0,0E0,0E0,0E0,0E0,0E0,6.594116E1,0E0,0E0,0E0,1.5745117E2,4.9985156E2,0E0,0E0,1.2762891E2,0E0,7.7886914E2,0E0,0E0,0E0,0E0,0E0,1.686914E2,0E0,0E0,0E0,1.4303223E1,0E0,0E0,0E0,0E0,0E0,0E0,0E0,0E0,0E0,0E0,1.6357568E2,0E0,0E0,0E0,3.73136E2,3.93916E1,0E0,0E0,0E0],"parents":[2147483647,0,0,1,1,2,2,3,3,4,4,5,5,6,6,7,7,8,8,9,9,10,10,11,11,12,12,13,13,14,14,15,15,16,16,17,17,18,18,19,19,20,20,21,21,22,22,23,23,24,24,25,25,27,27,28,28,29,29,30,30,31,31,32,32,33,33,34,34,35,35,36,36,38,38,39,39,40,40,42,42,43,43,46,46,53,53,55,55,56,56,58,58,61,61,63,63,64,64,65,65,66,66,68,68,71,71,75,75,77,77,78,78,80,80,85,85,86,86,87,87,88,88,93,93,96,96,97,97,100,100,101,101,108,108,110,110,112,112,119,119,123,123,124,124,127,127,129,129,135,135,139,139,150,150,154,154,155,155],"right_children":[2,4,6,8,10,12,14,16,18,20,22,24,26,28,30,32,34,36,38,40,42,44,46,48,50,52,-1,54,56,58,60,62,64,66,68,70,72,-1,74,76,78,-1,80,82,-1,-1,84,-1,-1,-1,-1,-1,-1,86,-1,88,90,-1,92,-1,-1,94,-1,96,98,100,102,-1,104,-1,-1,106,-1,-1,-1,108,-1,110,112,-1,114,-1,-1,-1,-1,116,118,120,122,-1,-1,-1,-1,124,-1,-1,126,128,-1,-1,130,132,-1,-1,-1,-1,-1,-1,134,-1,136,-1,138,-1,-1,-1,-1,-1,-1,140,-1,-1,-1,142,144,-1,-1,146,-1,148,-1,-1,-1,-1,-1,150,-1,-1,-1,152,-1,-1,-1,-1,-1,-1,-1,-1,-1,-1,154,-1,-1,-1,156,158,-1,-1,-1],"split_conditions":[3.33E2,1.5E1,3.34E2,3.29E2,2.2E1,1.6E1,1.7E1,8E0,1.1E1,2.1E1,2.3E1,7E0,2.1E1,3.35E2,2E1,5E0,4E0,5E0,1.3E1,1.6E1,3.21E2,5E0,3E0,2E0,1.3E1,1.8E1,2.181091E0,1.4E1,9E0,1.8E1,3.35E2,3.22E2,3.23E2,1.2E1,1.2E1,3.32E2,6E0,3.415018E1,3.31E2,5E0,2E1,3.8357015E0,3.27E2,3.22E2,4.956891E0,1.1218624E1,5E0,1.7493597E1,9.125067E0,2.9769688E1,1.0397418E1,1.1760864E0,5.1850694E-1,8E0,1.2843914E0,3.36E2,1.2E1,5.614704E-1,3.35E2,6.30274E-1,8.6356795E-1,4E0,1.5295169E1,3.2E2,4E0,2E0,3.26E2,2.6769949E1,3.24E2,2.4967384E1,1.3618792E1,3.3E2,1.4276822E1,6.2615705E0,2.3486816E1,3.21E2,1.3042066E1,1.7E1,2E0,1.1485927E1,3.29E2,6.7731605E0,1.3462522E1,3.003208E1,1.2615072E1,5E0,1.1E1,6E0,2E0,1.920175E0,1.1960791E0,3.59905E-1,2.5414687E-1,2E0,2.2357118E0,1.6249675E0,6E0,3.27E2,1.5283793E1,2.3680658E1,1E1,1.4E1,4.844761E0,2.19592E1,3.076062E0,1.0021354E1,3.4616914E0,2.8915024E0,3.26E2,5.0622973E0,5E0,1.1174667E1,3.23E2,2.158661E0,8.133362E0,2.8596632E0,1.6051924E0,3.7732594E0,2.62522E0,4E0,1.352815E0,1.2485641E0,1.7301098E0,3.2E2,3.21E2,2.713733E0,6.9016113E0,7E0,3.2492006E0,9E0,1.8745438E1,1.2480741E1,7.0109215E0,8.670371E0,4.0757885E0,3.21E2,1.4324452E0,4.9187846E0,2.538865E0,1E0,8.193469E-1,3.0922792E0,7.4563723E0,1.7174383E1,7.719562E0,9.24062E0,4.174991E0,3.8030396E0,9.971589E0,1.902927E0,3.25E2,1.0356363E0,1.3834878E0,4.710275E0,3E0,2E0,4.1662087E0,1.7810563E0,4.4300133E-1],"split_indices":[0,1,0,0,1,1,1,1,1,1,1,1,1,0,1,1,2,1,1,1,0,2,2,1,1,1,0,1,1,1,0,0,0,1,1,0,1,0,0,2,1,0,0,0,0,0,2,0,0,0,0,0,0,1,0,0,1,0,0,0,0,1,0,0,2,2,0,0,0,0,0,0,0,0,0,0,0,1,2,0,0,0,0,0,0,1,1,1,1,0,0,0,0,1,0,0,1,0,0,0,1,1,0,0,0,0,0,0,0,0,2,0,0,0,0,0,0,0,0,1,0,0,0,0,0,0,0,1,0,1,0,0,0,0,0,0,0,0,0,1,0,0,0,0,0,0,0,0,0,0,0,0,0,0,2,2,0,0,0],"split_type":[0,0,0,0,0,0,0,0,0,0,0,0,0,0,0,0,0,0,0,0,0,0,0,0,0,0,0,0,0,0,0,0,0,0,0,0,0,0,0,0,0,0,0,0,0,0,0,0,0,0,0,0,0,0,0,0,0,0,0,0,0,0,0,0,0,0,0,0,0,0,0,0,0,0,0,0,0,0,0,0,0,0,0,0,0,0,0,0,0,0,0,0,0,0,0,0,0,0,0,0,0,0,0,0,0,0,0,0,0,0,0,0,0,0,0,0,0,0,0,0,0,0,0,0,0,0,0,0,0,0,0,0,0,0,0,0,0,0,0,0,0,0,0,0,0,0,0,0,0,0,0,0,0,0,0,0,0,0,0],"sum_hessian":[9.04E2,3.27E2,5.77E2,2.1E2,1.17E2,5.6E1,5.21E2,1.48E2,6.2E1,8.6E1,3.1E1,1.7E1,3.9E1,3.61E2,1.6E2,8E1,6.8E1,4.1E1,2.1E1,7.2E1,1.4E1,1.7E1,1.4E1,9E0,8E0,2.2E1,1.7E1,1E2,2.61E2,9.2E1,6.8E1,4.9E1,3.1E1,4.4E1,2.4E1,2.1E1,2E1,9E0,1.2E1,1.4E1,5.8E1,2E0,1.2E1,1.4E1,3E0,6E0,8E0,3E0,6E0,5E0,3E0,5E0,1.7E1,8.3E1,1.7E1,1.94E2,6.7E1,3.3E1,5.9E1,3.4E1,3.4E1,1.8E1,3.1E1,1E1,2.1E1,2.6E1,1.8E1,1.2E1,1.2E1,1.5E1,6E0,5E0,1.5E1,6E0,6E0,1.1E1,3E0,4.4E1,1.4E1,6E0,6E0,5E0,9E0,3E0,5E0,5E1,3.3E1,1.33E2,6.1E1,3.3E1,3.4E1,2.6E1,3.3E1,1.5E1,3E0,2E0,8E0,1.2E1,9E0,8E0,1.8E1,1.4E1,4E0,9E0,3E0,2E0,3E0,3E0,8E0,1.2E1,3.2E1,3E0,1.1E1,3E0,3E0,3.3E1,1.7E1,1.6E1,1.7E1,1E2,3.3E1,3.3E1,2.8E1,6E0,9E0,3E0,5E0,9E0,3E0,9E0,9E0,8E0,6E0,3E0,5E0,2.5E1,7E0,5E0,6E0,6.6E1,3.4E1,3E0,3E0,6E0,3E0,6E0,3E0,3E0,6E0,6E0,1.9E1,3.3E1,3.3E1,8E0,1.1E1,7E0,4E0,5E0,2E0],"tree_param":{"num_deleted":"0","num_feature":"6","num_nodes":"159","size_leaf_vector":"1"}},{"base_weights":[2.5726551E1,5.707091E1,7.8949304E0,7.073739E1,3.7008926E1,2.9991034E1,5.4670134E0,6.076694E1,9.363536E1,3.1776388E1,7.675081E1,8.238978E1,5.661821E0,6.8844757E0,2.2459674E0,5.4924183E1,9.0704E1,1.0887096E2,7.517096E1,4.412761E1,2.7031773E1,9.295431E0,9.176912E1,5.620176E1,1.0233316E2,2.9240522E0,1.7691071E0,1.0442668E1,5.4865294E0,1.623325E0,3.0526311E0,5.093179E1,6.773862E1,2.0539707E1,1.0408744E1,1.6635988E1,1.3833492E2,5.4479843E1,2.6483469E1,3.59763E0,4.9467937E1,1.8125074E1,4.2608753E1,2.5527266E1,1.0512559E1,1.2911074E1,5.5065002E0,2.4808077E1,8.837809E0,9.80072E-1,4.2056713E-1,1.1439869E1,1.0417837E0,5.1577415E0,6.3486915E0,4.5247912E-1,1.2341295E0,5.078204E-1,6.957884E-1,6.0107506E1,3.2149178E1,8.7779434E1,3.871278E1,2.9967646E1,1.0775782E1,1.5322043E1,4.6746116E0,1.4471915E1,3.8982468E1,1.5173632E1,2.577106E1,4.8282238E1,3.060272E1,9.979466E0,1.3294004E1,4.7185345E0,6.023807E0,1.5474339E0,9.636988E-1,2.9058996E-1,2.0481253E-1,5.124766E1,1.4992986E1,3.4807907E1,2.8767152E0,8.743006E0,9.582291E1,3.2325928E0,8.8867E0,3.1514177E1,1.2195416E1,1.8846796E1,1.1174329E1,9.498466E0,1.638305E1,5.4798326E0,1.148387E1,1.8348618E0,7.2227626E0,2.6920784E0,1.6007208E0,3.0629997E0,2.1293466E0,4.4252267E0,1.0902101E0,1.0061954E0,1.3960195E0,3.7825047E1,6.2869087E1,2.7564672E1,1.1354465E1,2.0660261E1,8.289355E0,6.822967E0,2.9066682E0,9.892434E0,2.1586405E1,1.3936922E1,7.2503257E0,4.0989857E0,2.1036298E0,4.946565E0,6.601602E-1,1.1028503E1,1.1105631E1,1.6745382E1,4.0248474E1,1.4083089E0,2.9183945E1,3.0851767E0,9.187757E-1,4.8210573E0,1.6006882E0,1.176416E0,2.973341E0,7.926019E0,5.162476E-1,8.3460087E-1,1.1149276E0,2.5494354E0,5.538412E-1,1.900354E0,9.888325E0,3.2808216E1,3.4497037E0,4.358594E0,1.9155741E0,7.281448E0,2.7618196E0,1.0689311E0,3.839335E-1],"categories":[],"categories_nodes":[],"categories_segments":[],"categories_sizes":[],"default_left":[0,0,0,0,0,0,0,0,0,0,0,0,0,0,0,0,0,0,0,0,0,0,0,0,0,0,0,0,0,0,0,0,0,0,0,0,0,0,0,0,0,0,0,0,0,0,0,0,0,0,0,0,0,0,0,0,0,0,0,0,0,0,0,0,0,0,0,0,0,0,0,0,0,0,0,0,0,0,0,0,0,0,0,0,0,0,0,0,0,0,0,0,0,0,0,0,0,0,0,0,0,0,0,0,0,0,0,0,0,0,0,0,0,0,0,0,0,0,0,0,0,0,0,0,0,0,0,0,0,0,0,0,0,0,0,0,0,0,0,0,0,0,0,0,0,0,0,0,0,0,0],"id":14,"left_children":[1,3,5,7,9,11,13,15,17,19,21,23,25,27,29,31,33,35,37,39,41,-1,43,45,47,49,-1,51,53,55,57,59,61,-1,-1,-1,63,65,-1,-1,67,69,71,-1,-1,-1,-1,-1,-1,-1,-1,73,-1,75,77,-1,79,-1,-1,81,83,85,87,-1,-1,-1,-1,-1,89,91,93,95,97,99,101,103,105,-1,-1,-1,-1,107,-1,109,-1,-1,111,-1,-1,113,-1,115,117,-1,119,-1,-1,-1,-1,-1,-1,-1,-1,121,-1,-1,-1,123,125,127,-1,-1,-1,-1,-1,129,131,133,135,-1,-1,137,-1,139,-1,-1,141,-1,143,-1,-1,-1,-1,-1,-1,145,-1,-1,-1,-1,-1,-1,-1,147,-1,149,-1,-1,-1,-1,-1],"loss_changes":[5.0537275E5,8.7312E4,3.0844293E4,3.8600812E4,2.5634516E4,7.219827E4,2.367838E3,1.9156438E4,7.8510938E3,5.897961E3,2.5547266E3,3.6497031E3,3.2278613E2,1.7433535E3,7.5908936E1,2.5869062E3,4.3931406E3,1.0445125E4,2.7136172E4,3.5771523E3,1.1714266E4,0E0,5.9470625E3,6.175469E2,5.8781016E3,2.7023819E1,0E0,4.6753906E2,4.1523438E1,2.0339188E1,6.272278E0,1.4267906E4,1.1144352E4,0E0,0E0,0E0,3.5851719E3,1.40426875E4,0E0,0E0,3.4200156E3,9.4039453E2,7.0214453E2,0E0,0E0,0E0,0E0,0E0,0E0,0E0,0E0,9.478711E1,0E0,4.5750977E1,1.0719458E2,0E0,1.2701035E0,0E0,0E0,4.3195625E3,1.0580586E3,7.731328E2,8.298379E2,0E0,0E0,0E0,0E0,0E0,1.3635977E3,4.504541E2,2.2807227E3,2.2429766E3,1.2039023E3,2.430376E2,1.8849121E1,4.6679688E0,2.3748291E1,0E0,0E0,0E0,0E0,4.1735547E3,0E0,2.8897031E3,0E0,0E0,1.9160156E2,0E0,0E0,2.5493945E2,0E0,3.261499E2,1.5912305E2,0E0,7.382031E1,0E0,0E0,0E0,0E0,0E0,0E0,0E0,0E0,4.287915E1,0E0,0E0,0E0,9.82401E3,6.5382656E3,5.5884766E2,0E0,0E0,0E0,0E0,0E0,1.3437036E2,3.5449707E2,9.913086E0,1.7399536E1,0E0,0E0,9.289185E0,0E0,1.0665076E2,0E0,0E0,2.922127E3,0E0,3.4250977E2,0E0,0E0,0E0,0E0,0E0,0E0,1.7182495E1,0E0,0E0,0E0,0E0,0E0,0E0,0E0,5.229219E2,0E0,1.7646942E0,0E0,0E0,0E0,0E0,0E0],"parents":[2147483647,0,0,1,1,2,2,3,3,4,4,5,5,6,6,7,7,8,8,9,9,10,10,11,11,12,12,13,13,14,14,15,15,16,16,17,17,18,18,19,19,20,20,22,22,23,23,24,24,25,25,27,27,28,28,29,29,30,30,31,31,32,32,36,36,37,37,40,40,41,41,42,42,51,51,53,53,54,54,56,56,59,59,60,60,61,61,62,62,68,68,69,69,70,70,71,71,72,72,73,73,74,74,75,75,76,76,81,81,83,83,86,86,89,89,91,91,92,92,94,94,103,103,107,107,108,108,109,109,115,115,116,116,117,117,118,118,121,121,123,123,126,126,128,128,135,135,143,143,145,145],"right_children":[2,4,6,8,10,12,14,16,18,20,22,24,26,28,30,32,34,36,38,40,42,-1,44,46,48,50,-1,52,54,56,58,60,62,-1,-1,-1,64,66,-1,-1,68,70,72,-1,-1,-1,-1,-1,-1,-1,-1,74,-1,76,78,-1,80,-1,-1,82,84,86,88,-1,-1,-1,-1,-1,90,92,94,96,98,100,102,104,106,-1,-1,-1,-1,108,-1,110,-1,-1,112,-1,-1,114,-1,116,118,-1,120,-1,-1,-1,-1,-1,-1,-1,-1,122,-1,-1,-1,124,126,128,-1,-1,-1,-1,-1,130,132,134,136,-1,-1,138,-1,140,-1,-1,142,-1,144,-1,-1,-1,-1,-1,-1,146,-1,-1,-1,-1,-1,-1,-1,148,-1,150,-1,-1,-1,-1,-1],"split_conditions":[3.33E2,1.4E1,3.34E2,1E1,2.3E1,1.6E1,1.7E1,6E0,1.2E1,1.6E1,3E0,7E0,2.1E1,3.35E2,2E1,8E0,7E0,4E0,3.3E2,3.21E2,2.1E1,9.295431E0,5E0,4E0,1.3E1,1.8E1,1.7691071E0,1.4E1,9E0,1.8E1,3.35E2,5E0,3.26E2,2.0539707E1,1.0408744E1,1.6635988E1,6E0,3.24E2,2.6483469E1,3.59763E0,3.23E2,2E1,3.28E2,2.5527266E1,1.0512559E1,1.2911074E1,5.5065002E0,2.4808077E1,8.837809E0,9.80072E-1,4.2056713E-1,8E0,1.0417837E0,3.36E2,1.2E1,4.5247912E-1,3.35E2,5.078204E-1,6.957884E-1,3.28E2,3.3E2,3.2E2,3.27E2,2.9967646E1,1.0775782E1,1.5322043E1,4.6746116E0,1.4471915E1,3.32E2,1.8E1,2E0,3.22E2,3.29E2,3E0,1.1E1,6E0,2E0,1.5474339E0,9.636988E-1,2.9058996E-1,2.0481253E-1,3E0,1.4992986E1,3.28E2,2.8767152E0,8.743006E0,5E0,3.2325928E0,8.8867E0,3.31E2,1.2195416E1,3.23E2,3.25E2,9.498466E0,3.23E2,5.4798326E0,1.148387E1,1.8348618E0,7.2227626E0,2.6920784E0,1.6007208E0,3.0629997E0,2.1293466E0,4E0,1.0902101E0,1.0061954E0,1.3960195E0,3E0,3E0,3.2E2,1.1354465E1,2.0660261E1,8.289355E0,6.822967E0,2.9066682E0,1.7E1,3.3E2,3.19E2,5E0,4.0989857E0,2.1036298E0,1E0,6.601602E-1,3.26E2,1.1105631E1,1.6745382E1,3.21E2,1.4083089E0,4E0,3.0851767E0,9.187757E-1,4.8210573E0,1.6006882E0,1.176416E0,2.973341E0,3.27E2,5.162476E-1,8.3460087E-1,1.1149276E0,2.5494354E0,5.538412E-1,1.900354E0,9.888325E0,3.27E2,3.4497037E0,3.26E2,1.9155741E0,7.281448E0,2.7618196E0,1.0689311E0,3.839335E-1],"split_indices":[0,1,0,1,1,1,1,2,1,1,2,1,1,0,1,1,1,2,0,0,1,0,2,1,1,1,0,1,1,1,0,1,0,0,0,0,2,0,0,0,0,1,0,0,0,0,0,0,0,0,0,1,0,0,1,0,0,0,0,0,0,0,0,0,0,0,0,0,0,1,2,0,0,1,1,1,1,0,0,0,0,1,0,0,0,0,2,0,0,0,0,0,0,0,0,0,0,0,0,0,0,0,0,1,0,0,0,2,2,0,0,0,0,0,0,1,0,0,2,0,0,1,0,0,0,0,0,0,2,0,0,0,0,0,0,0,0,0,0,0,0,0,0,0,0,0,0,0,0,0,0],"split_type":[0,0,0,0,0,0,0,0,0,0,0,0,0,0,0,0,0,0,0,0,0,0,0,0,0,0,0,0,0,0,0,0,0,0,0,0,0,0,0,0,0,0,0,0,0,0,0,0,0,0,0,0,0,0,0,0,0,0,0,0,0,0,0,0,0,0,0,0,0,0,0,0,0,0,0,0,0,0,0,0,0,0,0,0,0,0,0,0,0,0,0,0,0,0,0,0,0,0,0,0,0,0,0,0,0,0,0,0,0,0,0,0,0,0,0,0,0,0,0,0,0,0,0,0,0,0,0,0,0,0,0,0,0,0,0,0,0,0,0,0,0,0,0,0,0,0,0,0,0,0,0],"sum_hessian":[9.04E2,3.27E2,5.77E2,1.93E2,1.34E2,5.6E1,5.21E2,1.37E2,5.6E1,1.2E2,1.4E1,1.7E1,3.9E1,3.61E2,1.6E2,1.17E2,2E1,2.8E1,2.8E1,3.1E1,8.9E1,6E0,8E0,9E0,8E0,2.2E1,1.7E1,1E2,2.61E2,9.2E1,6.8E1,9.3E1,2.4E1,1.4E1,6E0,1.7E1,1.1E1,2.2E1,6E0,6E0,2.5E1,5.8E1,3.1E1,3E0,5E0,6E0,3E0,5E0,3E0,5E0,1.7E1,8.3E1,1.7E1,1.94E2,6.7E1,3.3E1,5.9E1,3.4E1,3.4E1,6.1E1,3.2E1,1.3E1,1.1E1,9E0,2E0,1.2E1,1E1,6E0,1.9E1,4.4E1,1.4E1,1.9E1,1.2E1,5E1,3.3E1,1.33E2,6.1E1,3.3E1,3.4E1,2.6E1,3.3E1,4.1E1,2E1,2.7E1,5E0,3E0,1E1,3E0,8E0,1.6E1,3E0,2.1E1,2.3E1,3E0,1.1E1,7E0,1.2E1,3E0,9E0,1.6E1,3.4E1,1.6E1,1.7E1,1E2,3.3E1,3.3E1,2.8E1,2.1E1,2E1,2.2E1,5E0,8E0,2E0,1.3E1,3E0,6E0,1.5E1,1.2E1,1.1E1,5E0,6E0,6.6E1,3.4E1,9E0,1.2E1,9E0,1.1E1,2E0,2E1,2E0,4E0,1.2E1,3E0,2E0,1E1,9E0,2E0,3.3E1,3.3E1,7E0,2E0,3E0,8E0,1.4E1,6E0,4E0,5E0,1.1E1,3E0,2E0,2E0],"tree_param":{"num_deleted":"0","num_feature":"6","num_nodes":"151","size_leaf_vector":"1"}},{"base_weights":[2.1126572E1,4.3789665E1,4.4143987E0,5.8154255E1,2.3315775E1,5.560453E0,1.8101375E0,5.0472034E1,7.2264595E1,1.5492133E1,3.511579E1,8.458362E0,4.4220967E0,1.3088515E0,2.4595501E0,4.095305E1,6.091502E1,6.116194E1,9.2911644E1,3.1853392E1,1.1665036E1,4.528587E1,1.4349431E0,9.264814E0,8.450019E-1,4.1574855E0,5.1158786E0,3.646447E-1,9.9555993E-1,4.0915823E-1,5.606072E-1,3.6502567E1,5.3554474E1,4.9785263E1,7.8511986E1,7.300399E1,4.6056583E1,1.2389364E2,5.4782593E1,1.9181321E0,3.566656E1,1.6773624E1,4.8133674E0,3.4900154E1,6.442301E1,8.067744E0,1.0787924E1,3.802437E0,4.8577914E0,1.2470485E0,7.764657E-1,2.3462439E-1,1.6505472E-1,4.062281E1,2.7570719E1,1.2207494E1,3.2006855E1,6.0334465E1,3.2174015E1,1.8322508E1,5.6685352E1,1.7058804E1,5.2262123E1,3.3567245E1,5.4364067E1,1.1062195E1,2.778747E1,4.2026544E0,1.6145166E1,2.4706666E0,8.093085E0,1.3551913E1,2.4772482E1,1.6868289E0,2.4001396E0,3.7201436E0,3.722965E1,7.7019324E0,7.741972E1,9.455537E0,9.996303E-1,2.4864373E0,1.727136E0,3.5660176E0,8.7858105E-1,8.108751E-1,1.1264434E0,3.1392738E1,4.874475E1,2.2891684E1,8.814643E0,3.2128541E0,7.989545E0,1.5976682E1,4.7898937E1,6.8777895E0,1.7796143E0,1.4793853E1,3.377267E1,1.2690028E1,6.721617E0,1.0833828E1,1.8392056E1,4.962433E0,1.2033606E1,1.2870806E0,1.4802384E1,8.073694E0,3.0176866E0,8.167267E-1,3.4112677E-1,9.038331E0,2.5178904E1,1.9179451E1,6.0696993E0,2.1853344E0,1.5081648E0,3.9863482E0,5.318998E-1,9.13313E0,9.220138E0,6.865609E1,2.621219E1,1.2205323E0,2.4418095E1,2.912412E1,6.188386E1,9.906964E0,1.9134705E0,1.4466146E0,4.1094084E0,1.7919823E1,1.069812E1,2.6797538E0,6.6724105E0,6.7258984E-1,8.9850026E-1,2.3585124E0,8.2303715E-1,6.708234E0,1.578275E1,1.6152954E0,6.400705E0,2.6916094E1,1.7892151E0,2.7477112E0,6.7510567E0,6.127771E0,1.417952E1,4.2961993E0,8.997894E0,1.293788E1,6.2901263E0,5.946509E0,2.3475435E0,4.5995077E-1,2.3544052E0,1.0922627E0,2.8587708E0,1.5615894E0,3.3274335E-1],"categories":[],"categories_nodes":[],"categories_segments":[],"categories_sizes":[],"default_left":[0,0,0,0,0,0,0,0,0,0,0,0,0,0,0,0,0,0,0,0,0,0,0,0,0,0,0,0,0,0,0,0,0,0,0,0,0,0,0,0,0,0,0,0,0,0,0,0,0,0,0,0,0,0,0,0,0,0,0,0,0,0,0,0,0,0,0,0,0,0,0,0,0,0,0,0,0,0,0,0,0,0,0,0,0,0,0,0,0,0,0,0,0,0,0,0,0,0,0,0,0,0,0,0,0,0,0,0,0,0,0,0,0,0,0,0,0,0,0,0,0,0,0,0,0,0,0,0,0,0,0,0,0,0,0,0,0,0,0,0,0,0,0,0,0,0,0,0,0,0,0,0,0,0,0,0,0,0,0,0,0],"id":15,"left_children":[1,3,5,7,9,11,13,15,17,19,21,23,25,27,29,31,33,35,37,39,41,43,-1,45,-1,47,49,-1,51,-1,-1,53,55,57,59,61,63,65,67,-1,69,71,73,75,77,79,81,83,85,-1,-1,-1,-1,87,89,-1,91,93,95,-1,97,-1,99,101,103,-1,-1,-1,-1,-1,-1,105,107,-1,109,-1,111,-1,113,115,-1,-1,-1,117,-1,-1,-1,119,121,123,-1,-1,-1,-1,125,-1,-1,-1,127,-1,-1,-1,129,-1,-1,-1,131,-1,-1,-1,-1,-1,133,-1,-1,-1,-1,135,-1,137,-1,139,141,-1,143,145,147,-1,-1,-1,-1,149,151,-1,-1,-1,-1,-1,-1,-1,-1,-1,-1,153,-1,-1,-1,-1,-1,-1,155,157,159,-1,-1,-1,-1,-1,-1,-1,-1],"loss_changes":[3.4257503E5,1.1157819E5,1.5479082E3,2.0742312E4,1.4227039E4,1.1567812E3,4.9192932E1,1.23169375E4,1.19685625E4,5.7648086E3,1.7577352E4,3.0566943E2,2.682959E1,1.3171677E1,4.0718994E0,2.5877969E3,9.604922E3,6.1182344E3,2.274564E4,1.1859844E3,2.7544531E3,6.8942656E3,0E0,6.612012E1,0E0,3.0013916E1,6.968652E1,0E0,8.460388E-1,0E0,0E0,1.1984844E3,1.1099531E3,6.4191094E3,1.9554375E3,2.6800625E3,8.7277344E2,5.727828E3,9.692797E3,0E0,1.1782715E3,8.4970605E2,2.9431628E2,5.2252734E2,2.0704219E3,1.699978E2,1.2960693E1,3.0410156E0,1.5740356E1,0E0,0E0,0E0,0E0,1.5433828E3,7.670508E2,0E0,2.4445459E2,2.7374062E3,6.73541E2,0E0,2.2541055E3,0E0,5.806836E2,3.0680078E3,9.0835547E2,0E0,0E0,0E0,0E0,0E0,0E0,2.1620508E2,1.2032905E3,0E0,1.992633E1,0E0,1.4527227E3,0E0,4.9175E3,1.3375244E1,0E0,0E0,0E0,2.7883179E1,0E0,0E0,0E0,6.7816055E3,7.1734375E3,3.6352344E2,0E0,0E0,0E0,0E0,3.1864102E3,0E0,0E0,0E0,2.1967778E3,0E0,0E0,0E0,6.780884E1,0E0,0E0,0E0,1.7934033E2,0E0,0E0,0E0,0E0,0E0,8.061709E2,0E0,0E0,0E0,0E0,6.032837E0,0E0,8.492029E1,0E0,9.551094E2,8.96854E2,0E0,4.5488965E2,2.4878125E2,6.441211E2,0E0,0E0,0E0,0E0,2.833042E2,6.671179E1,0E0,0E0,0E0,0E0,0E0,0E0,0E0,0E0,0E0,0E0,2.9224512E2,0E0,0E0,0E0,0E0,0E0,0E0,8.441635E1,1.3179199E1,3.6164215E1,0E0,0E0,0E0,0E0,0E0,0E0,0E0,0E0],"parents":[2147483647,0,0,1,1,2,2,3,3,4,4,5,5,6,6,7,7,8,8,9,9,10,10,11,11,12,12,13,13,14,14,15,15,16,16,17,17,18,18,19,19,20,20,21,21,23,23,25,25,26,26,28,28,31,31,32,32,33,33,34,34,35,35,36,36,37,37,38,38,40,40,41,41,42,42,43,43,44,44,45,45,46,46,47,47,48,48,53,53,54,54,56,56,57,57,58,58,60,60,62,62,63,63,64,64,71,71,72,72,74,74,76,76,78,78,79,79,83,83,87,87,88,88,89,89,94,94,98,98,102,102,106,106,112,112,117,117,119,119,121,121,122,122,124,124,125,125,126,126,131,131,132,132,143,143,150,150,151,151,152,152],"right_children":[2,4,6,8,10,12,14,16,18,20,22,24,26,28,30,32,34,36,38,40,42,44,-1,46,-1,48,50,-1,52,-1,-1,54,56,58,60,62,64,66,68,-1,70,72,74,76,78,80,82,84,86,-1,-1,-1,-1,88,90,-1,92,94,96,-1,98,-1,100,102,104,-1,-1,-1,-1,-1,-1,106,108,-1,110,-1,112,-1,114,116,-1,-1,-1,118,-1,-1,-1,120,122,124,-1,-1,-1,-1,126,-1,-1,-1,128,-1,-1,-1,130,-1,-1,-1,132,-1,-1,-1,-1,-1,134,-1,-1,-1,-1,136,-1,138,-1,140,142,-1,144,146,148,-1,-1,-1,-1,150,152,-1,-1,-1,-1,-1,-1,-1,-1,-1,-1,154,-1,-1,-1,-1,-1,-1,156,158,160,-1,-1,-1,-1,-1,-1,-1,-1],"split_conditions":[3.34E2,1.5E1,1.7E1,3.29E2,2.1E1,3.35E2,2E1,8E0,1.1E1,1.6E1,3.33E2,1.4E1,9E0,1.8E1,3.35E2,5E0,4E0,5E0,1.3E1,3.21E2,3.29E2,2.3E1,1.4349431E0,8E0,8.450019E-1,3.36E2,1.2E1,3.646447E-1,3.35E2,4.0915823E-1,5.606072E-1,5E0,6E0,1.2E1,3.23E2,3.32E2,8E0,2E0,3.31E2,1.9181321E0,1E0,2E1,3.33E2,3.21E2,3E0,5E0,1.1E1,6E0,2E0,1.2470485E0,7.764657E-1,2.3462439E-1,1.6505472E-1,3E0,3.28E2,1.2207494E1,3.23E2,2E0,3.27E2,1.8322508E1,1.1E1,1.7058804E1,2E0,3.31E2,3.3E2,1.1062195E1,2.778747E1,4.2026544E0,1.6145166E1,2.4706666E0,8.093085E0,3.21E2,2E0,1.6868289E0,1.8E1,3.7201436E0,3.28E2,7.7019324E0,3.29E2,3E0,9.996303E-1,2.4864373E0,1.727136E0,4E0,8.7858105E-1,8.108751E-1,1.1264434E0,3E0,3E0,3.2E2,8.814643E0,3.2128541E0,7.989545E0,1.5976682E1,1E1,6.8777895E0,1.7796143E0,1.4793853E1,3.24E2,1.2690028E1,6.721617E0,1.0833828E1,3.32E2,4.962433E0,1.2033606E1,1.2870806E0,1.8E1,8.073694E0,3.0176866E0,8.167267E-1,3.4112677E-1,9.038331E0,3.3E2,1.9179451E1,6.0696993E0,2.1853344E0,1.5081648E0,1E0,5.318998E-1,3.25E2,9.220138E0,1E0,3.21E2,1.2205323E0,4E0,9E0,3.21E2,9.906964E0,1.9134705E0,1.4466146E0,4.1094084E0,5E0,3.25E2,2.6797538E0,6.6724105E0,6.7258984E-1,8.9850026E-1,2.3585124E0,8.2303715E-1,6.708234E0,1.578275E1,1.6152954E0,6.400705E0,3.27E2,1.7892151E0,2.7477112E0,6.7510567E0,6.127771E0,1.417952E1,4.2961993E0,3.23E2,1.9E1,1.9E1,5.946509E0,2.3475435E0,4.5995077E-1,2.3544052E0,1.0922627E0,2.8587708E0,1.5615894E0,3.3274335E-1],"split_indices":[0,1,1,0,1,0,1,1,1,1,0,1,1,1,0,2,2,1,1,0,0,1,0,1,0,0,1,0,0,0,0,1,1,1,0,0,1,2,0,0,2,1,0,0,2,1,1,1,1,0,0,0,0,1,0,0,0,2,0,0,1,0,1,0,0,0,0,0,0,0,0,0,2,0,1,0,0,0,0,1,0,0,0,1,0,0,0,2,2,0,0,0,0,0,1,0,0,0,0,0,0,0,0,0,0,0,1,0,0,0,0,0,0,0,0,0,0,1,0,0,0,2,0,0,2,1,0,0,0,0,0,2,0,0,0,0,0,0,0,0,0,0,0,0,0,0,0,0,0,0,0,1,1,0,0,0,0,0,0,0,0],"split_type":[0,0,0,0,0,0,0,0,0,0,0,0,0,0,0,0,0,0,0,0,0,0,0,0,0,0,0,0,0,0,0,0,0,0,0,0,0,0,0,0,0,0,0,0,0,0,0,0,0,0,0,0,0,0,0,0,0,0,0,0,0,0,0,0,0,0,0,0,0,0,0,0,0,0,0,0,0,0,0,0,0,0,0,0,0,0,0,0,0,0,0,0,0,0,0,0,0,0,0,0,0,0,0,0,0,0,0,0,0,0,0,0,0,0,0,0,0,0,0,0,0,0,0,0,0,0,0,0,0,0,0,0,0,0,0,0,0,0,0,0,0,0,0,0,0,0,0,0,0,0,0,0,0,0,0,0,0,0,0,0,0],"sum_hessian":[9.04E2,3.83E2,5.21E2,2.24E2,1.59E2,3.61E2,1.6E2,1.48E2,7.6E1,9.7E1,6.2E1,1E2,2.61E2,9.2E1,6.8E1,8E1,6.8E1,5.2E1,2.4E1,1.7E1,8E1,4.5E1,1.7E1,8.3E1,1.7E1,1.94E2,6.7E1,3.3E1,5.9E1,3.4E1,3.4E1,6.2E1,1.8E1,4.4E1,2.4E1,2.7E1,2.5E1,1.2E1,1.2E1,3E0,1.4E1,4.5E1,3.5E1,3.1E1,1.4E1,5E1,3.3E1,1.33E2,6.1E1,3.3E1,3.4E1,2.6E1,3.3E1,4E1,2.2E1,1.2E1,6E0,2.6E1,1.8E1,1.3E1,1.1E1,1.5E1,1.2E1,1.2E1,1.3E1,3E0,9E0,6E0,6E0,3E0,1.1E1,3.4E1,1.1E1,1.3E1,2.2E1,5E0,2.6E1,6E0,8E0,3.3E1,1.7E1,1.6E1,1.7E1,1E2,3.3E1,3.3E1,2.8E1,2.1E1,1.9E1,1.9E1,3E0,3E0,3E0,8E0,1.8E1,1.6E1,2E0,5E0,6E0,6E0,6E0,4E0,8E0,3E0,1E1,6E0,2.8E1,3E0,8E0,5E0,1.7E1,1.4E1,1.2E1,5E0,3E0,1.6E1,1.7E1,6.6E1,3.4E1,9E0,1.2E1,9E0,1E1,2E0,1.7E1,9E0,9E0,3E0,3E0,2E0,6E0,1.4E1,1.4E1,6E0,6E0,3.3E1,3.3E1,5E0,4E0,3E0,6E0,3E0,7E0,1.4E1,3E0,3E0,6E0,3E0,6E0,9E0,5E0,8E0,6E0,1.1E1,3E0,2E0,3E0,2E0,6E0,4E0,2E0],"tree_param":{"num_deleted":"0","num_feature":"6","num_nodes":"161","size_leaf_vector":"1"}},{"base_weights":[1.7376896E1,3.6104713E1,3.5668213E0,4.7922813E1,1.9259857E1,4.4944773E0,1.4588813E0,4.1594288E1,5.9546543E1,1.2808614E1,2.8989412E1,6.863238E0,3.564175E0,1.0553004E0,1.9816949E0,3.798533E1,6.1782925E1,7.1669846E1,4.0258465E1,2.6176155E1,9.679918E0,3.7425697E1,1.1638994E0,7.5178795E0,6.853906E-1,3.3512142E0,4.122457E0,2.9386103E-1,8.031093E-1,3.2966492E-1,4.516891E-1,3.4815186E1,4.867198E1,7.870268E1,8.506909E0,5.721488E0,7.7414024E1,3.1540804E1,1.3377428E1,1.6304139E0,2.9237501E1,1.3969645E1,3.9297135E0,2.8611076E1,5.3735172E1,6.5462174E0,8.754258E0,3.064201E0,3.917481E0,1.0049732E0,6.256094E-1,1.894374E-1,1.3301477E-1,4.0883038E1,2.2386595E1,5.938705E1,3.4480347E1,8.185657E0,1.7808964E1,5.0238438E1,8.4797935E1,4.240775E1,3.8394315E0,2.1000657E0,6.6093535E0,1.1248474E1,2.0742256E1,6.867803E0,1.970454E0,3.1001182E0,3.0464848E1,6.381606E0,6.4741264E1,7.673063E0,8.108105E-1,2.0183997E0,1.4008981E0,2.873636E0,7.080335E-1,6.5347004E-1,9.0892357E-1,3.4325813E1,4.9568977E1,1.0577962E0,2.3236778E1,6.33585E1,4.741113E0,3.969507E0,1.1369981E1,1.0985503E1,3.8850098E0,6.688819E1,2.2785723E1,2.2667572E0,1.0119311E1,1.0664386E0,1.2288664E1,6.862639E0,1.2406033E1,1.8932399E0,4.8818254E0,6.806056E-1,2.7669194E-1,3.675588E1,2.0862516E1,1.8821264E1,6.87487E0,1.7739775E0,1.2232895E0,3.2125273E0,4.285595E-1,2.4783735E1,4.268771E1,1.2351886E1,7.1398654E0,1.5756734E1,2.6129116E1,6.4188843E0,1.4042763E1,7.418494E1,4.1696846E1,1.4809894E1,8.94819E0,2.9128692E0,1.213411E0,2.2250366E-1,1.1370175E0,5.639081E0,1.0649668E1,1.1576691E0,4.961187E0,5.4202783E-1,7.2408587E-1,7.6246705E0,7.2153153E0,5.717399E1,2.7058502E1,5.0546875E0,1.9552681E0,1.892917E1,7.045158E0,9.153349E0,1.6763472E1,1.2967444E1,1.6264527E0,3.522883E0,7.667379E0,1.078931E1,5.3027215E0,1.9654257E0,6.9135743E-1,5.701996E0,1.3077141E1,1.3730103E0,6.6053743E0,2.2100267E1,2.429576E0,3.986247E-1,2.0012453E0,9.466268E-1,2.368697E0,1.3117359E0,2.883769E-1,5.2998047E0,1.9954132E0],"categories":[],"categories_nodes":[],"categories_segments":[],"categories_sizes":[],"default_left":[0,0,0,0,0,0,0,0,0,0,0,0,0,0,0,0,0,0,0,0,0,0,0,0,0,0,0,0,0,0,0,0,0,0,0,0,0,0,0,0,0,0,0,0,0,0,0,0,0,0,0,0,0,0,0,0,0,0,0,0,0,0,0,0,0,0,0,0,0,0,0,0,0,0,0,0,0,0,0,0,0,0,0,0,0,0,0,0,0,0,0,0,0,0,0,0,0,0,0,0,0,0,0,0,0,0,0,0,0,0,0,0,0,0,0,0,0,0,0,0,0,0,0,0,0,0,0,0,0,0,0,0,0,0,0,0,0,0,0,0,0,0,0,0,0,0,0,0,0,0,0,0,0,0,0,0,0,0,0,0,0,0,0,0,0],"id":16,"left_children":[1,3,5,7,9,11,13,15,17,19,21,23,25,27,29,31,33,35,37,39,41,43,-1,45,-1,47,49,-1,51,-1,-1,53,55,57,-1,-1,59,61,-1,-1,63,65,67,69,71,73,75,77,79,-1,-1,-1,-1,81,83,85,87,-1,-1,89,91,93,-1,-1,-1,95,97,99,101,-1,103,-1,105,107,-1,-1,-1,109,-1,-1,-1,111,113,-1,115,117,-1,-1,-1,-1,-1,119,-1,-1,-1,-1,121,-1,123,-1,125,-1,-1,127,129,-1,-1,-1,-1,131,-1,133,135,-1,-1,137,139,-1,-1,141,143,145,147,-1,-1,-1,-1,-1,-1,-1,-1,-1,-1,149,-1,151,153,-1,-1,155,-1,-1,-1,-1,-1,-1,157,159,161,-1,-1,-1,-1,-1,-1,163,-1,-1,-1,-1,-1,-1,-1,-1,-1],"loss_changes":[2.3393372E5,7.552147E4,1.0141846E3,1.4074406E4,9.67152E3,7.7326465E2,3.1879333E1,8.5093125E3,1.512E4,3.8452695E3,1.2096684E4,2.0143994E2,1.7334473E1,8.529968E0,2.643341E0,2.6757656E3,3.4916484E3,9.163828E3,5.318793E3,7.548574E2,1.9431152E3,5.075625E3,0E0,4.360498E1,0E0,1.9688477E1,4.5302734E1,0E0,5.6332016E-1,0E0,0E0,6.852492E3,2.0580508E3,2.6222656E2,0E0,0E0,3.7663906E3,2.6734727E3,0E0,0E0,7.236211E2,6.1443555E2,1.9370062E2,3.055E2,1.5377031E3,1.1211548E2,8.895752E0,1.980957E0,1.0429871E1,0E0,0E0,0E0,0E0,2.1714922E3,4.0040234E2,4.8195312E2,3.4542832E3,0E0,0E0,5.2238086E2,8.031203E3,2.7345156E3,0E0,0E0,0E0,1.4986621E2,9.31874E2,2.6032654E1,1.4633041E1,0E0,8.6421094E2,0E0,4.7906914E3,9.089844E0,0E0,0E0,0E0,1.8131348E1,0E0,0E0,0E0,2.293211E3,2.3603203E3,0E0,3.2387305E2,3.184297E2,0E0,0E0,0E0,0E0,0E0,7.6684375E2,0E0,0E0,0E0,0E0,1.1171924E2,0E0,3.4770752E1,0E0,2.3952667E1,0E0,0E0,6.163906E2,6.291826E2,0E0,0E0,0E0,0E0,3.9180908E0,0E0,3.9879697E3,3.2075469E3,0E0,0E0,4.3588184E2,8.3960254E2,0E0,0E0,2.6998438E2,4.9096064E3,1.6541333E2,4.3463623E1,0E0,0E0,0E0,0E0,0E0,0E0,0E0,0E0,0E0,0E0,5.782556E1,0E0,4.8966602E2,1.2195322E3,0E0,0E0,5.4090332E1,0E0,0E0,0E0,0E0,0E0,0E0,5.9683655E1,1.4014893E0,2.448648E1,0E0,0E0,0E0,0E0,