{"learner":{"attributes":{"scikit_learn":"{\"_estimator_type\": \"regressor\"}"},"feature_names":["dayofyear","hour","dayofweek","quarter","month","year"],"feature_types":["int","int","int","int","int","int"],"gradient_booster":{"model":{"gbtree_model_param":{"num_parallel_tree":"1","num_trees":"1000"},"iteration_indptr":[0,1,2,3,4,5,6,7,8,9,10,11,12,13,14,15,16,17,18,19,20,21,22,23,24,25,26,27,28,29,30,31,32,33,34,35,36,37,38,39,40,41,42,43,44,45,46,47,48,49,50,51,52,53,54,55,56,57,58,59,60,61,62,63,64,65,66,67,68,69,70,71,72,73,74,75,76,77,78,79,80,81,82,83,84,85,86,87,88,89,90,91,92,93,94,95,96,97,98,99,100,101,102,103,104,105,106,107,108,109,110,111,112,113,114,115,116,117,118,119,120,121,122,123,124,125,126,127,128,129,130,131,132,133,134,135,136,137,138,139,140,141,142,143,144,145,146,147,148,149,150,151,152,153,154,155,156,157,158,159,160,161,162,163,164,165,166,167,168,169,170,171,172,173,174,175,176,177,178,179,180,181,182,183,184,185,186,187,188,189,190,191,192,193,194,195,196,197,198,199,200,201,202,203,204,205,206,207,208,209,210,211,212,213,214,215,216,217,218,219,220,221,222,223,224,225,226,227,228,229,230,231,232,233,234,235,236,237,238,239,240,241,242,243,244,245,246,247,248,249,250,251,252,253,254,255,256,257,258,259,260,261,262,263,264,265,266,267,268,269,270,271,272,273,274,275,276,277,278,279,280,281,282,283,284,285,286,287,288,289,290,291,292,293,294,295,296,297,298,299,300,301,302,303,304,305,306,307,308,309,310,311,312,313,314,315,316,317,318,319,320,321,322,323,324,325,326,327,328,329,330,331,332,333,334,335,336,337,338,339,340,341,342,343,344,345,346,347,348,349,350,351,352,353,354,355,356,357,358,359,360,361,362,363,364,365,366,367,368,369,370,371,372,373,374,375,376,377,378,379,380,381,382,383,384,385,386,387,388,389,390,391,392,393,394,395,396,397,398,399,400,401,402,403,404,405,406,407,408,409,410,411,412,413,414,415,416,417,418,419,420,421,422,423,424,425,426,427,428,429,430,431,432,433,434,435,436,437,438,439,440,441,442,443,444,445,446,447,448,449,450,451,452,453,454,455,456,457,458,459,460,461,462,463,464,465,466,467,468,469,470,471,472,473,474,475,476,477,478,479,480,481,482,483,484,485,486,487,488,489,490,491,492,493,494,495,496,497,498,499,500,501,502,503,504,505,506,507,508,509,510,511,512,513,514,515,516,517,518,519,520,521,522,523,524,525,526,527,528,529,530,531,532,533,534,535,536,537,538,539,540,541,542,543,544,545,546,547,548,549,550,551,552,553,554,555,556,557,558,559,560,561,562,563,564,565,566,567,568,569,570,571,572,573,574,575,576,577,578,579,580,581,582,583,584,585,586,587,588,589,590,591,592,593,594,595,596,597,598,599,600,601,602,603,604,605,606,607,608,609,610,611,612,613,614,615,616,617,618,619,620,621,622,623,624,625,626,627,628,629,630,631,632,633,634,635,636,637,638,639,640,641,642,643,644,645,646,647,648,649,650,651,652,653,654,655,656,657,658,659,660,661,662,663,664,665,666,667,668,669,670,671,672,673,674,675,676,677,678,679,680,681,682,683,684,685,686,687,688,689,690,691,692,693,694,695,696,697,698,699,700,701,702,703,704,705,706,707,708,709,710,711,712,713,714,715,716,717,718,719,720,721,722,723,724,725,726,727,728,729,730,731,732,733,734,735,736,737,738,739,740,741,742,743,744,745,746,747,748,749,750,751,752,753,754,755,756,757,758,759,760,761,762,763,764,765,766,767,768,769,770,771,772,773,774,775,776,777,778,779,780,781,782,783,784,785,786,787,788,789,790,791,792,793,794,795,796,797,798,799,800,801,802,803,804,805,806,807,808,809,810,811,812,813,814,815,816,817,818,819,820,821,822,823,824,825,826,827,828,829,830,831,832,833,834,835,836,837,838,839,840,841,842,843,844,845,846,847,848,849,850,851,852,853,854,855,856,857,858,859,860,861,862,863,864,865,866,867,868,869,870,871,872,873,874,875,876,877,878,879,880,881,882,883,884,885,886,887,888,889,890,891,892,893,894,895,896,897,898,899,900,901,902,903,904,905,906,907,908,909,910,911,912,913,914,915,916,917,918,919,920,921,922,923,924,925,926,927,928,929,930,931,932,933,934,935,936,937,938,939,940,941,942,943,944,945,946,947,948,949,950,951,952,953,954,955,956,957,958,959,960,961,962,963,964,965,966,967,968,969,970,971,972,973,974,975,976,977,978,979,980,981,982,983,984,985,986,987,988,989,990,991,992,993,994,995,996,997,998,999,1000],"tree_info":[0,0,0,0,0,0,0,0,0,0,0,0,0,0,0,0,0,0,0,0,0,0,0,0,0,0,0,0,0,0,0,0,0,0,0,0,0,0,0,0,0,0,0,0,0,0,0,0,0,0,0,0,0,0,0,0,0,0,0,0,0,0,0,0,0,0,0,0,0,0,0,0,0,0,0,0,0,0,0,0,0,0,0,0,0,0,0,0,0,0,0,0,0,0,0,0,0,0,0,0,0,0,0,0,0,0,0,0,0,0,0,0,0,0,0,0,0,0,0,0,0,0,0,0,0,0,0,0,0,0,0,0,0,0,0,0,0,0,0,0,0,0,0,0,0,0,0,0,0,0,0,0,0,0,0,0,0,0,0,0,0,0,0,0,0,0,0,0,0,0,0,0,0,0,0,0,0,0,0,0,0,0,0,0,0,0,0,0,0,0,0,0,0,0,0,0,0,0,0,0,0,0,0,0,0,0,0,0,0,0,0,0,0,0,0,0,0,0,0,0,0,0,0,0,0,0,0,0,0,0,0,0,0,0,0,0,0,0,0,0,0,0,0,0,0,0,0,0,0,0,0,0,0,0,0,0,0,0,0,0,0,0,0,0,0,0,0,0,0,0,0,0,0,0,0,0,0,0,0,0,0,0,0,0,0,0,0,0,0,0,0,0,0,0,0,0,0,0,0,0,0,0,0,0,0,0,0,0,0,0,0,0,0,0,0,0,0,0,0,0,0,0,0,0,0,0,0,0,0,0,0,0,0,0,0,0,0,0,0,0,0,0,0,0,0,0,0,0,0,0,0,0,0,0,0,0,0,0,0,0,0,0,0,0,0,0,0,0,0,0,0,0,0,0,0,0,0,0,0,0,0,0,0,0,0,0,0,0,0,0,0,0,0,0,0,0,0,0,0,0,0,0,0,0,0,0,0,0,0,0,0,0,0,0,0,0,0,0,0,0,0,0,0,0,0,0,0,0,0,0,0,0,0,0,0,0,0,0,0,0,0,0,0,0,0,0,0,0,0,0,0,0,0,0,0,0,0,0,0,0,0,0,0,0,0,0,0,0,0,0,0,0,0,0,0,0,0,0,0,0,0,0,0,0,0,0,0,0,0,0,0,0,0,0,0,0,0,0,0,0,0,0,0,0,0,0,0,0,0,0,0,0,0,0,0,0,0,0,0,0,0,0,0,0,0,0,0,0,0,0,0,0,0,0,0,0,0,0,0,0,0,0,0,0,0,0,0,0,0,0,0,0,0,0,0,0,0,0,0,0,0,0,0,0,0,0,0,0,0,0,0,0,0,0,0,0,0,0,0,0,0,0,0,0,0,0,0,0,0,0,0,0,0,0,0,0,0,0,0,0,0,0,0,0,0,0,0,0,0,0,0,0,0,0,0,0,0,0,0,0,0,0,0,0,0,0,0,0,0,0,0,0,0,0,0,0,0,0,0,0,0,0,0,0,0,0,0,0,0,0,0,0,0,0,0,0,0,0,0,0,0,0,0,0,0,0,0,0,0,0,0,0,0,0,0,0,0,0,0,0,0,0,0,0,0,0,0,0,0,0,0,0,0,0,0,0,0,0,0,0,0,0,0,0,0,0,0,0,0,0,0,0,0,0,0,0,0,0,0,0,0,0,0,0,0,0,0,0,0,0,0,0,0,0,0,0,0,0,0,0,0,0,0,0,0,0,0,0,0,0,0,0,0,0,0,0,0,0,0,0,0,0,0,0,0,0,0,0,0,0,0,0,0,0,0,0,0,0,0,0,0,0,0,0,0,0,0,0,0,0,0,0,0,0,0,0,0,0,0,0,0,0,0,0,0,0,0,0,0,0,0,0,0,0,0,0,0,0,0,0,0,0,0,0,0,0,0,0,0,0,0,0,0,0,0,0,0,0,0,0,0,0,0,0,0,0,0,0,0,0,0,0,0,0,0,0,0,0,0,0,0,0,0,0,0,0,0,0,0,0,0,0,0,0,0,0,0,0,0,0,0,0,0,0,0,0,0,0,0,0,0,0,0,0,0,0,0,0,0,0,0,0,0,0,0,0,0,0,0,0,0,0,0,0,0,0,0,0,0,0,0,0,0,0,0,0,0,0,0,0,0,0,0,0,0,0,0,0,0,0,0,0,0,0,0,0,0,0,0,0,0,0,0,0,0,0,0,0,0,0,0,0,0,0,0,0,0,0,0,0,0,0,0,0,0,0,0,0,0,0,0,0,0,0,0,0,0,0,0,0,0,0,0,0,0,0,0,0,0,0],"trees":[{"base_weights":[1.886335E2,4.262558E2,5.346266E1,5.6087836E2,2.2964078E2,1.6641228E2,4.102666E1,1.0191441E2,6.42584E2,1.6235521E2,3.5629428E2,9.620623E1,5.2791466E1,5.604427E1,1.8802595E1,1.3557048E2,9.314505E1,2.5754666E2,1.0797417E2,2.536236E2,7.8657394E1,3.3886654E1,3.98075E1,1.7750626E1,4.374783E1,6.800358E0,1.37767515E1,5.9643932E1,3.8313854E1,2.785377E1,9.7020874E1,5.895802E1,3.289266E1,3.8148868E0,1.2817644E1,8.2048645E0,1.1616247E1,8.569463E0,4.1191216E0,1.6358183E1,1.2405873E2,1.044305E1,1.0022177E0,2.914807E1,1.5691943E1,1.6453556E0,2.3791766E0],"categories":[],"categories_nodes":[],"categories_segments":[],"categories_sizes":[],"default_left":[0,0,0,0,0,0,0,0,0,0,0,0,0,0,0,0,0,0,0,0,0,0,0,0,0,0,0,0,0,0,0,0,0,0,0,0,0,0,0,0,0,0,0,0,0,0,0],"id":0,"left_children":[1,3,5,7,9,11,13,-1,15,17,19,-1,21,23,25,-1,-1,27,29,31,-1,-1,33,-1,35,-1,37,-1,-1,-1,39,-1,-1,-1,-1,-1,-1,41,-1,-1,43,45,-1,-1,-1,-1,-1],"loss_changes":[2.904546E7,8.552968E6,8.050554E5,4.85808E5,1.092618E6,2.0121988E6,1.7316488E5,0E0,1.2717E5,4.3808675E5,7.4964E4,0E0,5.837761E4,1.2120231E5,1.5725977E4,0E0,0E0,2.874225E4,6.712E3,6.574125E3,0E0,0E0,1.8914113E4,0E0,6.5177188E3,0E0,5.540254E3,0E0,0E0,0E0,9.2070625E3,0E0,0E0,0E0,0E0,0E0,0E0,5.676929E2,0E0,0E0,3.3951406E3,9.532764E1,0E0,0E0,0E0,0E0,0E0],"parents":[2147483647,0,0,1,1,2,2,3,3,4,4,5,5,6,6,8,8,9,9,10,10,12,12,13,13,14,14,17,17,18,18,19,19,22,22,24,24,26,26,30,30,37,37,40,40,41,41],"right_children":[2,4,6,8,10,12,14,-1,16,18,20,-1,22,24,26,-1,-1,28,30,32,-1,-1,34,-1,36,-1,38,-1,-1,-1,40,-1,-1,-1,-1,-1,-1,42,-1,-1,44,46,-1,-1,-1,-1,-1],"split_conditions":[3.33E2,1.4E1,3.34E2,9E0,2.1E1,1.3E1,1.4E1,1.0191441E2,1.3E1,1.6E1,2.2E1,9.620623E1,1.6E1,3.35E2,1.7E1,1.3557048E2,9.314505E1,1.5E1,1.7E1,3.27E2,7.8657394E1,3.3886654E1,2.1E1,1.7750626E1,9E0,6.800358E0,2E1,5.9643932E1,3.8313854E1,2.785377E1,2E1,5.895802E1,3.289266E1,3.8148868E0,1.2817644E1,8.2048645E0,1.1616247E1,1.9E1,4.1191216E0,1.6358183E1,3.26E2,3.35E2,1.0022177E0,2.914807E1,1.5691943E1,1.6453556E0,2.3791766E0],"split_indices":[0,1,0,1,1,1,1,0,1,1,1,0,1,0,1,0,0,1,1,0,0,0,1,0,1,0,1,0,0,0,1,0,0,0,0,0,0,1,0,0,0,0,0,0,0,0,0],"split_type":[0,0,0,0,0,0,0,0,0,0,0,0,0,0,0,0,0,0,0,0,0,0,0,0,0,0,0,0,0,0,0,0,0,0,0,0,0,0,0,0,0,0,0,0,0,0,0],"sum_hessian":[9.04E2,3.27E2,5.77E2,1.93E2,1.34E2,5.6E1,5.21E2,1.23E2,7E1,8.9E1,4.5E1,1.4E1,4.2E1,3.1E2,2.11E2,5.6E1,1.4E1,3.1E1,5.8E1,1.4E1,3.1E1,3E0,3.9E1,8.3E1,2.27E2,5.1E1,1.6E2,1.7E1,1.4E1,1.2E1,4.6E1,8E0,6E0,2.2E1,1.7E1,1.94E2,3.3E1,9.2E1,6.8E1,3.2E1,1.4E1,5.9E1,3.3E1,8E0,6E0,2.6E1,3.3E1],"tree_param":{"num_deleted":"0","num_feature":"6","num_nodes":"47","size_leaf_vector":"1"}},{"base_weights":[1.5188844E2,3.4310266E2,4.311657E1,4.5040695E2,1.863609E2,1.3570395E2,3.2923855E1,8.049092E1,5.0841055E2,1.3196205E2,2.8874213E2,7.8247734E1,4.3408035E1,4.4956226E1,1.5117293E1,1.0578468E2,7.575798E1,2.0909851E2,8.788869E1,2.0902226E2,6.3417522E1,2.880365E1,3.2261814E1,7.121382E1,3.5085197E1,5.4664416E0,1.1078208E1,2.4188928E2,3.1161932E1,2.2711535E1,7.8918785E1,4.8476597E1,2.7253916E1,3.0850825E0,1.0396534E1,1.2608677E1,1.6274992E1,6.572307E0,9.361328E0,6.909621E0,1.6536184E1,2.439121E1,5.1549103E1,6.592843E1,1.0223632E2,8.421515E0,8.076696E-1,2.8399591E0,3.680022E0,1.4903029E1,1.0131339E1,2.3966188E1,1.3001895E1,1.3284723E0,1.9173363E0],"categories":[],"categories_nodes":[],"categories_segments":[],"categories_sizes":[],"default_left":[0,0,0,0,0,0,0,0,0,0,0,0,0,0,0,0,0,0,0,0,0,0,0,0,0,0,0,0,0,0,0,0,0,0,0,0,0,0,0,0,0,0,0,0,0,0,0,0,0,0,0,0,0,0,0],"id":1,"left_children":[1,3,5,7,9,11,13,-1,15,17,19,-1,21,23,25,-1,-1,27,29,31,-1,-1,33,35,37,-1,39,41,-1,-1,43,-1,-1,-1,-1,-1,-1,-1,-1,45,47,-1,-1,49,51,53,-1,-1,-1,-1,-1,-1,-1,-1,-1],"loss_changes":[1.8808054E7,5.432716E6,5.410004E5,3.3498E5,7.13769E5,1.3273511E6,1.1116156E5,0E0,2.2996E4,2.8759225E5,3.766775E4,0E0,4.3574938E4,7.810944E4,1.0156664E4,0E0,0E0,1.8227625E4,4.6228125E3,3.3768125E3,0E0,0E0,1.2479277E4,1.8435938E3,4.4045938E3,0E0,3.5488223E3,2.79675E3,0E0,0E0,7.4961562E3,0E0,0E0,0E0,0E0,0E0,0E0,0E0,0E0,3.6970947E2,3.920703E1,0E0,0E0,5.527344E2,2.0347344E3,6.0702637E1,0E0,0E0,0E0,0E0,0E0,0E0,0E0,0E0,0E0],"parents":[2147483647,0,0,1,1,2,2,3,3,4,4,5,5,6,6,8,8,9,9,10,10,12,12,13,13,14,14,17,17,18,18,19,19,22,22,23,23,24,24,26,26,27,27,30,30,39,39,40,40,43,43,44,44,45,45],"right_children":[2,4,6,8,10,12,14,-1,16,18,20,-1,22,24,26,-1,-1,28,30,32,-1,-1,34,36,38,-1,40,42,-1,-1,44,-1,-1,-1,-1,-1,-1,-1,-1,46,48,-1,-1,50,52,54,-1,-1,-1,-1,-1,-1,-1,-1,-1],"split_conditions":[3.33E2,1.4E1,3.34E2,8E0,2.1E1,1.3E1,1.4E1,8.049092E1,1.3E1,1.6E1,2.2E1,7.8247734E1,1.6E1,3.35E2,1.7E1,1.0578468E2,7.575798E1,1.5E1,1.7E1,3.27E2,6.3417522E1,2.880365E1,2.1E1,8E0,9E0,5.4664416E0,2E1,3.2E2,3.1161932E1,2.2711535E1,2E1,4.8476597E1,2.7253916E1,3.0850825E0,1.0396534E1,1.2608677E1,1.6274992E1,6.572307E0,9.361328E0,1.9E1,3.35E2,2.439121E1,5.1549103E1,3.25E2,3.26E2,3.35E2,8.076696E-1,2.8399591E0,3.680022E0,1.4903029E1,1.0131339E1,2.3966188E1,1.3001895E1,1.3284723E0,1.9173363E0],"split_indices":[0,1,0,1,1,1,1,0,1,1,1,0,1,0,1,0,0,1,1,0,0,0,1,1,1,0,1,0,0,0,1,0,0,0,0,0,0,0,0,1,0,0,0,0,0,0,0,0,0,0,0,0,0,0,0],"split_type":[0,0,0,0,0,0,0,0,0,0,0,0,0,0,0,0,0,0,0,0,0,0,0,0,0,0,0,0,0,0,0,0,0,0,0,0,0,0,0,0,0,0,0,0,0,0,0,0,0,0,0,0,0,0,0],"sum_hessian":[9.04E2,3.27E2,5.77E2,1.93E2,1.34E2,5.6E1,5.21E2,1.1E2,8.3E1,8.9E1,4.5E1,1.4E1,4.2E1,3.1E2,2.11E2,6.9E1,1.4E1,3.1E1,5.8E1,1.4E1,3.1E1,3E0,3.9E1,8.3E1,2.27E2,5.1E1,1.6E2,1.7E1,1.4E1,1.2E1,4.6E1,8E0,6E0,2.2E1,1.7E1,5E1,3.3E1,1.94E2,3.3E1,9.2E1,6.8E1,3E0,1.4E1,3.2E1,1.4E1,5.9E1,3.3E1,3.4E1,3.4E1,1.8E1,1.4E1,8E0,6E0,2.6E1,3.3E1],"tree_param":{"num_deleted":"0","num_feature":"6","num_nodes":"55","size_leaf_vector":"1"}},{"base_weights":[1.2236644E2,2.7629004E2,3.480708E1,3.6167624E2,1.5154031E2,1.1067777E2,2.6455667E1,6.51972E1,4.1891452E2,1.07700935E2,2.3401865E2,6.3641487E1,3.570981E1,3.6109085E1,1.2169495E1,8.81463E1,6.1616486E1,1.7062575E2,7.174678E1,2.0208963E2,5.7306538E1,2.4483105E1,2.614649E1,5.731491E1,2.8138042E1,4.394178E0,8.92824E0,3.9546066E1,1.267252E2,1.8518637E1,6.445423E1,4.7199883E1,1.3437538E2,2.4948928E0,8.432744E0,1.0136388E1,1.3115727E1,5.2645864E0,7.5441294E0,5.5712824E0,1.3323441E1,2.743834E1,1.2728882E1,5.350136E1,8.425359E1,1.2994315E1,2.9739874E1,6.7913094E0,6.5088665E-1,2.2881958E0,2.9650464E0,7.41662E1,9.232455E0,1.9705534E1,1.0772999E1,1.0726184E0,1.5451475E0,1.6206165E1,3.2978477E0],"categories":[],"categories_nodes":[],"categories_segments":[],"categories_sizes":[],"default_left":[0,0,0,0,0,0,0,0,0,0,0,0,0,0,0,0,0,0,0,0,0,0,0,0,0,0,0,0,0,0,0,0,0,0,0,0,0,0,0,0,0,0,0,0,0,0,0,0,0,0,0,0,0,0,0,0,0,0,0],"id":2,"left_children":[1,3,5,7,9,11,13,-1,15,17,19,-1,21,23,25,-1,-1,27,29,31,-1,-1,33,35,37,-1,39,-1,41,-1,43,-1,45,-1,-1,-1,-1,-1,-1,47,49,-1,-1,51,53,-1,-1,55,-1,-1,-1,57,-1,-1,-1,-1,-1,-1,-1],"loss_changes":[1.2187476E7,3.439016E6,3.6330856E5,2.59754E5,4.6292875E5,8.754471E5,7.154978E4,0E0,3.5899E4,1.9137488E5,1.9224E4,0E0,3.2454617E4,5.0956375E4,6.538826E3,0E0,0E0,1.30195625E4,3.001375E3,4.1765125E4,0E0,0E0,8.233547E3,1.2806562E3,2.9727969E3,0E0,2.301245E3,0E0,1.1720156E3,0E0,5.6847344E3,0E0,3.2625781E3,0E0,0E0,0E0,0E0,0E0,0E0,2.4077368E2,2.5452148E1,0E0,0E0,1.5811328E3,1.1993438E3,0E0,0E0,3.8640137E1,0E0,0E0,0E0,1.435375E3,0E0,0E0,0E0,0E0,0E0,0E0,0E0],"parents":[2147483647,0,0,1,1,2,2,3,3,4,4,5,5,6,6,8,8,9,9,10,10,12,12,13,13,14,14,17,17,18,18,19,19,22,22,23,23,24,24,26,26,28,28,30,30,32,32,39,39,40,40,43,43,44,44,47,47,51,51],"right_children":[2,4,6,8,10,12,14,-1,16,18,20,-1,22,24,26,-1,-1,28,30,32,-1,-1,34,36,38,-1,40,-1,42,-1,44,-1,46,-1,-1,-1,-1,-1,-1,48,50,-1,-1,52,54,-1,-1,56,-1,-1,-1,58,-1,-1,-1,-1,-1,-1,-1],"split_conditions":[3.33E2,1.4E1,3.34E2,9E0,2.1E1,1.3E1,1.4E1,6.51972E1,1.3E1,1.6E1,2.3E1,6.3641487E1,1.6E1,3.35E2,1.7E1,8.81463E1,6.1616486E1,1.5E1,1.7E1,3.28E2,5.7306538E1,2.4483105E1,2.1E1,8E0,9E0,4.394178E0,2E1,3.9546066E1,3.29E2,1.8518637E1,2E1,4.7199883E1,3.29E2,2.4948928E0,8.432744E0,1.0136388E1,1.3115727E1,5.2645864E0,7.5441294E0,1.9E1,3.35E2,2.743834E1,1.2728882E1,1E0,3.26E2,1.2994315E1,2.9739874E1,3.35E2,6.5088665E-1,2.2881958E0,2.9650464E0,3.25E2,9.232455E0,1.9705534E1,1.0772999E1,1.0726184E0,1.5451475E0,1.6206165E1,3.2978477E0],"split_indices":[0,1,0,1,1,1,1,0,1,1,1,0,1,0,1,0,0,1,1,0,0,0,1,1,1,0,1,0,0,0,1,0,0,0,0,0,0,0,0,1,0,0,0,2,0,0,0,0,0,0,0,0,0,0,0,0,0,0,0],"split_type":[0,0,0,0,0,0,0,0,0,0,0,0,0,0,0,0,0,0,0,0,0,0,0,0,0,0,0,0,0,0,0,0,0,0,0,0,0,0,0,0,0,0,0,0,0,0,0,0,0,0,0,0,0,0,0,0,0,0,0],"sum_hessian":[9.04E2,3.27E2,5.77E2,1.93E2,1.34E2,5.6E1,5.21E2,1.23E2,7E1,8.9E1,4.5E1,1.4E1,4.2E1,3.1E2,2.11E2,5.6E1,1.4E1,3.1E1,5.8E1,3.1E1,1.4E1,3E0,3.9E1,8.3E1,2.27E2,5.1E1,1.6E2,1.7E1,1.4E1,1.2E1,4.6E1,1.9E1,1.2E1,2.2E1,1.7E1,5E1,3.3E1,1.94E2,3.3E1,9.2E1,6.8E1,1.1E1,3E0,3.2E1,1.4E1,3E0,9E0,5.9E1,3.3E1,3.4E1,3.4E1,6E0,2.6E1,8E0,6E0,2.6E1,3.3E1,5E0,1E0],"tree_param":{"num_deleted":"0","num_feature":"6","num_nodes":"59","size_leaf_vector":"1"}},{"base_weights":[9.863091E1,2.2261632E2,2.8101768E1,2.9044904E2,1.234892E2,9.0279976E1,2.125836E1,2.6131454E2,3.3724097E2,8.791016E1,1.904158E2,2.3879686E2,2.1190384E1,2.900322E1,9.79652E0,2.4209471E2,6.065417E1,7.406542E1,5.5310627E1,1.3899164E2,5.8714943E1,2.770928E1,2.087791E2,2.5880872E2,2.0810638E1,2.0176091E0,6.839893E0,4.612874E1,2.2566612E1,3.5322425E0,7.195523E0,5.8382618E1,4.493032E1,1.6038127E2,2.0811596E1,1.5099811E1,5.2823277E1,4.5680817E1,1.4276369E2,3.83175E1,6.554186E1,8.148861E0,5.2848663E1,4.2170687E0,6.079681E0,4.4921727E0,1.0734886E1,1.480062E1,3.4544674E1,4.367189E1,6.943478E1,1.4841382E1,3.2308834E1,1.2307535E1,8.341269E0,5.4766765E0,5.24538E-1,1.843632E0,2.3889802E0,6.2119247E1,7.454353E0,1.6202326E1,8.926199E0,8.6603993E-1,1.2452072E0,1.3505137E1,2.968063E0],"categories":[],"categories_nodes":[],"categories_segments":[],"categories_sizes":[],"default_left":[0,0,0,0,0,0,0,0,0,0,0,0,0,0,0,0,0,0,0,0,0,0,0,0,0,0,0,0,0,0,0,0,0,0,0,0,0,0,0,0,0,0,0,0,0,0,0,0,0,0,0,0,0,0,0,0,0,0,0,0,0,0,0,0,0,0,0],"id":3,"left_children":[1,3,5,7,9,11,13,15,17,19,21,23,25,27,29,31,-1,-1,-1,33,35,-1,37,39,-1,-1,-1,41,43,-1,45,-1,-1,47,-1,-1,49,-1,51,-1,-1,-1,53,-1,-1,55,57,-1,-1,59,61,-1,-1,-1,-1,63,-1,-1,-1,65,-1,-1,-1,-1,-1,-1,-1],"loss_changes":[7.907593E6,2.169626E6,2.440261E5,1.76346E5,3.0472025E5,5.798151E5,4.605397E4,2.6573E4,4.01475E4,1.2605925E5,1.4889125E4,2.1606562E4,5.432242E3,3.324064E4,4.2096016E3,1.263E4,0E0,0E0,0E0,7.222E3,1.8462031E3,0E0,8.849875E3,6.6886875E3,0E0,0E0,0E0,8.861094E2,2.0040703E3,0E0,1.492248E3,0E0,0E0,6.4075312E3,0E0,0E0,4.1125E3,0E0,8.8759375E2,0E0,0E0,0E0,7.2522656E2,0E0,0E0,1.5680396E2,1.652295E1,0E0,0E0,1.5808672E3,6.916172E2,0E0,0E0,0E0,0E0,2.4587402E1,0E0,0E0,0E0,7.871738E2,0E0,0E0,0E0,0E0,0E0,0E0,0E0],"parents":[2147483647,0,0,1,1,2,2,3,3,4,4,5,5,6,6,7,7,8,8,9,9,10,10,11,11,12,12,13,13,14,14,15,15,19,19,20,20,22,22,23,23,27,27,28,28,30,30,33,33,36,36,38,38,42,42,45,45,46,46,49,49,50,50,55,55,59,59],"right_children":[2,4,6,8,10,12,14,16,18,20,22,24,26,28,30,32,-1,-1,-1,34,36,-1,38,40,-1,-1,-1,42,44,-1,46,-1,-1,48,-1,-1,50,-1,52,-1,-1,-1,54,-1,-1,56,58,-1,-1,60,62,-1,-1,-1,-1,64,-1,-1,-1,66,-1,-1,-1,-1,-1,-1,-1],"split_conditions":[3.33E2,1.4E1,3.34E2,9E0,2.1E1,1.6E1,1.4E1,5E0,1.2E1,1.6E1,2.2E1,1.3E1,2.1E1,3.35E2,1.7E1,1E0,6.065417E1,7.406542E1,5.5310627E1,1.5E1,1.7E1,2.770928E1,3.29E2,7E0,2.0810638E1,2.0176091E0,6.839893E0,8E0,9E0,3.5322425E0,2E1,5.8382618E1,4.493032E1,3.2E2,2.0811596E1,1.5099811E1,2E1,4.5680817E1,3.3E2,3.83175E1,6.554186E1,8.148861E0,1.1E1,4.2170687E0,6.079681E0,1.9E1,3.35E2,1.480062E1,3.4544674E1,1E0,3.26E2,1.4841382E1,3.2308834E1,1.2307535E1,8.341269E0,3.35E2,5.24538E-1,1.843632E0,2.3889802E0,3.25E2,7.454353E0,1.6202326E1,8.926199E0,8.6603993E-1,1.2452072E0,1.3505137E1,2.968063E0],"split_indices":[0,1,0,1,1,1,1,2,1,1,1,1,1,0,1,2,0,0,0,1,1,0,0,1,0,0,0,1,1,0,1,0,0,0,0,0,1,0,0,0,0,0,1,0,0,1,0,0,0,2,0,0,0,0,0,0,0,0,0,0,0,0,0,0,0,0,0],"split_type":[0,0,0,0,0,0,0,0,0,0,0,0,0,0,0,0,0,0,0,0,0,0,0,0,0,0,0,0,0,0,0,0,0,0,0,0,0,0,0,0,0,0,0,0,0,0,0,0,0,0,0,0,0,0,0,0,0,0,0,0,0,0,0,0,0,0,0],"sum_hessian":[9.04E2,3.27E2,5.77E2,1.93E2,1.34E2,5.6E1,5.21E2,1.23E2,7E1,8.9E1,4.5E1,1.7E1,3.9E1,3.1E2,2.11E2,8.9E1,3.4E1,4.2E1,2.8E1,3.1E1,5.8E1,1.4E1,3.1E1,1.4E1,3E0,2.2E1,1.7E1,8.3E1,2.27E2,5.1E1,1.6E2,1.9E1,7E1,1.7E1,1.4E1,1.2E1,4.6E1,2.2E1,9E0,9E0,5E0,5E1,3.3E1,1.94E2,3.3E1,9.2E1,6.8E1,3E0,1.4E1,3.2E1,1.4E1,3E0,6E0,1.6E1,1.7E1,5.9E1,3.3E1,3.4E1,3.4E1,6E0,2.6E1,8E0,6E0,2.6E1,3.3E1,5E0,1E0],"tree_param":{"num_deleted":"0","num_feature":"6","num_nodes":"67","size_leaf_vector":"1"}},{"base_weights":[7.971271E1,1.7976437E2,2.2798063E1,2.3387129E2,1.0067915E2,7.456657E1,1.7101505E1,2.1037395E2,2.7161496E2,7.182049E1,1.5495308E2,1.979636E2,1.7173744E1,2.3328281E1,7.8862762E0,1.992136E2,5.3005707E1,5.9596832E1,4.4629955E1,1.1338571E2,4.8059345E1,1.322362E2,3.8617107E1,2.1397092E2,1.7689045E1,8.158157E0,5.547912E0,3.724582E1,1.8098452E1,2.83938E0,5.799079E0,4.4369545E1,1.7100735E2,1.3458833E2,8.6760544E1,5.825059E0,5.045831E1,1.5495135E2,8.7117836E1,3.1420347E1,5.4618214E1,2.172321E0,1.3607553E0,3.2755226E1,4.288625E1,1.68899E1,4.899507E0,3.6220798E0,8.649251E0,2.7951904E1,3.8559963E1,1.43882675E1,3.2996483E1,7.6978106E0,9.4355225E1,1.117298E1,3.5139824E1,1.8951387E1,3.3739803E1,6.8887744E0,1.9895126E1,7.201164E0,4.9590964E0,9.990822E0,6.765695E0,3.5630968E0,1.4899243E1,4.4165287E0,4.227159E-1,1.4854407E0,1.9248354E0,2.2653843E1,1.3202216E1,9.051356E0,2.6426952E1,2.267605E0,3.6253984E0,6.992471E-1,1.0034903E0,3.038187E0,6.13548E0],"categories":[],"categories_nodes":[],"categories_segments":[],"categories_sizes":[],"default_left":[0,0,0,0,0,0,0,0,0,0,0,0,0,0,0,0,0,0,0,0,0,0,0,0,0,0,0,0,0,0,0,0,0,0,0,0,0,0,0,0,0,0,0,0,0,0,0,0,0,0,0,0,0,0,0,0,0,0,0,0,0,0,0,0,0,0,0,0,0,0,0,0,0,0,0,0,0,0,0,0,0],"id":4,"left_children":[1,3,5,7,9,11,13,15,17,19,21,23,25,27,29,31,-1,-1,-1,33,35,37,-1,39,-1,41,-1,43,45,-1,47,-1,49,51,53,-1,55,57,59,-1,-1,-1,-1,61,63,65,-1,67,69,-1,-1,-1,-1,-1,71,-1,73,-1,-1,-1,-1,-1,-1,-1,-1,-1,75,77,-1,-1,-1,-1,-1,-1,79,-1,-1,-1,-1,-1,-1],"loss_changes":[5.1493385E6,1.379985E6,1.6917831E5,1.14913E5,2.00318E5,4.0028006E5,2.9768984E4,2.2839E4,2.4242E4,8.3438125E4,1.4314625E4,1.26310625E4,3.5839785E3,2.1962469E4,2.7100322E3,3.03735E4,0E0,0E0,0E0,6.3878125E3,1.2102969E3,1.9296812E4,0E0,7.5286875E3,0E0,1.0314575E1,0E0,7.22875E2,1.3495078E3,0E0,9.6764844E2,0E0,8.46475E3,1.85965E4,2.6006484E3,0E0,2.2607812E3,5.6528125E2,5.0358203E3,0E0,0E0,0E0,0E0,4.2678906E2,4.8677734E2,9.3859375E1,0E0,1.021189E2,1.0726074E1,0E0,0E0,0E0,0E0,0E0,2.8390625E1,0E0,2.1436523E2,0E0,0E0,0E0,0E0,0E0,0E0,0E0,0E0,0E0,5.761162E2,1.5639282E1,0E0,0E0,0E0,0E0,0E0,0E0,5.9320312E1,0E0,0E0,0E0,0E0,0E0,0E0],"parents":[2147483647,0,0,1,1,2,2,3,3,4,4,5,5,6,6,7,7,8,8,9,9,10,10,11,11,12,12,13,13,14,14,15,15,19,19,20,20,21,21,23,23,25,25,27,27,28,28,30,30,32,32,33,33,34,34,36,36,37,37,38,38,43,43,44,44,45,45,47,47,48,48,54,54,56,56,66,66,67,67,74,74],"right_children":[2,4,6,8,10,12,14,16,18,20,22,24,26,28,30,32,-1,-1,-1,34,36,38,-1,40,-1,42,-1,44,46,-1,48,-1,50,52,54,-1,56,58,60,-1,-1,-1,-1,62,64,66,-1,68,70,-1,-1,-1,-1,-1,72,-1,74,-1,-1,-1,-1,-1,-1,-1,-1,-1,76,78,-1,-1,-1,-1,-1,-1,80,-1,-1,-1,-1,-1,-1],"split_conditions":[3.33E2,1.4E1,3.34E2,9E0,2.1E1,1.6E1,1.4E1,6E0,1.2E1,1.6E1,2.3E1,1.3E1,2.1E1,3.35E2,1.7E1,3.26E2,5.3005707E1,5.9596832E1,4.4629955E1,3.25E2,3.21E2,3.28E2,3.8617107E1,7E0,1.7689045E1,1.8E1,5.547912E0,8E0,9E0,2.83938E0,2E1,4.4369545E1,3.29E2,3.21E2,1E0,5.825059E0,3.28E2,3.21E2,3.29E2,3.1420347E1,5.4618214E1,2.172321E0,1.3607553E0,5E0,1.1E1,5E0,4.899507E0,1.9E1,3.35E2,2.7951904E1,3.8559963E1,1.43882675E1,3.2996483E1,7.6978106E0,2E0,1.117298E1,1.8E1,1.8951387E1,3.3739803E1,6.8887744E0,1.9895126E1,7.201164E0,4.9590964E0,9.990822E0,6.765695E0,3.5630968E0,6E0,3.35E2,4.227159E-1,1.4854407E0,1.9248354E0,2.2653843E1,1.3202216E1,9.051356E0,3.3E2,2.267605E0,3.6253984E0,6.992471E-1,1.0034903E0,3.038187E0,6.13548E0],"split_indices":[0,1,0,1,1,1,1,2,1,1,1,1,1,0,1,0,0,0,0,0,0,0,0,1,0,1,0,1,1,0,1,0,0,0,2,0,0,0,0,0,0,0,0,1,1,1,0,1,0,0,0,0,0,0,2,0,1,0,0,0,0,0,0,0,0,0,1,0,0,0,0,0,0,0,0,0,0,0,0,0,0],"split_type":[0,0,0,0,0,0,0,0,0,0,0,0,0,0,0,0,0,0,0,0,0,0,0,0,0,0,0,0,0,0,0,0,0,0,0,0,0,0,0,0,0,0,0,0,0,0,0,0,0,0,0,0,0,0,0,0,0,0,0,0,0,0,0,0,0,0,0,0,0,0,0,0,0,0,0,0,0,0,0,0,0],"sum_hessian":[9.04E2,3.27E2,5.77E2,1.93E2,1.34E2,5.6E1,5.21E2,1.23E2,7E1,8.9E1,4.5E1,1.7E1,3.9E1,3.1E2,2.11E2,1.06E2,1.7E1,4.2E1,2.8E1,3.1E1,5.8E1,3.1E1,1.4E1,1.4E1,3E0,2.2E1,1.7E1,8.3E1,2.27E2,5.1E1,1.6E2,5.5E1,5.1E1,1.5E1,1.6E1,8E0,5E1,1.9E1,1.2E1,9E0,5E0,5E0,1.7E1,5E1,3.3E1,1.94E2,3.3E1,9.2E1,6.8E1,2.4E1,2.7E1,6E0,9E0,3E0,1.3E1,3.5E1,1.5E1,5E0,1.4E1,3E0,9E0,3.3E1,1.7E1,1.6E1,1.7E1,1.27E2,6.7E1,5.9E1,3.3E1,3.4E1,3.4E1,6E0,7E0,5E0,1E1,3.4E1,3.3E1,2.6E1,3.3E1,4E0,6E0],"tree_param":{"num_deleted":"0","num_feature":"6","num_nodes":"81","size_leaf_vector":"1"}},{"base_weights":[6.4518036E1,1.453736E2,1.8522976E1,1.8847906E2,8.2352615E1,6.163235E1,1.3780147E1,1.6618802E2,2.156913E2,5.885819E1,1.26529686E2,1.6413351E2,1.396602E1,1.8801765E1,6.348526E0,3.685223E1,1.3083731E2,2.251233E2,3.1459171E1,9.35504E1,3.904448E1,1.0827257E2,3.1408583E1,1.7691263E2,1.5035686E1,6.680138E0,4.4999733E0,3.0140903E1,1.4541724E1,2.2824247E0,4.673647E0,1.5066162E2,9.0445465E1,2.052011E2,2.6466876E2,1.1020663E2,6.732624E1,1.03800125E1,3.4657944E1,2.5319128E1,7.175457E1,1.2882343E2,4.5515175E1,1.8102677E0,1.1037239E0,2.6442616E1,3.4801838E1,1.3560412E1,3.948427E0,2.9205184E0,6.968825E0,1.9126753E1,3.318034E1,4.135535E0,1.0495513E2,4.602978E1,1.586019E2,2.6569733E1,5.6023296E1,1.0422288E1,1.1835156E2,1.4650515E1,6.543139E0,2.7308815E1,4.85155E1,5.8554583E0,1.6314005E1,2.9633718E1,1.2552703E1,5.803291E0,4.0223784E0,8.110197E0,5.4877315E0,2.8560448E0,1.2006057E1,3.561602E0,3.4065932E-1,1.1968406E0,1.5508674E0,2.2972965E1,1.07884245E1,3.532051E1,7.5896945E0,2.9348694E1,8.31188E1,4.3191517E1,2.217964E1,1.4111936E1,7.4248962E0,1.8270419E0,2.9216444E0,5.645773E-1,8.0869526E-1,5.8534007E0,1.8864805E1,9.392118E0,2.0577087E0,1.4080983E1,2.6115263E1,6.7198424E0,1.7327372E1,3.009322E1,3.5756822E0,1.8671893E0,3.7275824E-1,4.4215693E0,7.168251E-1,3.2985153E1,2.4700646E0,2.850656E0,7.370713E0],"categories":[],"categories_nodes":[],"categories_segments":[],"categories_sizes":[],"default_left":[0,0,0,0,0,0,0,0,0,0,0,0,0,0,0,0,0,0,0,0,0,0,0,0,0,0,0,0,0,0,0,0,0,0,0,0,0,0,0,0,0,0,0,0,0,0,0,0,0,0,0,0,0,0,0,0,0,0,0,0,0,0,0,0,0,0,0,0,0,0,0,0,0,0,0,0,0,0,0,0,0,0,0,0,0,0,0,0,0,0,0,0,0,0,0,0,0,0,0,0,0,0,0,0,0,0,0,0,0,0,0],"id":5,"left_children":[1,3,5,7,9,11,13,15,17,19,21,23,25,27,29,-1,31,33,-1,35,37,39,-1,41,-1,43,-1,45,47,-1,49,51,53,55,57,59,61,-1,63,-1,65,67,-1,-1,-1,69,71,73,-1,75,77,-1,-1,-1,79,-1,81,-1,-1,-1,83,-1,-1,85,87,-1,-1,-1,-1,-1,-1,-1,-1,-1,89,91,-1,-1,-1,-1,-1,-1,-1,-1,93,95,97,-1,-1,-1,-1,-1,-1,-1,-1,-1,-1,99,101,103,105,107,-1,-1,-1,-1,-1,109,-1,-1,-1],"loss_changes":[3.3629628E6,8.755065E5,1.1732881E5,8.18325E4,1.3267125E5,2.762014E5,1.936104E4,4.680975E4,1.085525E4,5.821172E4,8.622375E3,7.1617812E3,2.3367617E3,1.4584617E4,1.7446182E3,0E0,1.920375E4,8.3775E2,0E0,6.5576562E3,1.5283438E3,1.2328094E4,0E0,7.2282188E3,0E0,1.339563E1,0E0,5.276953E2,8.958203E2,0E0,6.274695E2,5.9385625E3,1.4026695E4,2.2788E4,3.513375E3,2.3498125E3,6.801953E2,0E0,3.461625E3,0E0,3.0319922E3,3.4798125E3,0E0,0E0,0E0,2.4742969E2,3.26625E2,4.6722656E1,0E0,6.650519E1,6.963379E0,0E0,0E0,0E0,3.7575E2,0E0,3.8906875E4,0E0,0E0,0E0,2.8077344E3,0E0,0E0,1.730375E3,1.1470938E3,0E0,0E0,0E0,0E0,0E0,0E0,0E0,0E0,0E0,3.7454004E2,9.943848E0,0E0,0E0,0E0,0E0,0E0,0E0,0E0,0E0,2.6702148E3,3.8493945E2,4.928496E2,0E0,0E0,0E0,0E0,0E0,0E0,0E0,0E0,0E0,0E0,1.4643115E2,1.9E1,4.611943E1,3.8065723E2,1.0573633E2,0E0,0E0,0E0,0E0,0E0,5.4416992E1,0E0,0E0,0E0],"parents":[2147483647,0,0,1,1,2,2,3,3,4,4,5,5,6,6,7,7,8,8,9,9,10,10,11,11,12,12,13,13,14,14,16,16,17,17,19,19,20,20,21,21,23,23,25,25,27,27,28,28,30,30,31,31,32,32,33,33,34,34,35,35,36,36,38,38,40,40,41,41,45,45,46,46,47,47,49,49,50,50,54,54,56,56,60,60,63,63,64,64,74,74,75,75,84,84,85,85,86,86,97,97,98,98,99,99,100,100,101,101,107,107],"right_children":[2,4,6,8,10,12,14,16,18,20,22,24,26,28,30,-1,32,34,-1,36,38,40,-1,42,-1,44,-1,46,48,-1,50,52,54,56,58,60,62,-1,64,-1,66,68,-1,-1,-1,70,72,74,-1,76,78,-1,-1,-1,80,-1,82,-1,-1,-1,84,-1,-1,86,88,-1,-1,-1,-1,-1,-1,-1,-1,-1,90,92,-1,-1,-1,-1,-1,-1,-1,-1,94,96,98,-1,-1,-1,-1,-1,-1,-1,-1,-1,-1,100,102,104,106,108,-1,-1,-1,-1,-1,110,-1,-1,-1],"split_conditions":[3.33E2,1.4E1,3.34E2,8E0,2.1E1,1.6E1,1.4E1,5E0,1.3E1,1.6E1,2.3E1,1.3E1,2.1E1,3.35E2,1.7E1,3.685223E1,3.27E2,5E0,3.1459171E1,1.5E1,1.7E1,3.28E2,3.1408583E1,7E0,1.5035686E1,1.8E1,4.4999733E0,8E0,9E0,2.2824247E0,2E1,3.22E2,3.28E2,3.27E2,9E0,3.2E2,3.29E2,1.03800125E1,2E1,2.5319128E1,3.29E2,4E0,4.5515175E1,1.8102677E0,1.1037239E0,5E0,1.1E1,5E0,3.948427E0,1.9E1,3.35E2,1.9126753E1,3.318034E1,4.135535E0,3.32E2,4.602978E1,1.2E1,2.6569733E1,5.6023296E1,1.0422288E1,3.25E2,1.4650515E1,6.543139E0,1E0,2E0,5.8554583E0,1.6314005E1,2.9633718E1,1.2552703E1,5.803291E0,4.0223784E0,8.110197E0,5.4877315E0,2.8560448E0,6E0,3.35E2,3.4065932E-1,1.1968406E0,1.5508674E0,2.2972965E1,1.07884245E1,3.532051E1,7.5896945E0,2.9348694E1,3.28E2,3.25E2,3E0,1.4111936E1,7.4248962E0,1.8270419E0,2.9216444E0,5.645773E-1,8.0869526E-1,5.8534007E0,1.8864805E1,9.392118E0,2.0577087E0,1.9E1,5E0,3.2E2,2E0,3.28E2,3.5756822E0,1.8671893E0,3.7275824E-1,4.4215693E0,7.168251E-1,3.21E2,2.4700646E0,2.850656E0,7.370713E0],"split_indices":[0,1,0,1,1,1,1,1,1,1,1,1,1,0,1,0,0,2,0,1,1,0,0,1,0,1,0,1,1,0,1,0,0,0,1,0,0,0,1,0,0,1,0,0,0,1,1,1,0,1,0,0,0,0,0,0,1,0,0,0,0,0,0,2,2,0,0,0,0,0,0,0,0,0,1,0,0,0,0,0,0,0,0,0,0,0,2,0,0,0,0,0,0,0,0,0,0,1,2,0,2,0,0,0,0,0,0,0,0,0,0],"split_type":[0,0,0,0,0,0,0,0,0,0,0,0,0,0,0,0,0,0,0,0,0,0,0,0,0,0,0,0,0,0,0,0,0,0,0,0,0,0,0,0,0,0,0,0,0,0,0,0,0,0,0,0,0,0,0,0,0,0,0,0,0,0,0,0,0,0,0,0,0,0,0,0,0,0,0,0,0,0,0,0,0,0,0,0,0,0,0,0,0,0,0,0,0,0,0,0,0,0,0,0,0,0,0,0,0,0,0,0,0,0,0],"sum_hessian":[9.04E2,3.27E2,5.77E2,1.93E2,1.34E2,5.6E1,5.21E2,1.1E2,8.3E1,8.9E1,4.5E1,1.7E1,3.9E1,3.1E2,2.11E2,7E1,4E1,6.9E1,1.4E1,3.1E1,5.8E1,3.1E1,1.4E1,1.4E1,3E0,2.2E1,1.7E1,8.3E1,2.27E2,5.1E1,1.6E2,2.5E1,1.5E1,5E1,1.9E1,1.7E1,1.4E1,1.2E1,4.6E1,1.9E1,1.2E1,9E0,5E0,5E0,1.7E1,5E1,3.3E1,1.94E2,3.3E1,9.2E1,6.8E1,7E0,1.8E1,3E0,1.2E1,3E1,2E1,3E0,1.6E1,3E0,1.4E1,1.1E1,3E0,3.2E1,1.4E1,3E0,9E0,6E0,3E0,3.3E1,1.7E1,1.6E1,1.7E1,1.27E2,6.7E1,5.9E1,3.3E1,3.4E1,3.4E1,9E0,3E0,1.7E1,3E0,6E0,8E0,6E0,2.6E1,3E0,1.1E1,3.4E1,3.3E1,2.6E1,3.3E1,2E0,6E0,5E0,1E0,1E1,1.6E1,4E0,6E0,9E0,7E0,2E0,2E0,4E0,2E0,7E0,2E0,2E0,5E0],"tree_param":{"num_deleted":"0","num_feature":"6","num_nodes":"111","size_leaf_vector":"1"}},{"base_weights":[5.240284E1,1.180112E2,1.5081136E1,1.5248453E2,6.759759E1,5.1238358E1,1.1104042E1,1.3409506E2,1.749696E2,5.279804E1,1.135837E2,1.3701443E2,1.1358165E1,1.5153877E1,5.1106324E0,1.23317375E2,3.6585766E1,1.8254912E2,2.5586792E1,9.174803E1,4.4132545E1,1.2490221E2,7.619278E1,1.4737688E2,1.2780333E1,5.4708066E0,3.6499784E0,2.4391575E1,1.16840515E1,1.8347181E0,3.7666295E0,2.7558554E1,9.238431E1,1.659048E2,4.3172935E1,9.8352066E1,8.80918E0,3.752082E1,1.4673485E1,1.6390503E1,2.846904E1,7.183803E0,1.7664335E1,1.07277374E2,3.7929314E1,1.5085566E0,8.952428E-1,2.1346754E1,2.8241407E1,1.0887329E1,3.1819677E0,2.354844E0,5.614882E0,2.1648127E1,6.313355E1,1.8560396E2,1.2892485E2,8.858945E0,2.1635035E1,5.1083305E1,2.8931293E1,2.4553652E1,1.0669797E1,4.6767693E0,3.262596E0,6.583571E0,4.4511595E0,2.2892985E0,9.674679E0,2.8721697E0,2.745313E-1,9.643117E-1,1.249556E0,3.5152054E0,1.4792102E1,2.3015657E1,3.95854E1,1.432443E2,6.4512405E0,1.1505924E1,6.8743205E0,2.2910545E1,4.0248188E1,1.4720738E0,2.3545017E0,4.558439E-1,6.517133E-1,1.6609938E1,3.2001522E1,3.61889E1,1.8619469E1,1.1995145E1,6.063665E0,7.8267646E0,1.8519379E0,1.1935545E1,2.1849098E1,5.823865E0,1.4595953E1,2.534372E1,1.4749687E1,1.618231E0,3.230573E-1,3.7141178E0,6.2124866E-1,5.533159E0,2.1407225E0,1.7655693E0,3.692913E0],"categories":[],"categories_nodes":[],"categories_segments":[],"categories_sizes":[],"default_left":[0,0,0,0,0,0,0,0,0,0,0,0,0,0,0,0,0,0,0,0,0,0,0,0,0,0,0,0,0,0,0,0,0,0,0,0,0,0,0,0,0,0,0,0,0,0,0,0,0,0,0,0,0,0,0,0,0,0,0,0,0,0,0,0,0,0,0,0,0,0,0,0,0,0,0,0,0,0,0,0,0,0,0,0,0,0,0,0,0,0,0,0,0,0,0,0,0,0,0,0,0,0,0,0,0,0,0,0,0],"id":6,"left_children":[1,3,5,7,9,11,13,15,17,19,21,23,25,27,29,31,-1,33,-1,35,37,39,41,43,-1,45,-1,47,49,-1,51,-1,53,55,-1,57,-1,59,-1,-1,-1,-1,-1,61,-1,-1,-1,63,65,67,-1,69,71,-1,73,75,77,-1,-1,79,81,-1,-1,-1,-1,-1,-1,-1,83,85,-1,-1,-1,-1,-1,-1,-1,87,-1,-1,-1,89,91,-1,-1,-1,-1,-1,-1,93,95,-1,-1,-1,-1,97,99,101,103,105,107,-1,-1,-1,-1,-1,-1,-1,-1],"loss_changes":[2.2142175E6,5.59732E5,8.254783E4,5.67545E4,8.588044E4,1.9342742E5,1.2592711E4,3.58625E4,6.59225E3,3.1053125E4,4.0260625E3,4.2196562E3,1.5231211E3,9.683547E3,1.1230991E3,2.936025E4,0E0,3.003E3,0E0,1.3384844E3,1.4063672E4,5.5654062E3,1.7123359E3,5.080125E3,0E0,1.3634705E1,0E0,3.8179297E2,5.944082E2,0E0,4.068811E2,0E0,8.472094E3,1.3223125E4,0E0,3.1735781E3,0E0,7.026258E3,0E0,0E0,0E0,0E0,0E0,1.8044297E3,0E0,0E0,0E0,1.4150781E2,2.190957E2,2.1482422E1,0E0,4.3311768E1,4.5202637E0,0E0,5.6055586E3,4.16475E3,2.4448531E4,0E0,0E0,9.312969E2,2.280289E3,0E0,0E0,0E0,0E0,0E0,0E0,0E0,2.4349219E2,6.3198853E0,0E0,0E0,0E0,0E0,0E0,0E0,0E0,4.8745312E3,0E0,0E0,0E0,1.2064707E3,1.1200137E3,0E0,0E0,0E0,0E0,0E0,0E0,1.9276367E2,3.2205664E2,0E0,0E0,0E0,0E0,9.385034E1,4.79541E1,3.4640793E1,2.6198706E2,4.3831055E1,1.2989014E1,0E0,0E0,0E0,0E0,0E0,0E0,0E0,0E0],"parents":[2147483647,0,0,1,1,2,2,3,3,4,4,5,5,6,6,7,7,8,8,9,9,10,10,11,11,12,12,13,13,14,14,15,15,17,17,19,19,20,20,21,21,22,22,23,23,25,25,27,27,28,28,30,30,32,32,33,33,35,35,37,37,43,43,47,47,48,48,49,49,51,51,52,52,54,54,55,55,56,56,59,59,60,60,68,68,69,69,77,77,81,81,82,82,89,89,90,90,95,95,96,96,97,97,98,98,99,99,100,100],"right_children":[2,4,6,8,10,12,14,16,18,20,22,24,26,28,30,32,-1,34,-1,36,38,40,42,44,-1,46,-1,48,50,-1,52,-1,54,56,-1,58,-1,60,-1,-1,-1,-1,-1,62,-1,-1,-1,64,66,68,-1,70,72,-1,74,76,78,-1,-1,80,82,-1,-1,-1,-1,-1,-1,-1,84,86,-1,-1,-1,-1,-1,-1,-1,88,-1,-1,-1,90,92,-1,-1,-1,-1,-1,-1,94,96,-1,-1,-1,-1,98,100,102,104,106,108,-1,-1,-1,-1,-1,-1,-1,-1],"split_conditions":[3.33E2,1.4E1,3.34E2,8E0,2.2E1,1.6E1,1.4E1,6E0,1.3E1,1.5E1,3.29E2,1.3E1,2.1E1,3.35E2,1.7E1,5E0,3.6585766E1,5E0,2.5586792E1,5E0,2.1E1,3.22E2,3.3E2,7E0,1.2780333E1,1.8E1,3.6499784E0,8E0,9E0,1.8347181E0,2E1,2.7558554E1,3.27E2,3.27E2,4.3172935E1,3.2E2,8.80918E0,1.7E1,1.4673485E1,1.6390503E1,2.846904E1,7.183803E0,1.7664335E1,4E0,3.7929314E1,1.5085566E0,8.952428E-1,5E0,1.1E1,5E0,3.1819677E0,1.9E1,3.35E2,2.1648127E1,3.28E2,3.2E2,1.2E1,8.858945E0,2.1635035E1,3.27E2,2E1,2.4553652E1,1.0669797E1,4.6767693E0,3.262596E0,6.583571E0,4.4511595E0,2.2892985E0,6E0,3.35E2,2.745313E-1,9.643117E-1,1.249556E0,3.5152054E0,1.4792102E1,2.3015657E1,3.95854E1,1E1,6.4512405E0,1.1505924E1,6.8743205E0,1E0,2E0,1.4720738E0,2.3545017E0,4.558439E-1,6.517133E-1,1.6609938E1,3.2001522E1,3.25E2,3E0,1.1995145E1,6.063665E0,7.8267646E0,1.8519379E0,1.9E1,5E0,3.2E2,2E0,3.28E2,6E0,1.618231E0,3.230573E-1,3.7141178E0,6.2124866E-1,5.533159E0,2.1407225E0,1.7655693E0,3.692913E0],"split_indices":[0,1,0,1,1,1,1,2,1,1,0,1,1,0,1,1,0,2,0,2,1,0,0,1,0,1,0,1,1,0,1,0,0,0,0,0,0,1,0,0,0,0,0,1,0,0,0,1,1,1,0,1,0,0,0,0,1,0,0,0,1,0,0,0,0,0,0,0,1,0,0,0,0,0,0,0,0,1,0,0,0,2,2,0,0,0,0,0,0,0,2,0,0,0,0,1,2,0,2,0,2,0,0,0,0,0,0,0,0],"split_type":[0,0,0,0,0,0,0,0,0,0,0,0,0,0,0,0,0,0,0,0,0,0,0,0,0,0,0,0,0,0,0,0,0,0,0,0,0,0,0,0,0,0,0,0,0,0,0,0,0,0,0,0,0,0,0,0,0,0,0,0,0,0,0,0,0,0,0,0,0,0,0,0,0,0,0,0,0,0,0,0,0,0,0,0,0,0,0,0,0,0,0,0,0,0,0,0,0,0,0,0,0,0,0,0,0,0,0,0,0],"sum_hessian":[9.04E2,3.27E2,5.77E2,1.93E2,1.34E2,5.6E1,5.21E2,1.1E2,8.3E1,1.03E2,3.1E1,1.7E1,3.9E1,3.1E2,2.11E2,9.3E1,1.7E1,6.9E1,1.4E1,1.7E1,8.6E1,2.2E1,9E0,1.4E1,3E0,2.2E1,1.7E1,8.3E1,2.27E2,5.1E1,1.6E2,6.1E1,3.2E1,5E1,1.9E1,1.4E1,3E0,7.2E1,1.4E1,8E0,1.4E1,3E0,6E0,9E0,5E0,5E0,1.7E1,5E1,3.3E1,1.94E2,3.3E1,9.2E1,6.8E1,1.9E1,1.3E1,3E1,2E1,3E0,1.1E1,2.6E1,4.6E1,6E0,3E0,3.3E1,1.7E1,1.6E1,1.7E1,1.27E2,6.7E1,5.9E1,3.3E1,3.4E1,3.4E1,3E0,1E1,6E0,2.4E1,1.7E1,3E0,1.7E1,9E0,3.2E1,1.4E1,3.4E1,3.3E1,2.6E1,3.3E1,5E0,1.2E1,6E0,2.6E1,3E0,1.1E1,5E0,1E0,1E1,1.6E1,4E0,6E0,9E0,7E0,2E0,2E0,4E0,2E0,7E0,2E0,4E0,3E0],"tree_param":{"num_deleted":"0","num_feature":"6","num_nodes":"109","size_leaf_vector":"1"}},{"base_weights":[4.2591248E1,9.587157E1,1.2282365E1,1.2348517E2,5.5479633E1,4.260449E1,8.947799E0,1.11205536E2,1.5104839E2,4.3387505E1,9.304533E1,1.14385605E2,9.237876E0,1.2214009E1,4.1141224E0,9.9631424E1,2.7414267E1,3.587837E1,1.17496376E2,7.558193E1,3.622788E1,1.0187218E2,6.3439037E1,1.2277834E2,1.0863282E1,4.481158E0,2.960538E0,1.9739141E1,9.388021E0,7.374155E0,3.0356388E0,1.2681166E2,7.82314E1,2.708664E1,9.172646E1,8.071458E1,7.4878044E0,3.0914286E1,5.967218E1,8.713305E0,2.168794E1,6.1062317E0,1.4636164E1,8.934424E1,3.1607761E1,1.2571303E0,7.261414E-1,1.7233076E1,2.2917679E1,8.741227E0,2.5642915E0,1.7861817E0,1.2725698E0,1.8987365E0,4.5239906E0,2.7586939E1,1.7501904E1,1.8200119E1,9.883979E0,8.059085E0,2.8949661E1,7.5301027E0,1.766861E1,4.1547398E1,2.4148151E1,4.6394268E1,1.6917572E1,2.0344454E1,9.069327E0,3.768926E0,2.6463277E0,5.3443103E0,3.6103857E0,9.175079E0,7.7960167E0,2.316195E0,2.2123992E-1,7.769598E-1,1.0067852E0,9.332584E0,5.6369433E0,1.920988E1,3.340247E1,1.1137975E1,2.7761178E0,1.5473014E0,1.9186716E0,1.1860707E0,1.8974516E0,3.6805174E-1,5.2520424E-1,3.0333792E1,1.5614428E1,8.334089E0,3.6000867E0,6.522303E0,1.6667442E0,1.011904E1,1.825177E1,5.047348E0,1.22961E1,2.1042364E1,1.2482059E1,1.4024667E0,2.7998278E-1,3.1198587E0,5.384153E-1,1.7328142E0,2.3053928E1,1.4830782E0,3.1389759E0,5.220068E0,1.8552926E0],"categories":[],"categories_nodes":[],"categories_segments":[],"categories_sizes":[],"default_left":[0,0,0,0,0,0,0,0,0,0,0,0,0,0,0,0,0,0,0,0,0,0,0,0,0,0,0,0,0,0,0,0,0,0,0,0,0,0,0,0,0,0,0,0,0,0,0,0,0,0,0,0,0,0,0,0,0,0,0,0,0,0,0,0,0,0,0,0,0,0,0,0,0,0,0,0,0,0,0,0,0,0,0,0,0,0,0,0,0,0,0,0,0,0,0,0,0,0,0,0,0,0,0,0,0,0,0,0,0,0,0,0,0],"id":7,"left_children":[1,3,5,7,9,11,13,15,17,19,21,23,25,27,29,31,-1,-1,33,35,37,39,41,43,-1,45,-1,47,49,51,53,55,57,-1,59,61,-1,63,65,-1,-1,-1,-1,67,-1,-1,-1,69,71,73,-1,-1,-1,75,77,-1,-1,-1,-1,-1,-1,-1,-1,79,81,83,-1,-1,-1,-1,-1,-1,-1,85,87,89,-1,-1,-1,-1,-1,91,93,-1,-1,-1,-1,-1,-1,-1,-1,95,97,-1,-1,-1,-1,99,101,103,105,107,109,-1,-1,-1,-1,-1,111,-1,-1,-1,-1],"loss_changes":[1.460277E6,3.589895E5,5.8061016E4,4.8865E4,5.7286625E4,1.354636E5,8.1909883E3,2.7657E4,3.3128E4,2.1233828E4,1.8999062E3,2.4057344E3,9.924768E2,6.4283906E3,7.2298364E2,4.76635E4,0E0,0E0,9.8184375E2,5.020547E2,8.993172E3,4.0829219E3,9.7151953E2,3.5636875E3,0E0,1.2475189E1,0E0,2.7417188E2,3.9425195E2,2.5040527E1,2.638401E2,6.290125E3,1.6840938E4,0E0,3.5071836E4,1.6015312E3,0E0,4.2486953E3,1.0380312E3,0E0,0E0,0E0,0E0,8.332656E2,0E0,0E0,0E0,7.953027E1,1.4691797E2,8.436523E0,0E0,0E0,0E0,2.8207E1,2.9344482E0,0E0,0E0,0E0,0E0,0E0,0E0,0E0,0E0,5.3045703E2,1.5062598E3,2.8538027E3,0E0,0E0,0E0,0E0,0E0,0E0,0E0,2.8017578E0,1.5829688E2,4.014862E0,0E0,0E0,0E0,0E0,0E0,8.4620703E2,1.1600684E3,0E0,0E0,0E0,0E0,0E0,0E0,0E0,0E0,7.8995605E1,2.0662646E2,0E0,0E0,0E0,0E0,5.939258E1,1.1063477E1,2.6019104E1,1.80073E2,4.9256348E1,1.3842651E1,0E0,0E0,0E0,0E0,0E0,9.365576E1,0E0,0E0,0E0,0E0],"parents":[2147483647,0,0,1,1,2,2,3,3,4,4,5,5,6,6,7,7,8,8,9,9,10,10,11,11,12,12,13,13,14,14,15,15,18,18,19,19,20,20,21,21,22,22,23,23,25,25,27,27,28,28,29,29,30,30,31,31,32,32,34,34,35,35,37,37,38,38,43,43,47,47,48,48,49,49,53,53,54,54,63,63,64,64,65,65,73,73,74,74,75,75,81,81,82,82,91,91,92,92,97,97,98,98,99,99,100,100,101,101,102,102,108,108],"right_children":[2,4,6,8,10,12,14,16,18,20,22,24,26,28,30,32,-1,-1,34,36,38,40,42,44,-1,46,-1,48,50,52,54,56,58,-1,60,62,-1,64,66,-1,-1,-1,-1,68,-1,-1,-1,70,72,74,-1,-1,-1,76,78,-1,-1,-1,-1,-1,-1,-1,-1,80,82,84,-1,-1,-1,-1,-1,-1,-1,86,88,90,-1,-1,-1,-1,-1,92,94,-1,-1,-1,-1,-1,-1,-1,-1,96,98,-1,-1,-1,-1,100,102,104,106,108,110,-1,-1,-1,-1,-1,112,-1,-1,-1,-1],"split_conditions":[3.33E2,1.4E1,3.34E2,1E1,2.2E1,1.6E1,1.4E1,5E0,1.2E1,1.5E1,3.29E2,1.3E1,2.1E1,3.35E2,1.7E1,2E0,2.7414267E1,3.587837E1,3.26E2,5E0,2.1E1,3.19E2,3.3E2,7E0,1.0863282E1,1.8E1,2.960538E0,8E0,9E0,3.35E2,2E1,3.32E2,3.27E2,2.708664E1,3.3E2,3.2E2,7.4878044E0,1.7E1,5E0,8.713305E0,2.168794E1,6.1062317E0,1.4636164E1,4E0,3.1607761E1,1.2571303E0,7.261414E-1,5E0,1.1E1,5E0,2.5642915E0,1.7861817E0,1.2725698E0,1.9E1,3.35E2,2.7586939E1,1.7501904E1,1.8200119E1,9.883979E0,8.059085E0,2.8949661E1,7.5301027E0,1.766861E1,3.27E2,2E1,4E0,1.6917572E1,2.0344454E1,9.069327E0,3.768926E0,2.6463277E0,5.3443103E0,3.6103857E0,1E0,6E0,3.35E2,2.2123992E-1,7.769598E-1,1.0067852E0,9.332584E0,5.6369433E0,1E0,3.26E2,1.1137975E1,2.7761178E0,1.5473014E0,1.9186716E0,1.1860707E0,1.8974516E0,3.6805174E-1,5.2520424E-1,3.25E2,3E0,8.334089E0,3.6000867E0,6.522303E0,1.6667442E0,1.9E1,5E0,3.2E2,2E0,3.21E2,6E0,1.4024667E0,2.7998278E-1,3.1198587E0,5.384153E-1,1.7328142E0,3.28E2,1.4830782E0,3.1389759E0,5.220068E0,1.8552926E0],"split_indices":[0,1,0,1,1,1,1,2,1,1,0,1,1,0,1,2,0,0,0,2,1,0,0,1,0,1,0,1,1,0,1,0,0,0,0,0,0,1,2,0,0,0,0,1,0,0,0,1,1,1,0,0,0,1,0,0,0,0,0,0,0,0,0,0,1,2,0,0,0,0,0,0,0,1,1,0,0,0,0,0,0,2,0,0,0,0,0,0,0,0,0,0,2,0,0,0,0,1,2,0,2,0,2,0,0,0,0,0,0,0,0,0,0],"split_type":[0,0,0,0,0,0,0,0,0,0,0,0,0,0,0,0,0,0,0,0,0,0,0,0,0,0,0,0,0,0,0,0,0,0,0,0,0,0,0,0,0,0,0,0,0,0,0,0,0,0,0,0,0,0,0,0,0,0,0,0,0,0,0,0,0,0,0,0,0,0,0,0,0,0,0,0,0,0,0,0,0,0,0,0,0,0,0,0,0,0,0,0,0,0,0,0,0,0,0,0,0,0,0,0,0,0,0,0,0,0,0,0,0],"sum_hessian":[9.04E2,3.27E2,5.77E2,1.93E2,1.34E2,5.6E1,5.21E2,1.37E2,5.6E1,1.03E2,3.1E1,1.7E1,3.9E1,3.1E2,2.11E2,9.8E1,3.9E1,2.8E1,2.8E1,1.7E1,8.6E1,2.2E1,9E0,1.4E1,3E0,2.2E1,1.7E1,8.3E1,2.27E2,5.1E1,1.6E2,4.1E1,5.7E1,1.4E1,1.4E1,1.4E1,3E0,7.2E1,1.4E1,3E0,1.9E1,3E0,6E0,9E0,5E0,5E0,1.7E1,5E1,3.3E1,1.94E2,3.3E1,1.7E1,3.4E1,9.2E1,6.8E1,3E1,1.1E1,3.8E1,1.9E1,8E0,6E0,3E0,1.1E1,2.6E1,4.6E1,1.1E1,3E0,6E0,3E0,3.3E1,1.7E1,1.6E1,1.7E1,1.27E2,6.7E1,5.9E1,3.3E1,3.4E1,3.4E1,1.7E1,9E0,3.2E1,1.4E1,8E0,3E0,3.3E1,9.4E1,3.4E1,3.3E1,2.6E1,3.3E1,6E0,2.6E1,8E0,6E0,5E0,1E0,1E1,1.6E1,4E0,6E0,9E0,7E0,2E0,2E0,4E0,2E0,2E0,7E0,4E0,3E0,5E0,2E0],"tree_param":{"num_deleted":"0","num_feature":"6","num_nodes":"113","size_leaf_vector":"1"}},{"base_weights":[3.459936E1,7.782252E1,1.0011478E1,9.982196E1,4.5632046E1,3.543146E1,7.216554E0,8.969333E1,1.2259264E2,3.5838673E1,7.603451E1,9.550208E1,7.513897E0,9.849934E0,3.3193967E0,8.044427E1,2.2068485E1,1.4475066E2,9.62073E1,6.2281464E1,2.9955814E1,2.2385777E1,6.846168E1,1.0229078E2,9.23379E0,3.671156E0,2.4013255E0,1.5974291E1,7.55039E0,5.958146E0,2.4465125E0,1.0252287E2,6.3069336E1,1.3363156E1,3.023466E1,8.241158E1,2.5558437E1,7.43302E1,4.1973816E1,2.5469288E1,4.979319E1,9.091437E0,1.7380413E1,7.441677E1,2.6339802E1,1.0476085E0,5.8898145E-1,1.391225E1,1.8597519E1,7.026569E0,2.0665169E0,1.4487917E0,1.0253277E0,1.5309728E0,3.645044E0,2.2247532E1,1.4293222E1,7.326716E1,4.0030117E1,2.1111404E1,5.239851E1,6.4005866E0,1.7579721E1,-1.6753845E-1,1.0865069E1,3.8600384E1,2.169919E1,3.8274925E1,1.4379938E1,1.6856833E1,7.7089267E0,3.0373104E0,2.1464665E0,4.338323E0,2.9284246E0,1.4734285E0,6.2821584E0,1.8678435E0,1.7829333E-1,6.260075E-1,8.1118137E-1,1.7180935E1,5.9597046E1,1.0089765E1,3.196147E1,1.5364055E1,4.796014E0,5.997024E0,1.0959217E1,1.9277521E1,2.7517584E1,9.157891E0,2.3596992E0,9.5563394E-1,1.5291226E0,2.9716775E-1,4.232528E-1,9.065618E0,1.3949054E1,1.7684181E1,8.742489E0,2.4120174E1,1.4035192E1,8.94576E0,3.8974762E0,2.0435843E0,5.344395E0,1.8432263E0,5.826637E0,1.8227564E1,8.323855E0,1.9288975E0,4.1941314E0,4.25567E-1,1.1155887E1,2.5381594E0,8.734874E-1],"categories":[],"categories_nodes":[],"categories_segments":[],"categories_sizes":[],"default_left":[0,0,0,0,0,0,0,0,0,0,0,0,0,0,0,0,0,0,0,0,0,0,0,0,0,0,0,0,0,0,0,0,0,0,0,0,0,0,0,0,0,0,0,0,0,0,0,0,0,0,0,0,0,0,0,0,0,0,0,0,0,0,0,0,0,0,0,0,0,0,0,0,0,0,0,0,0,0,0,0,0,0,0,0,0,0,0,0,0,0,0,0,0,0,0,0,0,0,0,0,0,0,0,0,0,0,0,0,0,0,0,0,0,0,0,0,0],"id":8,"left_children":[1,3,5,7,9,11,13,15,17,19,21,23,25,27,29,31,-1,33,35,37,39,-1,41,43,-1,45,-1,47,49,51,53,55,57,-1,-1,59,-1,61,63,65,67,-1,-1,69,-1,-1,-1,71,73,75,-1,-1,-1,77,79,-1,-1,81,83,-1,85,-1,-1,-1,-1,87,89,91,-1,-1,-1,-1,-1,-1,-1,-1,93,95,-1,-1,-1,-1,97,-1,99,-1,-1,-1,-1,101,103,-1,-1,-1,-1,-1,-1,-1,-1,105,-1,107,109,-1,-1,-1,-1,-1,-1,111,113,-1,-1,-1,115,-1,-1],"loss_changes":[9.61024E5,2.2772525E5,4.080943E4,3.374775E4,3.747028E4,9.487287E4,5.3244316E3,1.74795E4,1.9398812E4,1.4312453E4,1.0354531E3,1.3056562E3,6.464978E2,4.2592715E3,4.7372754E2,3.151175E4,0E0,4.415125E3,2.1047812E3,1.2843438E3,6.4748906E3,0E0,8.3518125E3,2.4952656E3,0E0,1.0747314E1,0E0,1.9564258E2,2.596787E2,1.8459473E1,1.7108539E2,3.4177188E3,1.06941875E4,0E0,0E0,1.0446297E4,0E0,2.930125E3,4.8045967E3,2.7763047E3,1.0674727E3,0E0,0E0,2.909453E2,0E0,0E0,0E0,4.367285E1,9.8493164E1,3.15625E0,0E0,0E0,0E0,1.836995E1,1.9050293E0,0E0,0E0,1.6178281E3,6.888086E1,0E0,6.4861836E3,0E0,0E0,0E0,0E0,4.4988672E2,3.0085352E2,1.84725E3,0E0,0E0,0E0,0E0,0E0,0E0,0E0,0E0,1.0291016E2,2.5494385E0,0E0,0E0,0E0,0E0,2.428125E1,0E0,1.5757891E3,0E0,0E0,0E0,0E0,8.03875E2,1.2014951E3,0E0,0E0,0E0,0E0,0E0,0E0,0E0,0E0,2.6678516E2,0E0,1.3752148E3,4.229336E2,0E0,0E0,0E0,0E0,0E0,0E0,1.0382324E2,1.8682996E2,0E0,0E0,0E0,2.793103E1,0E0,0E0],"parents":[2147483647,0,0,1,1,2,2,3,3,4,4,5,5,6,6,7,7,8,8,9,9,10,10,11,11,12,12,13,13,14,14,15,15,17,17,18,18,19,19,20,20,22,22,23,23,25,25,27,27,28,28,29,29,30,30,31,31,32,32,35,35,37,37,38,38,39,39,40,40,43,43,47,47,48,48,49,49,53,53,54,54,57,57,58,58,60,60,65,65,66,66,67,67,76,76,77,77,82,82,84,84,89,89,90,90,99,99,101,101,102,102,109,109,110,110,114,114],"right_children":[2,4,6,8,10,12,14,16,18,20,22,24,26,28,30,32,-1,34,36,38,40,-1,42,44,-1,46,-1,48,50,52,54,56,58,-1,-1,60,-1,62,64,66,68,-1,-1,70,-1,-1,-1,72,74,76,-1,-1,-1,78,80,-1,-1,82,84,-1,86,-1,-1,-1,-1,88,90,92,-1,-1,-1,-1,-1,-1,-1,-1,94,96,-1,-1,-1,-1,98,-1,100,-1,-1,-1,-1,102,104,-1,-1,-1,-1,-1,-1,-1,-1,106,-1,108,110,-1,-1,-1,-1,-1,-1,112,114,-1,-1,-1,116,-1,-1],"split_conditions":[3.33E2,1.4E1,3.34E2,1E1,2.2E1,1.6E1,1.4E1,5E0,1.2E1,1.5E1,1E0,1.3E1,2.1E1,3.35E2,1.7E1,2E0,2.2068485E1,3.21E2,6E0,3.25E2,2.1E1,2.2385777E1,2.3E1,7E0,9.23379E0,1.8E1,2.4013255E0,8E0,9E0,3.35E2,2E1,3.32E2,3.27E2,1.3363156E1,3.023466E1,3.26E2,2.5558437E1,3.2E2,3.28E2,1.6E1,5E0,9.091437E0,1.7380413E1,4E0,2.6339802E1,1.0476085E0,5.8898145E-1,5E0,1.1E1,5E0,2.0665169E0,1.4487917E0,1.0253277E0,1.9E1,3.35E2,2.2247532E1,1.4293222E1,4E0,2E0,2.1111404E1,3E0,6.4005866E0,1.7579721E1,-1.6753845E-1,1.0865069E1,5E0,2E1,4E0,1.4379938E1,1.6856833E1,7.7089267E0,3.0373104E0,2.1464665E0,4.338323E0,2.9284246E0,1.4734285E0,6E0,3.35E2,1.7829333E-1,6.260075E-1,8.1118137E-1,1.7180935E1,7E0,1.0089765E1,7E0,1.5364055E1,4.796014E0,5.997024E0,1.0959217E1,1.8E1,2E0,9.157891E0,2.3596992E0,9.5563394E-1,1.5291226E0,2.9716775E-1,4.232528E-1,9.065618E0,1.3949054E1,3.28E2,8.742489E0,3.23E2,3.25E2,8.94576E0,3.8974762E0,2.0435843E0,5.344395E0,1.8432263E0,5.826637E0,1.9E1,3.27E2,1.9288975E0,4.1941314E0,4.25567E-1,5E0,2.5381594E0,8.734874E-1],"split_indices":[0,1,0,1,1,1,1,2,1,1,2,1,1,0,1,2,0,0,2,0,1,0,1,1,0,1,0,1,1,0,1,0,0,0,0,0,0,0,0,1,2,0,0,1,0,0,0,1,1,1,0,0,0,1,0,0,0,1,1,0,2,0,0,0,0,2,1,2,0,0,0,0,0,0,0,0,1,0,0,0,0,0,1,0,1,0,0,0,0,1,2,0,0,0,0,0,0,0,0,0,0,0,0,0,0,0,0,0,0,1,0,0,0,0,2,0,0],"split_type":[0,0,0,0,0,0,0,0,0,0,0,0,0,0,0,0,0,0,0,0,0,0,0,0,0,0,0,0,0,0,0,0,0,0,0,0,0,0,0,0,0,0,0,0,0,0,0,0,0,0,0,0,0,0,0,0,0,0,0,0,0,0,0,0,0,0,0,0,0,0,0,0,0,0,0,0,0,0,0,0,0,0,0,0,0,0,0,0,0,0,0,0,0,0,0,0,0,0,0,0,0,0,0,0,0,0,0,0,0,0,0,0,0,0,0,0,0],"sum_hessian":[9.04E2,3.27E2,5.77E2,1.93E2,1.34E2,5.6E1,5.21E2,1.37E2,5.6E1,1.03E2,3.1E1,1.7E1,3.9E1,3.1E2,2.11E2,9.8E1,3.9E1,2.8E1,2.8E1,1.7E1,8.6E1,3E0,2.8E1,1.4E1,3E0,2.2E1,1.7E1,8.3E1,2.27E2,5.1E1,1.6E2,4.1E1,5.7E1,3E0,2.5E1,2.2E1,6E0,9E0,8E0,7.2E1,1.4E1,1.4E1,1.4E1,9E0,5E0,5E0,1.7E1,5E1,3.3E1,1.94E2,3.3E1,1.7E1,3.4E1,9.2E1,6.8E1,3E1,1.1E1,3.8E1,1.9E1,1.1E1,1.1E1,3E0,6E0,2E0,6E0,1.4E1,5.8E1,1.1E1,3E0,6E0,3E0,3.3E1,1.7E1,1.6E1,1.7E1,1.27E2,6.7E1,5.9E1,3.3E1,3.4E1,3.4E1,1.7E1,2.1E1,6E0,1.3E1,5E0,6E0,1.1E1,3E0,4.4E1,1.4E1,8E0,3E0,3.4E1,3.3E1,2.6E1,3.3E1,1.1E1,1E1,7E0,6E0,2.1E1,2.3E1,3E0,1.1E1,5E0,2E0,6E0,1.5E1,1.2E1,1.1E1,4E0,8E0,4E0,7E0,5E0,2E0],"tree_param":{"num_deleted":"0","num_feature":"6","num_nodes":"117","size_leaf_vector":"1"}},{"base_weights":[2.820963E1,6.3454098E1,8.160502E0,8.1071236E1,3.7667583E1,2.9471085E1,5.8178515E0,7.12088E1,9.715394E1,2.7404078E1,5.6929497E1,7.974274E1,6.112066E0,7.9393535E0,2.678206E0,8.667029E1,5.720124E1,8.637308E1,1.1589776E2,4.4115368E1,1.787585E1,6.738744E1,4.5449326E1,8.522632E1,7.8487206E0,3.0080812E0,1.9477417E0,1.2927653E1,6.0667367E0,4.814096E0,1.9717185E0,7.823105E1,2.370233E1,6.9934525E1,4.0690838E1,1.0142625E2,6.3288452E1,2.6926405E1,5.3843452E1,5.5580288E1,3.0729834E1,1.5813799E1,2.2870285E1,7.7833343E0,1.7574007E1,3.491241E1,1.3511354E1,6.1989986E1,2.1949831E1,8.73007E-1,4.7772953E-1,1.1231443E1,1.5091743E1,1.128311E0,1.6653696E0,1.1751311E0,8.2612115E-1,1.2344418E0,2.936864E0,1.983712E1,6.465422E1,3.1962543E1,7.772924E1,3.21284E1,4.9404804E1,1.43460455E1,1.1921513E2,7.585379E1,5.105297E0,1.5446281E1,3.3989275E0,5.519026E0,1.3922374E1,4.3145385E0,1.1019475E1,1.9644772E1,1.1643165E1,7.6038957E0,3.1829393E0,8.4106045E0,3.3327584E0,1.6046154E1,8.542194E0,2.6932213E0,1.9650275E0,3.5216973E0,2.3752782E0,1.5062816E0,1.4368346E-1,5.0438327E-1,6.5358025E-1,1.5191444E1,3.948611E1,2.8249328E0,7.110879E0,6.416176E1,9.273365E1,3.5424873E1,2.1820786E0,6.5671563E0,1.1545421E1,2.7537003E1,1.020888E1,6.7006044E0,1.6609976E1,1.5272444E0,2.3670713E1,1.5053056E1,6.9788527E0,2.3993543E-1,3.4109187E-1,8.934391E0,1.8075846E0,6.18535E0,1.36920805E1,2.1097952E1,8.169799E0,8.785738E0,2.5929714E1,5.0189204E0,1.8271316E0,1.5508919E0,1.7435268E1,3.574762E-1,9.351166E0,1.4963123E1,9.306144E0,1.4558704E0,3.8594105E0,2.115133E0,7.570226E-1,4.6318097E0,1.6742615E0],"categories":[],"categories_nodes":[],"categories_segments":[],"categories_sizes":[],"default_left":[0,0,0,0,0,0,0,0,0,0,0,0,0,0,0,0,0,0,0,0,0,0,0,0,0,0,0,0,0,0,0,0,0,0,0,0,0,0,0,0,0,0,0,0,0,0,0,0,0,0,0,0,0,0,0,0,0,0,0,0,0,0,0,0,0,0,0,0,0,0,0,0,0,0,0,0,0,0,0,0,0,0,0,0,0,0,0,0,0,0,0,0,0,0,0,0,0,0,0,0,0,0,0,0,0,0,0,0,0,0,0,0,0,0,0,0,0,0,0,0,0,0,0,0,0,0,0,0,0,0,0,0,0],"id":9,"left_children":[1,3,5,7,9,11,13,15,17,19,21,23,25,27,29,31,33,35,37,39,41,43,45,47,-1,49,-1,51,53,55,57,59,-1,61,63,65,67,-1,69,71,73,75,77,-1,-1,79,-1,81,-1,-1,-1,83,85,-1,-1,-1,-1,87,89,-1,91,93,95,97,99,-1,101,103,-1,-1,-1,-1,-1,-1,-1,105,107,-1,-1,-1,-1,-1,-1,-1,-1,-1,-1,109,-1,-1,-1,-1,111,-1,-1,113,115,117,-1,-1,-1,-1,-1,-1,-1,-1,119,121,123,-1,-1,-1,-1,-1,-1,-1,-1,-1,125,-1,-1,-1,127,-1,129,131,-1,-1,-1,-1,-1,-1,-1],"loss_changes":[6.3897406E5,1.4595162E5,2.868418E4,2.3853125E4,2.5128688E4,6.64475E4,3.4556562E3,2.1897938E4,4.336875E3,1.3542008E4,2.4600156E3,6.528594E2,4.2098706E2,2.8266758E3,3.1041162E2,6.0455938E3,1.14500625E4,1.060825E4,1.9489375E4,3.202875E3,2.4596289E2,9.409797E3,3.465039E3,1.7439688E3,0E0,8.905945E0,0E0,1.3884082E2,1.7212207E2,1.3459351E1,1.1093878E2,7.2430625E3,0E0,8.466844E3,8.003086E2,6.2399062E3,8.502531E3,0E0,4.720211E3,4.361867E3,2.6047314E3,4.9026465E2,9.755049E2,0E0,0E0,1.7750566E3,0E0,8.991016E1,0E0,0E0,0E0,2.7967773E1,6.6010254E1,0E0,0E0,0E0,0E0,1.1963547E1,1.2366943E0,0E0,6.1039375E3,1.0374023E1,1.5721875E2,9.424492E2,3.498047E1,0E0,1.3117625E4,2.0937422E3,0E0,0E0,0E0,0E0,0E0,0E0,0E0,8.828506E2,2.7666187E2,0E0,0E0,0E0,0E0,0E0,0E0,0E0,0E0,0E0,0E0,1.6181183E0,0E0,0E0,0E0,0E0,1.4910527E3,0E0,0E0,5.971797E2,3.6330078E3,1.5286328E2,0E0,0E0,0E0,0E0,0E0,0E0,0E0,0E0,1.0188574E2,9.082764E1,1.310755E2,0E0,0E0,0E0,0E0,0E0,0E0,0E0,0E0,0E0,1.5629829E3,0E0,0E0,0E0,2.970288E1,0E0,1.4494934E1,2.3833667E2,0E0,0E0,0E0,0E0,0E0,0E0,0E0],"parents":[2147483647,0,0,1,1,2,2,3,3,4,4,5,5,6,6,7,7,8,8,9,9,10,10,11,11,12,12,13,13,14,14,15,15,16,16,17,17,18,18,19,19,20,20,21,21,22,22,23,23,25,25,27,27,28,28,29,29,30,30,31,31,33,33,34,34,35,35,36,36,38,38,39,39,40,40,41,41,42,42,45,45,47,47,51,51,52,52,57,57,58,58,60,60,61,61,62,62,63,63,64,64,66,66,67,67,75,75,76,76,87,87,92,92,95,95,96,96,97,97,106,106,107,107,108,108,118,118,122,122,124,124,125,125],"right_children":[2,4,6,8,10,12,14,16,18,20,22,24,26,28,30,32,34,36,38,40,42,44,46,48,-1,50,-1,52,54,56,58,60,-1,62,64,66,68,-1,70,72,74,76,78,-1,-1,80,-1,82,-1,-1,-1,84,86,-1,-1,-1,-1,88,90,-1,92,94,96,98,100,-1,102,104,-1,-1,-1,-1,-1,-1,-1,106,108,-1,-1,-1,-1,-1,-1,-1,-1,-1,-1,110,-1,-1,-1,-1,112,-1,-1,114,116,118,-1,-1,-1,-1,-1,-1,-1,-1,120,122,124,-1,-1,-1,-1,-1,-1,-1,-1,-1,126,-1,-1,-1,128,-1,130,132,-1,-1,-1,-1,-1,-1,-1],"split_conditions":[3.33E2,1.4E1,3.34E2,9E0,2.1E1,1.6E1,1.4E1,4E0,5E0,1.6E1,3.26E2,1.3E1,2.1E1,3.35E2,1.7E1,6E0,3.26E2,3.27E2,1.3E1,3.25E2,2E1,3.22E2,2.3E1,7E0,7.8487206E0,1.8E1,1.9477417E0,8E0,9E0,3.35E2,2E1,2E0,2.370233E1,3.21E2,7E0,3.21E2,4E0,2.6926405E1,3.24E2,3.21E2,3.32E2,1.8E1,2E0,7.7833343E0,1.7574007E1,4E0,1.3511354E1,2E0,2.1949831E1,8.73007E-1,4.7772953E-1,3E0,1.1E1,1.128311E0,1.6653696E0,1.1751311E0,8.2612115E-1,1.9E1,3.35E2,1.983712E1,3.27E2,3.2E2,7E0,3.32E2,3.29E2,1.43460455E1,1.2E1,1E1,5.105297E0,1.5446281E1,3.3989275E0,5.519026E0,1.3922374E1,4.3145385E0,1.1019475E1,3.23E2,3.25E2,7.6038957E0,3.1829393E0,8.4106045E0,3.3327584E0,1.6046154E1,8.542194E0,2.6932213E0,1.9650275E0,3.5216973E0,2.3752782E0,3.35E2,1.4368346E-1,5.0438327E-1,6.5358025E-1,1.5191444E1,3E0,2.8249328E0,7.110879E0,3.22E2,3.25E2,3E0,2.1820786E0,6.5671563E0,1.1545421E1,2.7537003E1,1.020888E1,6.7006044E0,1.6609976E1,1.5272444E0,3.31E2,3.21E2,3.27E2,2.3993543E-1,3.4109187E-1,8.934391E0,1.8075846E0,6.18535E0,1.36920805E1,2.1097952E1,8.169799E0,8.785738E0,3.3E2,5.0189204E0,1.8271316E0,1.5508919E0,1.9E1,3.574762E-1,5E0,5E0,9.306144E0,1.4558704E0,3.8594105E0,2.115133E0,7.570226E-1,4.6318097E0,1.6742615E0],"split_indices":[0,1,0,1,1,1,1,1,2,1,0,1,1,0,1,2,0,0,1,0,1,0,1,1,0,1,0,1,1,0,1,2,0,0,1,0,2,0,0,0,0,1,2,0,0,2,0,1,0,0,0,1,1,0,0,0,0,1,0,0,0,0,1,0,0,0,1,1,0,0,0,0,0,0,0,0,0,0,0,0,0,0,0,0,0,0,0,0,0,0,0,0,1,0,0,0,0,2,0,0,0,0,0,0,0,0,0,0,0,0,0,0,0,0,0,0,0,0,0,0,0,0,1,0,2,1,0,0,0,0,0,0,0],"split_type":[0,0,0,0,0,0,0,0,0,0,0,0,0,0,0,0,0,0,0,0,0,0,0,0,0,0,0,0,0,0,0,0,0,0,0,0,0,0,0,0,0,0,0,0,0,0,0,0,0,0,0,0,0,0,0,0,0,0,0,0,0,0,0,0,0,0,0,0,0,0,0,0,0,0,0,0,0,0,0,0,0,0,0,0,0,0,0,0,0,0,0,0,0,0,0,0,0,0,0,0,0,0,0,0,0,0,0,0,0,0,0,0,0,0,0,0,0,0,0,0,0,0,0,0,0,0,0,0,0,0,0,0,0],"sum_hessian":[9.04E2,3.27E2,5.77E2,1.93E2,1.34E2,5.6E1,5.21E2,1.23E2,7E1,8.9E1,4.5E1,1.7E1,3.9E1,3.1E2,2.11E2,5.6E1,6.7E1,4.8E1,2.2E1,3.1E1,5.8E1,2.1E1,2.4E1,1.4E1,3E0,2.2E1,1.7E1,8.3E1,2.27E2,5.1E1,1.6E2,4.7E1,9E0,3.6E1,3.1E1,2.7E1,2.1E1,1.6E1,6E0,1.5E1,1.6E1,4.4E1,1.4E1,1E1,1.1E1,1.8E1,6E0,9E0,5E0,5E0,1.7E1,5E1,3.3E1,1.94E2,3.3E1,1.7E1,3.4E1,9.2E1,6.8E1,1.6E1,3.1E1,7E0,2.9E1,1.8E1,1.3E1,1.2E1,1.5E1,1.5E1,6E0,3E0,3E0,6E0,9E0,1.3E1,3E0,2.1E1,2.3E1,3E0,1.1E1,1.2E1,6E0,3E0,6E0,1.6E1,3.4E1,1.6E1,1.7E1,5.9E1,3.3E1,3.4E1,3.4E1,2E1,1.1E1,2E0,5E0,1.8E1,1.1E1,1.5E1,3E0,6E0,7E0,1.1E1,4E0,3E0,1.2E1,6E0,1.5E1,1.2E1,1.1E1,2.6E1,3.3E1,9E0,2E0,3E0,1.5E1,8E0,3E0,6E0,9E0,1.3E1,2E0,4E0,8E0,4E0,7E0,7E0,2E0,2E0,6E0,5E0,2E0,2E0,5E0],"tree_param":{"num_deleted":"0","num_feature":"6","num_nodes":"133","size_leaf_vector":"1"}},{"base_weights":[2.3108131E1,5.202599E1,6.658018E0,6.640094E1,3.0983278E1,2.4588888E1,4.6872945E0,5.908735E1,8.2942604E1,2.4344135E1,5.1592266E1,6.6815674E1,4.972114E0,6.394405E0,2.1608853E0,7.055505E1,5.0395317E1,9.789796E1,6.512716E1,4.315603E1,2.0172201E1,1.639181E1,4.56247E1,7.128359E1,6.671412E0,2.4651926E0,1.5798348E0,1.0467781E1,4.865642E0,3.8897629E0,1.5890685E0,6.353839E1,1.943591E1,6.232537E1,3.4941425E1,8.180718E1,2.918894E1,5.541787E1,1.754505E1,5.185307E1,2.8697536E1,1.7264606E1,3.2977676E1,6.069322E0,1.1572228E1,5.205082E1,1.8291521E1,7.275061E-1,3.8749167E-1,9.076493E0,1.2246837E1,4.5190296E0,1.3420917E0,9.531619E-1,6.6561776E-1,9.9534583E-1,2.3662734E0,1.8080576E1,5.5905422E1,5.898473E0,7.086359E1,2.710167E1,8.128425E0,1.02121155E2,5.6762966E1,1.41197605E1,3.5618782E1,4.612644E0,1.2179366E1,-7.204722E-1,3.84407E1,2.5821352E1,1.4796543E1,2.524402E1,9.586844E0,1.1859516E1,5.271257E0,1.997733E0,1.3698505E0,2.8587892E0,1.9266151E0,4.7857304E0,3.950549E0,1.2147088E0,1.1579197E-1,4.0638882E-1,5.2659905E-1,6.3933533E1,4.254142E1,5.600552E1,1.9637957E1,5.9729548E0,1.8547684E0,9.206772E0,2.314041E1,1.2913096E1,4.613187E0,1.0461789E1,3.2449062E0,4.087692E0,9.366554E0,6.0881596E0,2.7637434E0,1.697415E1,1.13798065E1,6.7018723E0,2.2787573E0,7.4189943E-1,1.0241065E0,5.5075294E-1,1.013268E0,1.9372556E-1,2.7487987E-1,8.762578E0,1.4747748E1,9.278087E0,1.566573E0,5.2575455E0,1.1772611E1,1.1771388E1,2.2091545E1,3.0145824E0,8.129559E0,1.3301581E0,1.48908415E1,1.7246037E1,6.4633117E0,3.6222103E-1,1.7805662E0,1.1334468E0,3.2621677E0,4.038633E0,1.3824591E-1],"categories":[],"categories_nodes":[],"categories_segments":[],"categories_sizes":[],"default_left":[0,0,0,0,0,0,0,0,0,0,0,0,0,0,0,0,0,0,0,0,0,0,0,0,0,0,0,0,0,0,0,0,0,0,0,0,0,0,0,0,0,0,0,0,0,0,0,0,0,0,0,0,0,0,0,0,0,0,0,0,0,0,0,0,0,0,0,0,0,0,0,0,0,0,0,0,0,0,0,0,0,0,0,0,0,0,0,0,0,0,0,0,0,0,0,0,0,0,0,0,0,0,0,0,0,0,0,0,0,0,0,0,0,0,0,0,0,0,0,0,0,0,0,0,0,0,0,0,0,0,0,0,0],"id":10,"left_children":[1,3,5,7,9,11,13,15,17,19,21,23,25,27,29,31,33,35,37,39,41,-1,43,45,-1,47,-1,49,51,53,55,57,-1,59,61,63,-1,65,-1,67,69,71,73,-1,-1,75,-1,-1,-1,77,79,81,-1,-1,-1,83,85,-1,87,-1,89,91,-1,93,95,-1,97,-1,-1,-1,99,101,103,105,-1,-1,-1,-1,-1,-1,-1,107,109,111,-1,-1,-1,113,115,117,-1,-1,-1,-1,-1,-1,-1,-1,-1,-1,-1,-1,-1,119,121,-1,-1,-1,-1,-1,-1,-1,-1,-1,-1,-1,-1,-1,-1,123,125,-1,127,-1,129,131,-1,-1,-1,-1,-1,-1,-1],"loss_changes":[4.3016397E5,9.715875E4,2.0309408E4,1.8569E4,1.721554E4,4.688392E4,2.237495E3,1.0199906E4,8.8110625E3,7.291578E3,2.0595469E3,3.130078E2,2.740434E2,1.8857354E3,2.034024E2,4.4738438E3,1.2940266E4,1.04808125E4,1.5013828E3,7.753711E2,2.6699336E3,0E0,3.6656445E3,1.0595938E3,0E0,7.182144E0,0E0,9.6756836E1,1.1546631E2,9.725708E0,7.1937256E1,4.7886562E3,0E0,1.0525172E4,5.9683203E2,6.4132344E3,0E0,4.3984375E3,0E0,1.199209E3,2.9708066E3,1.1595898E3,5.2498047E2,0E0,0E0,2.991582E2,0E0,0E0,0E0,3.5197754E1,4.422754E1,1.0658936E1,0E0,0E0,0E0,7.791321E0,8.028259E-1,0E0,1.5716875E3,0E0,8.711328E3,6.5898145E2,0E0,3.8143672E3,1.9287227E3,0E0,3.0356309E3,0E0,0E0,0E0,1.003418E2,4.110293E2,2.4581543E2,9.919238E2,0E0,0E0,0E0,0E0,0E0,0E0,0E0,2.7126709E1,7.685303E1,1.026535E0,0E0,0E0,0E0,1.3068984E3,2.0413203E3,5.756094E2,0E0,0E0,0E0,0E0,0E0,0E0,0E0,0E0,0E0,0E0,0E0,0E0,0E0,6.451875E2,1.8955518E2,0E0,0E0,0E0,0E0,0E0,0E0,0E0,0E0,0E0,0E0,0E0,0E0,0E0,0E0,2.0445996E2,2.3539307E2,0E0,6.205017E1,0E0,5.1635254E1,6.2030054E2,0E0,0E0,0E0,0E0,0E0,0E0,0E0],"parents":[2147483647,0,0,1,1,2,2,3,3,4,4,5,5,6,6,7,7,8,8,9,9,10,10,11,11,12,12,13,13,14,14,15,15,16,16,17,17,18,18,19,19,20,20,22,22,23,23,25,25,27,27,28,28,29,29,30,30,31,31,33,33,34,34,35,35,37,37,39,39,40,40,41,41,42,42,45,45,49,49,50,50,51,51,55,55,56,56,58,58,60,60,61,61,63,63,64,64,66,66,70,70,71,71,72,72,73,73,81,81,82,82,83,83,87,87,88,88,89,89,103,103,104,104,119,119,120,120,122,122,124,124,125,125],"right_children":[2,4,6,8,10,12,14,16,18,20,22,24,26,28,30,32,34,36,38,40,42,-1,44,46,-1,48,-1,50,52,54,56,58,-1,60,62,64,-1,66,-1,68,70,72,74,-1,-1,76,-1,-1,-1,78,80,82,-1,-1,-1,84,86,-1,88,-1,90,92,-1,94,96,-1,98,-1,-1,-1,100,102,104,106,-1,-1,-1,-1,-1,-1,-1,108,110,112,-1,-1,-1,114,116,118,-1,-1,-1,-1,-1,-1,-1,-1,-1,-1,-1,-1,-1,120,122,-1,-1,-1,-1,-1,-1,-1,-1,-1,-1,-1,-1,-1,-1,124,126,-1,128,-1,130,132,-1,-1,-1,-1,-1,-1,-1],"split_conditions":[3.33E2,1.4E1,3.34E2,1E1,2.2E1,1.6E1,1.4E1,4E0,1.2E1,1.5E1,1E0,1.3E1,2.1E1,3.35E2,1.7E1,6E0,3.26E2,5E0,6E0,3.25E2,2.1E1,1.639181E1,2.3E1,7E0,6.671412E0,1.8E1,1.5798348E0,8E0,9E0,3.35E2,2E1,1E0,1.943591E1,3.21E2,7E0,3.27E2,2.918894E1,3.26E2,1.754505E1,3.2E2,3.28E2,1.6E1,5E0,6.069322E0,1.1572228E1,4E0,1.8291521E1,7.275061E-1,3.8749167E-1,5E0,1.1E1,5E0,1.3420917E0,9.531619E-1,6.6561776E-1,1.9E1,3.35E2,1.8080576E1,3.27E2,5.898473E0,8E0,3.32E2,8.128425E0,3.21E2,4E0,1.41197605E1,3E0,4.612644E0,1.2179366E1,-7.204722E-1,3.31E2,3.26E2,3.26E2,3E0,9.586844E0,1.1859516E1,5.271257E0,1.997733E0,1.3698505E0,2.8587892E0,1.9266151E0,1E0,6E0,3.35E2,1.1579197E-1,4.0638882E-1,5.2659905E-1,3.21E2,3E0,3.22E2,1.9637957E1,5.9729548E0,1.8547684E0,9.206772E0,2.314041E1,1.2913096E1,4.613187E0,1.0461789E1,3.2449062E0,4.087692E0,9.366554E0,6.0881596E0,2.7637434E0,3.23E2,1.8E1,6.7018723E0,2.2787573E0,7.4189943E-1,1.0241065E0,5.5075294E-1,1.013268E0,1.9372556E-1,2.7487987E-1,8.762578E0,1.4747748E1,9.278087E0,1.566573E0,5.2575455E0,1.1772611E1,1.9E1,2E1,3.0145824E0,3.27E2,1.3301581E0,3.19E2,3.25E2,6.4633117E0,3.6222103E-1,1.7805662E0,1.1334468E0,3.2621677E0,4.038633E0,1.3824591E-1],"split_indices":[0,1,0,1,1,1,1,1,1,1,2,1,1,0,1,2,0,2,2,0,1,0,1,1,0,1,0,1,1,0,1,2,0,0,1,0,0,0,0,0,0,1,2,0,0,1,0,0,0,1,1,1,0,0,0,1,0,0,0,0,1,0,0,0,2,0,2,0,0,0,0,0,0,2,0,0,0,0,0,0,0,1,1,0,0,0,0,0,1,0,0,0,0,0,0,0,0,0,0,0,0,0,0,0,1,0,0,0,0,0,0,0,0,0,0,0,0,0,0,1,1,0,0,0,0,0,0,0,0,0,0,0,0],"split_type":[0,0,0,0,0,0,0,0,0,0,0,0,0,0,0,0,0,0,0,0,0,0,0,0,0,0,0,0,0,0,0,0,0,0,0,0,0,0,0,0,0,0,0,0,0,0,0,0,0,0,0,0,0,0,0,0,0,0,0,0,0,0,0,0,0,0,0,0,0,0,0,0,0,0,0,0,0,0,0,0,0,0,0,0,0,0,0,0,0,0,0,0,0,0,0,0,0,0,0,0,0,0,0,0,0,0,0,0,0,0,0,0,0,0,0,0,0,0,0,0,0,0,0,0,0,0,0,0,0,0,0,0,0],"sum_hessian":[9.04E2,3.27E2,5.77E2,1.93E2,1.34E2,5.6E1,5.21E2,1.37E2,5.6E1,1.03E2,3.1E1,1.7E1,3.9E1,3.1E2,2.11E2,5.6E1,8.1E1,2.8E1,2.8E1,1.7E1,8.6E1,3E0,2.8E1,1.4E1,3E0,2.2E1,1.7E1,8.3E1,2.27E2,5.1E1,1.6E2,4.7E1,9E0,4.4E1,3.7E1,2.3E1,5E0,2.2E1,6E0,9E0,8E0,7.2E1,1.4E1,1.4E1,1.4E1,9E0,5E0,5E0,1.7E1,5E1,3.3E1,1.94E2,3.3E1,1.7E1,3.4E1,9.2E1,6.8E1,8E0,3.9E1,1E1,3.4E1,1.8E1,1.9E1,1.1E1,1.2E1,1.1E1,1.1E1,3E0,6E0,2E0,6E0,1.4E1,5.8E1,1.1E1,3E0,6E0,3E0,3.3E1,1.7E1,1.6E1,1.7E1,1.27E2,6.7E1,5.9E1,3.3E1,3.4E1,3.4E1,2.2E1,1.7E1,2.4E1,1E1,1.5E1,3E0,3E0,8E0,9E0,3E0,5E0,6E0,3E0,3E0,9E0,5E0,3.3E1,2.5E1,6E0,5E0,3.3E1,9.4E1,3.4E1,3.3E1,2.6E1,3.3E1,9E0,1.3E1,1.5E1,2E0,3E0,2.1E1,1.8E1,1.5E1,1E1,1.5E1,8E0,1E1,1.2E1,3E0,2E0,1.3E1,2E0,8E0,1E1,2E0],"tree_param":{"num_deleted":"0","num_feature":"6","num_nodes":"133","size_leaf_vector":"1"}},{"base_weights":[1.8959522E1,4.2740704E1,5.431518E0,5.4434303E1,2.5619967E1,2.0456875E1,3.7804132E0,4.8214767E1,6.853714E1,2.0229813E1,4.2337345E1,5.5791073E1,4.0450625E0,5.156763E0,1.7435014E0,5.7704952E1,4.1029945E1,8.104466E1,5.3666267E1,3.616515E1,1.670032E1,1.3933037E1,3.710808E1,5.9388355E1,5.6706996E0,2.0206323E0,1.2814218E0,8.471285E0,3.913006E0,3.1429408E0,1.2806795E0,5.1923126E1,1.5937444E1,5.080622E1,2.8373041E1,6.752383E1,1.2162057E2,4.5544147E1,1.4537326E1,4.3161667E1,2.4372896E1,1.4227784E1,2.761997E1,2.4681898E1,9.412078E0,4.335372E1,1.5242937E1,6.0625494E-1,3.1429887E-1,7.3272247E0,9.938219E0,3.6323016E0,1.0815681E0,7.7312E-1,5.3629786E-1,8.025607E-1,1.9065397E0,1.3399444E1,4.229242E1,2.413011E1,5.7738533E1,2.2093317E1,3.2920128E1,8.439254E1,4.6758564E1,9.744824E0,2.9177551E1,1.1531139E1,2.963725E1,3.9207482E0,1.0091477E1,-6.2440896E-1,3.26746E1,2.1247204E1,1.2202037E1,2.0943602E1,8.148817E0,5.3650517E0,2.4162698E0,1.1860303E1,5.6094623E0,1.8102179E0,1.256114E0,2.3206646E0,1.5626994E0,3.9258482E0,3.2886875E0,9.795773E-1,9.331474E-2,3.274332E-1,4.2428824E-1,5.000879E1,2.5264404E1,2.8762481E0,5.971459E0,4.5485622E1,1.6067421E1,2.4265121E1,1.5765533E0,4.624038E0,7.7672844E0,7.8257537E0,1.9026564E1,1.0588741E1,3.921213E0,3.3857458E0,1.0164423E1,3.4745376E0,7.961572E0,3.2072163E0,6.3137536E0,1.4060671E1,9.302207E0,5.55298E0,1.8989645E0,5.9788406E-1,8.684912E-1,2.8078773E0,8.165749E-1,1.5641545E-1,2.215209E-1,7.185315E0,1.1515315E1,5.6561475E0,1.3576986E0,4.468915E0,9.525111E0,1.7611757E1,6.483753E0,9.718469E0,1.8338245E1,2.4664767E0,6.6375723E0,4.437492E-1,6.844149E-1,6.6734986E0,7.532421E0,1.093686E0,1.2312276E1,1.4118127E1,5.493814E0,3.139249E-1,7.2494493E0,3.2178407E0,1.9986267E0,9.823207E-1,2.6822274E0,1.6521677E1,1.19813286E-1,1.8284134E0,9.3744546E-1,5.1710512E-2,7.305033E-1,4.1278663E0,9.650412E0,7.232694E-1,2.3526714E0],"categories":[],"categories_nodes":[],"categories_segments":[],"categories_sizes":[],"default_left":[0,0,0,0,0,0,0,0,0,0,0,0,0,0,0,0,0,0,0,0,0,0,0,0,0,0,0,0,0,0,0,0,0,0,0,0,0,0,0,0,0,0,0,0,0,0,0,0,0,0,0,0,0,0,0,0,0,0,0,0,0,0,0,0,0,0,0,0,0,0,0,0,0,0,0,0,0,0,0,0,0,0,0,0,0,0,0,0,0,0,0,0,0,0,0,0,0,0,0,0,0,0,0,0,0,0,0,0,0,0,0,0,0,0,0,0,0,0,0,0,0,0,0,0,0,0,0,0,0,0,0,0,0,0,0,0,0,0,0,0,0,0,0,0,0,0,0,0,0,0,0,0,0,0,0,0,0],"id":11,"left_children":[1,3,5,7,9,11,13,15,17,19,21,23,25,27,29,31,33,35,37,39,41,-1,43,45,-1,47,-1,49,51,53,55,57,-1,59,61,63,65,67,-1,69,71,73,75,77,-1,79,-1,-1,-1,81,83,85,-1,-1,-1,87,89,-1,91,93,95,97,99,101,103,-1,-1,-1,105,-1,-1,-1,107,109,111,113,-1,-1,-1,-1,-1,-1,-1,-1,-1,115,117,119,-1,-1,-1,121,123,-1,-1,125,-1,127,-1,-1,-1,-1,-1,-1,-1,-1,-1,-1,-1,-1,-1,129,131,-1,-1,-1,-1,133,-1,-1,-1,-1,-1,-1,-1,-1,-1,135,-1,137,139,-1,141,-1,-1,-1,143,-1,145,147,-1,-1,149,-1,151,-1,-1,153,-1,-1,-1,-1,-1,-1,155,-1,-1],"loss_changes":[2.9091716E5,6.4272E4,1.4261943E4,1.37118125E4,1.1308281E4,3.2828516E4,1.4544385E3,7.0419375E3,6.2525312E3,5.245367E3,1.9878047E3,9.274609E1,1.783255E2,1.2489365E3,1.3328546E2,3.1069531E3,8.7049375E3,7.6977188E3,1.1696406E3,4.3310938E2,1.9559609E3,0E0,2.4248633E3,7.428711E2,0E0,5.6764755E0,0E0,6.81543E1,7.602734E1,6.9749756E0,4.664679E1,4.134883E3,0E0,6.9284844E3,3.5775586E2,4.460711E3,3.5056953E3,2.7223555E3,0E0,7.2956836E2,2.1563057E3,7.7876953E2,4.6099316E2,8.102832E1,0E0,7.7778516E2,0E0,0E0,0E0,3.5172607E1,2.9625488E1,6.758301E0,0E0,0E0,0E0,5.0741577E0,5.2119446E-1,0E0,2.9411836E3,1.8478467E2,6.037258E3,3.951123E2,2.616797E2,2.1113203E3,1.1452324E3,0E0,0E0,0E0,2.3703857E3,0E0,0E0,0E0,7.249805E1,3.0056494E2,1.8719824E2,6.7352344E2,0E0,0E0,0E0,0E0,0E0,0E0,0E0,0E0,0E0,2.6030884E1,2.5193726E1,6.5089035E-1,0E0,0E0,0E0,1.6946094E2,4.7677002E2,0E0,0E0,1.7383594E2,0E0,2.9703516E2,0E0,0E0,0E0,0E0,0E0,0E0,0E0,0E0,0E0,0E0,0E0,0E0,0E0,4.5329932E2,1.280752E2,0E0,0E0,0E0,0E0,1.52034E1,0E0,0E0,0E0,0E0,0E0,0E0,0E0,0E0,0E0,1.4955427E3,0E0,1.4212305E2,2.2871875E2,0E0,3.823645E1,0E0,0E0,0E0,3.4665543E2,0E0,2.3585205E1,4.1252124E2,0E0,0E0,2.5039307E1,0E0,1.632298E1,0E0,0E0,1.1205005E2,0E0,0E0,0E0,0E0,0E0,0E0,3.395752E1,0E0,0E0],"parents":[2147483647,0,0,1,1,2,2,3,3,4,4,5,5,6,6,7,7,8,8,9,9,10,10,11,11,12,12,13,13,14,14,15,15,16,16,17,17,18,18,19,19,20,20,22,22,23,23,25,25,27,27,28,28,29,29,30,30,31,31,33,33,34,34,35,35,36,36,37,37,39,39,40,40,41,41,42,42,43,43,45,45,49,49,50,50,51,51,55,55,56,56,58,58,59,59,60,60,61,61,62,62,63,63,64,64,68,68,72,72,73,73,74,74,75,75,85,85,86,86,87,87,91,91,92,92,95,95,97,97,111,111,112,112,117,117,127,127,129,129,130,130,132,132,136,136,138,138,139,139,142,142,144,144,147,147,154,154],"right_children":[2,4,6,8,10,12,14,16,18,20,22,24,26,28,30,32,34,36,38,40,42,-1,44,46,-1,48,-1,50,52,54,56,58,-1,60,62,64,66,68,-1,70,72,74,76,78,-1,80,-1,-1,-1,82,84,86,-1,-1,-1,88,90,-1,92,94,96,98,100,102,104,-1,-1,-1,106,-1,-1,-1,108,110,112,114,-1,-1,-1,-1,-1,-1,-1,-1,-1,116,118,120,-1,-1,-1,122,124,-1,-1,126,-1,128,-1,-1,-1,-1,-1,-1,-1,-1,-1,-1,-1,-1,-1,130,132,-1,-1,-1,-1,134,-1,-1,-1,-1,-1,-1,-1,-1,-1,136,-1,138,140,-1,142,-1,-1,-1,144,-1,146,148,-1,-1,150,-1,152,-1,-1,154,-1,-1,-1,-1,-1,-1,156,-1,-1],"split_conditions":[3.33E2,1.4E1,3.34E2,1E1,2.2E1,1.6E1,1.4E1,4E0,1.2E1,1.5E1,1E0,1.3E1,2.1E1,3.35E2,1.7E1,6E0,3.26E2,5E0,6E0,3.25E2,2.1E1,1.3933037E1,2.3E1,7E0,5.6706996E0,1.8E1,1.2814218E0,8E0,9E0,3.35E2,2E1,2E0,1.5937444E1,3.21E2,7E0,3.27E2,3.24E2,3.26E2,1.4537326E1,3.2E2,3.28E2,1.6E1,5E0,5E0,9.412078E0,2E0,1.5242937E1,6.0625494E-1,3.1429887E-1,3E0,1.1E1,4E0,1.0815681E0,7.7312E-1,5.3629786E-1,1.9E1,3.35E2,1.3399444E1,3.27E2,7E0,8E0,3.32E2,3.29E2,3.21E2,4E0,9.744824E0,2.9177551E1,1.1531139E1,3.3E2,3.9207482E0,1.0091477E1,-6.2440896E-1,3.31E2,5E0,3.26E2,3E0,8.148817E0,5.3650517E0,2.4162698E0,1.1860303E1,5.6094623E0,1.8102179E0,1.256114E0,2.3206646E0,1.5626994E0,1E0,6E0,3.35E2,9.331474E-2,3.274332E-1,4.2428824E-1,3.21E2,3E0,2.8762481E0,5.971459E0,3.22E2,1.6067421E1,3.3E2,1.5765533E0,4.624038E0,7.7672844E0,7.8257537E0,1.9026564E1,1.0588741E1,3.921213E0,3.3857458E0,1.0164423E1,3.4745376E0,7.961572E0,3.2072163E0,6.3137536E0,3.23E2,1.8E1,5.55298E0,1.8989645E0,5.9788406E-1,8.684912E-1,3.36E2,8.165749E-1,1.5641545E-1,2.215209E-1,7.185315E0,1.1515315E1,5.6561475E0,1.3576986E0,4.468915E0,9.525111E0,3.27E2,6.483753E0,1.9E1,2E1,2.4664767E0,3.27E2,4.437492E-1,6.844149E-1,6.6734986E0,5E0,1.093686E0,3.19E2,3.25E2,5.493814E0,3.139249E-1,4E0,3.2178407E0,3.28E2,9.823207E-1,2.6822274E0,1.8E1,1.19813286E-1,1.8284134E0,9.3744546E-1,5.1710512E-2,7.305033E-1,4.1278663E0,3.24E2,7.232694E-1,2.3526714E0],"split_indices":[0,1,0,1,1,1,1,1,1,1,2,1,1,0,1,2,0,2,2,0,1,0,1,1,0,1,0,1,1,0,1,2,0,0,1,0,0,0,0,0,0,1,2,2,0,1,0,0,0,1,1,1,0,0,0,1,0,0,0,1,1,0,0,0,2,0,0,0,0,0,0,0,0,2,0,2,0,0,0,0,0,0,0,0,0,1,1,0,0,0,0,0,1,0,0,0,0,0,0,0,0,0,0,0,0,0,0,0,0,0,0,0,1,0,0,0,0,0,0,0,0,0,0,0,0,0,0,0,0,1,1,0,0,0,0,0,1,0,0,0,0,0,2,0,0,0,0,1,0,0,0,0,0,0,0,0,0],"split_type":[0,0,0,0,0,0,0,0,0,0,0,0,0,0,0,0,0,0,0,0,0,0,0,0,0,0,0,0,0,0,0,0,0,0,0,0,0,0,0,0,0,0,0,0,0,0,0,0,0,0,0,0,0,0,0,0,0,0,0,0,0,0,0,0,0,0,0,0,0,0,0,0,0,0,0,0,0,0,0,0,0,0,0,0,0,0,0,0,0,0,0,0,0,0,0,0,0,0,0,0,0,0,0,0,0,0,0,0,0,0,0,0,0,0,0,0,0,0,0,0,0,0,0,0,0,0,0,0,0,0,0,0,0,0,0,0,0,0,0,0,0,0,0,0,0,0,0,0,0,0,0,0,0,0,0,0,0],"sum_hessian":[9.04E2,3.27E2,5.77E2,1.93E2,1.34E2,5.6E1,5.21E2,1.37E2,5.6E1,1.03E2,3.1E1,1.7E1,3.9E1,3.1E2,2.11E2,5.6E1,8.1E1,2.8E1,2.8E1,1.7E1,8.6E1,3E0,2.8E1,1.4E1,3E0,2.2E1,1.7E1,8.3E1,2.27E2,5.1E1,1.6E2,4.7E1,9E0,4.4E1,3.7E1,2.3E1,5E0,2.2E1,6E0,9E0,8E0,7.2E1,1.4E1,1.4E1,1.4E1,9E0,5E0,5E0,1.7E1,5E1,3.3E1,1.94E2,3.3E1,1.7E1,3.4E1,9.2E1,6.8E1,1.6E1,3.1E1,1E1,3.4E1,1.8E1,1.9E1,1.1E1,1.2E1,2E0,3E0,1.1E1,1.1E1,3E0,6E0,2E0,6E0,1.4E1,5.8E1,1.1E1,3E0,1.1E1,3E0,3E0,6E0,1.6E1,3.4E1,1.6E1,1.7E1,9.9E1,9.5E1,5.9E1,3.3E1,3.4E1,3.4E1,2E1,1.1E1,5E0,5E0,2.4E1,1E1,1.5E1,3E0,9E0,1E1,3E0,8E0,9E0,3E0,8E0,3E0,3E0,3E0,1.1E1,3E0,3.3E1,2.5E1,6E0,5E0,3.3E1,6.6E1,6.2E1,3.3E1,2.6E1,3.3E1,9E0,1.1E1,9E0,2E0,3E0,2.1E1,1E1,5E0,1.8E1,1.5E1,1E1,1.5E1,3.4E1,2.8E1,3E0,7E0,8E0,1E1,1.2E1,3E0,2E0,1.3E1,2E0,5E0,2E0,8E0,1E1,2E0,6E0,7E0,3E0,2E0,5E0,5E0,2E0,3E0],"tree_param":{"num_deleted":"0","num_feature":"6","num_nodes":"157","size_leaf_vector":"1"}},{"base_weights":[1.5613744E1,3.5257145E1,4.4396095E0,4.4810276E1,2.126778E1,1.7077526E1,3.0511022E0,3.9478233E1,5.693328E1,1.5657194E1,3.1782673E1,9.353055E0,3.2910998E0,4.162203E0,1.4067465E0,3.4960102E1,4.9673656E1,6.760417E1,4.429918E1,3.0311222E1,1.1829391E1,3.7899685E1,2.5128395E1,1.6565303E0,1.0393755E0,6.8597636E0,3.1501093E0,2.539533E0,1.03214E0,4.454537E1,2.7416286E1,1.19592E1,3.867374E1,5.5742493E1,1.03783516E2,3.724514E1,1.2229655E1,3.5930546E1,2.0699615E1,1.7632496E1,1.0153526E1,4.0321794E0,1.0200387E1,1.906771E1,7.5978103E0,5.052125E-1,2.5493136E-1,5.9219055E0,8.064793E0,2.9233341E0,8.7161636E-1,6.2708604E-1,4.3210268E-1,6.471161E-1,1.5361267E0,5.4385975E1,3.639784E1,3.1876352E1,1.734834E1,1.3327235E1,4.534464E1,6.975173E1,3.8523003E1,8.445517E0,2.4800919E1,9.751542E0,2.783836E0,3.3326364E0,8.361506E0,-5.4115504E-1,2.7773409E1,1.9969624E1,1.2425984E0,1.1765468E1,7.655082E0,5.060426E0,1.0926521E1,1.4694709E0,1.0120696E0,1.8838338E0,1.2675232E0,3.1553414E0,2.6512084E0,7.899613E-1,7.520072E-2,2.638177E-1,3.4185514E-1,6.224453E1,6.853479E0,2.4470713E1,1.1241578E1,5.3981967E0,8.123838E0,1.3246448E1,4.1779876E0,3.5233428E0,6.3310343E-1,5.5955395E1,5.9391184E0,6.651892E0,1.5644066E1,4.6688514E0,9.639692E0,2.9533577E0,6.7673354E0,1.995636E0,2.2191418E1,8.0252075E0,1.5471684E1,1.0090132E1,5.5025434E0,8.7917024E-1,2.6194804E0,4.8182398E-1,6.9738525E-1,2.2642102E0,6.580634E-1,1.2629108E-1,1.7851989E-1,5.085852E0,1.3520045E1,5.515619E0,1.3400726E0,9.256053E0,3.7826447E0,5.760158E0,1.2946513E1,4.9004927E0,1.8803681E0,8.992524E-1,1.0182962E1,1.1857857E1,4.6697407E0,2.1822412E0,8.5270643E-1,2.7206802E-1,5.9971194E0,3.575352E-1,5.5225223E-1,1.3737559E1,4.3955993E-2,8.513443E-1,2.205387E0,1.3872233E1,1.0383835E-1,1.5149709E0,7.733923E-1,3.2387636E0,1.1766723E0,3.4398878E0,8.232988E0,6.2683386E-1,1.9997711E0],"categories":[],"categories_nodes":[],"categories_segments":[],"categories_sizes":[],"default_left":[0,0,0,0,0,0,0,0,0,0,0,0,0,0,0,0,0,0,0,0,0,0,0,0,0,0,0,0,0,0,0,0,0,0,0,0,0,0,0,0,0,0,0,0,0,0,0,0,0,0,0,0,0,0,0,0,0,0,0,0,0,0,0,0,0,0,0,0,0,0,0,0,0,0,0,0,0,0,0,0,0,0,0,0,0,0,0,0,0,0,0,0,0,0,0,0,0,0,0,0,0,0,0,0,0,0,0,0,0,0,0,0,0,0,0,0,0,0,0,0,0,0,0,0,0,0,0,0,0,0,0,0,0,0,0,0,0,0,0,0,0,0,0,0,0,0,0,0,0,0,0,0,0],"id":12,"left_children":[1,3,5,7,9,11,13,15,17,19,21,-1,23,25,27,29,31,33,35,37,39,41,43,45,-1,47,49,51,53,55,57,-1,59,61,63,65,-1,67,69,71,73,-1,-1,75,-1,-1,-1,77,79,81,-1,-1,-1,83,85,87,89,91,93,95,97,99,101,-1,-1,-1,-1,-1,-1,-1,103,105,-1,107,109,-1,111,-1,-1,-1,-1,113,115,117,-1,-1,-1,119,-1,121,-1,-1,-1,123,-1,-1,-1,125,-1,-1,-1,-1,-1,-1,-1,-1,127,129,131,133,135,-1,-1,-1,-1,137,-1,-1,-1,-1,-1,-1,-1,139,-1,-1,-1,-1,-1,-1,141,143,-1,-1,-1,-1,145,-1,-1,147,-1,-1,-1,149,-1,-1,-1,-1,-1,-1,151,-1,-1],"loss_changes":[1.9848919E5,4.2881625E4,1.0090543E4,1.0292625E4,7.46666E3,2.3175504E4,9.478618E2,4.6202656E3,4.6897656E3,4.689787E3,9.2003906E2,0E0,1.1599628E2,8.27478E2,8.734085E1,5.937367E3,2.1412578E3,6.6601406E3,1.1692969E3,2.2844336E2,5.309082E2,4.0849512E3,1.2242461E3,4.4173164E0,0E0,4.717334E1,4.9717773E1,4.970398E0,3.0247498E1,1.3878906E3,2.0514102E3,0E0,3.1155312E3,3.1025234E3,2.2319492E3,5.497791E3,0E0,4.3569434E2,1.5652327E3,2.7626172E2,1.4754785E2,0E0,0E0,6.878916E2,0E0,0E0,0E0,2.5453125E1,1.9839355E1,3.946045E0,0E0,0E0,0E0,3.3045921E0,3.3833313E-1,5.5479297E2,4.767754E3,5.6941406E2,1.3827637E1,2.057649E2,1.1611914E3,1.1068945E3,7.8403906E2,0E0,0E0,0E0,0E0,0E0,0E0,0E0,5.2379395E1,4.495703E1,0E0,3.4715186E2,8.075867E1,0E0,8.419873E1,0E0,0E0,0E0,0E0,1.6343079E1,1.6294067E1,4.1249084E-1,0E0,0E0,0E0,4.4985938E2,0E0,8.091621E2,0E0,0E0,0E0,9.629028E1,0E0,0E0,0E0,2.8071484E2,0E0,0E0,0E0,0E0,0E0,0E0,0E0,0E0,3.564746E1,9.889209E1,1.7859326E2,6.104492E0,2.4620026E1,0E0,0E0,0E0,0E0,9.986053E0,0E0,0E0,0E0,0E0,0E0,0E0,0E0,3.614458E2,0E0,0E0,0E0,0E0,0E0,0E0,8.078857E0,2.897218E2,0E0,0E0,0E0,0E0,1.7759888E1,0E0,0E0,2.047754E1,0E0,0E0,0E0,6.478955E1,0E0,0E0,0E0,0E0,0E0,0E0,2.2684906E1,0E0,0E0],"parents":[2147483647,0,0,1,1,2,2,3,3,4,4,5,5,6,6,7,7,8,8,9,9,10,10,12,12,13,13,14,14,15,15,16,16,17,17,18,18,19,19,20,20,21,21,22,22,23,23,25,25,26,26,27,27,28,28,29,29,30,30,32,32,33,33,34,34,35,35,37,37,38,38,39,39,40,40,43,43,47,47,48,48,49,49,53,53,54,54,55,55,56,56,57,57,58,58,59,59,60,60,61,61,62,62,70,70,71,71,73,73,74,74,76,76,81,81,82,82,83,83,87,87,89,89,93,93,97,97,106,106,107,107,108,108,109,109,110,110,115,115,123,123,130,130,131,131,136,136,139,139,143,143,150,150],"right_children":[2,4,6,8,10,12,14,16,18,20,22,-1,24,26,28,30,32,34,36,38,40,42,44,46,-1,48,50,52,54,56,58,-1,60,62,64,66,-1,68,70,72,74,-1,-1,76,-1,-1,-1,78,80,82,-1,-1,-1,84,86,88,90,92,94,96,98,100,102,-1,-1,-1,-1,-1,-1,-1,104,106,-1,108,110,-1,112,-1,-1,-1,-1,114,116,118,-1,-1,-1,120,-1,122,-1,-1,-1,124,-1,-1,-1,126,-1,-1,-1,-1,-1,-1,-1,-1,128,130,132,134,136,-1,-1,-1,-1,138,-1,-1,-1,-1,-1,-1,-1,140,-1,-1,-1,-1,-1,-1,142,144,-1,-1,-1,-1,146,-1,-1,148,-1,-1,-1,150,-1,-1,-1,-1,-1,-1,152,-1,-1],"split_conditions":[3.33E2,1.4E1,3.34E2,1E1,2.1E1,1.6E1,1.4E1,5E0,1.2E1,1.5E1,3.26E2,9.353055E0,2.1E1,3.35E2,1.7E1,2E0,5E0,5E0,3.3E2,3.25E2,1.6E1,3.22E2,2.3E1,1.8E1,1.0393755E0,8E0,9E0,3.35E2,2E1,4E0,3.27E2,1.19592E1,6E0,3.27E2,3.24E2,3.26E2,1.2229655E1,3.2E2,3.28E2,3.29E2,3.26E2,4.0321794E0,1.0200387E1,3E0,7.5978103E0,5.052125E-1,2.5493136E-1,3E0,1.1E1,4E0,8.7161636E-1,6.2708604E-1,4.3210268E-1,1.9E1,3.35E2,3.32E2,8E0,4E0,3.28E2,3.24E2,3.24E2,3.21E2,3.29E2,8.445517E0,2.4800919E1,9.751542E0,2.783836E0,3.3326364E0,8.361506E0,-5.4115504E-1,3.31E2,3.21E2,1.2425984E0,3.23E2,1.8E1,5.060426E0,2.2E1,1.4694709E0,1.0120696E0,1.8838338E0,1.2675232E0,1E0,6E0,3.35E2,7.520072E-2,2.638177E-1,3.4185514E-1,1E0,6.853479E0,3.32E2,1.1241578E1,5.3981967E0,8.123838E0,7E0,4.1779876E0,3.5233428E0,6.3310343E-1,7E0,5.9391184E0,6.651892E0,1.5644066E1,4.6688514E0,9.639692E0,2.9533577E0,6.7673354E0,1.995636E0,3.26E2,1.9E1,2E1,3.31E2,3.27E2,8.7917024E-1,2.6194804E0,4.8182398E-1,6.9738525E-1,3.36E2,6.580634E-1,1.2629108E-1,1.7851989E-1,5.085852E0,1.3520045E1,5.515619E0,1.3400726E0,4E0,3.7826447E0,5.760158E0,1.2946513E1,4.9004927E0,1.8803681E0,8.992524E-1,3.19E2,3.25E2,4.6697407E0,2.1822412E0,8.5270643E-1,2.7206802E-1,4E0,3.575352E-1,5.5225223E-1,1E0,4.3955993E-2,8.513443E-1,2.205387E0,1.8E1,1.0383835E-1,1.5149709E0,7.733923E-1,3.2387636E0,1.1766723E0,3.4398878E0,3.24E2,6.2683386E-1,1.9997711E0],"split_indices":[0,1,0,1,1,1,1,2,1,1,0,0,1,0,1,2,1,2,0,0,1,0,1,1,0,1,1,0,1,1,0,0,1,0,0,0,0,0,0,0,0,0,0,2,0,0,0,1,1,1,0,0,0,1,0,0,1,2,0,0,0,0,0,0,0,0,0,0,0,0,0,0,0,0,1,0,1,0,0,0,0,1,1,0,0,0,0,1,0,0,0,0,0,1,0,0,0,1,0,0,0,0,0,0,0,0,0,1,1,0,0,0,0,0,0,0,0,0,0,0,0,0,0,1,0,0,0,0,0,0,0,0,0,0,0,0,2,0,0,1,0,0,0,1,0,0,0,0,0,0,0,0,0],"split_type":[0,0,0,0,0,0,0,0,0,0,0,0,0,0,0,0,0,0,0,0,0,0,0,0,0,0,0,0,0,0,0,0,0,0,0,0,0,0,0,0,0,0,0,0,0,0,0,0,0,0,0,0,0,0,0,0,0,0,0,0,0,0,0,0,0,0,0,0,0,0,0,0,0,0,0,0,0,0,0,0,0,0,0,0,0,0,0,0,0,0,0,0,0,0,0,0,0,0,0,0,0,0,0,0,0,0,0,0,0,0,0,0,0,0,0,0,0,0,0,0,0,0,0,0,0,0,0,0,0,0,0,0,0,0,0,0,0,0,0,0,0,0,0,0,0,0,0,0,0,0,0,0,0],"sum_hessian":[9.04E2,3.27E2,5.77E2,1.93E2,1.34E2,5.6E1,5.21E2,1.37E2,5.6E1,8.9E1,4.5E1,1.7E1,3.9E1,3.1E2,2.11E2,9.8E1,3.9E1,2.8E1,2.8E1,1.7E1,7.2E1,2.1E1,2.4E1,2.2E1,1.7E1,8.3E1,2.27E2,5.1E1,1.6E2,4.1E1,5.7E1,1.8E1,2.1E1,2.3E1,5E0,2.2E1,6E0,9E0,8E0,1.4E1,5.8E1,1E1,1.1E1,1.8E1,6E0,5E0,1.7E1,5E1,3.3E1,1.94E2,3.3E1,1.7E1,3.4E1,9.2E1,6.8E1,1.6E1,2.5E1,3.8E1,1.9E1,5E0,1.6E1,1.1E1,1.2E1,2E0,3E0,1.4E1,8E0,3E0,6E0,2E0,6E0,1.1E1,3E0,3.3E1,2.5E1,9E0,9E0,1.6E1,3.4E1,1.6E1,1.7E1,9.9E1,9.5E1,5.9E1,3.3E1,3.4E1,3.4E1,1E1,6E0,1.7E1,8E0,2.7E1,1.1E1,1.1E1,8E0,3E0,2E0,8E0,8E0,3E0,8E0,6E0,6E0,3E0,3E0,3E0,8E0,1.8E1,1.5E1,1E1,1.5E1,3E0,6E0,3.3E1,6.6E1,6.2E1,3.3E1,2.6E1,3.3E1,2E0,8E0,1.4E1,3E0,8E0,3E0,3E0,5E0,6E0,2E0,8E0,1E1,1.2E1,3E0,8E0,2E0,2E0,1.3E1,3.4E1,2.8E1,5E0,3E0,2E0,8E0,1E1,2E0,6E0,7E0,3E0,2E0,5E0,5E0,2E0,3E0],"tree_param":{"num_deleted":"0","num_feature":"6","num_nodes":"153","size_leaf_vector":"1"}},{"base_weights":[1.283243E1,2.9079344E1,3.590527E0,3.609851E1,1.6281687E1,1.3857681E1,2.4625225E0,3.210651E1,4.5609936E1,9.8800955E0,2.6086784E1,3.793184E1,2.6778681E0,3.3595104E0,1.1350428E0,2.6777206E1,3.7507027E1,4.9407173E1,2.1683033E1,1.3101273E1,7.819417E0,3.9096733E1,2.3157873E1,4.096203E1,3.4171357E0,1.3582743E0,8.4304905E-1,5.554869E0,2.5359592E0,2.0519955E0,8.318342E-1,3.4327187E1,1.7959866E1,4.2282143E1,2.880402E1,4.143118E1,7.796562E1,6.8542495E0,2.2784383E0,9.96642E0,1.8263596E1,1.1457317E1,5.75611E0,1.0313024E1,3.3708332E0,1.7725517E1,3.10301E1,2.8012203E1,1.1143613E1,4.2101026E-1,2.0677781E-1,4.7861834E0,6.5445194E0,2.3527553E0,7.024203E-1,5.0863636E-1,3.4815142E-1,5.2177894E-1,1.2376792E0,5.2277107E1,5.713223E0,5.5855507E-1,1.8704227E1,4.7795873E0,4.621436E1,1.4680882E1,8.201378E0,1.1323089E1,3.732782E1,6.974344E0,1.8290554E1,2.2450378E0,1.073645E0,4.1087375E0,1.371104E0,7.9947286E0,3.96928E0,4.515544E0,7.4474254E0,1.5344985E1,5.3964396E0,2.97426E0,3.3830524E1,8.678301E0,3.0444582E0,1.0744432E0,6.8266684E-1,1.5292295E0,1.0281018E0,2.4860945E0,2.0671642E0,6.370489E-1,6.0602963E-2,2.1256185E-1,2.754374E-1,4.4077353E0,1.1553656E1,4.534533E0,1.2701791E1,5.135883E1,6.892341E0,3.9940357E0,3.4185765E0,4.405977E1,2.7212122E1,1.0577613E1,4.26974E0,3.3527222E-1,5.0849776E0,1.6563345E0,7.4170285E-1,3.823261E0,1.1555116E1,7.5274086E0,3.3616455E0,3.8829365E-1,5.3096884E-1,2.88071E-1,5.30322E-1,1.019683E-1,1.4386597E-1,3.7364196E-2,1.5370226E1,3.5798496E1,5.727111E1,-4.6900126E-1,1.377324E0,3.444161E1,1.0836362E1,1.4271199E1,3.7129475E1,2.2939947E0,5.2234536E-1,8.999303E-2,1.1415313E0,6.1624207E0,3.1025515E0,1.2257427E0,2.7777631E0,3.4982178E0,1.1390594E0,9.533649E0,1.8088486E0,5.6541047E0,1.2433076E1,8.283466E0,4.509131E0,9.14386E0,3.678882E0,9.072797E0,3.0990694E0,6.7243495E0,5.219607E-1,3.0054733E-1,8.653364E-1,2.3316422E0,5.4868776E-1,5.9472126E-1,1.4957993E0],"categories":[],"categories_nodes":[],"categories_segments":[],"categories_sizes":[],"default_left":[0,0,0,0,0,0,0,0,0,0,0,0,0,0,0,0,0,0,0,0,0,0,0,0,0,0,0,0,0,0,0,0,0,0,0,0,0,0,0,0,0,0,0,0,0,0,0,0,0,0,0,0,0,0,0,0,0,0,0,0,0,0,0,0,0,0,0,0,0,0,0,0,0,0,0,0,0,0,0,0,0,0,0,0,0,0,0,0,0,0,0,0,0,0,0,0,0,0,0,0,0,0,0,0,0,0,0,0,0,0,0,0,0,0,0,0,0,0,0,0,0,0,0,0,0,0,0,0,0,0,0,0,0,0,0,0,0,0,0,0,0,0,0,0,0,0,0,0,0,0,0,0,0,0,0,0,0,0,0],"id":13,"left_children":[1,3,5,7,9,11,13,15,17,19,21,23,25,27,29,31,33,35,37,39,41,43,45,47,-1,49,-1,51,53,55,57,59,61,63,65,67,69,-1,-1,71,73,75,77,-1,-1,79,81,83,-1,-1,-1,85,87,89,-1,-1,-1,91,93,95,-1,-1,97,-1,99,101,-1,-1,103,-1,-1,-1,-1,-1,-1,105,-1,107,109,111,-1,-1,113,-1,-1,-1,-1,-1,-1,115,117,119,-1,-1,-1,-1,-1,-1,121,123,-1,-1,125,127,129,131,133,-1,135,-1,-1,-1,137,-1,-1,-1,-1,-1,-1,-1,-1,-1,139,141,143,-1,-1,145,-1,147,149,-1,-1,-1,-1,151,153,-1,-1,-1,-1,-1,-1,-1,-1,-1,-1,155,-1,-1,-1,157,-1,-1,-1,-1,-1,-1,-1],"loss_changes":[1.357835E5,2.8876125E4,6.6599224E3,6.5472188E3,7.148908E3,1.5239667E4,6.1774976E2,3.3703594E3,4.3800625E3,3.821162E2,8.4743164E2,4.3715625E2,7.5423065E1,5.481975E2,5.7235016E1,4.7091484E3,1.8158281E3,8.386672E3,9.050083E2,2.5492139E2,2.8683716E2,1.0722148E3,1.1605664E3,1.3055352E3,0E0,3.3952103E0,0E0,3.257837E1,3.2510864E1,3.5224915E0,1.961354E1,2.8498984E3,3.8806543E2,2.148664E3,4.395924E3,5.0354688E2,2.6230195E3,0E0,0E0,4.971399E1,9.326538E1,3.061006E2,3.351294E1,0E0,0E0,1.5889014E2,1.7566895E2,1.3064805E3,0E0,0E0,0E0,2.2694092E1,1.3282471E1,2.286621E0,0E0,0E0,0E0,2.1521397E0,2.1961975E-1,2.2126367E2,0E0,0E0,5.9336816E2,0E0,4.066875E2,8.252754E2,0E0,0E0,1.252582E3,0E0,0E0,0E0,0E0,0E0,0E0,7.991211E1,0E0,2.5426971E1,6.717407E0,1.0784326E2,0E0,0E0,1.4493652E2,0E0,0E0,0E0,0E0,0E0,0E0,6.609558E0,2.1091553E1,2.61261E-1,0E0,0E0,0E0,0E0,0E0,0E0,5.648501E2,6.571484E1,0E0,0E0,1.3607928E2,8.1E1,1.6518926E3,1.9802673E1,3.5879387E1,0E0,1.7191925E1,0E0,0E0,0E0,9.21698E1,0E0,0E0,0E0,0E0,0E0,0E0,0E0,0E0,0E0,1.8765161E2,2.4269736E3,3.7160156E2,0E0,0E0,1.449961E2,0E0,2.2073975E1,9.003877E2,0E0,0E0,0E0,0E0,2.413971E0,9.165192E0,0E0,0E0,0E0,0E0,0E0,0E0,0E0,0E0,0E0,0E0,6.457382E1,0E0,0E0,0E0,4.0429688E-1,0E0,0E0,0E0,0E0,0E0,0E0,0E0],"parents":[2147483647,0,0,1,1,2,2,3,3,4,4,5,5,6,6,7,7,8,8,9,9,10,10,11,11,12,12,13,13,14,14,15,15,16,16,17,17,18,18,19,19,20,20,21,21,22,22,23,23,25,25,27,27,28,28,29,29,30,30,31,31,32,32,33,33,34,34,35,35,36,36,39,39,40,40,41,41,42,42,45,45,46,46,47,47,51,51,52,52,53,53,57,57,58,58,59,59,62,62,64,64,65,65,68,68,75,75,77,77,78,78,79,79,82,82,89,89,90,90,91,91,98,98,99,99,102,102,103,103,104,104,105,105,106,106,108,108,112,112,122,122,123,123,124,124,127,127,129,129,130,130,135,135,136,136,147,147,151,151],"right_children":[2,4,6,8,10,12,14,16,18,20,22,24,26,28,30,32,34,36,38,40,42,44,46,48,-1,50,-1,52,54,56,58,60,62,64,66,68,70,-1,-1,72,74,76,78,-1,-1,80,82,84,-1,-1,-1,86,88,90,-1,-1,-1,92,94,96,-1,-1,98,-1,100,102,-1,-1,104,-1,-1,-1,-1,-1,-1,106,-1,108,110,112,-1,-1,114,-1,-1,-1,-1,-1,-1,116,118,120,-1,-1,-1,-1,-1,-1,122,124,-1,-1,126,128,130,132,134,-1,136,-1,-1,-1,138,-1,-1,-1,-1,-1,-1,-1,-1,-1,140,142,144,-1,-1,146,-1,148,150,-1,-1,-1,-1,152,154,-1,-1,-1,-1,-1,-1,-1,-1,-1,-1,156,-1,-1,-1,158,-1,-1,-1,-1,-1,-1,-1],"split_conditions":[3.33E2,1.5E1,3.34E2,5E0,2.1E1,1.6E1,1.4E1,8E0,1.3E1,1.7E1,1E0,1.3E1,2.1E1,3.35E2,1.7E1,4E0,3.27E2,1.1E1,3.24E2,5E0,2E0,3.25E2,2.3E1,7E0,3.4171357E0,1.8E1,8.4304905E-1,8E0,9E0,3.35E2,2E1,1E0,3.2E2,3.2E2,3.29E2,2E0,3.23E2,6.8542495E0,2.2784383E0,3.29E2,3.24E2,2E1,2E1,1.0313024E1,3.3708332E0,6E0,3.2E2,2E0,1.1143613E1,4.2101026E-1,2.0677781E-1,5E0,1.1E1,5E0,7.024203E-1,5.0863636E-1,3.4815142E-1,1.9E1,3.35E2,1E0,5.713223E0,5.5855507E-1,3.27E2,4.7795873E0,1.2E1,1.2E1,8.201378E0,1.1323089E1,3.24E2,6.974344E0,1.8290554E1,2.2450378E0,1.073645E0,4.1087375E0,1.371104E0,1E0,3.96928E0,3E0,3.28E2,3E0,5.3964396E0,2.97426E0,3.29E2,8.678301E0,3.0444582E0,1.0744432E0,6.8266684E-1,1.5292295E0,1.0281018E0,1E0,6E0,3.35E2,6.0602963E-2,2.1256185E-1,2.754374E-1,4.4077353E0,1.1553656E1,4.534533E0,3.28E2,9E0,6.892341E0,3.9940357E0,3.28E2,7E0,3.3E2,3.25E2,1.9E1,3.3527222E-1,5E0,1.6563345E0,7.4170285E-1,3.823261E0,2.2E1,7.5274086E0,3.3616455E0,3.8829365E-1,5.3096884E-1,2.88071E-1,5.30322E-1,1.019683E-1,1.4386597E-1,3.7364196E-2,3.32E2,3.25E2,3.21E2,-4.6900126E-1,1.377324E0,5E0,1.0836362E1,6E0,7E0,2.2939947E0,5.2234536E-1,8.999303E-2,1.1415313E0,3.28E2,6E0,1.2257427E0,2.7777631E0,3.4982178E0,1.1390594E0,9.533649E0,1.8088486E0,5.6541047E0,1.2433076E1,8.283466E0,4.509131E0,3E0,3.678882E0,9.072797E0,3.0990694E0,3.21E2,5.219607E-1,3.0054733E-1,8.653364E-1,2.3316422E0,5.4868776E-1,5.9472126E-1,1.4957993E0],"split_indices":[0,1,0,2,1,1,1,1,1,1,2,1,1,0,1,1,0,1,0,2,2,0,1,1,0,1,0,1,1,0,1,2,0,0,0,1,0,0,0,0,0,1,1,0,0,2,0,1,0,0,0,1,1,1,0,0,0,1,0,1,0,0,0,0,1,1,0,0,0,0,0,0,0,0,0,2,0,2,0,2,0,0,0,0,0,0,0,0,0,1,1,0,0,0,0,0,0,0,0,1,0,0,0,1,0,0,1,0,2,0,0,0,1,0,0,0,0,0,0,0,0,0,0,0,0,0,0,1,0,1,1,0,0,0,0,0,2,0,0,0,0,0,0,0,0,0,0,1,0,0,0,0,0,0,0,0,0,0,0],"split_type":[0,0,0,0,0,0,0,0,0,0,0,0,0,0,0,0,0,0,0,0,0,0,0,0,0,0,0,0,0,0,0,0,0,0,0,0,0,0,0,0,0,0,0,0,0,0,0,0,0,0,0,0,0,0,0,0,0,0,0,0,0,0,0,0,0,0,0,0,0,0,0,0,0,0,0,0,0,0,0,0,0,0,0,0,0,0,0,0,0,0,0,0,0,0,0,0,0,0,0,0,0,0,0,0,0,0,0,0,0,0,0,0,0,0,0,0,0,0,0,0,0,0,0,0,0,0,0,0,0,0,0,0,0,0,0,0,0,0,0,0,0,0,0,0,0,0,0,0,0,0,0,0,0,0,0,0,0,0,0],"sum_hessian":[9.04E2,3.27E2,5.77E2,2.1E2,1.17E2,5.6E1,5.21E2,1.51E2,5.9E1,7.2E1,4.5E1,1.7E1,3.9E1,3.1E2,2.11E2,7.9E1,7.2E1,5E1,9E0,2.6E1,4.6E1,6E0,3.9E1,1.4E1,3E0,2.2E1,1.7E1,8.3E1,2.27E2,5.1E1,1.6E2,4.1E1,3.8E1,4.4E1,2.8E1,4.1E1,9E0,3E0,6E0,1.8E1,8E0,1.5E1,3.1E1,3E0,3E0,2.5E1,1.4E1,9E0,5E0,5E0,1.7E1,5E1,3.3E1,1.94E2,3.3E1,1.7E1,3.4E1,9.2E1,6.8E1,8E0,3.3E1,2E0,3.6E1,9E0,3.5E1,1.4E1,1.4E1,6E0,3.5E1,3E0,6E0,1.3E1,5E0,6E0,2E0,1.2E1,3E0,2E1,1.1E1,2.2E1,3E0,3E0,1.1E1,3E0,6E0,3.3E1,1.7E1,1.6E1,1.7E1,1.27E2,6.7E1,5.9E1,3.3E1,3.4E1,3.4E1,2E0,6E0,2E1,1.6E1,2.2E1,1.3E1,9E0,5E0,1.9E1,1.6E1,6E0,6E0,4E0,1.6E1,8E0,3E0,9E0,1.3E1,8E0,3E0,3.3E1,9.4E1,3.4E1,3.3E1,2.6E1,3.3E1,3E0,1.3E1,8E0,1.4E1,2E0,3E0,1.2E1,7E0,8E0,8E0,5E0,1E0,2E0,4E0,9E0,7E0,5E0,8E0,1E1,3E0,5E0,3E0,3E0,1.1E1,6E0,6E0,5E0,3E0,5E0,3E0,7E0,2E0,4E0,3E0,3E0,2E0,2E0,5E0],"tree_param":{"num_deleted":"0","num_feature":"6","num_nodes":"159","size_leaf_vector":"1"}},{"base_weights":[1.0568691E1,2.3988554E1,2.9349823E0,3.0391731E1,1.4609258E1,1.1573062E1,1.9861213E0,2.6536303E1,3.919274E1,1.1566927E1,2.404029E1,3.1805664E1,2.1790643E0,2.7093277E0,9.158226E-1,2.181479E1,3.2488583E1,4.1073746E1,1.9889317E1,2.0620052E1,9.560913E0,8.76607E0,2.0481653E1,3.429404E1,2.9045663E0,1.1139147E0,6.838059E-1,4.495259E0,2.03947E0,1.6580725E0,6.704014E-1,2.7977812E1,1.4618337E1,3.6661465E1,2.487557E1,3.442312E1,6.4899E1,5.8261123E0,1.1351486E0,2.434457E1,1.4190582E1,8.223629E0,1.5431637E1,1.3849559E1,2.5748302E1,2.3582031E1,9.286344E0,3.5084185E-1,1.6771983E-1,3.8634005E0,5.3108335E0,1.8911155E0,5.6606835E-1,4.1256055E-1,2.805104E-1,4.207181E-1,9.972151E-1,3.7721508E1,2.0530865E1,4.8408E-1,1.5212268E1,6.4212303E0,1.0817404E1,1.4397703E1,6.830726E0,8.094796E0,2.8198557E1,1.8337204E1,8.064169E0,2.115802E0,5.746562E0,-4.0646872E-1,3.8232079E0,1.2540104E1,6.9868364E0,1.1644594E1,4.5869713E0,3.0476418E0,1.2442436E0,2.5281188E0,2.7971848E1,7.3765535E0,2.5225499E0,9.906177E-1,6.4474815E-1,1.2413749E0,8.339052E-1,2.0574906E0,1.6981091E0,5.1373637E-1,4.8838824E-2,1.7126398E-1,2.219237E-1,8.668984E0,4.699186E0,4.856336E0,1.0748023E1,1.835405E1,1.0436405E1,3.2751122E0,1.1707261E0,8.9170685E0,3.2803314E1,8.982953E0,4.015306E0,6.01894E0,9.424736E0,2.8548098E0,5.634346E-1,6.1892037E0,2.8574007E0,3.1291887E-1,4.5538163E-1,1.4343555E0,4.273769E-1,8.232988E-2,1.1593912E-1,2.6531973E0,2.5802E-1,1.368382E1,2.212292E1,3.176117E-2,1.2627404E1,2.3184724E0,4.75531E-1,4.018138E1,4.0281725E0,1.9976043E0,8.951626E-1,7.455428E0,4.45137E0,3.3738873E0,6.157775E0,2.3210299E-1,3.4307846E-1,1.146663E0,3.1393907E0,5.0396094E0,2.2421434E0,2.862176E0,9.681992E-1,4.2197647E0,8.939998E0,5.3113735E-1,9.089351E0,5.681916E0,2.7473304E0,1.3618742E0,6.30448E-1,1.9498816E0,5.958603E-1,5.6598234E-1,6.6350393E0,1.4532356E0,9.9444216E-1,5.8562773E-1,1.4551697E0,7.799403E-2,1.7013158E0,4.5236588E-1,2.0494889E-1],"categories":[],"categories_nodes":[],"categories_segments":[],"categories_sizes":[],"default_left":[0,0,0,0,0,0,0,0,0,0,0,0,0,0,0,0,0,0,0,0,0,0,0,0,0,0,0,0,0,0,0,0,0,0,0,0,0,0,0,0,0,0,0,0,0,0,0,0,0,0,0,0,0,0,0,0,0,0,0,0,0,0,0,0,0,0,0,0,0,0,0,0,0,0,0,0,0,0,0,0,0,0,0,0,0,0,0,0,0,0,0,0,0,0,0,0,0,0,0,0,0,0,0,0,0,0,0,0,0,0,0,0,0,0,0,0,0,0,0,0,0,0,0,0,0,0,0,0,0,0,0,0,0,0,0,0,0,0,0,0,0,0,0,0,0,0,0,0,0,0,0,0,0,0,0,0,0,0,0,0,0],"id":14,"left_children":[1,3,5,7,9,11,13,15,17,19,21,23,25,27,29,31,33,35,37,39,41,-1,43,45,-1,47,-1,49,51,53,55,57,59,61,63,65,67,-1,-1,69,71,73,75,77,79,81,-1,-1,-1,83,85,87,-1,-1,-1,89,91,93,95,-1,97,-1,-1,99,-1,-1,101,-1,-1,-1,-1,-1,-1,103,105,107,-1,-1,-1,-1,109,-1,-1,-1,-1,-1,-1,111,113,115,-1,-1,-1,-1,-1,-1,117,119,121,-1,-1,123,125,127,-1,129,131,-1,-1,-1,-1,-1,-1,133,-1,-1,-1,-1,-1,135,137,-1,139,-1,-1,141,-1,-1,-1,143,145,-1,147,-1,-1,-1,-1,-1,-1,-1,-1,-1,-1,-1,149,151,153,-1,-1,-1,-1,-1,155,157,-1,-1,-1,-1,159,-1,-1],"loss_changes":[9.2640805E4,1.9254812E4,4.7144966E3,5.5427188E3,3.5953926E3,1.07644E4,4.015713E2,3.169586E3,1.2527266E3,1.6915654E3,1.3559043E3,2.7606445E2,4.9021423E1,3.628877E2,3.7507156E1,3.139164E3,9.6234375E2,5.8470703E3,7.5412036E2,8.557617E1,5.5611865E2,0E0,6.5633594E2,8.553281E2,0E0,2.5834312E0,0E0,2.2769531E1,2.139856E1,2.4844818E0,1.271804E1,2.2730977E3,2.4572461E2,1.1211172E3,1.8414072E3,4.4057812E2,2.8868984E3,0E0,0E0,3.0010107E2,7.579984E2,3.0210107E2,1.591582E2,6.4096436E1,8.360254E1,9.9380176E2,0E0,0E0,0E0,1.9580994E1,8.890686E0,2.7679443E0,0E0,0E0,0E0,1.4016056E0,1.4256287E-1,3.415078E2,6.930547E2,0E0,3.6362402E2,0E0,0E0,1.2383032E2,0E0,0E0,1.8383672E3,0E0,0E0,0E0,0E0,0E0,0E0,2.2177661E2,8.2491455E1,2.3832312E2,0E0,0E0,0E0,0E0,4.628711E1,0E0,0E0,0E0,0E0,0E0,0E0,7.2525635E0,8.044891E0,1.6538334E-1,0E0,0E0,0E0,0E0,0E0,0E0,1.972179E2,6.690527E1,3.8080432E2,0E0,0E0,7.74064E1,9.6577734E2,9.655151E0,0E0,6.81438E1,2.6094507E2,0E0,0E0,0E0,0E0,0E0,0E0,2.8576965E0,0E0,0E0,0E0,0E0,0E0,1.02069824E2,5.307617E1,0E0,1.1423633E2,0E0,0E0,5.375E0,0E0,0E0,0E0,1.4839441E2,3.4715515E1,0E0,2.0359497E0,0E0,0E0,0E0,0E0,0E0,0E0,0E0,0E0,0E0,0E0,0E0,3.54812E1,1.6561462E1,2.7324677E1,0E0,0E0,0E0,0E0,0E0,7.400513E-2,1.7105122E0,0E0,0E0,0E0,0E0,3.367958E-1,0E0,0E0],"parents":[2147483647,0,0,1,1,2,2,3,3,4,4,5,5,6,6,7,7,8,8,9,9,10,10,11,11,12,12,13,13,14,14,15,15,16,16,17,17,18,18,19,19,20,20,22,22,23,23,25,25,27,27,28,28,29,29,30,30,31,31,32,32,33,33,34,34,35,35,36,36,39,39,40,40,41,41,42,42,43,43,44,44,45,45,49,49,50,50,51,51,55,55,56,56,57,57,58,58,60,60,63,63,66,66,73,73,74,74,75,75,80,80,87,87,88,88,89,89,96,96,97,97,98,98,101,101,102,102,103,103,105,105,106,106,113,113,119,119,120,120,122,122,125,125,129,129,130,130,132,132,144,144,145,145,146,146,152,152,153,153,158,158],"right_children":[2,4,6,8,10,12,14,16,18,20,22,24,26,28,30,32,34,36,38,40,42,-1,44,46,-1,48,-1,50,52,54,56,58,60,62,64,66,68,-1,-1,70,72,74,76,78,80,82,-1,-1,-1,84,86,88,-1,-1,-1,90,92,94,96,-1,98,-1,-1,100,-1,-1,102,-1,-1,-1,-1,-1,-1,104,106,108,-1,-1,-1,-1,110,-1,-1,-1,-1,-1,-1,112,114,116,-1,-1,-1,-1,-1,-1,118,120,122,-1,-1,124,126,128,-1,130,132,-1,-1,-1,-1,-1,-1,134,-1,-1,-1,-1,-1,136,138,-1,140,-1,-1,142,-1,-1,-1,144,146,-1,148,-1,-1,-1,-1,-1,-1,-1,-1,-1,-1,-1,150,152,154,-1,-1,-1,-1,-1,156,158,-1,-1,-1,-1,160,-1,-1],"split_conditions":[3.33E2,1.4E1,3.34E2,5E0,2.2E1,1.6E1,1.4E1,8E0,1.3E1,1.5E1,1E0,1.3E1,2.1E1,3.35E2,1.7E1,4E0,3.27E2,1.1E1,3.24E2,3.25E2,2.1E1,8.76607E0,2.3E1,7E0,2.9045663E0,1.8E1,6.838059E-1,8E0,9E0,3.35E2,2E1,2E0,3.2E2,4E0,3.29E2,5E0,1.2E1,5.8261123E0,1.1351486E0,3.2E2,3.28E2,1.6E1,5E0,5E0,3.2E2,2E0,9.286344E0,3.5084185E-1,1.6771983E-1,3E0,1.1E1,4E0,5.6606835E-1,4.1256055E-1,2.805104E-1,1.9E1,3.35E2,3.32E2,3.27E2,4.8408E-1,3.27E2,6.4212303E0,1.0817404E1,1.2E1,6.830726E0,8.094796E0,6E0,1.8337204E1,8.064169E0,2.115802E0,5.746562E0,-4.0646872E-1,3.8232079E0,5E0,2E1,4E0,4.5869713E0,3.0476418E0,1.2442436E0,2.5281188E0,3.29E2,7.3765535E0,2.5225499E0,9.906177E-1,6.4474815E-1,1.2413749E0,8.339052E-1,1E0,6E0,3.35E2,4.8838824E-2,1.7126398E-1,2.219237E-1,8.668984E0,4.699186E0,4.856336E0,2E0,3.25E2,3.28E2,3.2751122E0,1.1707261E0,3.24E2,3.24E2,3.29E2,4.015306E0,1.8E1,2E0,2.8548098E0,5.634346E-1,6.1892037E0,2.8574007E0,3.1291887E-1,4.5538163E-1,3.36E2,4.273769E-1,8.232988E-2,1.1593912E-1,2.6531973E0,2.5802E-1,5E0,6E0,3.176117E-2,3.32E2,2.3184724E0,4.75531E-1,7E0,4.0281725E0,1.9976043E0,8.951626E-1,3.23E2,3.25E2,3.3738873E0,3.28E2,2.3210299E-1,3.4307846E-1,1.146663E0,3.1393907E0,5.0396094E0,2.2421434E0,2.862176E0,9.681992E-1,4.2197647E0,8.939998E0,5.3113735E-1,3.31E2,1.9E1,3.3E2,1.3618742E0,6.30448E-1,1.9498816E0,5.958603E-1,5.6598234E-1,3.19E2,3.26E2,9.9444216E-1,5.8562773E-1,1.4551697E0,7.799403E-2,1.9E1,4.5236588E-1,2.0494889E-1],"split_indices":[0,1,0,2,1,1,1,1,1,1,2,1,1,0,1,1,0,1,0,0,1,0,1,1,0,1,0,1,1,0,1,2,0,2,0,1,1,0,0,0,0,1,2,2,0,1,0,0,0,1,1,1,0,0,0,1,0,0,0,0,0,0,0,1,0,0,1,0,0,0,0,0,0,2,1,2,0,0,0,0,0,0,0,0,0,0,0,1,1,0,0,0,0,0,0,0,1,0,0,0,0,0,0,0,0,1,2,0,0,0,0,0,0,0,0,0,0,0,0,1,1,0,0,0,0,1,0,0,0,0,0,0,0,0,0,0,0,0,0,0,0,0,0,0,0,1,0,0,0,0,0,0,0,0,0,0,0,0,1,0,0],"split_type":[0,0,0,0,0,0,0,0,0,0,0,0,0,0,0,0,0,0,0,0,0,0,0,0,0,0,0,0,0,0,0,0,0,0,0,0,0,0,0,0,0,0,0,0,0,0,0,0,0,0,0,0,0,0,0,0,0,0,0,0,0,0,0,0,0,0,0,0,0,0,0,0,0,0,0,0,0,0,0,0,0,0,0,0,0,0,0,0,0,0,0,0,0,0,0,0,0,0,0,0,0,0,0,0,0,0,0,0,0,0,0,0,0,0,0,0,0,0,0,0,0,0,0,0,0,0,0,0,0,0,0,0,0,0,0,0,0,0,0,0,0,0,0,0,0,0,0,0,0,0,0,0,0,0,0,0,0,0,0,0,0],"sum_hessian":[9.04E2,3.27E2,5.77E2,1.93E2,1.34E2,5.6E1,5.21E2,1.37E2,5.6E1,1.03E2,3.1E1,1.7E1,3.9E1,3.1E2,2.11E2,7.9E1,5.8E1,5E1,6E0,1.7E1,8.6E1,3E0,2.8E1,1.4E1,3E0,2.2E1,1.7E1,8.3E1,2.27E2,5.1E1,1.6E2,4.1E1,3.8E1,3.5E1,2.3E1,4.1E1,9E0,3E0,3E0,9E0,8E0,7.2E1,1.4E1,1.4E1,1.4E1,9E0,5E0,5E0,1.7E1,5E1,3.3E1,1.94E2,3.3E1,1.7E1,3.4E1,9.2E1,6.8E1,1.6E1,2.5E1,2E0,3.6E1,3E1,5E0,1.2E1,1.1E1,1.8E1,2.3E1,3E0,6E0,3E0,6E0,2E0,6E0,1.4E1,5.8E1,1.1E1,3E0,1.1E1,3E0,3E0,1.1E1,3E0,6E0,1.6E1,3.4E1,1.6E1,1.7E1,9.9E1,9.5E1,5.9E1,3.3E1,3.4E1,3.4E1,1E1,6E0,1.7E1,8E0,2E1,1.6E1,9E0,3E0,5E0,1.8E1,1.1E1,3E0,4.4E1,1.4E1,8E0,3E0,8E0,3E0,3.3E1,6.6E1,6.2E1,3.3E1,2.6E1,3.3E1,6E0,2E0,1.1E1,9E0,3E0,1.3E1,3E0,2E0,1E1,8E0,8E0,3E0,2.1E1,2.3E1,3E0,1.1E1,3.4E1,2.8E1,3E0,8E0,6E0,3E0,1E1,3E0,3E0,7E0,6E0,1.5E1,1.2E1,1.1E1,8E0,3E0,1.3E1,2E0,4E0,8E0,8E0,3E0,2E0,6E0,2E0,6E0,2E0,4E0],"tree_param":{"num_deleted":"0","num_feature":"6","num_nodes":"161","size_leaf_vector":"1"}},{"base_weights":[8.699465E0,1.977197E1,2.4010544E0,2.496805E1,1.2158553E1,9.6670885E0,1.603037E0,2.1655935E1,3.2548813E1,9.628274E0,2.0002007E1,2.6671759E1,1.7733103E0,2.1869082E0,7.3894763E-1,1.8929945E1,2.7861362E1,3.9819855E1,2.4155403E1,1.7122662E1,7.9670415E0,7.451158E0,1.693245E1,2.871427E1,2.4688804E0,9.136785E-1,5.546423E-1,3.6403832E0,1.6418257E0,1.3397869E0,5.40298E-1,2.5163397E1,1.4089688E1,7.9943156E0,2.4548632E1,3.220018E1,6.3661907E1,2.0085787E1,6.815246E0,2.02619E1,1.17321E1,6.8485985E0,1.2878994E1,1.1365778E1,2.1370293E1,1.9855534E1,7.738624E0,2.9236814E-1,1.360396E-1,3.1227891E0,4.309705E0,1.5219735E0,4.5618477E-1,3.3463264E-1,2.2601132E-1,3.3923167E-1,8.0347E-1,3.0963554E1,2.0403164E1,1.649144E1,8.701787E0,2.9310158E1,1.8062979E1,4.097198E1,2.1626198E1,4.682601E0,1.5586621E1,5.493972E0,1.337675E1,2.4862235E0,5.7800593E0,-3.5227355E-1,1.5839E1,1.0492623E1,5.8060737E0,9.600534E0,3.898925E0,2.4889083E0,1.0576088E0,2.148903E0,2.3131361E1,6.27007E0,2.0901124E0,8.041488E-1,5.1948345E-1,1.007705E0,6.763893E-1,1.6536741E0,1.3689315E0,4.1429365E-1,3.935839E-2,1.379897E-1,1.7880706E-1,3.5464005E1,3.8936105E0,1.3835307E1,6.254372E0,1.3294261E1,4.5154476E0,6.3626227E0,2.1707616E0,4.6584916E0,7.4926963E0,7.9990945E0,2.6119865E1,3.842807E0,4.6089737E1,5.005874E0,1.5423431E0,4.2928233E0,1.2997736E0,1.5951042E0,3.948546E0,7.427428E0,3.4130104E0,7.7621937E0,4.8294964E0,2.627506E0,7.7479E-1,5.473109E0,2.8672507E0,2.5217566E-1,3.6566433E-1,1.156615E0,3.4441572E-1,6.6473775E-2,9.343328E-2,2.6641724E0,7.780922E0,3.1010153E0,8.229691E-1,3.056723E0,1.0285653E0,3.761539E0,2.124881E0,7.1784973E-1,2.522818E0,6.4826393E0,2.0299804E0,3.2913043E0,1.0441088E1,1.6424745E0,7.6088905E-1,5.4908934E0,2.8678043E0,7.098659E0,3.89855E0,1.87009E-1,2.768288E-1,1.4979843E0,6.490275E-1,7.5416107E0,3.2857916E0,6.1993563E-1,1.5285826E0,3.0307934E0,5.0922446E0,2.2361653E-1,2.699585E-2,1.6361536E0,3.706665E-1,1.7254174E0,8.378016E-1,2.2274171E-1,3.41636E0,1.2734684E0,6.543683E-1,5.0754446E-1,6.7594655E-2,8.321981E-1,2.058527E0,1.9357316E-1,5.814444E-1],"categories":[],"categories_nodes":[],"categories_segments":[],"categories_sizes":[],"default_left":[0,0,0,0,0,0,0,0,0,0,0,0,0,0,0,0,0,0,0,0,0,0,0,0,0,0,0,0,0,0,0,0,0,0,0,0,0,0,0,0,0,0,0,0,0,0,0,0,0,0,0,0,0,0,0,0,0,0,0,0,0,0,0,0,0,0,0,0,0,0,0,0,0,0,0,0,0,0,0,0,0,0,0,0,0,0,0,0,0,0,0,0,0,0,0,0,0,0,0,0,0,0,0,0,0,0,0,0,0,0,0,0,0,0,0,0,0,0,0,0,0,0,0,0,0,0,0,0,0,0,0,0,0,0,0,0,0,0,0,0,0,0,0,0,0,0,0,0,0,0,0,0,0,0,0,0,0,0,0,0,0,0,0,0,0,0,0,0,0,0,0,0,0],"id":15,"left_children":[1,3,5,7,9,11,13,15,17,19,21,23,25,27,29,31,33,35,37,39,41,-1,43,45,-1,47,-1,49,51,53,55,57,59,-1,61,63,65,67,-1,69,71,73,75,77,79,81,-1,-1,-1,83,85,87,-1,-1,-1,89,91,93,95,97,99,101,103,105,107,-1,-1,-1,109,-1,-1,-1,111,113,115,117,-1,-1,-1,-1,119,-1,-1,-1,-1,-1,-1,121,123,125,-1,-1,-1,127,-1,129,-1,131,-1,133,-1,-1,-1,135,137,-1,139,-1,-1,-1,-1,-1,-1,141,-1,143,145,-1,-1,-1,-1,-1,-1,147,-1,-1,-1,-1,-1,-1,-1,-1,-1,149,-1,-1,-1,-1,-1,-1,-1,-1,-1,151,-1,153,155,-1,-1,-1,157,159,161,-1,-1,163,165,-1,-1,-1,-1,167,-1,-1,169,-1,-1,-1,-1,-1,171,-1,-1],"loss_changes":[6.3066492E4,1.2672086E4,3.335991E3,4.1661406E3,2.4866426E3,7.603875E3,2.6174182E2,1.8069883E3,2.5167773E3,1.158374E3,1.0639355E3,1.7228809E2,3.1848038E1,2.4041724E2,2.4579704E1,2.6324336E3,6.234668E2,3.2184688E3,4.8639648E2,6.688623E1,3.8975244E2,0E0,4.7352637E2,5.5772754E2,0E0,1.9493198E0,0E0,1.5642456E1,1.3992676E1,1.7450256E0,8.246754E0,5.2786914E2,6.0703906E2,0E0,5.205449E2,1.34E3,1.621752E3,7.719629E2,0E0,3.1719043E2,5.2664514E2,2.1640503E2,1.3817725E2,3.2539185E1,3.215576E1,7.5345557E2,0E0,0E0,0E0,1.3616211E1,5.949768E0,1.6665955E0,0E0,0E0,0E0,9.128084E-1,9.2559814E-2,1.8908105E2,1.4233291E3,4.5869043E2,3.1619873E1,1.0540039E1,1.1694854E3,4.5065234E2,4.225752E2,0E0,0E0,0E0,6.392427E2,0E0,0E0,0E0,5.74198E1,1.7543713E2,7.522034E1,1.921648E2,0E0,0E0,0E0,0E0,5.4561523E1,0E0,0E0,0E0,0E0,0E0,0E0,4.5548096E0,5.206192E0,1.04623795E-1,0E0,0E0,0E0,3.197998E2,0E0,2.2835547E2,0E0,3.7544922E2,0E0,9.305893E1,0E0,0E0,0E0,1.378877E2,5.7554736E2,0E0,7.7193164E2,0E0,0E0,0E0,0E0,0E0,0E0,2.8825073E0,0E0,1.9014905E2,6.1049194E1,0E0,0E0,0E0,0E0,0E0,0E0,1.8818207E0,0E0,0E0,0E0,0E0,0E0,0E0,0E0,0E0,0E0,9.958054E1,0E0,0E0,0E0,0E0,0E0,0E0,0E0,0E0,0E0,4.3050476E1,0E0,2.5048828E-1,1.7713226E1,0E0,0E0,0E0,1.2957842E0,1.0288239E1,5.4564056E0,0E0,0E0,1.1717606E1,7.0213623E0,0E0,0E0,0E0,0E0,4.7774563E0,0E0,0E0,8.622925E0,0E0,0E0,0E0,0E0,0E0,4.5913086E0,0E0,0E0],"parents":[2147483647,0,0,1,1,2,2,3,3,4,4,5,5,6,6,7,7,8,8,9,9,10,10,11,11,12,12,13,13,14,14,15,15,16,16,17,17,18,18,19,19,20,20,22,22,23,23,25,25,27,27,28,28,29,29,30,30,31,31,32,32,34,34,35,35,36,36,37,37,39,39,40,40,41,41,42,42,43,43,44,44,45,45,49,49,50,50,51,51,55,55,56,56,57,57,58,58,59,59,60,60,61,61,62,62,63,63,64,64,68,68,72,72,73,73,74,74,75,75,80,80,87,87,88,88,89,89,93,93,95,95,97,97,99,99,103,103,104,104,106,106,113,113,115,115,116,116,123,123,133,133,143,143,145,145,146,146,150,150,151,151,152,152,155,155,156,156,161,161,164,164,170,170],"right_children":[2,4,6,8,10,12,14,16,18,20,22,24,26,28,30,32,34,36,38,40,42,-1,44,46,-1,48,-1,50,52,54,56,58,60,-1,62,64,66,68,-1,70,72,74,76,78,80,82,-1,-1,-1,84,86,88,-1,-1,-1,90,92,94,96,98,100,102,104,106,108,-1,-1,-1,110,-1,-1,-1,112,114,116,118,-1,-1,-1,-1,120,-1,-1,-1,-1,-1,-1,122,124,126,-1,-1,-1,128,-1,130,-1,132,-1,134,-1,-1,-1,136,138,-1,140,-1,-1,-1,-1,-1,-1,142,-1,144,146,-1,-1,-1,-1,-1,-1,148,-1,-1,-1,-1,-1,-1,-1,-1,-1,150,-1,-1,-1,-1,-1,-1,-1,-1,-1,152,-1,154,156,-1,-1,-1,158,160,162,-1,-1,164,166,-1,-1,-1,-1,168,-1,-1,170,-1,-1,-1,-1,-1,172,-1,-1],"split_conditions":[3.33E2,1.4E1,3.34E2,1E1,2.2E1,1.6E1,1.4E1,5E0,1.2E1,1.5E1,1E0,1.3E1,2.1E1,3.35E2,1.7E1,2E0,2E0,5E0,6E0,3.25E2,2.1E1,7.451158E0,2.3E1,7E0,2.4688804E0,1.8E1,5.546423E-1,8E0,9E0,3.35E2,2E1,4E0,3.27E2,7.9943156E0,3.24E2,3.27E2,3.24E2,3.23E2,6.815246E0,3E0,3.28E2,1.6E1,5E0,5E0,3.2E2,2E0,7.738624E0,2.9236814E-1,1.360396E-1,3E0,1.1E1,4E0,4.5618477E-1,3.3463264E-1,2.2601132E-1,1.9E1,3.35E2,3.32E2,8E0,4E0,3.28E2,7E0,3.3E2,3.21E2,4E0,4.682601E0,1.5586621E1,5.493972E0,2E0,2.4862235E0,5.7800593E0,-3.5227355E-1,3.31E2,5E0,2E0,3E0,3.898925E0,2.4889083E0,1.0576088E0,2.148903E0,5E0,6.27007E0,2.0901124E0,8.041488E-1,5.1948345E-1,1.007705E0,6.763893E-1,1E0,6E0,3.35E2,3.935839E-2,1.379897E-1,1.7880706E-1,1E0,3.8936105E0,3.32E2,6.254372E0,8E0,4.5154476E0,7E0,2.1707616E0,4.6584916E0,7.4926963E0,6E0,7E0,3.842807E0,1E0,5.005874E0,1.5423431E0,4.2928233E0,1.2997736E0,1.5951042E0,3.948546E0,3.29E2,3.4130104E0,2E1,1.7E1,2.627506E0,7.7479E-1,5.473109E0,2.8672507E0,2.5217566E-1,3.6566433E-1,3.36E2,3.4441572E-1,6.6473775E-2,9.343328E-2,2.6641724E0,7.780922E0,3.1010153E0,8.229691E-1,3.056723E0,1.0285653E0,1E0,2.124881E0,7.1784973E-1,2.522818E0,6.4826393E0,2.0299804E0,3.2913043E0,1.0441088E1,1.6424745E0,7.6088905E-1,1E0,2.8678043E0,3.22E2,2E1,1.87009E-1,2.768288E-1,1.4979843E0,4E0,3.25E2,3.26E2,6.1993563E-1,1.5285826E0,3E0,3.23E2,2.2361653E-1,2.699585E-2,1.6361536E0,3.706665E-1,3.19E2,8.378016E-1,2.2274171E-1,5E0,1.2734684E0,6.543683E-1,5.0754446E-1,6.7594655E-2,8.321981E-1,6E0,1.9357316E-1,5.814444E-1],"split_indices":[0,1,0,1,1,1,1,2,1,1,2,1,1,0,1,2,1,2,2,0,1,0,1,1,0,1,0,1,1,0,1,1,0,0,0,0,0,0,0,2,0,1,2,2,0,1,0,0,0,1,1,1,0,0,0,1,0,0,1,2,0,1,0,0,2,0,0,0,2,0,0,0,0,2,2,2,0,0,0,0,2,0,0,0,0,0,0,1,1,0,0,0,0,1,0,0,0,1,0,1,0,0,0,1,1,0,2,0,0,0,0,0,0,0,0,1,1,0,0,0,0,0,0,0,0,0,0,0,0,0,0,0,0,1,0,0,0,0,0,0,0,0,0,2,0,0,1,0,0,0,1,0,0,0,0,2,0,0,0,0,0,0,0,0,2,0,0,0,0,0,2,0,0],"split_type":[0,0,0,0,0,0,0,0,0,0,0,0,0,0,0,0,0,0,0,0,0,0,0,0,0,0,0,0,0,0,0,0,0,0,0,0,0,0,0,0,0,0,0,0,0,0,0,0,0,0,0,0,0,0,0,0,0,0,0,0,0,0,0,0,0,0,0,0,0,0,0,0,0,0,0,0,0,0,0,0,0,0,0,0,0,0,0,0,0,0,0,0,0,0,0,0,0,0,0,0,0,0,0,0,0,